{
  "defaults": {},
  "inputs": [
    {
      "name": "DNNinput_wtag__channel",
      "offset": 3.0,
      "scale": 0.16666666666666666
    },
    {
      "name": "DNNinput_wtag__year",
      "offset": 3.0,
      "scale": 0.16666666666666666
    },
    {
      "name": "DNNinput_wtag__met_pt",
      "offset": -0.0,
      "scale": 0.0005
    },
    {
      "name": "DNNinput_wtag__met_phi",
      "offset": 4.0,
      "scale": 0.125
    },
    {
      "name": "DNNinput_wtag__lepton_pt",
      "offset": -0.0,
      "scale": 0.0005
    },
    {
      "name": "DNNinput_wtag__lepton_eta",
      "offset": 5.0,
      "scale": 0.1
    },
    {
      "name": "DNNinput_wtag__lepton_phi",
      "offset": 4.0,
      "scale": 0.125
    },
    {
      "name": "DNNinput_wtag__lepton_charge",
      "offset": 1.0,
      "scale": 0.5
    },
    {
      "name": "DNNinput_wtag__lepton_dr_nextjet",
      "offset": -0.0,
      "scale": 0.16666666666666666
    },
    {
      "name": "DNNinput_wtag__lepton_dphi_nextjet",
      "offset": -0.0,
      "scale": 0.25
    },
    {
      "name": "DNNinput_wtag__lepton_deta_nextjet",
      "offset": -0.0,
      "scale": 0.16666666666666666
    },
    {
      "name": "DNNinput_wtag__lepton_ptrel_nextjet",
      "offset": -0.0,
      "scale": 0.00125
    },
    {
      "name": "DNNinput_wtag__lepton_dr_nextxjet",
      "offset": -0.0,
      "scale": 0.16666666666666666
    },
    {
      "name": "DNNinput_wtag__lepton_dphi_nextxjet",
      "offset": -0.0,
      "scale": 0.25
    },
    {
      "name": "DNNinput_wtag__lepton_deta_nextxjet",
      "offset": -0.0,
      "scale": 0.16666666666666666
    },
    {
      "name": "DNNinput_wtag__lepton_ptrel_nextxjet",
      "offset": -0.0,
      "scale": 0.00125
    },
    {
      "name": "DNNinput_wtag__dphi_lepton_met",
      "offset": -0.0,
      "scale": 0.25
    },
    {
      "name": "DNNinput_wtag__mtw",
      "offset": -0.0,
      "scale": 0.002
    },
    {
      "name": "DNNinput_wtag__pseudotop_m",
      "offset": -0.0,
      "scale": 0.00125
    },
    {
      "name": "DNNinput_wtag__wjet_pt",
      "offset": -0.0,
      "scale": 0.001
    },
    {
      "name": "DNNinput_wtag__wjet_eta",
      "offset": 5.0,
      "scale": 0.1
    },
    {
      "name": "DNNinput_wtag__wjet_phi",
      "offset": 4.0,
      "scale": 0.125
    },
    {
      "name": "DNNinput_wtag__dr_wjet_lepton",
      "offset": -0.0,
      "scale": 0.16666666666666666
    },
    {
      "name": "DNNinput_wtag__dphi_wjet_met",
      "offset": -0.0,
      "scale": 0.25
    },
    {
      "name": "DNNinput_wtag__ptbal_wjet_wboson",
      "offset": 2.0,
      "scale": 0.25
    },
    {
      "name": "DNNinput_wtag__ptbal_wjet_pseudotop",
      "offset": 2.0,
      "scale": 0.25
    },
    {
      "name": "DNNinput_wtag__n_xjets",
      "offset": -0.0,
      "scale": 0.1
    },
    {
      "name": "DNNinput_wtag__ht_xjets",
      "offset": -0.0,
      "scale": 0.001
    },
    {
      "name": "DNNinput_wtag__xjet1pt_pt",
      "offset": -0.0,
      "scale": 0.002
    },
    {
      "name": "DNNinput_wtag__xjet1pt_eta",
      "offset": 5.0,
      "scale": 0.1
    },
    {
      "name": "DNNinput_wtag__xjet1pt_phi",
      "offset": 4.0,
      "scale": 0.125
    },
    {
      "name": "DNNinput_wtag__xjet1pt_deepjet",
      "offset": -0.0,
      "scale": 1.0
    },
    {
      "name": "DNNinput_wtag__mass_xjet1pt_lepton",
      "offset": -0.0,
      "scale": 0.002
    },
    {
      "name": "DNNinput_wtag__dr_xjet1pt_lepton",
      "offset": -0.0,
      "scale": 0.16666666666666666
    },
    {
      "name": "DNNinput_wtag__dr_xjet1pt_wjet",
      "offset": -0.0,
      "scale": 0.16666666666666666
    },
    {
      "name": "DNNinput_wtag__xjet1dj_pt",
      "offset": -0.0,
      "scale": 0.002
    },
    {
      "name": "DNNinput_wtag__xjet1dj_eta",
      "offset": 5.0,
      "scale": 0.1
    },
    {
      "name": "DNNinput_wtag__xjet1dj_phi",
      "offset": 4.0,
      "scale": 0.125
    },
    {
      "name": "DNNinput_wtag__xjet1dj_deepjet",
      "offset": -0.0,
      "scale": 1.0
    },
    {
      "name": "DNNinput_wtag__mass_xjet1dj_lepton",
      "offset": -0.0,
      "scale": 0.002
    },
    {
      "name": "DNNinput_wtag__dr_xjet1dj_lepton",
      "offset": -0.0,
      "scale": 0.16666666666666666
    },
    {
      "name": "DNNinput_wtag__dr_xjet1dj_wjet",
      "offset": -0.0,
      "scale": 0.16666666666666666
    },
    {
      "name": "DNNinput_wtag__ijet1dj_deepjet",
      "offset": -0.0,
      "scale": 1.0
    },
    {
      "name": "DNNinput_wtag__dr_wjet_xjet",
      "offset": -0.0,
      "scale": 0.16666666666666666
    },
    {
      "name": "DNNinput_wtag__wnearestxjet_pt",
      "offset": -0.0,
      "scale": 0.002
    },
    {
      "name": "DNNinput_wtag__wnearestxjet_eta",
      "offset": 5.0,
      "scale": 0.1
    },
    {
      "name": "DNNinput_wtag__wnearestxjet_phi",
      "offset": 4.0,
      "scale": 0.125
    },
    {
      "name": "DNNinput_wtag__wnearestxjet_deepjet",
      "offset": -0.0,
      "scale": 1.0
    }
  ],
  "layers": [
    {
      "activation": "rectified",
      "architecture": "dense",
      "bias": [
        0.006429749075323343,
        0.027370842173695564,
        0.02265334129333496,
        -0.013972590677440166,
        -0.004997685551643372,
        -0.04289683699607849,
        0.007104307413101196,
        0.02391258254647255,
        -0.004288183990865946,
        0.011268901638686657,
        0.005880638025701046,
        0.004966151900589466,
        0.012344983406364918,
        0.017214298248291016,
        0.003253291128203273,
        -0.0022128087002784014,
        0.02291320264339447,
        0.023739993572235107,
        0.010642684064805508,
        0.004975738003849983,
        0.04457706958055496,
        -0.002622049767524004,
        -0.0037107488606125116,
        0.013412466272711754,
        0.01410195417702198,
        7.96787571744062e-05,
        0.009826156310737133,
        0.024228166788816452,
        0.03506169840693474,
        -0.0070988270454108715,
        0.014938242733478546,
        -0.002034861594438553,
        -0.0070205978117883205,
        -0.0006417615804821253,
        0.026677589863538742,
        0.022035975009202957,
        0.012417920865118504,
        -0.00041956425411626697,
        0.03811436891555786,
        0.010490592569112778,
        0.004410319030284882,
        0.011872382834553719,
        -0.005940272472798824,
        -0.032786257565021515,
        0.034170471131801605,
        0.010378981940448284,
        -0.0077659739181399345,
        0.016077833250164986,
        0.025082658976316452,
        0.033468205481767654,
        0.04540472850203514,
        0.008274832740426064,
        0.014499020762741566,
        0.018691405653953552,
        0.0026788872200995684,
        0.00035165942972525954,
        0.02204376459121704,
        -0.006214366760104895,
        0.015869146212935448,
        0.03323248773813248,
        0.029664143919944763,
        0.0018875418463721871,
        0.030880728736519814,
        0.004942947532981634,
        -0.004410454537719488,
        -0.000410916400142014,
        0.028519926592707634,
        0.022958630695939064,
        -0.0034686075523495674,
        -0.014237268827855587,
        -0.004993353504687548,
        -0.010869467630982399,
        0.019339678809046745,
        0.0031687449663877487,
        -0.00021476225811056793,
        0.003873874433338642,
        0.008472421206533909,
        -0.00479072006419301,
        0.03768513351678848,
        0.004047295078635216,
        0.009941637516021729,
        -0.011780621483922005,
        0.016000619158148766,
        0.01519071776419878,
        0.01781374402344227,
        0.003846746403723955,
        0.00925524067133665,
        -0.0013454868458211422,
        0.008748105727136135,
        0.001116776722483337,
        -0.0023630664218217134,
        0.022411352023482323,
        0.0359128937125206,
        0.023890383541584015,
        0.009938600473105907,
        0.0026007737033069134,
        -0.008145486935973167,
        0.021157583221793175,
        0.017213447019457817,
        0.0012794587528333068,
        0.016743363812565804,
        0.011165899224579334,
        0.026149744167923927,
        0.02064179815351963,
        0.011452770791947842,
        0.0013798298314213753,
        0.010794999077916145,
        -0.008115798234939575,
        0.024332931265234947,
        -0.0073549095541238785,
        0.019657911732792854,
        0.02258952148258686,
        0.030415931716561317,
        0.009532989002764225,
        -0.012462517246603966,
        0.004827996715903282,
        0.004095228388905525,
        0.004352179821580648,
        0.03085695579648018,
        0.0011505705770105124,
        0.026716578751802444,
        0.01736610010266304,
        0.0003867052146233618,
        0.006458732299506664,
        0.005264260806143284,
        0.004338287282735109,
        -0.01341375894844532,
        0.017572643235325813
      ],
      "weights": [
        0.14260682463645935,
        -0.1199943795800209,
        -0.1306942105293274,
        0.03317497298121452,
        -0.030919114127755165,
        0.11345238238573074,
        -0.13916945457458496,
        0.013624335639178753,
        -0.14276935160160065,
        0.08860541135072708,
        -0.1521131843328476,
        0.014176839031279087,
        0.04293431341648102,
        0.0780680701136589,
        0.18945954740047455,
        0.1214098185300827,
        -0.131333127617836,
        -0.06551054120063782,
        0.08966314047574997,
        -0.1846044659614563,
        0.08434285968542099,
        0.011059031821787357,
        -0.10776703804731369,
        -0.07643453776836395,
        -0.04043145477771759,
        -0.1648930013179779,
        -0.11137852817773819,
        0.0034836488775908947,
        -0.10103552043437958,
        0.06853476166725159,
        0.06557688117027283,
        -0.0699809119105339,
        0.20046979188919067,
        0.05638565123081207,
        0.2144828885793686,
        0.10498173534870148,
        0.1448982059955597,
        -0.014885995537042618,
        -0.12560869753360748,
        0.14835985004901886,
        -0.06806894391775131,
        0.10945858806371689,
        0.20075535774230957,
        0.1954658180475235,
        -0.06651747971773148,
        0.1333862990140915,
        -0.040899939835071564,
        -0.043529216200113297,
        0.11758080124855042,
        0.1022227481007576,
        0.07670129090547562,
        -0.08696489036083221,
        -0.0978141725063324,
        0.0880027636885643,
        -0.09741883724927902,
        0.1618996113538742,
        0.06375991553068161,
        0.03914690017700195,
        0.03792228922247887,
        0.1641840785741806,
        -0.08106154948472977,
        -0.09693395346403122,
        0.028662703931331635,
        0.03135174140334129,
        0.07198631018400192,
        0.043773241341114044,
        -0.045585520565509796,
        0.0709511861205101,
        -0.07517478615045547,
        -0.12202699482440948,
        0.06913067400455475,
        0.0865551307797432,
        -0.03266536816954613,
        -0.09323901683092117,
        0.04796994850039482,
        -0.0649779811501503,
        -0.05058642849326134,
        -0.019998449832201004,
        -0.008778578601777554,
        -0.11112707853317261,
        0.10363706201314926,
        0.14426861703395844,
        0.08627624064683914,
        -0.00966997817158699,
        -0.05495602265000343,
        -0.14151325821876526,
        0.03213153034448624,
        -0.09307670593261719,
        -0.03558853268623352,
        -0.14352357387542725,
        -0.21582143008708954,
        -0.2481013983488083,
        -0.17020374536514282,
        0.046133823692798615,
        0.16369321942329407,
        0.18557427823543549,
        0.07589192688465118,
        -0.07512687146663666,
        -0.1780618280172348,
        0.1265246719121933,
        0.21757780015468597,
        -0.06460628658533096,
        -0.055451855063438416,
        -0.014673124998807907,
        0.11543688923120499,
        -0.03304703161120415,
        0.10564478486776352,
        -0.11321824043989182,
        -0.10102816671133041,
        0.04754422605037689,
        0.11878903210163116,
        -0.08425571769475937,
        0.20153522491455078,
        0.1824023276567459,
        -0.03981002792716026,
        -0.028569651767611504,
        -0.0712936669588089,
        -0.10741282254457474,
        -0.070094995200634,
        0.14881575107574463,
        -0.06267161667346954,
        0.19008924067020416,
        -0.09325475245714188,
        0.09753383696079254,
        -0.0999198704957962,
        0.11638480424880981,
        0.10320020467042923,
        0.0674208477139473,
        0.11536802351474762,
        -0.0639696717262268,
        -0.012752874754369259,
        -0.12883260846138,
        -0.010616672225296497,
        0.03861772269010544,
        -0.0005460892571136355,
        -0.046544432640075684,
        -0.13610103726387024,
        -0.07280376553535461,
        -0.08835487812757492,
        0.20287244021892548,
        0.16101178526878357,
        0.08381198346614838,
        -0.17530010640621185,
        -0.030892405658960342,
        0.10475509613752365,
        0.0785294771194458,
        0.07907719910144806,
        0.019455568864941597,
        0.05528673529624939,
        0.10059207677841187,
        0.06708218902349472,
        0.007497837301343679,
        0.18914581835269928,
        -0.10772882401943207,
        0.08090680092573166,
        -0.005849520675837994,
        -0.13542306423187256,
        0.09329896420240402,
        0.013697650283575058,
        -0.08104414492845535,
        -0.026655560359358788,
        -0.18917571008205414,
        0.1419767141342163,
        0.0012017841218039393,
        -0.1509508192539215,
        0.08921203017234802,
        -0.0028549591079354286,
        -0.0528351329267025,
        -0.06480841338634491,
        0.01349837426096201,
        0.04161988943815231,
        0.08342466503381729,
        0.07286912947893143,
        -0.1194484531879425,
        0.12095817923545837,
        0.1751626878976822,
        0.20062847435474396,
        0.12283043563365936,
        -0.02825779654085636,
        -0.004615808837115765,
        -0.0701461061835289,
        -0.15537862479686737,
        -0.12142296880483627,
        0.24408058822155,
        -0.06462666392326355,
        -0.13449184596538544,
        -0.06081753596663475,
        0.02374517358839512,
        -0.04047074913978577,
        0.08857019245624542,
        -0.06732284277677536,
        -0.0034418764989823103,
        0.05277326703071594,
        0.07958205044269562,
        0.02001080848276615,
        -0.04828166589140892,
        -0.035760194063186646,
        -0.13058041036128998,
        0.07228201627731323,
        0.11488765478134155,
        0.1050526425242424,
        -0.15759505331516266,
        -0.1331525593996048,
        -0.1401117593050003,
        0.18374310433864594,
        -0.08672883361577988,
        0.13523757457733154,
        0.09092610329389572,
        -0.12717391550540924,
        -0.03218764811754227,
        -0.15635350346565247,
        0.1363111138343811,
        0.007950082421302795,
        -0.1566144824028015,
        -0.03409459814429283,
        -0.1501958668231964,
        0.04631797969341278,
        -0.16587097942829132,
        0.11581353098154068,
        -0.13942083716392517,
        -0.018941722810268402,
        -0.08782409131526947,
        -0.020451365038752556,
        0.041238900274038315,
        0.09967952221632004,
        0.03020120970904827,
        0.06421861052513123,
        -0.0014513414353132248,
        0.16158057749271393,
        -0.0920930728316307,
        -0.07028668373823166,
        -0.06563819199800491,
        0.1969878077507019,
        -0.038971636444330215,
        0.08830772340297699,
        0.08446086198091507,
        -0.10990402847528458,
        0.07381575554609299,
        -0.12356851994991302,
        0.05148956552147865,
        0.02901146188378334,
        -0.15288592875003815,
        0.211161270737648,
        -0.12229093164205551,
        -0.05361000448465347,
        -0.031875129789114,
        0.07376379519701004,
        0.0464310422539711,
        0.19228772819042206,
        0.10947708785533905,
        0.16149234771728516,
        0.17284096777439117,
        0.1065552830696106,
        0.10672571510076523,
        0.15345464646816254,
        -0.058966636657714844,
        0.03280505910515785,
        -0.21926815807819366,
        -0.12018457800149918,
        0.13587510585784912,
        -0.07133302092552185,
        -0.08102131634950638,
        0.15342925488948822,
        -0.19017291069030762,
        -0.001910808146931231,
        -0.20109644532203674,
        0.1441156417131424,
        0.06992481648921967,
        0.24342185258865356,
        0.057192131876945496,
        -0.08783822506666183,
        -0.06688463687896729,
        0.11403237283229828,
        0.13074952363967896,
        0.08040579408407211,
        0.042683374136686325,
        -0.01632636971771717,
        -0.016668077558279037,
        0.08483009040355682,
        0.15554922819137573,
        0.1794046014547348,
        -0.003113344544544816,
        0.06297437101602554,
        0.07445400208234787,
        0.011408582329750061,
        -0.07795867323875427,
        -0.03016454353928566,
        -0.002519387984648347,
        -0.032882511615753174,
        -0.07421696186065674,
        0.04299752414226532,
        -0.11077170819044113,
        -0.017210785299539566,
        -0.07293785363435745,
        0.09987591207027435,
        -0.018199976533651352,
        -0.03448272868990898,
        0.1683524250984192,
        -0.1729181855916977,
        0.06372581422328949,
        -0.02022942528128624,
        0.03305641934275627,
        -0.1197439581155777,
        0.1140928640961647,
        0.11430750787258148,
        0.06626720726490021,
        -0.20616097748279572,
        0.08536563068628311,
        0.15240700542926788,
        0.07986479252576828,
        -0.14699755609035492,
        0.1606917679309845,
        -0.035135142505168915,
        0.08805473148822784,
        -0.049909163266420364,
        -0.019373394548892975,
        0.1894076019525528,
        0.015847615897655487,
        0.1061447486281395,
        0.0057864501141011715,
        -0.027555732056498528,
        0.0461457259953022,
        -0.1564990133047104,
        0.03525187075138092,
        -0.048538219183683395,
        -0.006943507585674524,
        0.07782994210720062,
        -0.20451827347278595,
        -0.1931348741054535,
        -0.05485313758254051,
        -0.07158166915178299,
        -0.15317988395690918,
        -0.04232226312160492,
        -0.10576847195625305,
        0.16427062451839447,
        0.16922074556350708,
        0.07690068334341049,
        0.20877592265605927,
        -0.055283721536397934,
        0.14660705626010895,
        -0.18086941540241241,
        0.02176271751523018,
        -0.09365387260913849,
        -0.04863802716135979,
        -0.12437291443347931,
        -0.12580138444900513,
        -0.00932819303125143,
        0.10056868195533752,
        -0.02150140516459942,
        0.030077267438173294,
        0.06252630800008774,
        0.019947277382016182,
        0.004074908327311277,
        0.1914454698562622,
        -0.13880690932273865,
        -0.18092642724514008,
        -0.03340746462345123,
        -0.08589603006839752,
        0.027774907648563385,
        0.03169385716319084,
        0.0256400965154171,
        0.1631172001361847,
        -0.0745917409658432,
        0.03760824725031853,
        -0.10596466809511185,
        0.0026945516001433134,
        0.12128181010484695,
        -0.06849504262208939,
        0.08847646415233612,
        -0.14223957061767578,
        -0.1341828852891922,
        0.11577868461608887,
        0.09013362973928452,
        0.1646578311920166,
        -0.02008252777159214,
        -0.07472614198923111,
        -0.0539858303964138,
        -0.08019965887069702,
        0.19287753105163574,
        0.007719263434410095,
        -0.042339783161878586,
        -0.029822170734405518,
        -0.026260094717144966,
        -0.0449603833258152,
        -0.10800514370203018,
        0.009661152958869934,
        0.19149331748485565,
        -0.11412540823221207,
        0.07122411578893661,
        0.13793610036373138,
        0.10622764378786087,
        -0.03425479307770729,
        0.1107211783528328,
        0.15182404220104218,
        -0.035926997661590576,
        0.09872888028621674,
        0.005959208123385906,
        -0.1318770945072174,
        0.042945001274347305,
        0.11483939737081528,
        0.13380838930606842,
        0.05024826154112816,
        -0.15117669105529785,
        0.061042461544275284,
        0.014375531114637852,
        -0.027701249346137047,
        -0.046691618859767914,
        0.03340212628245354,
        -0.05405741557478905,
        0.08903467655181885,
        -0.0935598686337471,
        -0.08494686335325241,
        -0.12651024758815765,
        -0.026763364672660828,
        0.15609945356845856,
        -0.06268522143363953,
        0.028356116265058517,
        0.1254461109638214,
        0.062366802245378494,
        -0.19123013317584991,
        0.07744782418012619,
        -0.1616039127111435,
        0.08035018295049667,
        0.24349458515644073,
        -0.03745545074343681,
        0.05146799609065056,
        0.06648305803537369,
        0.21327181160449982,
        -0.08274395018815994,
        0.0023102262057363987,
        -0.009832041338086128,
        -0.07195880264043808,
        0.03496133163571358,
        0.007427706848829985,
        0.10882290452718735,
        -0.11407461017370224,
        0.13033977150917053,
        -0.17278636991977692,
        -0.0026082582771778107,
        -0.07519996911287308,
        0.009831477887928486,
        0.06433854252099991,
        -0.04728496074676514,
        -0.12697537243366241,
        -0.047444555908441544,
        -0.07022692263126373,
        0.0728595107793808,
        0.11671196669340134,
        0.04258278012275696,
        0.14758987724781036,
        0.03348032385110855,
        0.11885901540517807,
        -0.11060049384832382,
        -0.09963680803775787,
        -0.13867957890033722,
        -0.05265164002776146,
        0.043610893189907074,
        0.09069027751684189,
        -0.07815196365118027,
        0.1933879405260086,
        -0.13192227482795715,
        -0.10465425997972488,
        0.03414976969361305,
        0.17776376008987427,
        0.06058070808649063,
        0.08929193764925003,
        -0.08680985867977142,
        -0.05639669671654701,
        -0.12515246868133545,
        -0.011226489208638668,
        0.0822138786315918,
        0.14381559193134308,
        0.11220479756593704,
        0.15518519282341003,
        0.023368271067738533,
        -0.014146048575639725,
        0.029498109593987465,
        -0.1541813313961029,
        0.022727791219949722,
        0.05437486991286278,
        0.043923959136009216,
        0.06869430840015411,
        -0.17334982752799988,
        -0.08909250795841217,
        -0.0957183837890625,
        -0.06718955188989639,
        0.1631784737110138,
        0.04336724802851677,
        -0.09970342367887497,
        0.1345958262681961,
        -0.1634710282087326,
        0.11425571888685226,
        0.0439559705555439,
        0.15197722613811493,
        -0.1840285211801529,
        0.03294188156723976,
        -0.08126171678304672,
        -0.06549186259508133,
        0.006856268737465143,
        0.034601107239723206,
        0.04081547260284424,
        -0.11427497118711472,
        -0.06009230390191078,
        -0.1436811089515686,
        0.09099850058555603,
        0.0168758537620306,
        0.1853475123643875,
        0.014838731847703457,
        0.11632711440324783,
        0.1662236452102661,
        -0.037982452660799026,
        -0.07570328563451767,
        0.0963791161775589,
        -0.07355539500713348,
        -0.05525932088494301,
        -0.02052268758416176,
        -0.14245867729187012,
        -0.04058188199996948,
        0.1388111710548401,
        -0.0836646556854248,
        0.15733075141906738,
        -0.18465417623519897,
        0.15450596809387207,
        0.10202581435441971,
        0.1302090734243393,
        0.11003028601408005,
        0.18602080643177032,
        0.031888704746961594,
        -0.0502377450466156,
        0.09396100789308548,
        -0.14130361378192902,
        0.1604064553976059,
        0.10036332160234451,
        0.16487956047058105,
        0.12059099227190018,
        -0.008531687781214714,
        0.0012546079233288765,
        -0.051815398037433624,
        0.02016380988061428,
        -0.1187451034784317,
        -0.058634109795093536,
        0.16070331633090973,
        0.11331549286842346,
        -0.10774137824773788,
        0.05826710909605026,
        -0.10693513602018356,
        0.007232168223708868,
        0.03660127520561218,
        0.0617230199277401,
        0.037239450961351395,
        -0.03770744800567627,
        -0.017058363184332848,
        -0.1518222689628601,
        0.02122906595468521,
        -0.17737461626529694,
        0.03750273585319519,
        0.03359055146574974,
        0.12481612712144852,
        0.07153541594743729,
        0.006765201687812805,
        -0.04894828051328659,
        -0.15101753175258636,
        -0.16303735971450806,
        0.008779801428318024,
        0.04497835040092468,
        0.12031812965869904,
        -0.0901770368218422,
        0.08904459327459335,
        -0.06727845221757889,
        0.0828634649515152,
        0.19825102388858795,
        0.07736802101135254,
        -0.06457038968801498,
        -0.1271921545267105,
        0.05621739476919174,
        0.17001725733280182,
        -0.15387170016765594,
        -0.15087834000587463,
        -0.048755545169115067,
        -0.12329460680484772,
        0.0790618285536766,
        0.12193799763917923,
        -0.050612207502126694,
        -0.09775856137275696,
        0.16100911796092987,
        0.015741366893053055,
        0.027629069983959198,
        0.18866729736328125,
        -0.11490830034017563,
        0.011460108682513237,
        -0.08425655215978622,
        0.0014466214925050735,
        -0.05037061870098114,
        0.031233493238687515,
        -0.06808070093393326,
        -0.19968190789222717,
        0.18781858682632446,
        0.15760575234889984,
        -0.03560711443424225,
        0.07911223918199539,
        -0.025960754603147507,
        -0.13992434740066528,
        0.03386300802230835,
        0.025335321202874184,
        0.09030084311962128,
        0.013922472484409809,
        -0.09335877746343613,
        0.13949239253997803,
        -0.1532987803220749,
        -0.059089187532663345,
        0.21549944579601288,
        0.06659543514251709,
        0.16567811369895935,
        0.04117792099714279,
        -0.07374916970729828,
        -0.16247990727424622,
        0.1646614372730255,
        -0.011177227832376957,
        0.04130869358778,
        -0.048763588070869446,
        -0.0044435905292630196,
        0.09285899251699448,
        0.04460904002189636,
        0.05468231812119484,
        -0.034745797514915466,
        0.07221341133117676,
        0.042408935725688934,
        0.08658050000667572,
        -0.06504914164543152,
        0.01601119339466095,
        -0.08795300871133804,
        0.010672887787222862,
        0.08124149590730667,
        0.007166660390794277,
        0.14942818880081177,
        -0.19392293691635132,
        -0.1682877242565155,
        0.12594954669475555,
        -0.16776074469089508,
        -0.15773768723011017,
        -0.029321448877453804,
        0.033432163298130035,
        -0.04245505854487419,
        -0.16210132837295532,
        0.11910242587327957,
        0.16739913821220398,
        -0.06382408738136292,
        0.13426411151885986,
        0.008996359072625637,
        0.12614381313323975,
        0.18830254673957825,
        -0.026596520096063614,
        -0.049814652651548386,
        0.12856172025203705,
        -0.0058321161195635796,
        -0.07574852555990219,
        -0.11285699903964996,
        -0.08150595426559448,
        -0.0755423903465271,
        0.13062836229801178,
        -0.05956659093499184,
        0.15204794704914093,
        0.18132168054580688,
        0.08700049668550491,
        0.08614036440849304,
        -0.0727633535861969,
        -0.020780138671398163,
        -0.0706474781036377,
        -0.0800260379910469,
        0.011205446906387806,
        0.1503663808107376,
        0.15590257942676544,
        -0.10712996125221252,
        0.11460253596305847,
        0.036192506551742554,
        -0.07132511585950851,
        0.10185528546571732,
        0.06148512288928032,
        0.09660717844963074,
        0.09269821643829346,
        -0.01124850008636713,
        0.0732908546924591,
        -0.14901481568813324,
        -0.07984950393438339,
        0.1465853452682495,
        0.10904717445373535,
        0.14283761382102966,
        0.2146182656288147,
        -0.13168400526046753,
        0.16990423202514648,
        0.11244278401136398,
        0.005172123666852713,
        0.17173650860786438,
        -0.15201006829738617,
        -0.05107337608933449,
        -0.008446171879768372,
        -0.1375046819448471,
        -0.05782793089747429,
        0.10565633326768875,
        -0.07378321141004562,
        0.0984794870018959,
        -0.11893638223409653,
        0.10058952122926712,
        -0.278472363948822,
        -0.13020059466362,
        -0.0895804688334465,
        -0.06101864576339722,
        0.11298847198486328,
        0.012285635806620121,
        0.09738890826702118,
        -0.08523546904325485,
        -0.1279110163450241,
        0.16742335259914398,
        -0.048446740955114365,
        -0.12242577970027924,
        -0.027387231588363647,
        0.14102238416671753,
        0.00872273463755846,
        -0.15046869218349457,
        -0.12029168754816055,
        -0.013893733732402325,
        -0.0006574150756932795,
        0.006081744562834501,
        -0.1043061912059784,
        0.07596058398485184,
        0.1649998128414154,
        0.11293311417102814,
        -0.06886502355337143,
        -0.015084442682564259,
        -0.13069671392440796,
        0.1793805956840515,
        0.07116790115833282,
        -0.03907720744609833,
        -0.0937696248292923,
        -0.08542586863040924,
        0.04659310355782509,
        -0.09942615032196045,
        0.12734612822532654,
        -0.12414584308862686,
        -0.10065221041440964,
        -0.1438504159450531,
        -0.0044307527132332325,
        -0.11113903671503067,
        -0.10851931571960449,
        -0.09653113782405853,
        0.006546740420162678,
        0.17391423881053925,
        -0.13747747242450714,
        -0.03129935637116432,
        -0.07376328855752945,
        -0.09436759352684021,
        0.05930154770612717,
        0.16986548900604248,
        -0.15724283456802368,
        0.0578954815864563,
        0.09935633838176727,
        -0.13653700053691864,
        -0.0571613535284996,
        0.039283327758312225,
        0.06911985576152802,
        -0.1225101426243782,
        0.03409095108509064,
        -0.17473845183849335,
        0.11251335591077805,
        -0.16156406700611115,
        -0.02662801928818226,
        -0.026891926303505898,
        -0.11451011151075363,
        0.07549312710762024,
        -0.08953192830085754,
        0.09904423356056213,
        -0.0236823670566082,
        -0.015082752332091331,
        -0.08846301585435867,
        0.157628133893013,
        -0.03593777120113373,
        -0.15089848637580872,
        -0.012883761897683144,
        0.09694833308458328,
        0.0015263698296621442,
        -0.03409212827682495,
        0.12340572476387024,
        -0.032521530985832214,
        0.0850655660033226,
        -0.10210534185171127,
        0.09616031497716904,
        -0.18450617790222168,
        -0.07186640053987503,
        -0.08737903833389282,
        -0.1566951721906662,
        0.03893916681408882,
        0.061041735112667084,
        0.1792963743209839,
        0.19194403290748596,
        0.21728330850601196,
        -0.034335725009441376,
        0.0741809606552124,
        -0.16127385199069977,
        0.16815795004367828,
        -0.18640635907649994,
        -0.024715712293982506,
        -0.03311461582779884,
        0.07238160073757172,
        -0.03910618647933006,
        0.18709419667720795,
        -0.13009949028491974,
        0.15180784463882446,
        0.09936371445655823,
        -0.051776569336652756,
        -0.09292182326316833,
        -0.007765556685626507,
        -0.1127956211566925,
        -0.08849889785051346,
        0.1916477382183075,
        -0.018162360414862633,
        0.1815451979637146,
        0.10954707115888596,
        -0.01430171076208353,
        -0.26685863733291626,
        0.012561008334159851,
        0.0330912321805954,
        -0.1477452516555786,
        -0.07082770019769669,
        0.039898067712783813,
        -0.12470752000808716,
        0.17342790961265564,
        -0.053726475685834885,
        0.032722681760787964,
        0.08593777567148209,
        0.11414196342229843,
        -0.05727817490696907,
        -0.17987604439258575,
        0.006636496167629957,
        -0.07422387599945068,
        0.029154403135180473,
        0.1271679848432541,
        0.13656069338321686,
        0.12094289064407349,
        0.17306706309318542,
        -0.09308810532093048,
        -0.045997001230716705,
        0.13450466096401215,
        -0.015183888375759125,
        -0.0775810107588768,
        0.03836577758193016,
        0.0795818492770195,
        0.054177992045879364,
        0.16485285758972168,
        -0.1490476280450821,
        -0.16161110997200012,
        0.20807072520256042,
        0.025006232783198357,
        -0.10596565902233124,
        0.00812133401632309,
        -0.13430717587471008,
        0.02966846339404583,
        -0.15681833028793335,
        0.036588411778211594,
        0.18292294442653656,
        0.0017415278125554323,
        0.10602007061243057,
        -0.04572909325361252,
        -0.08956717699766159,
        -0.09352687746286392,
        0.05356929078698158,
        0.15074191987514496,
        -0.08796306699514389,
        0.15944235026836395,
        2.8068336177966557e-05,
        0.08181977272033691,
        0.17856720089912415,
        0.0481581911444664,
        -0.1410738080739975,
        0.1655242145061493,
        0.10626999288797379,
        0.05865518003702164,
        -0.17902043461799622,
        0.1440892368555069,
        0.06921965628862381,
        0.10452086478471756,
        -0.02785608172416687,
        -0.011755827814340591,
        0.0952192172408104,
        -0.1798403412103653,
        0.11688210815191269,
        0.14073114097118378,
        0.13079342246055603,
        0.035782601684331894,
        -0.1323610544204712,
        -0.13698652386665344,
        0.17442770302295685,
        -0.13047398626804352,
        0.10086657106876373,
        0.11078514158725739,
        -0.12714172899723053,
        0.06544230878353119,
        -0.04629938676953316,
        0.09389977157115936,
        0.177206352353096,
        0.1803738921880722,
        -0.08787179738283157,
        -0.05185311660170555,
        -0.21510767936706543,
        -0.11844825744628906,
        0.10844478011131287,
        0.005488361231982708,
        -0.14597009122371674,
        0.07482391595840454,
        0.0045237173326313496,
        0.033536091446876526,
        -0.14065437018871307,
        -0.05938525125384331,
        0.05066078156232834,
        0.06441566348075867,
        -0.007161338347941637,
        0.03443457558751106,
        -0.11414353549480438,
        0.19739606976509094,
        -0.013479569926857948,
        0.15329071879386902,
        -0.16998371481895447,
        -0.06613350659608841,
        -0.0881672129034996,
        0.15904246270656586,
        0.03903022035956383,
        -0.06437747180461884,
        -0.00571385258808732,
        0.014473826624453068,
        0.12525320053100586,
        -0.037429630756378174,
        0.049130357801914215,
        -0.10016784071922302,
        0.1282450258731842,
        0.05560833960771561,
        -0.09251584112644196,
        0.01790817640721798,
        0.05283065512776375,
        -0.10444540530443192,
        -0.15350082516670227,
        0.18361671268939972,
        -0.037105560302734375,
        -0.12480410188436508,
        0.03257134556770325,
        -0.009144708514213562,
        -0.11940328031778336,
        -0.01458036433905363,
        -0.10225290805101395,
        0.003827933454886079,
        0.16435274481773376,
        -0.07275383174419403,
        -0.027217712253332138,
        -0.04911390691995621,
        0.15533506870269775,
        0.12489806115627289,
        -0.16248007118701935,
        0.16337336599826813,
        0.027587834745645523,
        -0.12425711750984192,
        0.14381377398967743,
        -0.08699650317430496,
        0.09019971638917923,
        -0.14989930391311646,
        -0.14414262771606445,
        0.11422878503799438,
        -0.11353770643472672,
        0.05550162494182587,
        0.0357932522892952,
        -0.07140252739191055,
        -0.1404510736465454,
        -0.1565110981464386,
        0.1634373813867569,
        -0.04688560962677002,
        -0.049192916601896286,
        -0.0548202209174633,
        -0.016005754470825195,
        -0.08855710923671722,
        -0.025694122537970543,
        0.013067200779914856,
        -0.14295171201229095,
        0.10008253902196884,
        -0.06365220993757248,
        -0.04951022192835808,
        0.05297822505235672,
        -0.018954623490571976,
        -0.07739685475826263,
        -0.029089633375406265,
        -0.045282717794179916,
        -0.05743043124675751,
        0.07035694271326065,
        -0.11850551515817642,
        -0.1250845193862915,
        0.04390541836619377,
        0.18614593148231506,
        -0.07333045452833176,
        -0.012164264917373657,
        -0.04087270051240921,
        0.005419117398560047,
        -0.07420226186513901,
        -0.08845965564250946,
        0.16086158156394958,
        0.0044820550829172134,
        0.02603744901716709,
        -0.06898192316293716,
        0.07782358676195145,
        -0.13928700983524323,
        -0.08673752099275589,
        0.03428959846496582,
        -0.0685994029045105,
        0.0971980020403862,
        0.1808495670557022,
        0.1856946498155594,
        0.04548104107379913,
        0.18226008117198944,
        -0.08552089333534241,
        0.07930415123701096,
        0.1136130765080452,
        -0.12442526966333389,
        -0.01528737973421812,
        0.14771127700805664,
        0.04030173644423485,
        0.13568569719791412,
        -0.0033595797140151262,
        0.2248101532459259,
        -0.07408300787210464,
        -0.1201416626572609,
        -0.15482215583324432,
        -0.13062897324562073,
        -0.07637356966733932,
        0.06762653589248657,
        -0.14156027138233185,
        0.09401895105838776,
        0.1586785912513733,
        0.15566611289978027,
        0.14278040826320648,
        -0.09157449752092361,
        0.10868225991725922,
        0.16319537162780762,
        -0.1285812258720398,
        0.031549639999866486,
        0.19685055315494537,
        -0.0220652986317873,
        0.07539273798465729,
        -0.02674620784819126,
        0.07498611509799957,
        0.17780669033527374,
        -0.09589574486017227,
        -0.106838159263134,
        0.03908770531415939,
        0.03584685176610947,
        0.02802257612347603,
        0.07067513465881348,
        0.037231285125017166,
        0.1446637362241745,
        0.18476080894470215,
        0.05061793699860573,
        -0.003928856458514929,
        0.09861227124929428,
        0.06243835389614105,
        0.0060717216692864895,
        0.08275808393955231,
        -0.011805837973952293,
        0.07019858062267303,
        0.002946439664810896,
        0.18095837533473969,
        0.06174369901418686,
        -0.08533541858196259,
        -0.11236913502216339,
        0.002998033072799444,
        0.1535213142633438,
        0.11204474419355392,
        0.0038379740435630083,
        -0.09000909328460693,
        0.109758660197258,
        -0.10572560876607895,
        0.15928307175636292,
        0.13752248883247375,
        -0.15323591232299805,
        -0.06458403170108795,
        -0.11534618586301804,
        -0.029277512803673744,
        -0.1633004993200302,
        -0.056564558297395706,
        0.085109643638134,
        0.12610073387622833,
        0.06001535430550575,
        -0.1673278510570526,
        0.10394638031721115,
        -0.1012682393193245,
        -0.07975739240646362,
        0.002254648134112358,
        0.17398186028003693,
        0.03642163798213005,
        -0.028212441131472588,
        0.11315151304006577,
        -0.07945745438337326,
        0.22284258902072906,
        0.03553270548582077,
        0.16487723588943481,
        -0.04526333883404732,
        -0.05798337981104851,
        0.045624881982803345,
        0.07800568640232086,
        -0.1348903924226761,
        0.15193220973014832,
        -0.11779024451971054,
        -0.05321618169546127,
        -0.11552252620458603,
        -0.06422500312328339,
        -0.19542647898197174,
        -0.11502636969089508,
        0.16428150236606598,
        -0.11520028859376907,
        0.09978630393743515,
        0.14619018137454987,
        0.017043448984622955,
        -0.15535427629947662,
        0.0704895630478859,
        0.19084765017032623,
        -0.009191295132040977,
        0.10950028151273727,
        0.22348475456237793,
        -0.0848151296377182,
        0.055286258459091187,
        -0.1602320373058319,
        -0.17307007312774658,
        0.09383416175842285,
        0.1146327406167984,
        0.11847938597202301,
        0.11356912553310394,
        0.02924979478120804,
        0.0378548726439476,
        -0.01043191272765398,
        -0.08286000043153763,
        -0.09319879114627838,
        -0.05943858623504639,
        0.18222132325172424,
        0.1757955551147461,
        0.05210181325674057,
        0.03047971799969673,
        -0.07070543617010117,
        -0.06543964147567749,
        -0.12638536095619202,
        0.15199197828769684,
        0.06679391860961914,
        0.005397462751716375,
        -0.023427167907357216,
        -0.14449138939380646,
        -0.014314495027065277,
        0.19336667656898499,
        -0.16053380072116852,
        0.04662194475531578,
        -0.013633690774440765,
        0.1842297613620758,
        0.06934145092964172,
        0.12681636214256287,
        -0.02513926662504673,
        0.20013271272182465,
        0.1298810988664627,
        -0.027212580665946007,
        0.043179869651794434,
        -0.015464264899492264,
        -0.1385437548160553,
        0.14595380425453186,
        -0.06471551209688187,
        0.06195186823606491,
        -0.10290645807981491,
        0.08039452135562897,
        0.02868385799229145,
        -0.150538831949234,
        0.1323111355304718,
        -0.03214862197637558,
        0.18394167721271515,
        -0.10869383066892624,
        -0.006138530094176531,
        0.08966521918773651,
        0.15333034098148346,
        0.015963109210133553,
        0.044437069445848465,
        -0.008498516865074635,
        -0.14584626257419586,
        0.1661047339439392,
        -0.030699435621500015,
        0.14900147914886475,
        0.10308203101158142,
        0.020695585757493973,
        -0.0019049789989367127,
        0.15573975443840027,
        -0.14731043577194214,
        -0.13090893626213074,
        0.039393968880176544,
        0.14751221239566803,
        0.003761019790545106,
        -0.043893106281757355,
        0.10095586627721786,
        -0.05585094913840294,
        -0.06130832061171532,
        0.14370806515216827,
        0.1255464404821396,
        0.08464234322309494,
        0.10459969192743301,
        -0.002831129590049386,
        0.08889450132846832,
        0.30361059308052063,
        0.14163994789123535,
        0.10165762901306152,
        -0.02577897720038891,
        -0.15055371820926666,
        0.10814067721366882,
        0.019697031006217003,
        -0.0017017702339217067,
        0.04952661693096161,
        -0.0557766817510128,
        -0.07785733789205551,
        0.09701792895793915,
        0.12649399042129517,
        -0.08157835155725479,
        -0.17444735765457153,
        -0.1340290904045105,
        0.1643393635749817,
        0.18050837516784668,
        -0.07654301822185516,
        0.022917013615369797,
        0.13921889662742615,
        -0.015674741938710213,
        -0.1100311279296875,
        -0.007013442926108837,
        0.0860569104552269,
        0.017755454406142235,
        0.09203954041004181,
        -0.11745142936706543,
        -0.12914960086345673,
        -0.2020576149225235,
        -0.1760714203119278,
        0.029468432068824768,
        0.028916560113430023,
        0.07494007050991058,
        0.1720201075077057,
        0.14463552832603455,
        -0.017090871930122375,
        0.00659711891785264,
        0.05757283419370651,
        -0.0536816380918026,
        0.0293644480407238,
        -0.14242903888225555,
        -0.0645483136177063,
        -0.16699427366256714,
        -0.09472177922725677,
        0.08982033282518387,
        0.13241428136825562,
        -0.09546253085136414,
        -0.029421700164675713,
        0.16622541844844818,
        -0.13050656020641327,
        0.005322162993252277,
        -0.14730434119701385,
        0.15424944460391998,
        0.11014555394649506,
        -0.039087843149900436,
        0.09491918236017227,
        -0.1447867751121521,
        0.1877852976322174,
        -0.058070845901966095,
        0.15582986176013947,
        -0.005329363513737917,
        0.079482302069664,
        0.1216723769903183,
        -0.13500064611434937,
        0.18860243260860443,
        -0.09118226915597916,
        0.01192333735525608,
        -0.1271744668483734,
        -0.02346726320683956,
        0.11142714321613312,
        0.19560039043426514,
        0.01817844621837139,
        0.13206355273723602,
        -0.18199031054973602,
        0.06275658309459686,
        -0.02072390913963318,
        -0.08089201897382736,
        -0.04986017197370529,
        0.09034080058336258,
        0.03473062068223953,
        -0.1482880711555481,
        0.049118772149086,
        0.16058211028575897,
        0.18582913279533386,
        0.054965633898973465,
        0.011943748220801353,
        -0.02437177114188671,
        -0.022081123664975166,
        -0.027218598872423172,
        -0.14457958936691284,
        0.13541805744171143,
        0.06697243452072144,
        -0.04535786062479019,
        -0.13831079006195068,
        -0.1361169070005417,
        0.10224480926990509,
        -0.07982444763183594,
        0.23098641633987427,
        0.012430276721715927,
        0.035333044826984406,
        -0.11720608919858932,
        -0.13848605751991272,
        -0.038452453911304474,
        5.375345062930137e-05,
        -0.1323055922985077,
        0.002210622653365135,
        -0.057485852390527725,
        -0.11037221550941467,
        0.21646392345428467,
        -0.1333528608083725,
        0.11045847088098526,
        0.09627571702003479,
        -0.05548151582479477,
        -0.03748256340622902,
        0.07531717419624329,
        0.19338172674179077,
        -0.08166642487049103,
        0.0824790745973587,
        -0.12489622086286545,
        -0.1387469470500946,
        0.0691545307636261,
        0.17517897486686707,
        0.1832817792892456,
        0.1475052684545517,
        -0.23887547850608826,
        -0.12000179290771484,
        -0.07126406580209732,
        0.042930953204631805,
        0.06861177831888199,
        0.0160587877035141,
        0.14199912548065186,
        -0.06589899212121964,
        0.1044347882270813,
        -0.13721877336502075,
        0.01847437210381031,
        0.02674797922372818,
        0.17105187475681305,
        -0.16519372165203094,
        -0.026163889095187187,
        0.1670372486114502,
        0.050999272614717484,
        0.06143686920404434,
        0.16591069102287292,
        -0.07302182912826538,
        -0.09235204756259918,
        -0.10141967236995697,
        -0.1327029913663864,
        -0.03775649517774582,
        0.10579248517751694,
        -0.08238359540700912,
        0.013653147965669632,
        -0.16191913187503815,
        0.15843947231769562,
        0.16014932096004486,
        0.07528095692396164,
        -0.13069458305835724,
        -0.012162732891738415,
        -0.15296821296215057,
        0.04540182650089264,
        -0.015782419592142105,
        0.18968792259693146,
        0.04802494868636131,
        0.1276804804801941,
        -0.14284080266952515,
        -0.06131407991051674,
        -0.04713124781847,
        -0.07035914808511734,
        -0.16816824674606323,
        -0.1383184790611267,
        -0.03551167994737625,
        -0.1307397186756134,
        0.05116521567106247,
        0.020509472116827965,
        -0.10395797342061996,
        0.07429498434066772,
        -0.06574531644582748,
        -0.11919527500867844,
        -0.13596317172050476,
        -0.025927312672138214,
        0.17539198696613312,
        -0.1551024615764618,
        -0.16219483315944672,
        -0.09724666178226471,
        0.09001244604587555,
        0.2697572410106659,
        -0.1145000010728836,
        0.08547160774469376,
        0.025610648095607758,
        0.2079647183418274,
        -0.02967347763478756,
        -0.019990775734186172,
        -0.2007112205028534,
        0.0082850381731987,
        0.2078542411327362,
        0.1456093043088913,
        -0.005203740205615759,
        -0.02924925461411476,
        0.18540333211421967,
        0.2065676897764206,
        0.09764556586742401,
        0.23356254398822784,
        -0.018736647441983223,
        -0.13931533694267273,
        0.09448596090078354,
        0.17488180100917816,
        -0.07769840955734253,
        -0.09373665601015091,
        0.008697999641299248,
        -0.045976582914590836,
        -0.15253500640392303,
        -0.10991399735212326,
        -0.03771129623055458,
        0.006416540592908859,
        0.06921833008527756,
        0.09093878418207169,
        0.13175320625305176,
        -0.17749260365962982,
        -0.046026360243558884,
        0.11294983327388763,
        0.000818719039671123,
        0.18404607474803925,
        -0.028860297054052353,
        0.030638525262475014,
        -0.19332242012023926,
        0.1285565197467804,
        0.07537920773029327,
        -0.024462716653943062,
        -0.07646677643060684,
        0.00040722693665884435,
        0.12074573338031769,
        0.142994686961174,
        0.10131271183490753,
        -0.008417565375566483,
        0.08473125845193863,
        -0.0004404393839649856,
        0.15580596029758453,
        0.12570346891880035,
        0.09064743667840958,
        0.1390177309513092,
        -0.11124078929424286,
        0.0644521489739418,
        0.18736103177070618,
        0.18759475648403168,
        -0.09644912928342819,
        0.15247134864330292,
        -0.08056048303842545,
        0.005984775722026825,
        0.16087757050991058,
        0.1701543927192688,
        0.09745126962661743,
        0.059104710817337036,
        -0.013976910151541233,
        -0.008688475005328655,
        -0.08228335529565811,
        0.11664849519729614,
        -0.06944668292999268,
        -0.10912192612886429,
        0.015073317103087902,
        -0.038889285176992416,
        -0.005208414979279041,
        -0.0993887409567833,
        0.08650899678468704,
        0.13758240640163422,
        -0.047045156359672546,
        -0.06450317054986954,
        0.11423046886920929,
        -0.06390145421028137,
        0.025619829073548317,
        0.08472499251365662,
        0.04030826687812805,
        -0.13115014135837555,
        0.03695744648575783,
        -0.033063992857933044,
        0.13777002692222595,
        0.12301799654960632,
        -0.16109421849250793,
        -0.19874311983585358,
        0.16586513817310333,
        -0.13346551358699799,
        -0.02392103150486946,
        -0.06645311415195465,
        -0.08511362969875336,
        0.08120283484458923,
        -0.09048351645469666,
        0.08255317062139511,
        -0.05299447476863861,
        0.043050382286310196,
        0.25562578439712524,
        0.15162810683250427,
        0.11621423810720444,
        0.13061492145061493,
        -0.015548426657915115,
        0.0941096618771553,
        -0.0043054185807704926,
        0.002147422870621085,
        0.0648300051689148,
        0.15917620062828064,
        -0.05985226109623909,
        -0.0650605782866478,
        -0.09124062210321426,
        -0.0966651439666748,
        -0.050132863223552704,
        -0.16032306849956512,
        0.10667398571968079,
        0.06187794357538223,
        0.10068447887897491,
        -0.10622294247150421,
        -0.13659816980361938,
        -0.05011772736907005,
        -0.04138335958123207,
        0.011212648823857307,
        -0.14449208974838257,
        0.03622547164559364,
        0.09516812860965729,
        0.1095653548836708,
        0.07309266924858093,
        -0.05812433734536171,
        0.15259917080402374,
        -0.036674614995718,
        -0.04670049250125885,
        -0.11190930753946304,
        -0.04445550590753555,
        0.15420624613761902,
        -0.11399057507514954,
        0.13780726492404938,
        -0.042424317449331284,
        0.09595794230699539,
        0.09557561576366425,
        0.2006954699754715,
        -0.06697262078523636,
        -0.01969677023589611,
        -0.07801152020692825,
        0.11428941786289215,
        0.01854182407259941,
        0.02310064062476158,
        0.18783585727214813,
        -0.08463545143604279,
        -0.1416146457195282,
        0.009835631586611271,
        0.13956156373023987,
        0.12297412753105164,
        -0.14119388163089752,
        0.16225716471672058,
        -0.14893712103366852,
        0.13479171693325043,
        -0.07748197019100189,
        -0.12982279062271118,
        -0.03301962837576866,
        0.08390354365110397,
        -0.08486489206552505,
        -0.06789551675319672,
        0.06806866824626923,
        0.2127046138048172,
        0.14616163074970245,
        0.07723180204629898,
        0.09873943775892258,
        -0.08798089623451233,
        0.09788259863853455,
        0.05272844061255455,
        -0.12339167296886444,
        -0.04129624739289284,
        -0.0842633843421936,
        -0.04962083324790001,
        -0.0033722303342074156,
        0.007493884302675724,
        -0.19325098395347595,
        -0.12373480945825577,
        0.04906265810132027,
        -0.16249951720237732,
        -0.07661853730678558,
        0.03295554593205452,
        0.12364291399717331,
        0.025504039600491524,
        -0.07063063234090805,
        -0.13032615184783936,
        -0.09748116880655289,
        0.06761171668767929,
        -0.08892522007226944,
        0.14313945174217224,
        0.1667618751525879,
        0.17705579102039337,
        -0.03980816528201103,
        0.20113667845726013,
        0.22583521902561188,
        -0.029609080404043198,
        0.04654556140303612,
        -0.04780961200594902,
        0.048270437866449356,
        0.11294552683830261,
        0.08316464722156525,
        0.2072327584028244,
        0.16028892993927002,
        0.08940081298351288,
        0.18354082107543945,
        -0.13644154369831085,
        -0.038380175828933716,
        -0.11944490671157837,
        0.05957556143403053,
        -0.09685861319303513,
        0.18477492034435272,
        0.22271879017353058,
        -0.025583941489458084,
        0.17061220109462738,
        -0.12579505145549774,
        0.0750979334115982,
        -0.18416181206703186,
        -0.12514881789684296,
        0.09599139541387558,
        0.03480102866888046,
        -0.12530991435050964,
        0.15943185985088348,
        -0.026892004534602165,
        -0.1649521440267563,
        0.026401903480291367,
        0.13620851933956146,
        -0.07133948802947998,
        0.174043670296669,
        -0.09052740037441254,
        0.04888128116726875,
        -0.017890043556690216,
        0.020796803757548332,
        -0.014007242396473885,
        -0.12223144620656967,
        0.18361137807369232,
        0.04648708179593086,
        0.10715144127607346,
        0.14966687560081482,
        -0.0017575196688994765,
        0.043195370584726334,
        -0.055758316069841385,
        0.054697435349226,
        0.040943145751953125,
        -0.041087403893470764,
        -0.07111891359090805,
        0.20607556402683258,
        -0.04176691174507141,
        0.0022121586371213198,
        0.10304577648639679,
        -0.14861340820789337,
        0.14811092615127563,
        0.07921796292066574,
        -0.038618799299001694,
        -0.1694372296333313,
        -0.027653057128190994,
        -0.02778201550245285,
        -0.054948706179857254,
        0.13968200981616974,
        -0.11504852026700974,
        0.11538942903280258,
        0.16643817722797394,
        0.06236398220062256,
        0.18618658185005188,
        0.08444125205278397,
        -0.12442229688167572,
        0.10532458126544952,
        0.2261543869972229,
        0.10983547568321228,
        0.07007325440645218,
        -0.0464237742125988,
        0.024373944848775864,
        0.019824376329779625,
        -0.10278870910406113,
        -0.08460734039545059,
        -0.02972169779241085,
        0.08945899456739426,
        -0.09146818518638611,
        -0.055535294115543365,
        0.12213599681854248,
        0.05090610682964325,
        -0.14376229047775269,
        0.09228455275297165,
        -0.040544066578149796,
        -0.11990077048540115,
        0.018969036638736725,
        0.155920147895813,
        -0.15712116658687592,
        -0.017360715195536613,
        -0.09147314727306366,
        0.08456715196371078,
        0.08728820830583572,
        -0.01536284014582634,
        0.012152443639934063,
        -0.017693784087896347,
        0.10131224989891052,
        -0.05176999792456627,
        0.09304682165384293,
        -0.20062056183815002,
        -0.17213396728038788,
        -0.04905901104211807,
        0.039479129016399384,
        0.13518337905406952,
        0.04760089889168739,
        -0.16413626074790955,
        -0.11108487844467163,
        0.06611771881580353,
        -0.039363425225019455,
        0.17504927515983582,
        -0.06136476621031761,
        0.010120805352926254,
        -0.09667371213436127,
        -0.11390924453735352,
        0.02063826285302639,
        0.13692155480384827,
        0.135993093252182,
        0.13216842710971832,
        -0.10257229208946228,
        0.03648340702056885,
        -0.13050737977027893,
        -0.10722311586141586,
        -0.09152305871248245,
        -0.03128489479422569,
        0.21794754266738892,
        0.051665451377630234,
        -0.062215276062488556,
        0.021327512338757515,
        0.05279897525906563,
        -0.0003395975800231099,
        -0.10122591257095337,
        0.04727654904127121,
        -0.024322934448719025,
        0.2071545124053955,
        -0.05807606875896454,
        -0.026210246607661247,
        0.08537811785936356,
        0.1552264243364334,
        0.03356257826089859,
        0.043645478785037994,
        -0.24091356992721558,
        0.1165621429681778,
        -0.12232080847024918,
        0.09579139947891235,
        -0.0651179850101471,
        -0.08772284537553787,
        0.06156495213508606,
        0.0981806218624115,
        0.2072349339723587,
        0.17289091646671295,
        -0.1009717807173729,
        -0.003642339026555419,
        -0.09264242649078369,
        -0.13031461834907532,
        -0.10020070523023605,
        0.06722385436296463,
        0.07200410962104797,
        -0.06267242133617401,
        0.014222532510757446,
        -0.046814799308776855,
        0.09723228961229324,
        0.09130218625068665,
        0.15104793012142181,
        -0.07313653826713562,
        0.12696997821331024,
        -0.2121819704771042,
        -0.13289931416511536,
        0.02152828313410282,
        -0.15934179723262787,
        0.12310770153999329,
        -0.09314508736133575,
        0.02979973517358303,
        0.041349463164806366,
        0.16182373464107513,
        0.10512611269950867,
        0.07568860054016113,
        -0.038070015609264374,
        0.10415598005056381,
        0.06391352415084839,
        0.01629803143441677,
        0.15387389063835144,
        -0.11604157835245132,
        -0.11853080242872238,
        0.18245792388916016,
        -0.14272604882717133,
        0.08878946304321289,
        0.11893168836832047,
        -0.17381802201271057,
        -0.09346608817577362,
        0.09459041059017181,
        -0.11686360090970993,
        0.07524167001247406,
        0.1313624233007431,
        0.10273381322622299,
        0.03730950132012367,
        0.15685401856899261,
        0.08359121531248093,
        -0.1532645970582962,
        -0.08332497626543045,
        -0.17510828375816345,
        -0.16765736043453217,
        0.1650904417037964,
        -0.10714604705572128,
        -0.2026747763156891,
        0.1741078495979309,
        0.043291062116622925,
        -0.12961839139461517,
        0.17111700773239136,
        0.16082888841629028,
        0.11832081526517868,
        -0.1704929620027542,
        -0.04863506555557251,
        -0.18878024816513062,
        0.1463402807712555,
        0.10239644348621368,
        -0.0027898079715669155,
        -0.12201634794473648,
        -0.2059570848941803,
        -0.08296935260295868,
        -0.06067407876253128,
        0.058571722358465195,
        0.13203631341457367,
        0.07613753527402878,
        -0.02126302383840084,
        -0.1168549656867981,
        -0.09401138871908188,
        0.09932941198348999,
        -0.1478421986103058,
        0.1336022913455963,
        0.1937374323606491,
        0.16745200753211975,
        -0.1503882259130478,
        -0.12902610003948212,
        0.160836324095726,
        0.0997382327914238,
        0.010439633391797543,
        -0.12424539774656296,
        -0.07940208911895752,
        0.2100989669561386,
        -0.11939583718776703,
        -0.02178531140089035,
        0.15828706324100494,
        -0.11725421994924545,
        0.1214597150683403,
        -0.13214737176895142,
        0.035194408148527145,
        0.20716971158981323,
        -0.12368359416723251,
        0.06429382413625717,
        0.014656907878816128,
        0.011452234350144863,
        0.1684693992137909,
        -0.028350885957479477,
        0.09487639367580414,
        0.06773833185434341,
        0.141523540019989,
        0.2054188996553421,
        0.0070358398370444775,
        -0.06743964552879333,
        -0.0841037780046463,
        0.10764270275831223,
        0.11508668214082718,
        -0.14801310002803802,
        -0.021677998825907707,
        0.14922596514225006,
        0.1902916133403778,
        -0.11424998939037323,
        0.07073521614074707,
        0.11589740216732025,
        0.1026545912027359,
        0.036001887172460556,
        -0.051130667328834534,
        0.10626484453678131,
        -0.054230500012636185,
        -0.050054993480443954,
        -0.10922214388847351,
        -0.04172315448522568,
        -0.09100668877363205,
        -0.03790733590722084,
        -0.1453186720609665,
        -0.08504866808652878,
        0.15943646430969238,
        -0.11811849474906921,
        -0.011981922201812267,
        -0.27162331342697144,
        -0.14891421794891357,
        -0.05221467837691307,
        -0.13874319195747375,
        -0.11129075288772583,
        0.13526982069015503,
        0.13858084380626678,
        0.18831592798233032,
        -0.037212785333395004,
        0.07649414986371994,
        -0.005568253342062235,
        0.17814390361309052,
        0.05072004348039627,
        0.17716284096240997,
        -0.026687094941735268,
        0.025722431018948555,
        -0.04415016248822212,
        -0.08998101204633713,
        0.08496657758951187,
        -0.14431117475032806,
        0.16941046714782715,
        -0.16118983924388885,
        0.10309688746929169,
        0.02385624311864376,
        0.14685824513435364,
        -0.21825315058231354,
        -0.1434403359889984,
        -0.07906046509742737,
        0.1373208612203598,
        -0.07594028860330582,
        -0.03316269442439079,
        -0.02275625430047512,
        0.17212499678134918,
        -0.2188919186592102,
        -0.08496743440628052,
        0.12758849561214447,
        -0.09437993913888931,
        -0.026254896074533463,
        0.06723275035619736,
        0.14759735763072968,
        0.16091841459274292,
        0.033053524792194366,
        -0.12188887596130371,
        -0.08909923583269119,
        -0.041076816618442535,
        -0.12275109440088272,
        0.12104607373476028,
        -0.16223974525928497,
        0.15454021096229553,
        0.1449444442987442,
        -0.12094101309776306,
        0.1026894748210907,
        0.001577428774908185,
        0.09537480026483536,
        0.1732049435377121,
        0.1895708441734314,
        0.09674149006605148,
        0.15945720672607422,
        0.04416588693857193,
        -0.10566222667694092,
        0.08536194264888763,
        -0.03868081048130989,
        0.0348183698952198,
        0.049749720841646194,
        -0.05267871916294098,
        -0.039592184126377106,
        0.03889807313680649,
        0.14558778703212738,
        0.14844007790088654,
        -0.045291967689991,
        0.17490562796592712,
        -0.014216192066669464,
        -0.19071586430072784,
        -0.14688782393932343,
        0.18096935749053955,
        0.09569056332111359,
        0.014603124931454659,
        -0.13049575686454773,
        -0.18201318383216858,
        0.04955644533038139,
        0.13832582533359528,
        0.09078602492809296,
        0.026095176115632057,
        -0.11746299266815186,
        -0.20985832810401917,
        -0.001677295658737421,
        0.10345932096242905,
        -0.0746038630604744,
        -0.0701451227068901,
        -0.041119858622550964,
        -0.043876733630895615,
        0.08541590720415115,
        -0.16473814845085144,
        -0.10948032885789871,
        0.1350182443857193,
        0.016501212492585182,
        0.07821261137723923,
        -0.1576746702194214,
        -0.07834827899932861,
        0.15215885639190674,
        -0.06465373188257217,
        0.1301271915435791,
        0.12418719381093979,
        0.09392626583576202,
        -0.11388278007507324,
        0.0675484910607338,
        0.06145811825990677,
        -0.014493976719677448,
        -0.016805661842226982,
        -0.109467051923275,
        -0.0009701725794002414,
        -0.146773561835289,
        0.13568328320980072,
        -0.12483812868595123,
        0.056392356753349304,
        -0.036523863673210144,
        0.12993738055229187,
        0.08868720382452011,
        0.0846177265048027,
        0.11716803163290024,
        -0.15686079859733582,
        0.03700358420610428,
        -0.1499902755022049,
        0.12604808807373047,
        0.12556219100952148,
        0.0987236350774765,
        0.059350088238716125,
        -0.036245014518499374,
        -0.13520143926143646,
        -0.13345947861671448,
        0.09020400047302246,
        -0.0513126514852047,
        -0.1554143875837326,
        -0.1537729650735855,
        -0.096809983253479,
        0.13145586848258972,
        0.10009588301181793,
        -0.11907095462083817,
        0.09487312287092209,
        -0.1740352213382721,
        -0.06155277416110039,
        -0.12217580527067184,
        -0.007282142527401447,
        0.026291266083717346,
        0.040676750242710114,
        -0.06294408440589905,
        0.05723121389746666,
        -0.17718945443630219,
        0.04587779939174652,
        0.05793258547782898,
        -0.1829526573419571,
        0.09415038675069809,
        0.15449874103069305,
        -0.07188858091831207,
        0.16631610691547394,
        -0.08556190878152847,
        0.17144763469696045,
        -0.09903718531131744,
        0.06691048294305801,
        0.20566219091415405,
        0.03381231427192688,
        -0.12996098399162292,
        0.00664602592587471,
        -0.08470160514116287,
        0.005240482743829489,
        0.0408036932349205,
        -0.14104123413562775,
        0.08278600126504898,
        -0.12009253352880478,
        -0.10661876201629639,
        -0.005804952699691057,
        -0.05865662544965744,
        0.03876246511936188,
        -0.08073610067367554,
        0.007902358658611774,
        0.08960665017366409,
        -0.07152809947729111,
        -0.16782085597515106,
        0.05416443571448326,
        0.05518228933215141,
        -0.15233562886714935,
        -0.05110638216137886,
        0.053255483508110046,
        -0.061125174164772034,
        0.01704764924943447,
        0.038132499903440475,
        -0.050364162772893906,
        -0.12823829054832458,
        -0.11358015984296799,
        -0.04804301634430885,
        0.03261716291308403,
        -0.09617675840854645,
        0.04728121683001518,
        0.09252138435840607,
        -0.21298395097255707,
        -0.15197812020778656,
        0.01321685966104269,
        -0.11750737577676773,
        -0.08382587134838104,
        0.01778365857899189,
        0.008119125850498676,
        -0.04753541201353073,
        -0.031591519713401794,
        0.02267773263156414,
        -0.16466598212718964,
        0.09064293652772903,
        -0.17452649772167206,
        -0.06855950504541397,
        0.004434465430676937,
        0.15532824397087097,
        -0.06484266370534897,
        0.03307409584522247,
        0.0650552287697792,
        -0.09093957394361496,
        0.049392640590667725,
        0.0710257887840271,
        -0.1192660853266716,
        0.186790332198143,
        0.15374845266342163,
        -0.1059335470199585,
        -0.05005012825131416,
        0.18788692355155945,
        0.14927932620048523,
        0.1471797078847885,
        0.05923081561923027,
        0.11604760587215424,
        -0.007013015914708376,
        0.001054400927387178,
        0.0687306672334671,
        -0.03635047376155853,
        0.03099803440272808,
        -0.10458886623382568,
        0.062477562576532364,
        -0.11613373458385468,
        -0.02586362697184086,
        -0.07009153068065643,
        -0.07482320070266724,
        0.05931920185685158,
        0.06693267077207565,
        -0.023503778502345085,
        -0.228664830327034,
        0.14247716963291168,
        0.11395425349473953,
        -0.07600688189268112,
        0.028384443372488022,
        -0.06892511248588562,
        -0.14827413856983185,
        -0.11954887956380844,
        0.001481406856328249,
        -0.053877029567956924,
        -0.11740999668836594,
        0.1347809135913849,
        -0.028102153912186623,
        -0.16825464367866516,
        0.1894674450159073,
        -0.03636613115668297,
        0.14699424803256989,
        -0.09492367506027222,
        -0.024888988584280014,
        -0.056601304560899734,
        0.011709134094417095,
        0.1403549611568451,
        -0.061664506793022156,
        0.046554796397686005,
        -0.12617401778697968,
        -0.10149677097797394,
        -0.14220872521400452,
        0.1978074610233307,
        0.04088420048356056,
        -1.50170421875373e-07,
        0.15423931181430817,
        -0.10895830392837524,
        0.10027702897787094,
        -0.029360581189393997,
        0.1277620494365692,
        0.0682004913687706,
        0.07758188992738724,
        0.059878189116716385,
        -0.08916007727384567,
        -0.07436951249837875,
        0.10086075216531754,
        -0.08546022325754166,
        0.18166406452655792,
        0.09581556916236877,
        -0.01152166910469532,
        -0.09185616672039032,
        -0.04212738946080208,
        0.08736684173345566,
        -0.1438683420419693,
        -0.09117641299962997,
        0.25674453377723694,
        0.06845124810934067,
        -0.026315871626138687,
        -0.13108180463314056,
        0.16661542654037476,
        -0.12182275205850601,
        -0.002910496201366186,
        0.18612824380397797,
        0.1351081281900406,
        -0.13322557508945465,
        0.04978865385055542,
        0.12524574995040894,
        0.19546577334403992,
        0.11288779973983765,
        -0.057688336819410324,
        -0.015678701922297478,
        0.05901815742254257,
        -0.07904480397701263,
        0.11930102854967117,
        0.04193786159157753,
        0.17286869883537292,
        -0.06719309091567993,
        0.0949443131685257,
        -0.13049161434173584,
        0.13455966114997864,
        -0.13302873075008392,
        -0.1326063871383667,
        -0.08431915193796158,
        0.16664250195026398,
        -0.17367839813232422,
        -0.13500620424747467,
        0.0141530130058527,
        -0.021715665236115456,
        -0.03864124044775963,
        -0.01475235540419817,
        0.06886158138513565,
        0.13722288608551025,
        -0.0581316240131855,
        -0.23235757648944855,
        0.013060486875474453,
        0.11575782299041748,
        -0.06617480516433716,
        -0.09129048883914948,
        0.13486623764038086,
        -0.1553555279970169,
        -0.09622480720281601,
        -0.045746345072984695,
        -0.06778334081172943,
        -0.12492729723453522,
        -0.11699787527322769,
        0.11054365336894989,
        -0.13274598121643066,
        0.17852582037448883,
        -0.018500452861189842,
        0.10442765802145004,
        0.07949130237102509,
        -0.003316112793982029,
        0.003987731412053108,
        0.00753224641084671,
        0.1759433001279831,
        -0.06770538538694382,
        -0.01609073206782341,
        -0.06500488519668579,
        -0.04511577636003494,
        -0.081571064889431,
        -0.148519828915596,
        -0.18823139369487762,
        0.0017725834622979164,
        0.06605678796768188,
        0.039149507880210876,
        -0.031963419169187546,
        -0.1815257966518402,
        0.13109271228313446,
        0.09653627127408981,
        0.0874815508723259,
        -0.11039729416370392,
        -0.11023208498954773,
        -0.04520682618021965,
        0.04215241223573685,
        -0.18571439385414124,
        -0.18060235679149628,
        -0.11873196810483932,
        0.058262165635824203,
        -0.14715591073036194,
        -0.10060066729784012,
        0.12067969888448715,
        0.154524564743042,
        0.06198523938655853,
        -0.12004244327545166,
        -0.1319778561592102,
        -0.12493319809436798,
        0.03337270766496658,
        0.13386453688144684,
        0.09034541249275208,
        0.12063616514205933,
        -0.10433584451675415,
        0.16493837535381317,
        -0.13792219758033752,
        0.12789882719516754,
        0.1754806786775589,
        -0.08171260356903076,
        -0.18059834837913513,
        -0.0980835109949112,
        0.16418980062007904,
        0.010944086126983166,
        0.023459266871213913,
        -0.07430971413850784,
        -0.11970816552639008,
        0.008413475006818771,
        -0.07248803228139877,
        0.054025862365961075,
        -0.14201660454273224,
        -0.10918223112821579,
        0.15928055346012115,
        0.16203822195529938,
        -0.0299430713057518,
        -0.008012203499674797,
        0.05567892640829086,
        0.04603947699069977,
        0.04397625848650932,
        0.18854574859142303,
        0.08019140362739563,
        0.17699311673641205,
        -0.01698214001953602,
        -0.17834468185901642,
        -0.015401127748191357,
        -0.047593533992767334,
        -0.00441740034148097,
        -0.137221559882164,
        0.1546187549829483,
        0.12710991501808167,
        -0.04971309378743172,
        0.13532313704490662,
        0.08320649713277817,
        0.0305841863155365,
        0.11812279373407364,
        0.001589866471476853,
        -0.15246179699897766,
        -0.1505090743303299,
        -0.026518207043409348,
        -0.055301859974861145,
        -0.04584736004471779,
        0.1170017421245575,
        0.17592009902000427,
        0.06243970990180969,
        -0.10184181481599808,
        0.015412190929055214,
        -0.0607687309384346,
        0.0962323397397995,
        0.14897270500659943,
        -0.011469230055809021,
        0.2166137546300888,
        0.18820412456989288,
        0.06781961768865585,
        0.09685113281011581,
        -0.10550102591514587,
        -0.11587195098400116,
        -0.08318901807069778,
        0.10284217447042465,
        -0.06145769730210304,
        0.007860074751079082,
        0.13245075941085815,
        -0.06269637495279312,
        0.14667341113090515,
        0.13109736144542694,
        0.009237454272806644,
        -0.11477219313383102,
        0.1011119857430458,
        -0.10543230921030045,
        0.09826253354549408,
        0.09193727374076843,
        0.029137009754776955,
        0.05906664580106735,
        -0.06557881087064743,
        -0.18586227297782898,
        -0.13061968982219696,
        0.13428598642349243,
        -0.05425658077001572,
        0.1888030469417572,
        -0.081619493663311,
        0.08382102102041245,
        -0.03893907740712166,
        0.04100446775555611,
        -0.11725463718175888,
        -0.18447671830654144,
        0.17042768001556396,
        -0.1135450154542923,
        -0.0732090175151825,
        0.15242160856723785,
        0.10458894819021225,
        -0.22196021676063538,
        0.04268227517604828,
        -0.09780759364366531,
        0.09171958267688751,
        -0.06443017721176147,
        -0.06394028663635254,
        0.11238663643598557,
        -0.1484869420528412,
        0.027370981872081757,
        -0.06809599697589874,
        0.10316289961338043,
        0.08332017809152603,
        0.14669811725616455,
        -0.15311333537101746,
        -0.012039321474730968,
        0.08679046481847763,
        -0.13995055854320526,
        -0.023441728204488754,
        -0.03301048278808594,
        -0.1209251880645752,
        0.04317622259259224,
        -0.038657043129205704,
        -0.0018009679624810815,
        0.01046100351959467,
        -0.15468156337738037,
        -0.10220552980899811,
        -0.10549458861351013,
        0.10712245106697083,
        0.0680544525384903,
        0.0794435665011406,
        0.19340594112873077,
        0.07350482791662216,
        -0.025038234889507294,
        -0.13160772621631622,
        0.047545209527015686,
        -0.03699085861444473,
        0.14577075839042664,
        -0.16613692045211792,
        -0.014230361208319664,
        0.0642000064253807,
        0.16255958378314972,
        0.006695703603327274,
        0.10396718978881836,
        -0.07007145136594772,
        0.09334880113601685,
        -0.03642236068844795,
        0.008664336986839771,
        0.2057255506515503,
        -0.25176697969436646,
        -0.13083508610725403,
        0.0037986619863659143,
        0.08983985334634781,
        -0.013730610720813274,
        0.0140545554459095,
        0.18853363394737244,
        0.14722944796085358,
        -0.10951297730207443,
        -0.18751968443393707,
        0.00582877965644002,
        -0.12421110272407532,
        -0.1526794284582138,
        -0.2037786841392517,
        -0.010944953188300133,
        0.11418856680393219,
        0.04848196730017662,
        -0.013902571983635426,
        0.08012964576482773,
        -0.13660255074501038,
        -0.14270319044589996,
        0.058524444699287415,
        0.006592391990125179,
        0.02532866969704628,
        0.12355418503284454,
        0.1442420780658722,
        -0.0993635430932045,
        -0.11025333404541016,
        -0.009348786436021328,
        -0.13845083117485046,
        -0.0077305505983531475,
        0.1937347948551178,
        -0.0944497212767601,
        -0.00839880108833313,
        0.03545992076396942,
        0.149845689535141,
        0.13534261286258698,
        -0.02233138494193554,
        -0.08516990393400192,
        -0.049130674451589584,
        -0.17794273793697357,
        0.1491374522447586,
        0.04120420292019844,
        -0.029202381148934364,
        0.056220054626464844,
        0.12229018658399582,
        0.0818793997168541,
        0.08474200963973999,
        0.14200852811336517,
        -0.02013961598277092,
        0.05256293714046478,
        -0.10258391499519348,
        -0.10594655573368073,
        -0.08233445137739182,
        0.10308431088924408,
        -0.22865749895572662,
        -0.1873830258846283,
        0.012978588230907917,
        -0.10731006413698196,
        0.1307554543018341,
        -0.14502876996994019,
        0.16064581274986267,
        -0.09787064790725708,
        0.1614910215139389,
        -0.11480602622032166,
        -0.02760988660156727,
        -0.013940133154392242,
        -0.038704659789800644,
        0.051412053406238556,
        0.021419957280158997,
        0.14150144159793854,
        -0.11051738262176514,
        -0.12199366092681885,
        -0.04668186604976654,
        0.11629137396812439,
        -0.12721845507621765,
        0.10046166181564331,
        -0.10959756374359131,
        0.11413176357746124,
        0.07152117788791656,
        0.07940755039453506,
        0.06369438767433167,
        0.18220974504947662,
        -0.07630931586027145,
        -0.12841510772705078,
        -0.09924007952213287,
        -0.0903688371181488,
        0.14081482589244843,
        0.1437121033668518,
        0.023252420127391815,
        -0.16996106505393982,
        0.02197893150150776,
        0.11969868838787079,
        0.16031405329704285,
        -0.0456128865480423,
        0.159093976020813,
        -0.1472700536251068,
        0.13445813953876495,
        0.13236159086227417,
        0.014024673029780388,
        0.005667807999998331,
        -0.0006569020333699882,
        0.0249142125248909,
        0.1282830387353897,
        0.10188804566860199,
        -0.10665122419595718,
        -0.0337265245616436,
        -0.0025381711311638355,
        0.15683363378047943,
        0.16589970886707306,
        0.2002178281545639,
        -0.18093256652355194,
        -0.008388449437916279,
        0.026653893291950226,
        0.0723363384604454,
        0.09281579405069351,
        0.1627487689256668,
        -0.11695022135972977,
        -0.005834185052663088,
        0.11943602561950684,
        -0.005521341692656279,
        -0.11320347338914871,
        -0.06386783719062805,
        0.1567421704530716,
        -0.02048617973923683,
        -0.17114843428134918,
        0.10744301974773407,
        -0.0072843823581933975,
        0.14975124597549438,
        -0.12231341749429703,
        -0.06868688762187958,
        0.07996964454650879,
        -0.03372795134782791,
        -0.09777357429265976,
        0.021745700389146805,
        -0.05831795558333397,
        -0.21391062438488007,
        0.0712743028998375,
        0.014174138195812702,
        0.025469141080975533,
        -0.023988205939531326,
        -0.04442048445343971,
        -0.1616048514842987,
        0.14212749898433685,
        -0.08002708852291107,
        0.02540900930762291,
        -0.1580534428358078,
        0.13060307502746582,
        0.10770495235919952,
        0.11258091777563095,
        -0.13411112129688263,
        0.06949888169765472,
        -0.08209142088890076,
        -0.10023951530456543,
        -0.09723735600709915,
        -0.0675123780965805,
        -0.0053269830532372,
        0.032686688005924225,
        0.013194015249609947,
        0.1988825649023056,
        -0.12326238304376602,
        0.15506383776664734,
        -0.08902023732662201,
        -0.08121607452630997,
        0.09512290358543396,
        -0.10815391689538956,
        -0.08937674015760422,
        -0.0939992144703865,
        0.09157805144786835,
        -0.09061192721128464,
        -0.15406180918216705,
        0.12957091629505157,
        0.13326828181743622,
        0.18599066138267517,
        -0.059812624007463455,
        -0.054285354912281036,
        0.07370694726705551,
        0.17347626388072968,
        0.1739358901977539,
        0.13214869797229767,
        0.17141322791576385,
        -0.01795201562345028,
        0.14636915922164917,
        0.01962185837328434,
        0.16835910081863403,
        -0.02518492378294468,
        0.03819340467453003,
        -0.09782623499631882,
        0.029476674273610115,
        0.008206924423575401,
        -0.023167576640844345,
        -0.09687050431966782,
        0.06848111748695374,
        0.15785512328147888,
        -0.0006414232193492353,
        -0.11492232233285904,
        -0.17344295978546143,
        0.08170861005783081,
        0.01858457550406456,
        -0.04620177298784256,
        0.16743552684783936,
        -0.12879419326782227,
        0.009594251401722431,
        0.17271150648593903,
        0.1169268935918808,
        0.03445171192288399,
        0.17325183749198914,
        0.043529655784368515,
        0.13825534284114838,
        -0.021867740899324417,
        0.06584326922893524,
        0.09014016389846802,
        0.1025581881403923,
        0.16247236728668213,
        -0.11846894770860672,
        -0.062029603868722916,
        -0.12727442383766174,
        -0.028506236150860786,
        -0.0014276298461481929,
        0.10790463536977768,
        0.14110639691352844,
        -0.008602955378592014,
        0.10214526951313019,
        0.18775567412376404,
        0.05916588380932808,
        -0.01593051850795746,
        0.07271945476531982,
        -0.16015860438346863,
        -0.09598762542009354,
        -0.024596376344561577,
        -0.10111448168754578,
        0.06992819160223007,
        -0.0989440530538559,
        0.10680792480707169,
        0.15045307576656342,
        0.005339437630027533,
        -0.00774214556440711,
        -0.07297774404287338,
        -0.16845650970935822,
        -0.1476057469844818,
        0.087361179292202,
        0.06725899130105972,
        -0.056096818298101425,
        -0.13580039143562317,
        0.12371380627155304,
        -0.1843879520893097,
        0.03643985465168953,
        0.014283984899520874,
        0.06328359246253967,
        0.12018973380327225,
        -0.11273080110549927,
        -0.038998015224933624,
        0.05174383893609047,
        0.11675243079662323,
        0.027790261432528496,
        -0.15160521864891052,
        -0.12399769574403763,
        0.024236897006630898,
        -0.10882473737001419,
        -0.05692627280950546,
        0.0839967206120491,
        -0.17224161326885223,
        -0.1704714000225067,
        -0.06705445796251297,
        0.17270846664905548,
        0.029454534873366356,
        -0.004534373991191387,
        0.013986551202833652,
        -0.0699184462428093,
        -0.14636467397212982,
        -0.017956260591745377,
        -0.058283478021621704,
        -0.05873098596930504,
        0.17019253969192505,
        -0.020118337124586105,
        0.12479990720748901,
        0.02917754463851452,
        -0.023933017626404762,
        -0.15203073620796204,
        -0.1339612901210785,
        0.1385032832622528,
        0.10702583938837051,
        0.13464635610580444,
        0.13143570721149445,
        -0.13284462690353394,
        0.1567169427871704,
        -0.06380387395620346,
        -0.0597342886030674,
        0.2328190803527832,
        -0.09666404128074646,
        0.2877778708934784,
        0.07631531357765198,
        0.14628657698631287,
        0.04761265218257904,
        0.1774970293045044,
        -0.15055140852928162,
        0.10233158618211746,
        0.07552167028188705,
        -0.03336036950349808,
        -0.03503897041082382,
        -0.06634336709976196,
        0.08630286902189255,
        0.14475369453430176,
        0.20836229622364044,
        0.11987751722335815,
        0.13994546234607697,
        -0.028685687109827995,
        -0.1256023347377777,
        -0.1312008649110794,
        0.07337470352649689,
        0.022484924644231796,
        0.13154670596122742,
        -0.1378786563873291,
        0.10992322862148285,
        -0.13212473690509796,
        -0.016228295862674713,
        0.1142076700925827,
        -0.13412243127822876,
        0.04057655483484268,
        0.16094811260700226,
        -0.0979776680469513,
        0.03485662862658501,
        0.015047814697027206,
        -0.06842231005430222,
        -0.16861875355243683,
        0.18480081856250763,
        -0.08687791228294373,
        -0.08830573409795761,
        0.07812730967998505,
        0.011650667525827885,
        -0.058200813829898834,
        -0.008074180223047733,
        0.17144545912742615,
        -0.07031174749135971,
        -0.029593463987112045,
        0.17281386256217957,
        0.05596990883350372,
        -0.001361468923278153,
        0.1083868220448494,
        -0.14479278028011322,
        0.1214873343706131,
        -0.03836898133158684,
        -0.07343662530183792,
        -0.03371916338801384,
        0.025219829753041267,
        0.1636624038219452,
        -0.08124176412820816,
        0.12559212744235992,
        -0.10308926552534103,
        -0.0026842153165489435,
        0.030976835638284683,
        0.13589857518672943,
        -0.09162776172161102,
        0.07101006805896759,
        -0.15073223412036896,
        0.09081120043992996,
        0.13445086777210236,
        -0.18285803496837616,
        -0.15980446338653564,
        0.0038726425264030695,
        0.1501363068819046,
        0.055766090750694275,
        -0.08648475259542465,
        0.1831614077091217,
        -0.12189358472824097,
        -0.18120411038398743,
        0.008539126254618168,
        -0.11444433033466339,
        0.15587539970874786,
        -0.03358687460422516,
        0.16733166575431824,
        0.07017459720373154,
        0.010063068941235542,
        0.10443825274705887,
        0.13587982952594757,
        0.18041998147964478,
        -0.10293656587600708,
        0.009802557528018951,
        -0.11734826117753983,
        -0.0506470613181591,
        0.058433469384908676,
        0.019831744953989983,
        0.06870479136705399,
        -0.12754479050636292,
        -0.1939115673303604,
        0.0793054923415184,
        -0.035153940320014954,
        0.10226593911647797,
        0.04209281504154205,
        -0.07166242599487305,
        0.10638746619224548,
        0.08111616224050522,
        0.06318102777004242,
        -0.07444293797016144,
        0.050344955176115036,
        -0.09719134122133255,
        -0.04882398992776871,
        -0.09909587353467941,
        -0.11892998218536377,
        0.0013857719022780657,
        0.00662488816305995,
        -0.10758926719427109,
        0.11322566121816635,
        0.18976470828056335,
        0.047262582927942276,
        0.04356614127755165,
        0.01596835069358349,
        -0.18642325699329376,
        0.08718614280223846,
        -0.03144768998026848,
        0.09347781538963318,
        0.03639276325702667,
        -0.09111762046813965,
        -0.1044187992811203,
        0.0947561264038086,
        0.15521655976772308,
        -0.04616640880703926,
        -0.07152605056762695,
        0.02875860594213009,
        0.06519903987646103,
        -0.09691411256790161,
        0.14826224744319916,
        0.1614265888929367,
        -0.14756184816360474,
        -0.09205304831266403,
        0.12097743153572083,
        -0.07946912944316864,
        -0.12032502144575119,
        -0.08489201962947845,
        -0.07616947591304779,
        -0.08456487953662872,
        0.0724959596991539,
        -0.1722559630870819,
        -0.05822737514972687,
        0.0719243511557579,
        0.04453689977526665,
        0.08742182701826096,
        -0.19760428369045258,
        0.12226743251085281,
        0.1044493243098259,
        -0.015276340767741203,
        0.16842302680015564,
        -0.17405670881271362,
        -0.10205988585948944,
        0.1187065988779068,
        0.12571072578430176,
        0.14010043442249298,
        -0.06710942834615707,
        0.13083763420581818,
        -0.08648905903100967,
        0.0640716403722763,
        0.056185282766819,
        -0.13787563145160675,
        -0.09944124519824982,
        0.15240727365016937,
        -0.02236270345747471,
        0.023937296122312546,
        0.010345392860472202,
        0.1086820587515831,
        -0.14789685606956482,
        0.08616819977760315,
        -0.2082785815000534,
        -0.07786388695240021,
        0.04746949300169945,
        0.052857767790555954,
        -0.13536669313907623,
        -0.1142195463180542,
        0.19683896005153656,
        -0.051488909870386124,
        0.14052864909172058,
        -0.1532820761203766,
        -0.10842963308095932,
        -0.15282557904720306,
        0.17802657186985016,
        -0.05699529871344566,
        -0.004633777309209108,
        -0.11203610152006149,
        0.022874310612678528,
        -0.012403955683112144,
        -0.10150749236345291,
        -0.27935662865638733,
        0.10006104409694672,
        0.041648149490356445,
        0.1422475427389145,
        0.16503404080867767,
        0.13941939175128937,
        0.10777658224105835,
        -0.13751500844955444,
        -0.1511518806219101,
        -0.07731424272060394,
        -0.14060606062412262,
        0.044043801724910736,
        0.04082920029759407,
        0.18656767904758453,
        0.07845494151115417,
        -0.09392326325178146,
        -0.09165015071630478,
        0.20147749781608582,
        -0.10073226690292358,
        0.1113281100988388,
        0.13784387707710266,
        -0.06669443845748901,
        0.04171431064605713,
        0.15552011132240295,
        -0.1163184642791748,
        -0.16070258617401123,
        -0.14711156487464905,
        -0.030693089589476585,
        0.10126891732215881,
        0.10743638128042221,
        -0.08509109169244766,
        -0.06685366481542587,
        -0.06739192456007004,
        -0.13092665374279022,
        0.046189963817596436,
        -0.1292203962802887,
        -0.13059620559215546,
        0.010691913776099682,
        -0.02535855397582054,
        -0.04751504957675934,
        -0.0178888700902462,
        0.049997568130493164,
        0.0787244364619255,
        -0.1295168697834015,
        0.10899201780557632,
        0.0777258574962616,
        -0.1238713413476944,
        0.13540194928646088,
        -0.05065317079424858,
        0.019618432968854904,
        0.07334188371896744,
        0.08506523817777634,
        0.026657791808247566,
        0.11967968940734863,
        0.23040440678596497,
        0.1450415998697281,
        0.161117285490036,
        0.10399340838193893,
        0.0600895918905735,
        0.02182072214782238,
        -0.01087852194905281,
        0.1831013560295105,
        -0.05917363613843918,
        0.07674165070056915,
        -0.07018287479877472,
        0.057521969079971313,
        0.1056726798415184,
        -0.1140335202217102,
        0.07880453020334244,
        -0.054108619689941406,
        0.1464167833328247,
        -0.1684391349554062,
        -0.17230230569839478,
        -0.011069958098232746,
        0.08833643049001694,
        -0.10675237327814102,
        0.1395254284143448,
        0.001126323128119111,
        -0.10850674659013748,
        0.04005688056349754,
        -0.19440175592899323,
        0.18395420908927917,
        -0.07798310369253159,
        0.09375912696123123,
        0.10602124780416489,
        0.11079642921686172,
        -0.05900058150291443,
        -0.10593397170305252,
        0.02703889086842537,
        -0.0744733065366745,
        0.04925043508410454,
        -0.0639905110001564,
        -0.05715097486972809,
        0.18260672688484192,
        0.02613239362835884,
        -0.13558830320835114,
        -0.06654787808656693,
        0.14891637861728668,
        -0.1820441484451294,
        0.02883593551814556,
        0.11454528570175171,
        0.08723744004964828,
        -0.009420121088624,
        -0.02516135387122631,
        0.17361600697040558,
        0.1239623874425888,
        -0.12798501551151276,
        -0.04281752556562424,
        -0.019112832844257355,
        -0.13311265408992767,
        -0.07485226541757584,
        -0.13503950834274292,
        0.13593941926956177,
        0.1004619374871254,
        0.08443444967269897,
        0.016478944569826126,
        -0.12850326299667358,
        -0.011922061443328857,
        0.14667902886867523,
        -0.11064408719539642,
        -0.14763695001602173,
        -0.14292675256729126,
        -0.10414239764213562,
        0.10004633665084839,
        -0.017744744196534157,
        -0.06249570474028587,
        0.03698510304093361,
        -0.10588088631629944,
        -0.012785365805029869,
        -0.038604486733675,
        -0.04815048724412918,
        -0.10207229107618332,
        0.1570674479007721,
        0.02802976965904236,
        0.021107405424118042,
        0.06570488214492798,
        -0.21764987707138062,
        0.07406623661518097,
        0.16159124672412872,
        0.18333923816680908,
        -0.0984225869178772,
        0.17716728150844574,
        -0.04416823759675026,
        -0.10571301728487015,
        -0.11930914223194122,
        -0.03319113329052925,
        -0.11122287809848785,
        -0.033152006566524506,
        0.0993824452161789,
        -0.015699366107583046,
        0.17073366045951843,
        -0.06446444988250732,
        0.12117774039506912,
        0.11032840609550476,
        0.1829536408185959,
        -0.09084492921829224,
        -0.0766841396689415,
        0.07720675319433212,
        -0.032447315752506256,
        0.16101068258285522,
        -0.11987924575805664,
        0.06952539831399918,
        -0.14847415685653687,
        -0.07949785143136978,
        -0.1762346625328064,
        0.13729307055473328,
        -0.13046886026859283,
        -0.05688237026333809,
        0.06638722121715546,
        0.018191469833254814,
        -0.12485779076814651,
        -0.13494817912578583,
        0.1533583253622055,
        0.1825430542230606,
        0.18353641033172607,
        0.045228105038404465,
        -0.052361130714416504,
        0.11588914692401886,
        -0.08784502744674683,
        -0.093900665640831,
        0.2175968587398529,
        0.0610361211001873,
        0.17686545848846436,
        0.14809595048427582,
        -0.0353265143930912,
        0.05503228306770325,
        0.19445817172527313,
        0.058042973279953,
        -0.041643016040325165,
        0.11982036381959915,
        0.10656603425741196,
        0.12565504014492035,
        0.11284182220697403,
        -0.0046408218331635,
        -0.12183832377195358,
        0.17580972611904144,
        0.06749912351369858,
        -0.12904945015907288,
        -0.09497203677892685,
