{
  "defaults": {},
  "inputs": [
    {
      "name": "DNNinput_ttag__channel",
      "offset": 3.0,
      "scale": 0.16666666666666666
    },
    {
      "name": "DNNinput_ttag__year",
      "offset": 3.0,
      "scale": 0.16666666666666666
    },
    {
      "name": "DNNinput_ttag__met_pt",
      "offset": -0.0,
      "scale": 0.0005
    },
    {
      "name": "DNNinput_ttag__met_phi",
      "offset": 4.0,
      "scale": 0.125
    },
    {
      "name": "DNNinput_ttag__lepton_pt",
      "offset": -0.0,
      "scale": 0.0005
    },
    {
      "name": "DNNinput_ttag__lepton_eta",
      "offset": 5.0,
      "scale": 0.1
    },
    {
      "name": "DNNinput_ttag__lepton_phi",
      "offset": 4.0,
      "scale": 0.125
    },
    {
      "name": "DNNinput_ttag__lepton_reliso",
      "offset": -0.0,
      "scale": 5.0
    },
    {
      "name": "DNNinput_ttag__lepton_charge",
      "offset": 1.0,
      "scale": 0.5
    },
    {
      "name": "DNNinput_ttag__lepton_dr_nextjet",
      "offset": -0.0,
      "scale": 0.16666666666666666
    },
    {
      "name": "DNNinput_ttag__lepton_dphi_nextjet",
      "offset": -0.0,
      "scale": 0.25
    },
    {
      "name": "DNNinput_ttag__lepton_deta_nextjet",
      "offset": -0.0,
      "scale": 0.16666666666666666
    },
    {
      "name": "DNNinput_ttag__lepton_ptrel_nextjet",
      "offset": -0.0,
      "scale": 0.00125
    },
    {
      "name": "DNNinput_ttag__lepton_dr_nextxjet",
      "offset": -0.0,
      "scale": 0.16666666666666666
    },
    {
      "name": "DNNinput_ttag__lepton_dphi_nextxjet",
      "offset": -0.0,
      "scale": 0.25
    },
    {
      "name": "DNNinput_ttag__lepton_deta_nextxjet",
      "offset": -0.0,
      "scale": 0.16666666666666666
    },
    {
      "name": "DNNinput_ttag__lepton_ptrel_nextxjet",
      "offset": -0.0,
      "scale": 0.00125
    },
    {
      "name": "DNNinput_ttag__dphi_lepton_met",
      "offset": -0.0,
      "scale": 0.25
    },
    {
      "name": "DNNinput_ttag__mtw",
      "offset": -0.0,
      "scale": 0.002
    },
    {
      "name": "DNNinput_ttag__pseudotop_m",
      "offset": -0.0,
      "scale": 0.00125
    },
    {
      "name": "DNNinput_ttag__tjet_pt",
      "offset": -0.0,
      "scale": 0.001
    },
    {
      "name": "DNNinput_ttag__tjet_eta",
      "offset": 5.0,
      "scale": 0.1
    },
    {
      "name": "DNNinput_ttag__tjet_phi",
      "offset": 4.0,
      "scale": 0.125
    },
    {
      "name": "DNNinput_ttag__dr_tjet_lepton",
      "offset": -0.0,
      "scale": 0.16666666666666666
    },
    {
      "name": "DNNinput_ttag__dphi_tjet_met",
      "offset": -0.0,
      "scale": 0.25
    },
    {
      "name": "DNNinput_ttag__ptbal_tjet_wboson",
      "offset": 2.0,
      "scale": 0.25
    },
    {
      "name": "DNNinput_ttag__ptbal_tjet_pseudotop",
      "offset": 2.0,
      "scale": 0.25
    },
    {
      "name": "DNNinput_ttag__n_xjets",
      "offset": -0.0,
      "scale": 0.1
    },
    {
      "name": "DNNinput_ttag__ht_xjets",
      "offset": -0.0,
      "scale": 0.001
    },
    {
      "name": "DNNinput_ttag__xjet1pt_pt",
      "offset": -0.0,
      "scale": 0.002
    },
    {
      "name": "DNNinput_ttag__xjet1pt_eta",
      "offset": 5.0,
      "scale": 0.1
    },
    {
      "name": "DNNinput_ttag__xjet1pt_phi",
      "offset": 4.0,
      "scale": 0.125
    },
    {
      "name": "DNNinput_ttag__xjet1pt_deepjet",
      "offset": -0.0,
      "scale": 1.0
    },
    {
      "name": "DNNinput_ttag__mass_xjet1pt_lepton",
      "offset": -0.0,
      "scale": 0.002
    },
    {
      "name": "DNNinput_ttag__dr_xjet1pt_lepton",
      "offset": -0.0,
      "scale": 0.16666666666666666
    },
    {
      "name": "DNNinput_ttag__dr_xjet1pt_tjet",
      "offset": -0.0,
      "scale": 0.16666666666666666
    },
    {
      "name": "DNNinput_ttag__xjet1dj_pt",
      "offset": -0.0,
      "scale": 0.002
    },
    {
      "name": "DNNinput_ttag__xjet1dj_eta",
      "offset": 5.0,
      "scale": 0.1
    },
    {
      "name": "DNNinput_ttag__xjet1dj_phi",
      "offset": 4.0,
      "scale": 0.125
    },
    {
      "name": "DNNinput_ttag__xjet1dj_deepjet",
      "offset": -0.0,
      "scale": 1.0
    },
    {
      "name": "DNNinput_ttag__mass_xjet1dj_lepton",
      "offset": -0.0,
      "scale": 0.002
    },
    {
      "name": "DNNinput_ttag__dr_xjet1dj_lepton",
      "offset": -0.0,
      "scale": 0.16666666666666666
    },
    {
      "name": "DNNinput_ttag__dr_xjet1dj_tjet",
      "offset": -0.0,
      "scale": 0.16666666666666666
    },
    {
      "name": "DNNinput_ttag__ijet1dj_deepjet",
      "offset": -0.0,
      "scale": 1.0
    },
    {
      "name": "DNNinput_ttag__dr_tjet_xjet",
      "offset": -0.0,
      "scale": 0.16666666666666666
    },
    {
      "name": "DNNinput_ttag__tnearestxjet_pt",
      "offset": -0.0,
      "scale": 0.002
    },
    {
      "name": "DNNinput_ttag__tnearestxjet_eta",
      "offset": 5.0,
      "scale": 0.1
    },
    {
      "name": "DNNinput_ttag__tnearestxjet_phi",
      "offset": 4.0,
      "scale": 0.125
    },
    {
      "name": "DNNinput_ttag__tnearestxjet_deepjet",
      "offset": -0.0,
      "scale": 1.0
    }
  ],
  "layers": [
    {
      "activation": "rectified",
      "architecture": "dense",
      "bias": [
        0.02366204373538494,
        -0.01219647005200386,
        0.022173192352056503,
        0.02014073170721531,
        0.004274879582226276,
        0.01736939512193203,
        -0.005791050381958485,
        0.011287284083664417,
        -0.012656440027058125,
        -0.014414536766707897,
        0.02436632104218006,
        0.004562804941087961,
        -0.02919784188270569,
        0.01266392134130001,
        0.033434491604566574,
        0.014412454329431057,
        0.02359914593398571,
        0.011013707146048546,
        -0.003618544666096568,
        0.00039819194353185594,
        0.017730379477143288,
        0.005710006225854158,
        -0.004253786988556385,
        0.008092212490737438,
        0.007790209259837866,
        -0.017317892983555794,
        0.01869836263358593,
        0.020100556313991547,
        0.01159442588686943,
        0.0009188352851197124,
        -0.018573561683297157,
        0.004848247393965721,
        0.0037557578179985285,
        -0.01423310860991478,
        -0.011066218838095665,
        0.008466044440865517,
        0.0006536472355946898,
        -0.005171185825020075,
        0.006481408141553402,
        0.017254630103707314,
        -0.002595769939944148,
        0.020489206537604332,
        0.03342122584581375,
        -0.00297030177898705,
        -0.00873821135610342,
        -0.0006273695034906268,
        0.013710212893784046,
        -0.027571167796850204,
        0.022315988317131996,
        0.004615394398570061,
        -0.006439462769776583,
        0.007131071295589209,
        0.0019125076942145824,
        -0.0029148797038942575,
        0.011063558980822563,
        -0.00801107008010149,
        0.019831040874123573,
        -0.005680566653609276,
        -0.023919593542814255,
        0.0038503678515553474,
        0.013149198144674301,
        -0.004113061353564262,
        0.02465122565627098,
        -0.01329453568905592,
        -0.006132175680249929,
        -0.004683971405029297,
        0.016802653670310974,
        -0.01734643056988716,
        -0.00042231875704601407,
        -0.0019123766105622053,
        0.007521813735365868,
        0.007768577896058559,
        0.02173994481563568,
        -0.004008892457932234,
        -0.020213397219777107,
        0.012570500373840332,
        -0.02035629190504551,
        -0.0015653728041797876,
        0.015690350905060768,
        0.024026185274124146,
        0.0019797126296907663,
        0.016627784818410873,
        -0.012706338427960873,
        -0.0035499308723956347,
        -0.0037658303044736385,
        -0.013879065401852131,
        -0.01226612739264965,
        -0.0050701904110610485,
        0.009438303299248219,
        -0.01726744882762432,
        -0.0004714064416475594,
        -0.00622263690456748,
        0.015497354790568352,
        -0.001163972425274551,
        0.018771037459373474,
        0.011372244916856289,
        0.015957167372107506,
        0.022044742479920387,
        0.018075406551361084,
        -4.075986362295225e-05,
        -0.003773881820961833,
        -6.94923146511428e-05,
        0.01003678236156702,
        -0.00378177291713655,
        0.004304287489503622,
        -0.0009086682694032788,
        0.009171170182526112,
        -0.007955169305205345,
        -0.018618732690811157,
        0.020112935453653336,
        -0.022543953731656075,
        0.020526397973299026,
        -0.0008448845474049449,
        0.006265842355787754,
        0.004184833727777004,
        0.004151594825088978,
        0.011819599196314812,
        -0.0015668870182707906,
        0.017168285325169563,
        -0.008105169050395489,
        0.019072210416197777,
        0.012174444273114204,
        0.019722197204828262,
        -0.0024396127555519342,
        0.003906481433659792,
        0.013584074564278126,
        -0.004237603861838579,
        -0.011111131869256496
      ],
      "weights": [
        -0.039197538048028946,
        -0.17527621984481812,
        -0.06727626174688339,
        0.027245769277215004,
        -0.10505463182926178,
        -0.08711279928684235,
        0.14259226620197296,
        -0.1525038480758667,
        -0.009544044733047485,
        0.08932039886713028,
        0.14412914216518402,
        0.03408794850111008,
        0.1643689125776291,
        -0.03233737125992775,
        -0.13853533565998077,
        0.07550323009490967,
        0.0586107037961483,
        -0.13291271030902863,
        0.07978727668523788,
        -0.0987372174859047,
        0.1287079155445099,
        0.009505772031843662,
        0.041224658489227295,
        0.012337020598351955,
        -0.003679127898067236,
        0.13810735940933228,
        0.04904671013355255,
        -0.04747641459107399,
        0.12650153040885925,
        -0.019424406811594963,
        0.12326847016811371,
        0.1189146414399147,
        -0.1546701043844223,
        -0.14885234832763672,
        0.08678460121154785,
        0.1696813553571701,
        0.0035798135213553905,
        -0.1160903200507164,
        -0.05036461353302002,
        0.1836724728345871,
        -0.2713361978530884,
        -0.20705562829971313,
        -0.030930371955037117,
        -0.003410984994843602,
        0.030307013541460037,
        0.15162193775177002,
        -0.022180847823619843,
        0.05868212506175041,
        0.11264069378376007,
        0.05652864649891853,
        0.10961295664310455,
        -0.022208355367183685,
        -0.010072899982333183,
        0.18813641369342804,
        0.05227883532643318,
        -0.17064136266708374,
        0.1395668089389801,
        -0.08512275665998459,
        0.030786192044615746,
        -0.003619538387283683,
        -0.08604221045970917,
        -0.13383683562278748,
        0.19448232650756836,
        0.12361306697130203,
        0.1172698363661766,
        0.021545449271798134,
        -0.1775711625814438,
        0.21201546490192413,
        -0.08516484498977661,
        0.06470074504613876,
        -0.1172967478632927,
        -0.004078539554029703,
        0.01939564384520054,
        0.061843499541282654,
        -0.07800807058811188,
        0.16751258075237274,
        0.03601718321442604,
        -0.204329252243042,
        -0.17164528369903564,
        0.016487309709191322,
        -0.02841840125620365,
        0.030054910108447075,
        0.20294931530952454,
        -0.11287622153759003,
        -0.16215606033802032,
        0.14086589217185974,
        0.12072749435901642,
        0.14971530437469482,
        -0.1438957154750824,
        0.17513000965118408,
        0.06379255652427673,
        0.023655032739043236,
        0.15170443058013916,
        -0.10577898472547531,
        -0.14581823348999023,
        0.154842346906662,
        0.02361951768398285,
        -0.15877439081668854,
        0.09141548722982407,
        0.08409041911363602,
        -0.002335340017452836,
        -0.012240579351782799,
        -0.10883194953203201,
        0.08817114681005478,
        0.03381336107850075,
        0.16083940863609314,
        0.14786559343338013,
        -0.06584244966506958,
        0.09862370789051056,
        -0.03413116931915283,
        -0.025488553568720818,
        -0.10345287621021271,
        0.19204427301883698,
        0.1311269849538803,
        -0.008987165056169033,
        0.10307720303535461,
        0.005941078066825867,
        -0.01943458989262581,
        -0.13211506605148315,
        -0.00882439874112606,
        0.03327208012342453,
        0.08545513451099396,
        0.0915646106004715,
        -0.0827002227306366,
        0.039456967264413834,
        -0.0010387300280854106,
        -0.03988076001405716,
        -0.13219983875751495,
        -0.0946560725569725,
        -0.0993146002292633,
        0.1778629571199417,
        0.02887665294110775,
        -0.04916556179523468,
        -0.11283957958221436,
        -0.019521864131093025,
        -0.041434720158576965,
        -0.12161378562450409,
        -0.07221968472003937,
        -0.07766538113355637,
        -0.22381891310214996,
        -0.02610141597688198,
        0.07578036934137344,
        -0.10778774321079254,
        0.02102832868695259,
        -0.10375939309597015,
        0.19145721197128296,
        0.08365904539823532,
        0.024198897182941437,
        -0.11192431300878525,
        0.17621053755283356,
        0.022491153329610825,
        -0.2550150454044342,
        0.08632358908653259,
        0.10277294367551804,
        0.07163532078266144,
        0.1397738754749298,
        -0.029998479411005974,
        0.09236763417720795,
        0.1042155921459198,
        0.20773865282535553,
        0.06085200980305672,
        0.03517230227589607,
        0.053106341511011124,
        0.08765829354524612,
        -0.02174639143049717,
        0.10438995063304901,
        -0.14648368954658508,
        -0.12543916702270508,
        0.051131393760442734,
        -0.13840141892433167,
        -0.03144717961549759,
        -0.018055833876132965,
        -0.16636177897453308,
        0.16766074299812317,
        0.09007332473993301,
        0.055656008422374725,
        -0.07019249349832535,
        0.09081605821847916,
        -0.1568121314048767,
        -0.07651277631521225,
        -0.02745124325156212,
        -0.03615047037601471,
        0.03383089601993561,
        -0.12433250993490219,
        -0.1514221876859665,
        0.11052509397268295,
        -0.005735930521041155,
        0.09730726480484009,
        0.10330571979284286,
        0.1643090844154358,
        -0.1743648648262024,
        -0.016802841797471046,
        0.15397398173809052,
        0.07244304567575455,
        0.1263013631105423,
        -0.16262684762477875,
        0.12242314219474792,
        -0.04206252843141556,
        -0.04114826023578644,
        -0.17549340426921844,
        -0.15124328434467316,
        0.13466818630695343,
        -0.13851742446422577,
        0.04633471369743347,
        -0.1671115756034851,
        0.03242500126361847,
        -0.09623904526233673,
        -0.2004198282957077,
        0.0941079631447792,
        0.0661931037902832,
        -0.1474265158176422,
        -0.20262180268764496,
        -0.11352315545082092,
        0.15871991217136383,
        -0.0454711951315403,
        0.07790946960449219,
        -0.0626390129327774,
        0.05245703086256981,
        -0.14535143971443176,
        0.13475266098976135,
        -0.05184323340654373,
        0.05903920903801918,
        -0.08476857841014862,
        -0.08181934803724289,
        -0.07020045071840286,
        0.02690797857940197,
        0.18258190155029297,
        0.14830714464187622,
        -0.043459806591272354,
        0.07137191295623779,
        0.1780085265636444,
        0.09660551697015762,
        0.03286541625857353,
        -0.07989460229873657,
        -0.060851771384477615,
        0.16796977818012238,
        0.08647731691598892,
        -0.13842585682868958,
        -0.04705309495329857,
        0.09507579356431961,
        -0.09818940609693527,
        -0.16007710993289948,
        -0.1737383008003235,
        -0.07622695714235306,
        0.08428594470024109,
        0.05351366102695465,
        -0.05330511927604675,
        -0.03237432241439819,
        -0.14696449041366577,
        -0.15460257232189178,
        -0.025181621313095093,
        0.025043081492185593,
        -0.03348146006464958,
        0.13136771321296692,
        0.09067053347826004,
        -0.08350979536771774,
        -0.12845781445503235,
        -0.039849892258644104,
        -0.04428815841674805,
        -0.12316717207431793,
        0.1342410296201706,
        -0.005912907887250185,
        -0.06520579755306244,
        -0.13863863050937653,
        0.15938064455986023,
        0.03367428481578827,
        -0.02252800017595291,
        -0.10796728730201721,
        0.057377591729164124,
        -0.09155760705471039,
        0.01739795133471489,
        0.1869136542081833,
        -0.10177932679653168,
        -0.1240062564611435,
        -0.0010615381179377437,
        -0.07263683527708054,
        0.015032097697257996,
        0.05578171834349632,
        -0.03619246929883957,
        0.046477049589157104,
        0.1802612543106079,
        -0.1031985655426979,
        -0.0038610545452684164,
        0.05982574447989464,
        0.1421099454164505,
        -0.2455880343914032,
        -0.2142213135957718,
        0.10011379420757294,
        0.16690093278884888,
        0.16207294166088104,
        -0.11238303780555725,
        0.16203443706035614,
        -0.14757417142391205,
        0.08247850090265274,
        0.07146891951560974,
        -0.07294871658086777,
        0.22534038126468658,
        -0.02712835744023323,
        -0.0720980241894722,
        0.00459953211247921,
        0.046977970749139786,
        -0.09829910844564438,
        -0.051442019641399384,
        0.2339644730091095,
        -0.00272359442897141,
        -0.09667135775089264,
        -0.09700661152601242,
        0.07995019853115082,
        0.11341670155525208,
        0.020085709169507027,
        0.2065928876399994,
        -0.015743620693683624,
        0.09148302674293518,
        -0.055813636630773544,
        -0.017211314290761948,
        0.1022251546382904,
        0.008768275380134583,
        -0.04866417869925499,
        0.06526244431734085,
        -0.03774728253483772,
        -0.05278646945953369,
        0.15699723362922668,
        -0.1626020222902298,
        0.09606911242008209,
        -0.09048661589622498,
        -0.10247737169265747,
        -0.08944398164749146,
        -0.0990360751748085,
        -0.05310739949345589,
        -0.1849781721830368,
        0.07750141620635986,
        -0.1518011838197708,
        0.17638322710990906,
        0.1423436403274536,
        0.21239477396011353,
        0.006737827323377132,
        0.060824159532785416,
        0.20279987156391144,
        -0.08376655727624893,
        0.08934523165225983,
        0.012925611808896065,
        -0.15547458827495575,
        0.1622745841741562,
        -0.030666548758745193,
        -0.0267794169485569,
        -0.2542150318622589,
        -0.058020010590553284,
        0.3743225634098053,
        -0.08693346381187439,
        0.1403999626636505,
        -0.268812358379364,
        -0.05301227793097496,
        0.04914693906903267,
        0.1253475397825241,
        0.005244606174528599,
        0.1792244166135788,
        -0.15752758085727692,
        -0.11354071646928787,
        0.0879339724779129,
        -0.19225679337978363,
        0.14720720052719116,
        -0.05140950530767441,
        0.1380119025707245,
        -0.024174897000193596,
        0.07074151188135147,
        -0.09930101037025452,
        -0.020892756059765816,
        -0.07351206988096237,
        0.16596972942352295,
        -0.07265804708003998,
        0.2047576904296875,
        0.19772110879421234,
        -0.03811405599117279,
        0.10223424434661865,
        -0.038354262709617615,
        0.09235256165266037,
        -0.18168401718139648,
        -0.0026960286777466536,
        0.15416237711906433,
        0.0017284391215071082,
        -0.11219854652881622,
        -0.14660406112670898,
        -0.14952600002288818,
        0.16968776285648346,
        0.03973367437720299,
        -0.12436725944280624,
        0.028178684413433075,
        -0.17723436653614044,
        0.0012693348107859492,
        0.04173937067389488,
        0.10336451977491379,
        0.12166449427604675,
        -0.0019993390887975693,
        -0.012423884123563766,
        0.10254529863595963,
        0.08222661912441254,
        -0.25304079055786133,
        -0.11236412823200226,
        -0.19923633337020874,
        -0.14672231674194336,
        -0.13885322213172913,
        0.1801649034023285,
        0.029735155403614044,
        0.1041303351521492,
        0.16289368271827698,
        0.05983373150229454,
        -0.17242543399333954,
        -0.055484045296907425,
        -0.09244322776794434,
        0.014206675812602043,
        -0.003109709359705448,
        -0.13553974032402039,
        0.023742880672216415,
        0.012879414483904839,
        -0.18262341618537903,
        0.03495044633746147,
        0.14955924451351166,
        0.005305345635861158,
        0.06043998524546623,
        0.02441864088177681,
        -0.06897705048322678,
        -0.07316330820322037,
        0.03090985305607319,
        0.030175603926181793,
        -0.13247133791446686,
        -0.188044935464859,
        -0.025571923702955246,
        -0.18719373643398285,
        0.12355902791023254,
        -0.08362860977649689,
        0.0055642928928136826,
        0.1241149976849556,
        0.07602647691965103,
        -0.06479707360267639,
        0.11151207983493805,
        0.18644900619983673,
        -0.06072711572051048,
        -0.07155007123947144,
        -0.03652927652001381,
        0.07791610062122345,
        -0.14016975462436676,
        0.020441517233848572,
        0.07676149904727936,
        -0.16442148387432098,
        -0.16472899913787842,
        -0.03309042751789093,
        0.07997605949640274,
        -0.05951433256268501,
        -0.10824710875749588,
        -0.05035284161567688,
        -0.08759459853172302,
        -0.06294238567352295,
        -0.08397079259157181,
        0.08020593971014023,
        -0.1043771281838417,
        -0.04003404453396797,
        -0.1210620328783989,
        -0.2392445057630539,
        -0.024620942771434784,
        -0.01018028799444437,
        0.11052050441503525,
        0.10544861108064651,
        0.09061543643474579,
        -0.02543569542467594,
        -0.21670107543468475,
        0.024280600249767303,
        -0.18206295371055603,
        -0.13246536254882812,
        -0.04084000363945961,
        -0.10318037867546082,
        0.06133073940873146,
        0.17368054389953613,
        -0.05647120252251625,
        0.06302249431610107,
        -0.1829281449317932,
        0.009033311158418655,
        0.09975288808345795,
        -0.1462073028087616,
        0.0554853230714798,
        0.07535720616579056,
        0.13230378925800323,
        0.11340022832155228,
        -0.030547646805644035,
        0.0012119603343307972,
        -0.2153012454509735,
        0.12538456916809082,
        -0.01826581358909607,
        -0.041993383318185806,
        -0.026797467842698097,
        0.049883536994457245,
        -0.0166087094694376,
        0.18628732860088348,
        -0.029998252168297768,
        0.15553167462348938,
        0.12379895895719528,
        0.16342569887638092,
        -0.11595515161752701,
        0.083177350461483,
        0.009237075224518776,
        0.08402255922555923,
        -0.13285604119300842,
        0.0967106893658638,
        -0.03810577094554901,
        0.04619469866156578,
        0.029841339215636253,
        0.0940924882888794,
        0.05775058642029762,
        0.08546004444360733,
        -0.047596171498298645,
        0.1242438405752182,
        0.033072877675294876,
        0.14514435827732086,
        -0.07729180157184601,
        -0.046120982617139816,
        0.1613936871290207,
        -0.018670378252863884,
        0.09952467679977417,
        -0.0813554972410202,
        0.08741497248411179,
        -0.014213972724974155,
        0.09137967228889465,
        -0.14583690464496613,
        0.1261274367570877,
        -0.22948125004768372,
        0.0424799919128418,
        0.1438128799200058,
        0.14025385677814484,
        0.13623321056365967,
        -0.0993352010846138,
        0.014272852800786495,
        -0.1095006987452507,
        -0.12055780738592148,
        0.08242004364728928,
        -0.21701835095882416,
        0.03887804597616196,
        0.16475743055343628,
        -0.05967044085264206,
        -0.09923091530799866,
        -0.1769760251045227,
        0.0846485123038292,
        0.023342464119195938,
        0.2027716189622879,
        0.1299593299627304,
        0.12105952203273773,
        0.17502819001674652,
        0.003881203942000866,
        0.11793792992830276,
        -0.07069513201713562,
        -0.11179213970899582,
        -0.11035946011543274,
        -0.24560031294822693,
        0.09325894713401794,
        -0.11852128058671951,
        -0.07512623816728592,
        0.13566471636295319,
        0.024825584143400192,
        0.0991264060139656,
        -0.10150656849145889,
        -0.15578392148017883,
        0.06846165657043457,
        0.012742575258016586,
        -0.04593699052929878,
        0.11551665514707565,
        -0.01953636109828949,
        0.10422457009553909,
        -0.07795699685811996,
        0.13757812976837158,
        0.08618548512458801,
        0.08801494538784027,
        0.18127690255641937,
        0.03372012451291084,
        0.05163033679127693,
        -0.014222551137208939,
        0.019798045977950096,
        0.029057003557682037,
        -0.01873360574245453,
        0.05557836964726448,
        -0.01599201187491417,
        -0.006802318152040243,
        0.19750085473060608,
        0.11319898813962936,
        0.09825889766216278,
        -0.20443351566791534,
        -0.006726700812578201,
        -0.13903982937335968,
        0.17884501814842224,
        0.134377583861351,
        -0.16102778911590576,
        -0.1312495768070221,
        0.10272028297185898,
        0.11778892576694489,
        0.10516288876533508,
        0.006987681612372398,
        -0.10565444082021713,
        -0.10288168489933014,
        -0.15137968957424164,
        0.03800550103187561,
        -0.08270661532878876,
        0.005654307547956705,
        -0.08611313253641129,
        -0.19759441912174225,
        0.0606856644153595,
        -0.10315289348363876,
        0.11719223111867905,
        -0.14612093567848206,
        0.007455981336534023,
        0.10514796525239944,
        0.13052456080913544,
        -0.11092261970043182,
        -0.10053558647632599,
        0.04265212640166283,
        -8.228775550378487e-05,
        0.15387745201587677,
        -0.04498088359832764,
        0.0040619391947984695,
        0.15104429423809052,
        0.13788928091526031,
        0.09721782803535461,
        0.09432774782180786,
        0.08756743371486664,
        0.05357304587960243,
        0.01184858102351427,
        0.13560184836387634,
        0.16139358282089233,
        -0.11149929463863373,
        0.05847927927970886,
        0.10707022249698639,
        0.12868542969226837,
        0.18125265836715698,
        0.19466817378997803,
        -0.12646324932575226,
        -0.10541457682847977,
        -0.055723000317811966,
        0.08245833218097687,
        -0.08039869368076324,
        0.1219821497797966,
        0.07685539871454239,
        0.01572679728269577,
        -0.0739092081785202,
        0.09018860757350922,
        0.108712337911129,
        -0.10315454751253128,
        -0.14820779860019684,
        -0.15095241367816925,
        0.011439567431807518,
        -0.10150276869535446,
        -0.08261104673147202,
        -0.14317600429058075,
        0.17375081777572632,
        0.028660662472248077,
        -0.10889805108308792,
        -0.16919448971748352,
        -0.042286280542612076,
        0.1474374234676361,
        -0.06423743069171906,
        0.0748194232583046,
        0.02613256499171257,
        -0.08689006417989731,
        -0.03446781262755394,
        0.044213615357875824,
        0.17867228388786316,
        0.03567997366189957,
        -0.0664442852139473,
        0.06233195215463638,
        -0.15673242509365082,
        -0.01939108967781067,
        0.1260002702474594,
        0.05824148654937744,
        -0.0676942840218544,
        -0.038262989372015,
        0.19557388126850128,
        0.199464350938797,
        0.08615013211965561,
        0.12621939182281494,
        -0.0866381824016571,
        -0.12109177559614182,
        0.060383155941963196,
        -0.1674826741218567,
        0.04786797612905502,
        0.13144421577453613,
        -0.0014098217943683267,
        0.01810506545007229,
        0.10293493419885635,
        0.1276177316904068,
        -0.10778148472309113,
        -0.009192054159939289,
        0.13567307591438293,
        -0.010756663046777248,
        -0.14773373305797577,
        -0.07670273631811142,
        -0.11550945043563843,
        -0.12750442326068878,
        -0.06877689808607101,
        -0.014322903007268906,
        -0.09343135356903076,
        0.1421743482351303,
        -0.09960233420133591,
        -0.1873069405555725,
        -0.05618263781070709,
        0.08724027872085571,
        -0.0264153853058815,
        0.042908020317554474,
        -0.20077762007713318,
        0.22525571286678314,
        0.11896146088838577,
        -0.03649558126926422,
        -0.13377900421619415,
        -0.02942887507379055,
        0.14834363758563995,
        0.07800954580307007,
        0.1536557376384735,
        0.1338595300912857,
        -0.1494978964328766,
        0.10671889036893845,
        -0.11101175099611282,
        -0.055971816182136536,
        0.09520474076271057,
        0.08538123965263367,
        -0.08599159121513367,
        -0.18415386974811554,
        0.1534530371427536,
        -0.08936250954866409,
        0.02856225147843361,
        0.0777493268251419,
        -0.024496721103787422,
        0.17475107312202454,
        -0.16150406002998352,
        -0.14676332473754883,
        0.18841125071048737,
        -0.0932270884513855,
        0.00896621122956276,
        0.05698348209261894,
        -0.09218023717403412,
        -0.008257869631052017,
        0.08868934959173203,
        -0.03265136107802391,
        -0.01850397326052189,
        0.03766380622982979,
        -0.13746607303619385,
        0.016259627416729927,
        0.005736493971198797,
        -0.02870759181678295,
        -0.10799006372690201,
        0.025727329775691032,
        -0.07213839143514633,
        -0.05302032083272934,
        0.09796259552240372,
        -0.09455367177724838,
        -0.01842043548822403,
        0.15751835703849792,
        -0.13225547969341278,
        0.25465038418769836,
        0.027380986139178276,
        0.13911466300487518,
        0.24837413430213928,
        -0.07763845473527908,
        0.029010266065597534,
        0.13137872517108917,
        -0.07193023711442947,
        -0.03727825731039047,
        -0.13621993362903595,
        0.016007741913199425,
        -0.05341258645057678,
        0.1312045305967331,
        0.05613730475306511,
        0.03312920778989792,
        0.08004235476255417,
        -0.16033470630645752,
        -0.16760075092315674,
        -0.16759975254535675,
        0.062197428196668625,
        0.08195152878761292,
        0.1351720690727234,
        0.032219648361206055,
        -0.07526542991399765,
        0.044346682727336884,
        0.20761148631572723,
        -0.1009323000907898,
        -0.10344290733337402,
        0.15819807350635529,
        -0.06622178107500076,
        -0.03956614434719086,
        0.021970396861433983,
        0.033365920186042786,
        -0.09889541566371918,
        0.054760269820690155,
        -0.17387540638446808,
        0.0841299518942833,
        0.23147568106651306,
        0.1466161608695984,
        0.006065412424504757,
        0.19616886973381042,
        0.09361212700605392,
        0.012409921735525131,
        0.1441105306148529,
        0.00032956572249531746,
        -0.005292890593409538,
        -0.17268967628479004,
        -0.14195899665355682,
        -0.17674040794372559,
        0.11070223897695541,
        0.14554482698440552,
        0.09359956532716751,
        0.17250941693782806,
        -0.06694050878286362,
        0.17009735107421875,
        -0.11745932698249817,
        -0.07580482214689255,
        0.050409771502017975,
        0.18905596435070038,
        0.03093832917511463,
        -0.05986001342535019,
        -0.04867969825863838,
        0.11805320531129837,
        0.17315536737442017,
        0.03783101215958595,
        -0.10912259668111801,
        0.1266418695449829,
        -0.01748470775783062,
        -0.09866006672382355,
        -0.136308491230011,
        -0.020501092076301575,
        0.03448954224586487,
        0.17813651263713837,
        -0.04597169905900955,
        0.0009031731751747429,
        -0.02366816997528076,
        -0.06733006983995438,
        -0.16965000331401825,
        0.1876414269208908,
        -0.12175551056861877,
        -0.1486705094575882,
        0.09264892339706421,
        -0.15341079235076904,
        -0.03669830411672592,
        0.02090478129684925,
        -0.1725504994392395,
        -0.11477388441562653,
        0.17052233219146729,
        -0.09844020009040833,
        0.030101733282208443,
        0.15129436552524567,
        0.11372781544923782,
        0.014036670327186584,
        -0.023506537079811096,
        -0.10080324858427048,
        -0.17243345081806183,
        -0.059202320873737335,
        0.014144625514745712,
        0.008699622936546803,
        -0.09534502029418945,
        -0.07702645659446716,
        0.015797000378370285,
        0.14356020092964172,
        0.010672788135707378,
        -0.1156705990433693,
        -0.07999449223279953,
        -0.04738032817840576,
        0.022347358986735344,
        -0.13048076629638672,
        -0.029971417039632797,
        0.13721820712089539,
        -0.08452699333429337,
        -0.04655915126204491,
        -0.007971984334290028,
        -0.0011121343122795224,
        0.03241892158985138,
        -0.07637405395507812,
        0.037029244005680084,
        -0.07242801040410995,
        0.15685491263866425,
        -0.1583997756242752,
        0.1248781606554985,
        -0.06052258983254433,
        -0.11273664981126785,
        -0.12600837647914886,
        0.17036455869674683,
        0.005052295047789812,
        0.1157870814204216,
        -0.1479184925556183,
        0.028511105105280876,
        0.10200484842061996,
        0.024065330624580383,
        -0.10552039742469788,
        0.260606974363327,
        -0.14684763550758362,
        0.16261090338230133,
        -0.13782566785812378,
        -0.12757326662540436,
        -0.014579473063349724,
        -0.14551515877246857,
        0.10223116725683212,
        -0.09197824448347092,
        0.12567701935768127,
        -0.0610932782292366,
        0.07790955156087875,
        0.14548680186271667,
        -0.10957112163305283,
        0.05505816265940666,
        -0.16249671578407288,
        -0.15075455605983734,
        -0.07526526600122452,
        0.1042066365480423,
        -0.08949270844459534,
        0.10735436528921127,
        0.13770221173763275,
        0.13271856307983398,
        0.09502646327018738,
        -0.1657513827085495,
        -0.059117041528224945,
        0.21366487443447113,
        -0.0200356412678957,
        -0.06406369805335999,
        0.10811708122491837,
        0.08411549776792526,
        0.006008031312376261,
        -0.029684370383620262,
        0.12575893104076385,
        0.2048332542181015,
        0.0469018928706646,
        -0.07049494236707687,
        0.1698923259973526,
        0.1604757308959961,
        0.007735195569694042,
        0.17900270223617554,
        -0.09678176045417786,
        0.03412739560008049,
        0.1441718190908432,
        -0.05077371746301651,
        -0.06799528747797012,
        0.015353827737271786,
        -0.020576320588588715,
        0.04717569053173065,
        -0.25569212436676025,
        -0.16400747001171112,
        0.30092352628707886,
        0.13795244693756104,
        -0.05097214877605438,
        -0.05225515365600586,
        -0.1548241823911667,
        0.09162523597478867,
        0.13309521973133087,
        -0.1694556176662445,
        -0.15936778485774994,
        0.15030919015407562,
        0.11875001341104507,
        0.006036763545125723,
        0.04985105246305466,
        -0.10911142826080322,
        0.2069864422082901,
        -0.16530103981494904,
        0.024196946993470192,
        -0.12760749459266663,
        0.18205216526985168,
        0.13517393171787262,
        0.010441816411912441,
        0.06848914176225662,
        -0.0016643896233290434,
        -0.11588043719530106,
        0.049672603607177734,
        0.03888094052672386,
        -0.02981393039226532,
        -0.13907477259635925,
        -0.0843297615647316,
        -0.1754339039325714,
        -0.16044294834136963,
        -0.014526620507240295,
        -0.027278777211904526,
        -0.16561739146709442,
        -0.16128596663475037,
        0.031137917190790176,
        -0.045585405081510544,
        0.12306065112352371,
        -0.1268797069787979,
        -0.07396714389324188,
        -0.1382509022951126,
        -0.01979074813425541,
        0.1511063575744629,
        0.04586052894592285,
        0.03638896718621254,
        0.09999514371156693,
        0.11324600130319595,
        -0.019936073571443558,
        0.08557617664337158,
        0.3316459357738495,
        0.16856567561626434,
        -0.013787650503218174,
        -0.18607747554779053,
        -0.03743578493595123,
        -0.08138242363929749,
        -0.03888048604130745,
        -0.2232675552368164,
        0.013804428279399872,
        0.09691538661718369,
        0.13076886534690857,
        0.019041884690523148,
        0.04611198976635933,
        0.16137199103832245,
        -0.05942375585436821,
        -0.17051686346530914,
        -0.13851499557495117,
        0.10188977420330048,
        -0.1535307615995407,
        0.0353613942861557,
        0.07057877629995346,
        0.0739348903298378,
        -0.06676684319972992,
        -0.16073372960090637,
        -0.19109946489334106,
        -0.12516722083091736,
        -0.15236221253871918,
        0.14174535870552063,
        -0.02240726910531521,
        -0.21264611184597015,
        -0.14644117653369904,
        0.10636287927627563,
        -0.23585814237594604,
        -0.07789938896894455,
        -0.06393784284591675,
        -0.15378797054290771,
        -0.0187700055539608,
        0.1064557284116745,
        0.028840024024248123,
        0.17149551212787628,
        0.05371670052409172,
        0.00934114120900631,
        0.12893928587436676,
        -0.13253016769886017,
        0.0836155042052269,
        -0.08458326011896133,
        0.09501739591360092,
        0.036440569907426834,
        -0.13673236966133118,
        0.1518394649028778,
        -0.02964198775589466,
        0.012618567794561386,
        -0.11685243993997574,
        0.03323579579591751,
        -0.12084988504648209,
        0.16540417075157166,
        0.07958238571882248,
        -0.0039019796531647444,
        -0.07870961725711823,
        0.09216736257076263,
        0.1652950495481491,
        0.12058054655790329,
        0.17341068387031555,
        -0.07703673839569092,
        0.18206049501895905,
        0.09912148863077164,
        0.0217583067715168,
        -0.0005648724618367851,
        -0.05635683983564377,
        0.04092925414443016,
        0.08096007257699966,
        -0.10407444834709167,
        -0.021680714562535286,
        -0.13519151508808136,
        0.09181804209947586,
        -0.08104526251554489,
        -0.12008362263441086,
        -0.14378991723060608,
        0.012120652012526989,
        -0.07961519807577133,
        0.13593216240406036,
        -0.08182931691408157,
        0.0021391469053924084,
        0.05964401364326477,
        0.05345052480697632,
        0.05877169966697693,
        -0.075614333152771,
        -0.1402958482503891,
        -0.3218522369861603,
        0.03798723220825195,
        0.12813493609428406,
        -0.0670643225312233,
        0.07920325547456741,
        -0.0711236372590065,
        -0.08068957179784775,
        -0.007849025540053844,
        -0.08584341406822205,
        -0.11255857348442078,
        -0.12678512930870056,
        -0.00751291261985898,
        -0.08405003696680069,
        0.07619006931781769,
        -0.11920326203107834,
        -0.10595475882291794,
        -0.029158053919672966,
        0.05494911968708038,
        -0.008819014765322208,
        -0.13814285397529602,
        -0.11020704358816147,
        -0.1730114221572876,
        -0.08406585454940796,
        0.10259583592414856,
        0.07019124925136566,
        -0.1520625650882721,
        0.04525512084364891,
        -0.02620348148047924,
        -0.10646028071641922,
        -0.020021000877022743,
        -0.16156023740768433,
        -0.08040052652359009,
        0.09579171240329742,
        0.05313938856124878,
        -0.10595054924488068,
        -0.044643014669418335,
        -0.007891431450843811,
        0.044960424304008484,
        0.08083087205886841,
        0.04076900705695152,
        -0.06936684995889664,
        -0.1552577167749405,
        0.15145228803157806,
        0.04702181741595268,
        -0.12770500779151917,
        0.03943454474210739,
        -0.05147813633084297,
        0.10098892450332642,
        -0.09536852687597275,
        -0.0668712630867958,
        -0.16020065546035767,
        -0.02944423258304596,
        0.06763186305761337,
        -0.028620393946766853,
        0.10461701452732086,
        0.04476721212267876,
        0.024805579334497452,
        -0.18453340232372284,
        -0.0016676262021064758,
        0.20963069796562195,
        0.15832801163196564,
        0.07894191145896912,
        0.08206592500209808,
        0.11969751119613647,
        -0.05745431035757065,
        -0.03656719624996185,
        0.1876252144575119,
        0.1227644681930542,
        0.0996767058968544,
        0.11857021600008011,
        -0.018170373514294624,
        -0.18824312090873718,
        0.07057929784059525,
        -0.06601820886135101,
        0.02885831519961357,
        0.15320652723312378,
        -0.11029889434576035,
        0.042037542909383774,
        -0.04566521570086479,
        -0.1240411177277565,
        0.022002551704645157,
        0.14045897126197815,
        0.149544358253479,
        0.08504588901996613,
        0.19992749392986298,
        -0.10177887976169586,
        -0.092972032725811,
        0.1292484551668167,
        -0.07393709570169449,
        0.12679624557495117,
        -0.06717757880687714,
        0.015050031244754791,
        0.1337088793516159,
        0.08491620421409607,
        0.2202298939228058,
        -0.08754696696996689,
        -0.11872836947441101,
        -0.10676012188196182,
        -0.024317339062690735,
        0.015165463089942932,
        0.054272349923849106,
        -0.14292147755622864,
        0.16324061155319214,
        0.1849890500307083,
        0.11889500170946121,
        0.10625156760215759,
        0.07831959426403046,
        0.15771524608135223,
        0.025488117709755898,
        -0.08661656081676483,
        0.05110936984419823,
        0.03507913649082184,
        0.034746743738651276,
        -0.1138070598244667,
        0.051809027791023254,
        0.04330155998468399,
        0.16200877726078033,
        0.001966476207599044,
        0.017601458355784416,
        0.011457473039627075,
        -0.09444721788167953,
        0.18989267945289612,
        -0.009283008985221386,
        0.021059047430753708,
        0.11349932849407196,
        -0.10039935261011124,
        -0.1955404430627823,
        0.016656648367643356,
        0.13141557574272156,
        -0.17000748217105865,
        0.15318667888641357,
        0.11343160271644592,
        0.089931420981884,
        0.0860111340880394,
        0.09230060875415802,
        0.07436037808656693,
        -0.1402081549167633,
        -0.04390107840299606,
        0.05298255383968353,
        -0.11418410390615463,
        0.14292223751544952,
        0.12489622086286545,
        0.035139985382556915,
        0.18558195233345032,
        -0.18728475272655487,
        0.008079812861979008,
        0.16457808017730713,
        -0.09159988164901733,
        0.16319765150547028,
        -0.012610886245965958,
        -0.16262292861938477,
        0.1286328136920929,
        0.1417706310749054,
        0.00044338571024127305,
        0.13267281651496887,
        0.18148504197597504,
        -0.12972359359264374,
        -0.051473330706357956,
        -0.16192445158958435,
        -0.10644490271806717,
        0.13256241381168365,
        -0.07454241812229156,
        0.11252792179584503,
        0.0029255663976073265,
        0.16596995294094086,
        0.08511964976787567,
        -0.0250051598995924,
        -0.050176773220300674,
        0.052484799176454544,
        0.1405770629644394,
        0.030877234414219856,
        -0.0256821159273386,
        0.058774497359991074,
        0.06054126098752022,
        0.010216234251856804,
        0.13170072436332703,
        -0.12765836715698242,
        0.15425695478916168,
        0.04399154335260391,
        -0.08840383589267731,
        -0.08901558816432953,
        0.10304851830005646,
        0.001512159127742052,
        -0.018264925107359886,
        -0.10211488604545593,
        0.18442867696285248,
        0.04645596444606781,
        -0.11642154306173325,
        -0.14457154273986816,
        -0.11657825112342834,
        0.03792872279882431,
        -0.14621032774448395,
        0.15786908566951752,
        0.17619389295578003,
        0.10861841589212418,
        -0.04874211549758911,
        0.14376914501190186,
        -0.09269775450229645,
        0.07675014436244965,
        -0.0663045197725296,
        -0.04793129116296768,
        0.18474365770816803,
        -0.029774939641356468,
        -0.11350089311599731,
        0.13881149888038635,
        -0.0013160199159756303,
        -0.014506946317851543,
        -0.021635815501213074,
        -0.15765149891376495,
        -0.1563844382762909,
        -0.068808414041996,
        -0.10758084803819656,
        0.024090925231575966,
        -0.14099609851837158,
        0.07447977364063263,
        0.04057089611887932,
        -0.02127644047141075,
        0.08963499218225479,
        0.06551448255777359,
        0.1624595671892166,
        -0.04213680326938629,
        0.011905974708497524,
        -0.16549044847488403,
        -0.03502567857503891,
        -0.1184263825416565,
        -0.12524159252643585,
        0.10487893223762512,
        0.07945209741592407,
        0.05896386131644249,
        -0.015243828296661377,
        0.17886832356452942,
        -0.15626400709152222,
        -0.10381877422332764,
        -0.015826819464564323,
        -0.05164312571287155,
        -0.06716924905776978,
        -0.03377016261219978,
        0.14857177436351776,
        0.1065559908747673,
        -0.007968422956764698,
        -0.06287790089845657,
        0.12200367450714111,
        -0.029720855876803398,
        0.08474066108465195,
        0.08456064760684967,
        -0.0969414934515953,
        0.111125648021698,
        -0.05496807023882866,
        0.06269634515047073,
        -0.06326787918806076,
        0.08162403106689453,
        -0.04408453032374382,
        0.023822756484150887,
        -0.015258660539984703,
        -0.021807294338941574,
        0.06702887266874313,
        0.07155703008174896,
        -0.053089722990989685,
        -0.030477112159132957,
        0.16042163968086243,
        0.1189613789319992,
        -0.0645681768655777,
        -0.14760471880435944,
        0.029222819954156876,
        -0.10385242104530334,
        0.000729618186596781,
        -0.11288991570472717,
        0.16250532865524292,
        0.12394241988658905,
        -0.09476052224636078,
        -0.12387244403362274,
        -0.16289925575256348,
        -0.08382367342710495,
        -0.06314003467559814,
        0.18950627744197845,
        0.18287783861160278,
        0.05740257352590561,
        -0.06751285493373871,
        -0.10175947844982147,
        -0.07201768457889557,
        -0.12029628455638885,
        -0.04456473886966705,
        -0.07571342587471008,
        -0.08393024653196335,
        0.21301567554473877,
        -0.13363826274871826,
        -0.006182188633829355,
        -0.24979066848754883,
        0.11731304973363876,
        0.1190255880355835,
        -0.18207725882530212,
        -0.07105656713247299,
        -0.18546272814273834,
        0.09108088165521622,
        0.20675018429756165,
        0.003606569254770875,
        -0.06129847466945648,
        -0.03215673193335533,
        0.18021152913570404,
        0.02110200934112072,
        0.16317565739154816,
        -0.015381453558802605,
        -0.1726023256778717,
        0.11501215398311615,
        -0.21963542699813843,
        -0.02781146764755249,
        0.10292737185955048,
        0.043215975165367126,
        -0.09455481916666031,
        -0.012127230875194073,
        -0.04414565488696098,
        -0.030224571004509926,
        -0.13394714891910553,
        0.18468491733074188,
        0.03891559690237045,
        -0.1286640465259552,
        0.17172911763191223,
        0.17207521200180054,
        -0.1338099241256714,
        0.1797570437192917,
        -0.07089047878980637,
        -0.041178520768880844,
        0.06485436111688614,
        0.07799774408340454,
        -0.10958448797464371,
        0.17100165784358978,
        0.1020236611366272,
        0.06516999006271362,
        0.12989896535873413,
        0.13953788578510284,
        0.017649225890636444,
        -0.166703462600708,
        0.05976733937859535,
        -0.11257258802652359,
        0.07440421730279922,
        0.11112085729837418,
        0.11795692145824432,
        0.14776775240898132,
        0.031442172825336456,
        -0.15660114586353302,
        0.04544839635491371,
        -0.12697073817253113,
        -0.07034984230995178,
        -0.10361557453870773,
        -0.11612238734960556,
        -0.06827880442142487,
        -0.08335686475038528,
        0.13981489837169647,
        0.128606915473938,
        -0.09979160875082016,
        -0.12735997140407562,
        -0.16051101684570312,
        -0.01998211443424225,
        0.3653051257133484,
        0.11463666707277298,
        0.15061339735984802,
        -0.21440470218658447,
        0.1388084441423416,
        -0.08655001223087311,
        -0.01758541539311409,
        -0.04602264612913132,
        -0.0022596779745072126,
        0.17813757061958313,
        -0.16148628294467926,
        -0.1777012199163437,
        -0.13327588140964508,
        0.05261991545557976,
        -0.09521806985139847,
        -0.08890707790851593,
        -0.043208472430706024,
        0.06321611255407333,
        0.03312619403004646,
        0.008105127140879631,
        0.06796390563249588,
        0.04739944636821747,
        -0.09247113764286041,
        -0.14700119197368622,
        -0.0993998795747757,
        -0.15775419771671295,
        0.16912108659744263,
        -0.05923954024910927,
        0.10651380568742752,
        -0.07191158831119537,
        -0.058070823550224304,
        -0.06176455691456795,
        0.07004890590906143,
        -0.011097833514213562,
        -0.17692933976650238,
        -0.07333652675151825,
        -0.006589838769286871,
        0.0382685661315918,
        -0.035040367394685745,
        0.11270798742771149,
        -0.00178951071575284,
        -0.022436104714870453,
        -0.13938507437705994,
        -0.17305845022201538,
        -0.06862484663724899,
        -0.023393018171191216,
        0.13067199289798737,
        0.0623033381998539,
        0.09476826339960098,
        -0.15596269071102142,
        -0.14169836044311523,
        0.16515450179576874,
        -0.008028100244700909,
        -0.032994482666254044,
        0.13055022060871124,
        -0.08272254467010498,
        0.10102660208940506,
        -0.04909538850188255,
        0.02496694028377533,
        -0.05008084699511528,
        -0.1188925951719284,
        0.07636921852827072,
        -0.180679589509964,
        0.003474879078567028,
        0.10705345869064331,
        -0.04696459695696831,
        0.07427163422107697,
        -0.08362514525651932,
        0.05432763695716858,
        0.13462141156196594,
        0.13155896961688995,
        -0.08624035865068436,
        0.04934507980942726,
        -0.11492133885622025,
        -0.09377820044755936,
        -0.10556622594594955,
        -0.07437717169523239,
        0.09076839685440063,
        -0.042739514261484146,
        0.10213107615709305,
        -0.04443250223994255,
        -0.0016011546831578016,
        -0.07030230760574341,
        -0.11718829721212387,
        0.17830221354961395,
        0.08705060184001923,
        0.23044085502624512,
        -0.12257658690214157,
        -0.14772823452949524,
        0.17882438004016876,
        0.1655021458864212,
        0.07708592712879181,
        0.0320252999663353,
        0.06419147551059723,
        -0.04028451442718506,
        0.05595209822058678,
        0.1402590274810791,
        0.17796944081783295,
        0.20089109241962433,
        0.1634911298751831,
        -0.058066047728061676,
        0.09973368048667908,
        0.02086222544312477,
        0.14497703313827515,
        0.09444478154182434,
        -0.1988430768251419,
        -0.08928147703409195,
        -0.14521849155426025,
        0.16903772950172424,
        -0.045923665165901184,
        -0.15412722527980804,
        -0.015301240608096123,
        0.16463418304920197,
        0.06817247718572617,
        -0.10732858628034592,
        -0.04926452413201332,
        0.024644894525408745,
        0.1544366329908371,
        -0.08797967433929443,
        0.09171192348003387,
        -0.03586385026574135,
        0.03985938802361488,
        0.1299975961446762,
        0.10914456099271774,
        -0.0019378652796149254,
        0.14862540364265442,
        0.03324340283870697,
        0.06617814302444458,
        -0.13593964278697968,
        -0.04232205078005791,
        -0.17965121567249298,
        -0.06008170545101166,
        0.05767190456390381,
        -0.15852178633213043,
        0.13921716809272766,
        -0.1822717934846878,
        0.14689117670059204,
        0.1011412963271141,
        0.18762275576591492,
        -0.1566063016653061,
        -0.03886491432785988,
        -0.028186773881316185,
        -0.048682037740945816,
        -0.07365883141756058,
        0.1427605301141739,
        0.15172921121120453,
        0.2021447867155075,
        -0.07354220002889633,
        -0.06344585865736008,
        -0.10837207734584808,
        -0.13501377403736115,
        -0.11208945512771606,
        0.14968837797641754,
        0.129751056432724,
        -0.07253043353557587,
        0.05450165271759033,
        0.005802683997899294,
        0.040449585765600204,
        0.09335250407457352,
        -0.06133253127336502,
        0.028624624013900757,
        -0.06452225148677826,
        0.14204351603984833,
        0.20061516761779785,
        0.09927786141633987,
        -0.02939070574939251,
        -0.05529887229204178,
        -0.0919618010520935,
        0.12451932579278946,
        0.016978273168206215,
        0.046539612114429474,
        0.06008262559771538,
        -0.026918724179267883,
        -0.09204432368278503,
        -0.16107894480228424,
        0.03966784477233887,
        0.1970922201871872,
        -0.048855289816856384,
        -0.14332501590251923,
        -0.1210724413394928,
        -0.06430213898420334,
        -0.14951291680335999,
        0.16799138486385345,
        0.26348036527633667,
        0.006799589842557907,
        -0.05306415632367134,
        -0.07276014238595963,
        0.04549379274249077,
        -0.0031479867175221443,
        0.05717157572507858,
        0.018894819542765617,
        0.19051790237426758,
        0.07341484725475311,
        0.15885673463344574,
        -0.08797962218523026,
        -0.03897994011640549,
        0.1192348524928093,
        0.14879944920539856,
        -0.028045551851391792,
        -0.1096639335155487,
        0.015198908746242523,
        0.13960550725460052,
        -0.14902284741401672,
        0.013952774927020073,
        0.0545150525867939,
        0.11748199164867401,
        0.06706788390874863,
        -0.09498468041419983,
        0.1640152931213379,
        -0.189336359500885,
        -0.023088661953806877,
        0.11247295141220093,
        0.02706615999341011,
        -0.10160159319639206,
        -0.16403163969516754,
        -0.14770779013633728,
        -0.008366121910512447,
        0.1200157105922699,
        0.15950310230255127,
        -0.03820871189236641,
        -0.004358170088380575,
        -0.011340126395225525,
        0.10636088997125626,
        -0.1437993198633194,
        0.1203707680106163,
        0.13995584845542908,
        -0.007337410934269428,
        0.07911890000104904,
        -0.18929295241832733,
        0.07041437923908234,
        0.17437207698822021,
        0.17795588076114655,
        0.037882015109062195,
        0.08444830775260925,
        0.15062034130096436,
        -0.13697968423366547,
        0.10334610193967819,
        -0.12661880254745483,
        -0.09455698728561401,
        0.07330009341239929,
        -0.007631098851561546,
        -0.09030871838331223,
        -0.06517580896615982,
        -0.19879387319087982,
        -0.018844056874513626,
        0.3213284909725189,
        0.07806463539600372,
        0.11239941418170929,
        -0.12188424170017242,
        -0.14030952751636505,
        -0.16888156533241272,
        0.10627377778291702,
        0.037904102355241776,
        0.07830414175987244,
        -0.10593309998512268,
        -0.15359610319137573,
        -0.1252964287996292,
        0.12487886846065521,
        -0.17287573218345642,
        0.13941481709480286,
        -0.0922061875462532,
        -0.03326275944709778,
        0.05132701247930527,
        0.08587469905614853,
        -0.1519884169101715,
        -0.03845358267426491,
        0.07892309874296188,
        0.03760181739926338,
        -0.022974582388997078,
        -0.11393235623836517,
        0.02837654948234558,
        0.07247387617826462,
        -0.058837611228227615,
        0.04827386140823364,
        -0.10989845544099808,
        0.06475722789764404,
        0.1655718833208084,
        0.05711475759744644,
        0.13179118931293488,
        -0.024693934246897697,
        -0.18350845575332642,
        0.010613459162414074,
        -0.0696970671415329,
        0.12412168830633163,
        0.02331545762717724,
        -0.15601150691509247,
        -0.10973791778087616,
        -0.13367220759391785,
        0.036031950265169144,
        0.006353638134896755,
        0.031040960922837257,
        -0.09488119930028915,
        -0.0470498651266098,
        0.07726103812456131,
        0.3578667938709259,
        0.019095178693532944,
        -0.023325087502598763,
        -0.10572277009487152,
        -0.10704545676708221,
        -0.09919223934412003,
        -0.05695941299200058,
        0.08537086099386215,
        0.15146556496620178,
        0.03390951827168465,
        0.11999019235372543,
        0.08822426199913025,
        -0.05887133628129959,
        -0.008243284188210964,
        -0.09002818912267685,
        0.14389091730117798,
        0.11051109433174133,
        -0.08698015660047531,
        -0.05764077231287956,
        -0.10560488700866699,
        0.017847448587417603,
        -0.06527635455131531,
        0.17583483457565308,
        0.06507859379053116,
        -0.16797654330730438,
        -0.1379798948764801,
        0.1479789912700653,
        0.10738968849182129,
        -0.13275545835494995,
        0.017806973308324814,
        -0.014517871662974358,
        -0.12599797546863556,
        0.0021275354083627462,
        -0.06880461424589157,
        0.004036979284137487,
        -0.049438655376434326,
        -0.03493068367242813,
        -0.17140060663223267,
        -0.15954825282096863,
        0.058775778859853745,
        0.16810017824172974,
        0.06656868010759354,
        0.1315481960773468,
        0.14426641166210175,
        -0.17538994550704956,
        0.09710007160902023,
        -0.015865402296185493,
        -0.0835462361574173,
        0.020241186022758484,
        -0.02841506339609623,
        0.0488310232758522,
        0.06980783492326736,
        -0.10383269190788269,
        -0.09665458649396896,
        0.152301624417305,
        0.1249721422791481,
        0.23485741019248962,
        -0.12203237414360046,
        -0.06543556600809097,
        0.08489814400672913,
        0.14292511343955994,
        -0.03722044453024864,
        -0.16617204248905182,
        0.1577642261981964,
        0.04665997251868248,
        0.04138190299272537,
        -0.0036700854543596506,
        -0.09731339663267136,
        -0.04336845502257347,
        0.10576248914003372,
        0.11513835936784744,
        -0.01809077151119709,
        -0.050371237099170685,
        0.021515393629670143,
        -0.017644058912992477,
        -0.0602099746465683,
        0.044971905648708344,
        -0.02338375337421894,
        0.08503828942775726,
        0.006256597116589546,
        0.08799396455287933,
        0.15012775361537933,
        0.1600147783756256,
        -0.11643295735120773,
        0.04190516471862793,
        -0.09147869795560837,
        0.020570628345012665,
        -0.029798226431012154,
        0.23347170650959015,
        -0.003930133301764727,
        -0.0986618846654892,
        0.09113644808530807,
        -0.1382109522819519,
        -0.0750049576163292,
        -0.07176504284143448,
        -0.0026777691673487425,
        0.2763933837413788,
        0.13820655643939972,
        -0.48425009846687317,
        -0.04983355104923248,
        0.16234080493450165,
        0.13120721280574799,
        0.07756517082452774,
        -0.16696277260780334,
        0.1617192178964615,
        0.09256487339735031,
        0.0549905002117157,
        -0.13948111236095428,
        0.032471660524606705,
        0.11351342499256134,
        0.11453127861022949,
        0.1621706336736679,
        0.010126418434083462,
        -0.18241050839424133,
        0.023126667365431786,
        0.010480519384145737,
        0.13329866528511047,
        -0.011674031615257263,
        0.15365342795848846,
        0.01183726079761982,
        -0.17022240161895752,
        -0.14259415864944458,
        -0.01179692056030035,
        0.1441061645746231,
        0.08626037836074829,
        0.028360633179545403,
        0.1276608556509018,
        0.07243714481592178,
        0.0788753405213356,
        0.13471020758152008,
        0.08556102216243744,
        -0.12131807208061218,
        0.05838431417942047,
        -0.15221059322357178,
        -0.04365139454603195,
        -0.06265678256750107,
        0.18507909774780273,
        -0.20323988795280457,
        -0.07719390094280243,
        -0.16869714856147766,
        -0.007499448489397764,
        -0.09981311857700348,
        -0.037533339112997055,
        0.09407060593366623,
        -0.05693814158439636,
        0.11163485050201416,
        0.0526420958340168,
        -0.3953961730003357,
        -0.03135189786553383,
        0.13859958946704865,
        -0.15673357248306274,
        0.004515018314123154,
        0.029169699177145958,
        -0.11830700933933258,
        0.1474626660346985,
        0.23514652252197266,
        0.17594219744205475,
        -0.0769347995519638,
        0.11198139190673828,
        0.05154908448457718,
        0.12160032242536545,
        0.13139618933200836,
        -0.1071498766541481,
        0.08645719289779663,
        0.09610172361135483,
        0.11638965457677841,
        0.09943442046642303,
        0.12155280262231827,
        -0.16136179864406586,
        -0.1261780709028244,
        0.16685429215431213,
        -0.06664623320102692,
        -0.13087773323059082,
        0.10433577746152878,
        -0.12363571673631668,
        0.044072698801755905,
        -0.03960132226347923,
        -0.1011546328663826,
        -0.12323473393917084,
        0.090678371489048,
        -0.07868434488773346,
        0.03125534579157829,
        -0.07071398198604584,
        -0.03774978965520859,
        0.11002207547426224,
        -0.16493231058120728,
        0.08538853377103806,
        0.09017842262983322,
        -0.16827766597270966,
        0.18458080291748047,
        0.07365352660417557,
        -0.12009582668542862,
        0.13953553140163422,
        0.017890745773911476,
        0.09791363775730133,
        -0.007534850854426622,
        -0.26596158742904663,
        -0.06291960179805756,
        -0.08562787622213364,
        0.0007936390466056764,
        0.17092187702655792,
        0.07037621736526489,
        -0.1727166622877121,
        -0.16380450129508972,
        0.032460786402225494,
        0.19124478101730347,
        -0.0690087154507637,
        0.13684941828250885,
        0.08240602165460587,
        -0.13615642488002777,
        -0.03203197568655014,
        -0.0843099057674408,
        0.1140187606215477,
        0.027428561821579933,
        -0.12212821841239929,
        0.06322727352380753,
        -0.12253738194704056,
        -0.12119480222463608,
        0.0060731954872608185,
        -0.012416166253387928,
        -0.03368654102087021,
        0.13710759580135345,
        -0.13747349381446838,
        0.1641174703836441,
        -0.012347868643701077,
        0.13975615799427032,
        -0.007901708595454693,
        0.0005761694046668708,
        -0.09073225408792496,
        0.06996927410364151,
        0.1050114780664444,
        -0.0762036070227623,
        0.15761816501617432,
        0.190290167927742,
        -0.045990753918886185,
        0.07182769477367401,
        0.11255142837762833,
        -0.12732142210006714,
        0.0004139502125326544,
        -0.13689056038856506,
        -0.13946183025836945,
        0.005586159415543079,
        -0.013772791251540184,
        0.11852946132421494,
        0.009176901541650295,
        -0.18938039243221283,
        0.19181855022907257,
        -0.0064386483281850815,
        0.10565347969532013,
        0.11515675485134125,
        0.17115731537342072,
        -0.06263177841901779,
        -0.05725483596324921,
        0.1942361444234848,
        -0.08585387468338013,
        -0.05625096336007118,
        -0.03539981320500374,
        -0.047000691294670105,
        -0.0568576455116272,
        -0.15467603504657745,
        -0.14210255444049835,
        0.1561129242181778,
        -0.16957086324691772,
        -0.013416784815490246,
        -0.03401394560933113,
        -0.061515264213085175,
        0.0371306911110878,
        0.05899703502655029,
        0.055514171719551086,
        0.18174150586128235,
        -0.08829311281442642,
        0.049815960228443146,
        0.11262534558773041,
        -0.08054150640964508,
        0.07783056795597076,
        -0.12241668254137039,
        0.08407407999038696,
        -0.025531534105539322,
        0.04130828008055687,
        0.022482980042696,
        0.03170446678996086,
        0.0012358707608655095,
        0.10849710553884506,
        -0.027921073138713837,
        -0.1821814924478531,
        -0.07360316812992096,
        -0.11959425359964371,
        -0.0754244476556778,
        -0.13586564362049103,
        0.05919204652309418,
        -0.1250724494457245,
        0.035351600497961044,
        0.13890570402145386,
        0.030197221785783768,
        0.16849127411842346,
        -0.04898694157600403,
        0.018735963851213455,
        -0.012235349975526333,
        -0.08098391443490982,
        -0.12896142899990082,
        -0.1334429532289505,
        -0.007881886325776577,
        -0.07464324682950974,
        0.04476485401391983,
        0.18796826899051666,
        -0.15009139478206635,
        0.20595531165599823,
        -0.11781094968318939,
        -0.11551909148693085,
        0.17713551223278046,
        0.19158661365509033,
        0.014230744913220406,
        -0.15201769769191742,
        0.18046295642852783,
        0.129177987575531,
        -0.10121490061283112,
        0.05438077449798584,
        0.07138323038816452,
        0.06193726882338524,
        0.028157422319054604,
        0.08853332698345184,
        -0.1327955424785614,
        0.10080790519714355,
        -0.05707826465368271,
        0.0077936090528965,
        -0.1257867068052292,
        -0.1282794326543808,
        -0.06906341761350632,
        -0.13509060442447662,
        -0.07452819496393204,
        0.022524064406752586,
        0.0266543161123991,
        -0.03037390485405922,
        -0.0846322551369667,
        -0.048941437155008316,
        0.09004121273756027,
        0.11797639727592468,
        0.0658327117562294,
        0.08328332751989365,
        -0.10420893132686615,
        0.05245038866996765,
        -0.0005204768967814744,
        0.15380054712295532,
        -0.04536035656929016,
        0.17179182171821594,
        -0.131151020526886,
        -0.09607283771038055,
        -0.1106652095913887,
        0.02717815525829792,
        -0.05502414330840111,
        -0.09227156639099121,
        0.008921879343688488,
        -0.18260177969932556,
        -0.021285774186253548,
        0.06331893056631088,
        0.009140785783529282,
        -0.12766988575458527,
        -0.031204650178551674,
        -0.07299979776144028,
        -0.005855679512023926,
        0.09037358313798904,
        0.08888308703899384,
        -0.0963696613907814,
        -0.07881787419319153,
        -0.08761797100305557,
        0.14769577980041504,
        0.06457863003015518,
        0.09640312194824219,
        0.10447685420513153,
        -0.11241035163402557,
        0.10218348354101181,
        0.16019394993782043,
        -0.05198436602950096,
        0.08809010684490204,
        0.06311461329460144,
        -0.10734745115041733,
        0.18756520748138428,
        -0.04204481840133667,
        0.12139541655778885,
        -0.13444483280181885,
        -0.08267195522785187,
        -0.04857410863041878,
        0.20015695691108704,
        0.08079168200492859,
        -0.10511811077594757,
        -0.08470727503299713,
        -0.03733973577618599,
        0.12082666158676147,
        0.08567886799573898,
        -0.019286656752228737,
        -0.023265257477760315,
        -0.15720051527023315,
        -0.1785711646080017,
        -0.1572321057319641,
        -0.1344255805015564,
        0.07163714617490768,
        -0.09495218098163605,
        0.15826661884784698,
        0.10181792825460434,
        -0.12764841318130493,
        0.09876739233732224,
        0.1620645672082901,
        0.19335873425006866,
        -0.08667182177305222,
        0.0747728943824768,
        -0.1277679204940796,
        0.10066617280244827,
        0.044112805277109146,
        0.10471514612436295,
        -0.045116741210222244,
        -0.15655545890331268,
        0.07155651599168777,
        -0.03784462437033653,
        -0.1584741771221161,
        0.0594322569668293,
        0.06216337904334068,
        -0.13814975321292877,
        -0.20301946997642517,
        -0.16059467196464539,
        -0.13499002158641815,
        0.010723399929702282,
        -0.12339957803487778,
        0.1794375330209732,
        -0.039414893835783005,
        0.1388542652130127,
        0.060111191123723984,
        -0.10922661423683167,
        -0.07561640441417694,
        -0.10268671065568924,
        0.13167551159858704,
        0.06927648931741714,
        0.13980066776275635,
        -0.005190972238779068,
        -0.05108797177672386,
        0.16853316128253937,
        -0.08900397270917892,
        0.08741382509469986,
        -0.058481261134147644,
        -0.16171151399612427,
        0.12197170406579971,
        0.08668205142021179,
        0.26317933201789856,
        0.03019382618367672,
        0.13195838034152985,
        -0.23459744453430176,
        0.16846433281898499,
        0.17158202826976776,
        0.011830705218017101,
        -0.12357782572507858,
        0.009518679231405258,
        0.11082851141691208,
        -0.08306631445884705,
        0.13136108219623566,
        -0.15147355198860168,
        0.11589217931032181,
        -0.15048719942569733,
        -0.02786702662706375,
        0.20573078095912933,
        0.021070942282676697,
        0.01457525696605444,
        -0.11975160986185074,
        -0.06339509040117264,
        -0.0989820584654808,
        -0.050995729863643646,
        -0.10428695380687714,
        -0.11198344081640244,
        0.16891682147979736,
        0.006554703693836927,
        -0.06575959920883179,
        -0.06122254207730293,
        -0.025127237662672997,
        -0.11628016829490662,
        -0.14706340432167053,
        0.11618020385503769,
        0.17431949079036713,
        -0.11602829396724701,
        0.13528351485729218,
        0.07795071601867676,
        0.16616661846637726,
        0.05366077274084091,
        0.15288133919239044,
        -0.1634453982114792,
        -0.043717414140701294,
        0.10992280393838882,
        -0.04496884346008301,
        0.04258476942777634,
        -0.013411900959908962,
        0.021629611030220985,
        0.05255362391471863,
        0.06064838543534279,
        -0.030536949634552002,
        -0.15731559693813324,
        -0.1024019867181778,
        0.06804130226373672,
        -0.16768141090869904,
        0.04753062129020691,
        -0.1086082011461258,
        -0.14491084218025208,
        0.07526422291994095,
        0.10676973313093185,
        -0.13550496101379395,
        -0.13737349212169647,
        0.13592767715454102,
        0.12923577427864075,
        0.07609056681394577,
        0.008896181359887123,
        -0.0632234439253807,
        -0.17146183550357819,
        -0.06876543164253235,
        0.10565126687288284,
        -0.014404531568288803,
        0.06157364323735237,
        0.09581562131643295,
        -0.05914004519581795,
        0.02082916349172592,
        0.05186416208744049,
        0.15049812197685242,
        -0.002818378619849682,
        0.12845805287361145,
        -0.04718727245926857,
        0.007462837267667055,
        -0.0483226515352726,
        -0.15204910933971405,
        0.1682942807674408,
        -0.07595805078744888,
        0.10361633449792862,
        0.21721960604190826,
        -0.12238840013742447,
        -0.1033497005701065,
        -0.2805403172969818,
        -0.1362210512161255,
        0.131056010723114,
        -0.11499254405498505,
        0.058733437210321426,
        -0.16697818040847778,
        0.06887586414813995,
        0.15043318271636963,
        0.05747828260064125,
        -0.14105719327926636,
        0.08192097395658493,
        -0.10917937010526657,
        0.08530725538730621,
        0.09481491148471832,
        -0.1026792898774147,
        0.10199086368083954,
        0.08306153118610382,
        0.1603219360113144,
        0.12685160338878632,
        -0.16729611158370972,
        0.13078001141548157,
        -0.1607610583305359,
        0.15233610570430756,
        -0.1109873577952385,
        0.03166943043470383,
        0.04555128514766693,
        0.06010293588042259,
        0.13469630479812622,
        0.17403320968151093,
        0.0907769501209259,
        0.052207715809345245,
        -0.12437546253204346,
        -0.14835837483406067,
        0.07750119268894196,
        0.08330997079610825,
        0.1534593254327774,
        -0.14767661690711975,
        0.05400729179382324,
        -0.011215141043066978,
        0.1788213700056076,
        0.0901903361082077,
        -0.049765437841415405,
        0.062103141099214554,
        0.08194313198328018,
        -0.048677604645490646,
        -0.1568782478570938,
        -0.036845576018095016,
        0.05127159506082535,
        -0.11369039863348007,
        -0.3127277195453644,
        0.03354513645172119,
        0.07119634002447128,
        -0.11157198995351791,
        -0.14761236310005188,
        -0.14295260608196259,
        0.10759148001670837,
        -0.1410701870918274,
        0.20847797393798828,
        -0.024294134229421616,
        -0.09064048528671265,
        0.16399410367012024,
        0.12588505446910858,
        0.05715477839112282,
        0.1485711634159088,
        0.18292935192584991,
        -0.16846652328968048,
        -0.0507960207760334,
        0.03600427135825157,
        -0.13248705863952637,
        -0.2025395929813385,
        0.20060500502586365,
        -0.1802198439836502,
        -0.10668550431728363,
        0.0572630800306797,
        -0.12295959889888763,
        -0.06154611334204674,
        0.1354481428861618,
        0.059151239693164825,
        0.12419874221086502,
        0.03522462025284767,
        -0.13971614837646484,
        -0.11618775129318237,
        -0.10512252151966095,
        0.07981616258621216,
        0.06430988758802414,
        0.05113272741436958,
        0.06776239722967148,
        -0.13565154373645782,
        0.1647188663482666,
        0.18072004616260529,
        0.10738824307918549,
        0.21000386774539948,
        0.11281809210777283,
        0.06812302023172379,
        0.17525310814380646,
        0.1731659173965454,
        0.1280197650194168,
        -0.049473945051431656,
        -0.1519293189048767,
        -0.02272644452750683,
        0.15026961266994476,
        -0.18790778517723083,
        0.07548494637012482,
        0.11274251341819763,
        0.14869773387908936,
        -0.01499425433576107,
        -0.18579070270061493,
        0.06659805029630661,
        -0.2585796117782593,
        0.14163726568222046,
        -0.09200996905565262,
        -0.07073931396007538,
        0.061510585248470306,
        -0.11587170511484146,
        -0.08638881146907806,
        -0.05403425917029381,
        0.08569496870040894,
        0.08779033273458481,
        0.1821877509355545,
        0.13715189695358276,
        0.06214297562837601,
        0.06400348246097565,
        -4.337201244197786e-05,
        0.03067810833454132,
        -0.1311696320772171,
        -0.12835334241390228,
        0.02475094422698021,
        0.14549334347248077,
        0.2046532928943634,
        0.02587832324206829,
        0.00939598586410284,
        -0.09313380718231201,
        -0.15217365324497223,
        0.010925809852778912,
        -0.02083696983754635,
        -0.11816143244504929,
        0.20209665596485138,
        -0.12357905507087708,
        -0.1130322813987732,
        -0.00959144439548254,
        -0.07068812847137451,
        -0.023156048730015755,
        0.17455217242240906,
        0.14347383379936218,
        0.03215550631284714,
        0.11439196765422821,
        0.04090135917067528,
        -0.08258122205734253,
        -0.09401863813400269,
        -0.07627900689840317,
        -0.029897164553403854,
        0.013479134067893028,
        0.19475989043712616,
        0.038773342967033386,
        0.03019106574356556,
        -0.019967971369624138,
        0.10491665452718735,
        -0.4317834675312042,
        0.16450285911560059,
        0.03284289687871933,
        -0.12474408745765686,
        -0.0003684795228764415,
        0.06452327966690063,
        0.00215084757655859,
        0.004974931478500366,
        0.009898844175040722,
        0.09121647477149963,
        -0.13989895582199097,
        0.17122837901115417,
        -0.040637992322444916,
        -0.05506868287920952,
        -0.15734297037124634,
        -0.07042617350816727,
        -0.10266831517219543,
        0.18099063634872437,
        -0.07110494375228882,
        0.11715644598007202,
        -0.11658310890197754,
        0.10769634693861008,
        -0.16836011409759521,
        -0.10895166546106339,
        0.15642954409122467,
        -0.004840760957449675,
        -0.045746996998786926,
        0.01467312965542078,
        0.07724182307720184,
        -0.10929428786039352,
        0.05450589954853058,
        -0.12144514918327332,
        0.14363057911396027,
        0.016617197543382645,
        0.08535106480121613,
        -0.14011088013648987,
        -0.09066005796194077,
        0.12253502011299133,
        0.03134053945541382,
        0.024629756808280945,
        -0.13109003007411957,
        0.033091649413108826,
        0.009828814305365086,
        0.0705358162522316,
        0.013652332127094269,
        -0.06621350347995758,
        -0.15757034718990326,
        0.07655799388885498,
        -0.022187722846865654,
        0.09885386377573013,
        0.15037430822849274,
        0.16866789758205414,
        0.16874544322490692,
        0.10787268728017807,
        0.06951850652694702,
        -0.08538114279508591,
        0.19467805325984955,
        -0.09963114559650421,
        -0.17367412149906158,
        0.12573398649692535,
        0.2196401059627533,
        -0.0960126668214798,
        -0.046450305730104446,
        -0.2051289826631546,
        0.08050519227981567,
        -0.150434210896492,
        0.09096876531839371,
        0.15247604250907898,
        0.15979307889938354,
        -0.15727666020393372,
        -0.04216967895627022,
        -0.07091320306062698,
        -0.0596521720290184,
        0.0003913783293683082,
        0.09832899272441864,
        -0.08984966576099396,
        -0.13969969749450684,
        -0.05857076495885849,
        -0.018439630046486855,
        0.168644979596138,
        -0.1378970444202423,
        0.04181196913123131,
        0.11354152858257294,
        -0.05118332803249359,
        0.0011327367974445224,
        -0.17116396129131317,
        0.025238635018467903,
        0.1277058869600296,
        -0.1310764104127884,
        -0.16393601894378662,
        -0.028443021699786186,
        0.016135577112436295,
        -0.1475221961736679,
        0.16527222096920013,
        -0.08869755268096924,
        0.05428814888000488,
        -0.15181846916675568,
        0.08918138593435287,
        -0.034275155514478683,
        -0.05427375063300133,
        -0.03664501756429672,
        0.01794929802417755,
        -0.021470239385962486,
        -0.1006440594792366,
        0.16378848254680634,
        0.038830243051052094,
        0.07377154380083084,
        -0.06828903406858444,
        -0.15149550139904022,
        0.16466565430164337,
        -0.048640504479408264,
        -0.19413240253925323,
        0.013326928950846195,
        -0.07856807112693787,
        0.11068793386220932,
        0.14031101763248444,
        -0.1534980833530426,
        0.18056809902191162,
        -0.1485091745853424,
        -0.08786631375551224,
        -0.005989362020045519,
        0.18605244159698486,
        -0.023715021088719368,
        0.052234210073947906,
        0.01023064460605383,
        0.026238592341542244,
        0.18074221909046173,
        -0.13551971316337585,
        -0.1587037742137909,
        0.18369026482105255,
        -0.06374965608119965,
        0.10301601141691208,
        -0.16010606288909912,
        -0.048939693719148636,
        -0.025977661833167076,
        0.018492311239242554,
        -0.11471027880907059,
        0.09158311784267426,
        -0.0507071278989315,
        -0.016675209626555443,
        0.07206036895513535,
        -0.019703909754753113,
        -0.16032244265079498,
        0.07896704971790314,
        0.1346174031496048,
        0.025802578777074814,
        -0.009447069838643074,
        -0.0673212930560112,
        -0.05582287907600403,
        0.03139597177505493,
        -0.09364233911037445,
        0.0690753385424614,
        -0.06951331347227097,
        -0.10211179405450821,
        0.05886543542146683,
        -0.1810048520565033,
        0.005254786927253008,
        0.14759959280490875,
        -0.16757765412330627,
        -0.10398326814174652,
        -0.1374717354774475,
        0.13969729840755463,
        -0.1694759577512741,
        -0.14644506573677063,
        0.15282702445983887,
        0.08513177186250687,
        0.02528766728937626,
        -0.1894812136888504,
        -0.021538618952035904,
        0.14151181280612946,
        -0.1446465402841568,
        0.016197444871068,
        0.04135400429368019,
        -0.12639620900154114,
        -0.13784071803092957,
        -0.11806431412696838,
        0.23160472512245178,
        0.04209382086992264,
        -0.17127850651741028,
        -0.02765783667564392,
        0.09461849927902222,
        -0.0414770171046257,
        0.20579476654529572,
        -0.10182890295982361,
        -0.15751397609710693,
        0.10689283162355423,
        -0.017062939703464508,
        0.06440781056880951,
        -0.16352783143520355,
        0.02072281390428543,
        0.03035596013069153,
        0.028835540637373924,
        0.03167448937892914,
        0.15707798302173615,
        0.022838106378912926,
        -0.11072011291980743,
        -0.061178043484687805,
        -0.12203060835599899,
        0.16064751148223877,
        0.12456312030553818,
        0.017405280843377113,
        0.1445455402135849,
        0.05727721378207207,
        0.18647731840610504,
        -0.1508927047252655,
        0.14240692555904388,
        -0.017980294302105904,
        0.06857311725616455,
        -0.1294952630996704,
        -0.03155151754617691,
        0.18483856320381165,
        0.06734097003936768,
        0.13435548543930054,
        0.03282809257507324,
        0.1729802042245865,
        0.11048966646194458,
        0.08188772946596146,
        0.0069807786494493484,
        -0.1307845264673233,
        0.003046788042411208,
        0.10348823666572571,
        0.09128501266241074,
        -0.05985673516988754,
        -0.11036121845245361,
        0.07186587899923325,
        -0.14163850247859955,
        0.056101344525814056,
        -0.07865726947784424,
        0.2293802797794342,
        -0.025707073509693146,
        0.10999752581119537,
        0.11751534789800644,
        0.1597268134355545,
        0.06183266639709473,
        -0.036811068654060364,
        0.09874425083398819,
        -0.08468417823314667,
        0.1820717453956604,
        -0.13462194800376892,
        -0.17927056550979614,
        0.0782412737607956,
        0.06938065588474274,
        0.05769989266991615,
        0.03880859911441803,
        -0.15914525091648102,
        0.40809956192970276,
        -0.12188471853733063,
        0.06320222467184067,
        0.033873386681079865,
        -0.060142431408166885,
        0.14682656526565552,
        0.06522759050130844,
        0.06510870903730392,
        0.1265486627817154,
        0.09860661625862122,
        -0.16563023626804352,
        0.0570545494556427,
        0.09788881987333298,
        0.17755261063575745,
        0.16525505483150482,
        0.10409828275442123,
        -0.004818301647901535,
        0.15430667996406555,
        0.06744790077209473,
        -0.047522563487291336,
        0.2005923092365265,
        0.053105492144823074,
        -0.08134403079748154,
        -0.1801343560218811,
        0.15784797072410583,
        0.10506338626146317,
        -0.0016871688421815634,
        -0.05685746669769287,
        -0.02002231404185295,
        -0.09770265221595764,
        -0.11939416825771332,
        -0.13688476383686066,
        0.06677936017513275,
        0.03438394516706467,
        0.17708082497119904,
        -0.028643425554037094,
        -0.117940753698349,
        0.10146063566207886,
        0.02518376149237156,
        0.05863732844591141,
        -0.04854920879006386,
        0.10550303012132645,
        -0.00819053128361702,
        0.12808793783187866,
        0.019144104793667793,
        0.10354335606098175,
        0.18295538425445557,
        -0.06026793271303177,
        -0.08895665407180786,
        -0.13571180403232574,
        -0.18458828330039978,
        -0.07463303953409195,
        0.1700374037027359,
        0.15420933067798615,
        0.0663723275065422,
        0.07638956606388092,
        0.08477364480495453,
        -0.08994950354099274,
        -0.16465583443641663,
        -0.1538967490196228,
        0.06636883318424225,
        -0.01447528600692749,
        -0.1315942257642746,
        -0.05899842083454132,
        -0.11904863268136978,
        0.059666696935892105,
        -0.07537907361984253,
        -0.05243043974041939,
        0.15632271766662598,
        0.06961821764707565,
        0.04613792896270752,
        -0.2118348926305771,
        0.14234641194343567,
        -0.015427794307470322,
        -0.054974570870399475,
        0.17127041518688202,
        -0.0909692719578743,
        -0.13669292628765106,
        -0.08844518661499023,
        -0.16140401363372803,
        0.05920523405075073,
        0.040776535868644714,
        -0.10718932747840881,
        0.002829743782058358,
        -0.02293315902352333,
        0.09703849256038666,
        -0.15681473910808563,
        -0.14644630253314972,
        -0.1758967936038971,
        -0.059609536081552505,
        -0.09342308342456818,
        0.08968578279018402,
        -0.03643869236111641,
        0.1547718197107315,
        -0.0011587045155465603,
        -0.11767669767141342,
        -0.18431535363197327,
        0.12495473027229309,
        0.07530201971530914,
        0.053353674709796906,
        0.09086307138204575,
        0.06896496564149857,
        -0.057603172957897186,
        0.0007163860718719661,
        -0.13348565995693207,
        -0.05358627438545227,
        0.00436502555385232,
        -0.10346028953790665,
        0.08114616572856903,
        -0.06687577813863754,
        0.11762849986553192,
        -0.04363541677594185,
        0.07875386625528336,
        0.1061677485704422,
        0.17348037660121918,
        -0.1728358119726181,
        0.0019177327631041408,
        0.09185741096735,
        0.09780190140008926,
        -0.14023353159427643,
        0.045473165810108185,
        0.19013869762420654,
        -0.11569450795650482,
        -0.09113521873950958,
        0.022013209760189056,
        -0.11732202023267746,
        0.07468334585428238,
        0.06754188984632492,
        0.16053353250026703,
        0.15688952803611755,
        0.04883674159646034,
        0.06969256699085236,
        0.008012048900127411,
        0.18482188880443573,
        -0.11741676181554794,
        0.06261918693780899,
        -0.0033197663724422455,
        -0.09608782082796097,
        -0.013522809371352196,
        0.015415619127452374,
        0.15487714111804962,
        -0.08970940113067627,
        -0.08855240792036057,
        0.0011096688685938716,
        0.04883590340614319,
        0.02223486453294754,
        0.04935991019010544,
        -0.09436701238155365,
        0.0913236066699028,
        -0.051201727241277695,
        -0.17285914719104767,
        0.11465910822153091,
        0.1320050209760666,
        0.0078043448738753796,
        0.16198310256004333,
        0.10875516384840012,
        -0.00923869851976633,
        -0.00662791496142745,
        0.10391364246606827,
        -0.11498930305242538,
        -0.09773668646812439,
        -0.014455799013376236,
        0.1606118381023407,
        -0.06401849538087845,
        0.1905452311038971,
        -0.15595421195030212,
        -0.15690641105175018,
        -0.17373251914978027,
        0.18265366554260254,
        0.09776291996240616,
        0.14108790457248688,
        -0.08130299299955368,
        -0.0076842522248625755,
        -0.08412458747625351,
        -0.038238413631916046,
        0.010920139960944653,
        0.1619897037744522,
        0.1813683807849884,
        0.09253545105457306,
        -0.12366389483213425,
        0.19029368460178375,
        0.16088998317718506,
        -0.09480371326208115,
        0.2374499887228012,
        -0.007267515640705824,
        -0.07054676860570908,
        0.01733521744608879,
        0.1965014487504959,
        -0.003354773623868823,
        0.07456132769584656,
        -0.07195673137903214,
        0.15086619555950165,
        0.09738045930862427,
        0.17266951501369476,
        0.10781343281269073,
        -0.12813208997249603,
        -0.053769487887620926,
        -0.11321745812892914,
        0.09099910408258438,
        -0.07770577818155289,
        0.11664548516273499,
        -0.14029134809970856,
        0.07130061835050583,
        -0.10110017657279968,
        0.09314604848623276,
        -0.05497245490550995,
        0.014983631670475006,
        0.16293375194072723,
        -0.06716924160718918,
        0.020026065409183502,
        -0.16440758109092712,
        0.03853534534573555,
        0.01702413335442543,
        -0.16478320956230164,
        -0.11694397777318954,
        0.09459978342056274,
        -0.09436479210853577,
        0.15646636486053467,
        -0.08823990076780319,
        0.1203550174832344,
        -0.09415595233440399,
        0.02955872379243374,
        0.06294673681259155,
        -0.1396053582429886,
        -0.040066469460725784,
        0.017951397225260735,
        0.18841511011123657,
        -0.17022116482257843,
        0.13162899017333984,
        -0.11050744354724884,
        0.13733650743961334,
        0.1424422711133957,
        0.2608957588672638,
        0.026338864117860794,
        0.16190265119075775,
        -0.006653919816017151,
        0.12087976932525635,
        0.12928104400634766,
        0.11959099769592285,
        -0.1471746861934662,
        0.036120396107435226,
        -0.16835471987724304,
        0.05898039788007736,
        0.08874361962080002,
        -0.1710047572851181,
        -0.33836808800697327,
        0.0014820630894973874,
        0.16556361317634583,
        -0.006867919582873583,
        -0.20147393643856049,
        0.14792285859584808,
        -0.0594320073723793,
        -0.08646947890520096,
        -0.0969168171286583,
        0.17749273777008057,
        -0.06898245960474014,
        0.03350386023521423,
        -0.06291703879833221,
        0.09400798380374908,
        -0.2323434054851532,
        0.027019985020160675,
        -0.10421452671289444,
        0.016298992559313774,
        0.027880815789103508,
        0.06725094467401505,
        -0.13783156871795654,
        -0.15751293301582336,
        -0.1485731452703476,
        0.011251428164541721,
        0.07308056950569153,
        -0.16939948499202728,
        0.09454162418842316,
        -0.017798494547605515,
        -0.10769995301961899,
        0.11696616560220718,
        -0.08823883533477783,
        -0.11553195863962173,
        0.02599412202835083,
        0.04861193150281906,
        -0.13800975680351257,
        0.0697789192199707,
        0.08592503517866135,
        0.029250603169202805,
        -0.1188102662563324,
        0.22837702929973602,
        0.18702305853366852,
        -0.1046111211180687,
        0.08284910023212433,
        -0.10579720139503479,
        -0.0014216373674571514,
        0.13317696750164032,
        0.1312943994998932,
        0.056898344308137894,
        -0.09657145291566849,
        -0.013399139046669006,
        0.07525217533111572,
        -0.10800458490848541,
        -0.12347907572984695,
        0.08165710419416428,
        0.04356098920106888,
        0.0914660096168518,
        -0.12109249085187912,
        -0.061882857233285904,
        0.08707799762487411,
        -0.0478106290102005,
        0.00797340553253889,
        0.16553406417369843,
        -0.00957238208502531,
        0.04580225795507431,
        0.2083454728126526,
        0.17700371146202087,
        -0.11992243677377701,
        -0.14680349826812744,
        -0.025375213474035263,
        -0.18916766345500946,
        -0.04546689987182617,
        -0.03299412503838539,
        0.05431906133890152,
        0.04157660901546478,
        -0.06567615270614624,
        -0.10810093581676483,
        -0.09035827219486237,
        -0.14359106123447418,
        0.11192063987255096,
        0.09687018394470215,
        0.16062290966510773,
        0.0004265765310265124,
        0.06324063986539841,
        -0.024419743567705154,
        0.18493156135082245,
        0.16835986077785492,
        0.007434201426804066,
        0.034691620618104935,
        0.1052677258849144,
        -0.17764267325401306,
        -0.15034319460391998,
        0.14470350742340088,
        -0.12405679374933243,
        -0.09058554470539093,
        0.07580818235874176,
        -0.12166566401720047,
        0.17351298034191132,
        -0.01637907698750496,
        -0.3332973122596741,
        -0.035483140498399734,
        -0.15474940836429596,
        0.04777003452181816,
        0.1578417420387268,
        -0.07490319013595581,
        0.18900661170482635,
        -0.17846156656742096,
        0.21703949570655823,
        0.033078067004680634,
        0.11179038137197495,
        -0.16941121220588684,
        0.07923346012830734,
        0.03186344727873802,
        0.010810869745910168,
        -0.11591002345085144,
        -0.015037148259580135,
        -0.1817014366388321,
        -0.01207936555147171,
        -0.0705970823764801,
        -0.11786174029111862,
        0.0948781967163086,
        -0.12685778737068176,
        0.044672928750514984,
        -0.04063963517546654,
        0.15576624870300293,
        -0.15121932327747345,
        -0.12770572304725647,
        -0.13316595554351807,
        0.1519179344177246,
        -0.11619125306606293,
        0.0543857142329216,
        -0.04968271404504776,
        0.037177301943302155,
        0.0952068641781807,
        -0.049388956278562546,
        0.18230757117271423,
        -0.15652328729629517,
        -0.1550271362066269,
        -0.11004868894815445,
        -0.06760002672672272,
        -0.022315731272101402,
        -0.15316905081272125,
        -0.134821817278862,
        -0.034488994628190994,
        0.09932439774274826,
        -0.03810439258813858,
        0.0032999669201672077,
        0.07331278175115585,
        -0.09263581037521362,
        -0.16701103746891022,
        0.13232699036598206,
        0.08121056109666824,
        0.08995889872312546,
        -0.049484774470329285,
        -0.14951151609420776,
        -0.048044558614492416,
        -0.019585048779845238,
        0.12099581211805344,
        -0.05068536847829819,
        -0.08254139125347137,
        0.04643964394927025,
        0.18097566068172455,
        -0.08309060335159302,
        -0.13850297033786774,
        -0.006924109999090433,
        -0.15846262872219086,
        0.0007253314252011478,
        0.05469056963920593,
        0.033105719834566116,
        0.14996810257434845,
        -0.1638626903295517,
        0.029802201315760612,
        0.10173632949590683,
        0.030613088980317116,
        0.07510387897491455,
        0.00077038788003847,
        -0.11220184713602066,
        -0.05489608645439148,
        0.19190536439418793,
        0.06830702722072601,
        0.008072007447481155,
