{
  "defaults": {},
  "inputs": [
    {
      "name": "DNNinput_ttag__channel",
      "offset": 3.0,
      "scale": 0.16666666666666666
    },
    {
      "name": "DNNinput_ttag__year",
      "offset": 3.0,
      "scale": 0.16666666666666666
    },
    {
      "name": "DNNinput_ttag__met_pt",
      "offset": -0.0,
      "scale": 0.0005
    },
    {
      "name": "DNNinput_ttag__met_phi",
      "offset": 4.0,
      "scale": 0.125
    },
    {
      "name": "DNNinput_ttag__lepton_pt",
      "offset": -0.0,
      "scale": 0.0005
    },
    {
      "name": "DNNinput_ttag__lepton_eta",
      "offset": 5.0,
      "scale": 0.1
    },
    {
      "name": "DNNinput_ttag__lepton_phi",
      "offset": 4.0,
      "scale": 0.125
    },
    {
      "name": "DNNinput_ttag__lepton_reliso",
      "offset": -0.0,
      "scale": 5.0
    },
    {
      "name": "DNNinput_ttag__lepton_charge",
      "offset": 1.0,
      "scale": 0.5
    },
    {
      "name": "DNNinput_ttag__lepton_dr_nextjet",
      "offset": -0.0,
      "scale": 0.16666666666666666
    },
    {
      "name": "DNNinput_ttag__lepton_ptrel_nextjet",
      "offset": -0.0,
      "scale": 0.00125
    },
    {
      "name": "DNNinput_ttag__dphi_lepton_met",
      "offset": -0.0,
      "scale": 0.25
    },
    {
      "name": "DNNinput_ttag__mtw",
      "offset": -0.0,
      "scale": 0.002
    },
    {
      "name": "DNNinput_ttag__pseudotop_m",
      "offset": -0.0,
      "scale": 0.00125
    },
    {
      "name": "DNNinput_ttag__tjet_pt",
      "offset": -0.0,
      "scale": 0.001
    },
    {
      "name": "DNNinput_ttag__tjet_eta",
      "offset": 5.0,
      "scale": 0.1
    },
    {
      "name": "DNNinput_ttag__tjet_phi",
      "offset": 4.0,
      "scale": 0.125
    },
    {
      "name": "DNNinput_ttag__dr_tjet_lepton",
      "offset": -0.0,
      "scale": 0.16666666666666666
    },
    {
      "name": "DNNinput_ttag__dphi_tjet_met",
      "offset": -0.0,
      "scale": 0.25
    },
    {
      "name": "DNNinput_ttag__ptbal_tjet_wboson",
      "offset": 2.0,
      "scale": 0.25
    },
    {
      "name": "DNNinput_ttag__ptbal_tjet_pseudotop",
      "offset": 2.0,
      "scale": 0.25
    },
    {
      "name": "DNNinput_ttag__n_xjets",
      "offset": -0.0,
      "scale": 0.1
    },
    {
      "name": "DNNinput_ttag__ht_xjets",
      "offset": -0.0,
      "scale": 0.001
    },
    {
      "name": "DNNinput_ttag__xjet1pt_pt",
      "offset": -0.0,
      "scale": 0.002
    },
    {
      "name": "DNNinput_ttag__xjet1pt_eta",
      "offset": 5.0,
      "scale": 0.1
    },
    {
      "name": "DNNinput_ttag__xjet1pt_phi",
      "offset": 4.0,
      "scale": 0.125
    },
    {
      "name": "DNNinput_ttag__xjet1pt_deepjet",
      "offset": -0.0,
      "scale": 1.0
    },
    {
      "name": "DNNinput_ttag__mass_xjet1pt_lepton",
      "offset": -0.0,
      "scale": 0.002
    },
    {
      "name": "DNNinput_ttag__dr_xjet1pt_lepton",
      "offset": -0.0,
      "scale": 0.16666666666666666
    },
    {
      "name": "DNNinput_ttag__dr_xjet1pt_tjet",
      "offset": -0.0,
      "scale": 0.16666666666666666
    },
    {
      "name": "DNNinput_ttag__xjet1dj_pt",
      "offset": -0.0,
      "scale": 0.002
    },
    {
      "name": "DNNinput_ttag__xjet1dj_eta",
      "offset": 5.0,
      "scale": 0.1
    },
    {
      "name": "DNNinput_ttag__xjet1dj_phi",
      "offset": 4.0,
      "scale": 0.125
    },
    {
      "name": "DNNinput_ttag__xjet1dj_deepjet",
      "offset": -0.0,
      "scale": 1.0
    },
    {
      "name": "DNNinput_ttag__mass_xjet1dj_lepton",
      "offset": -0.0,
      "scale": 0.002
    },
    {
      "name": "DNNinput_ttag__dr_xjet1dj_lepton",
      "offset": -0.0,
      "scale": 0.16666666666666666
    },
    {
      "name": "DNNinput_ttag__dr_xjet1dj_tjet",
      "offset": -0.0,
      "scale": 0.16666666666666666
    },
    {
      "name": "DNNinput_ttag__ijet1dj_deepjet",
      "offset": -0.0,
      "scale": 1.0
    },
    {
      "name": "DNNinput_ttag__dr_tjet_xjet",
      "offset": -0.0,
      "scale": 0.16666666666666666
    },
    {
      "name": "DNNinput_ttag__tnearestxjet_pt",
      "offset": -0.0,
      "scale": 0.002
    },
    {
      "name": "DNNinput_ttag__tnearestxjet_eta",
      "offset": 5.0,
      "scale": 0.1
    },
    {
      "name": "DNNinput_ttag__tnearestxjet_phi",
      "offset": 4.0,
      "scale": 0.125
    },
    {
      "name": "DNNinput_ttag__tnearestxjet_deepjet",
      "offset": -0.0,
      "scale": 1.0
    }
  ],
  "layers": [
    {
      "activation": "rectified",
      "architecture": "dense",
      "bias": [
        -0.004063653759658337,
        -0.002266412600874901,
        0.020588768646121025,
        0.019414536654949188,
        -0.006184005178511143,
        0.007650468964129686,
        -0.013186370022594929,
        -0.00741154607385397,
        -0.014428975060582161,
        0.015063870698213577,
        -0.032458819448947906,
        0.03888576105237007,
        0.01133204810321331,
        0.014681928791105747,
        0.0201821681112051,
        0.031076325103640556,
        -0.01654643751680851,
        0.016842633485794067,
        -0.00042968688649125397,
        0.015313519164919853,
        -0.0031204947736114264,
        0.02855326421558857,
        0.01874605379998684,
        0.01794690266251564,
        -0.01126171089708805,
        -0.004713921342045069,
        0.006854325067251921,
        -0.011886348016560078,
        0.010371155105531216,
        0.015231389552354813,
        0.009878214448690414,
        -0.017001116648316383,
        -0.002197718247771263,
        0.0,
        0.010541177354753017,
        0.01415711734443903,
        0.03509410098195076,
        -0.0029554879292845726,
        0.01842489093542099,
        0.028124580159783363,
        0.0016560551011934876,
        0.024016626179218292,
        0.036246661096811295,
        0.009443718940019608,
        0.0029935515485703945,
        0.028011538088321686,
        -0.013261484913527966,
        0.01883900910615921,
        0.009813093580305576,
        0.03491760045289993,
        0.018703844398260117,
        0.0005253558629192412,
        0.02649860829114914,
        -0.007152698002755642,
        -0.006824275944381952,
        -0.011535095050930977,
        -0.006041623651981354,
        0.0014850212028250098,
        0.017701853066682816,
        0.0019790700171142817,
        0.0342935249209404,
        0.03308388218283653,
        0.03295353427529335,
        0.03459273278713226,
        -0.01692798361182213,
        0.01971541903913021,
        0.020331431180238724,
        0.0007568441797047853,
        0.0004146348510403186,
        0.026485277339816093,
        -0.00542388716712594,
        0.025872334837913513,
        0.017983170226216316,
        0.005041701719164848,
        0.019739851355552673,
        0.03166297450661659,
        0.0023462146054953337,
        0.006265340838581324,
        0.012146766297519207,
        -0.012155374512076378,
        -0.007630819454789162,
        0.027560807764530182,
        0.012073948048055172,
        0.027899697422981262,
        0.0027745836414396763,
        -0.0026262220926582813,
        -0.001426694099791348,
        0.0020632219966500998,
        -0.01736893504858017,
        -0.00481999758630991,
        0.015655100345611572,
        0.03864169493317604,
        0.025127816945314407,
        0.011629261076450348,
        -0.0025693161878734827,
        0.02805362641811371,
        0.005028846208006144,
        -0.007475685328245163,
        0.010083990171551704,
        0.0012851138599216938,
        -0.02974773570895195,
        0.007594738155603409,
        0.028110431507229805,
        -0.008643151260912418,
        0.01608235388994217,
        -0.017787201330065727,
        -0.0002691022236831486,
        0.0006393384537659585,
        -0.00175451987888664,
        0.00015471590450033545,
        -0.0011032960610464215,
        0.018731264397501945,
        0.010893017053604126,
        0.010144760832190514,
        0.02139468677341938,
        0.003919788636267185,
        -0.01972583681344986,
        0.0,
        0.03837649151682854,
        0.017066583037376404,
        0.03268282115459442,
        0.017108840867877007,
        0.008789843879640102,
        0.007683468516916037,
        0.021761493757367134,
        0.04964996501803398,
        0.012985262088477612,
        0.019639424979686737
      ],
      "weights": [
        -0.009337578900158405,
        -0.07467737793922424,
        0.07421526312828064,
        -0.059847842901945114,
        0.25064918398857117,
        -0.03353511169552803,
        -0.10275449603796005,
        -0.1317591369152069,
        0.047429028898477554,
        0.10202621668577194,
        -0.030491475015878677,
        -0.18454335629940033,
        -0.02328791841864586,
        0.1807098090648651,
        -0.004764365032315254,
        0.035090360790491104,
        -0.0014094174839556217,
        0.023909583687782288,
        -0.07589315623044968,
        -0.02729099802672863,
        -0.05076540634036064,
        -0.011072205379605293,
        -0.10801094025373459,
        0.17933125793933868,
        -0.05623551830649376,
        -0.057419996708631516,
        0.11204557120800018,
        0.20835502445697784,
        -0.05514176934957504,
        -0.19185958802700043,
        0.11172635853290558,
        0.03259917348623276,
        0.1853157877922058,
        0.12237917631864548,
        0.2348521649837494,
        0.2084103673696518,
        -0.09598901122808456,
        0.12137654423713684,
        -0.09331177175045013,
        0.19864340126514435,
        0.0046708653680980206,
        -0.16501151025295258,
        -0.11476347595453262,
        -0.017248114570975304,
        0.061091598123311996,
        -0.22658495604991913,
        0.02196493372321129,
        0.33412355184555054,
        0.02507050707936287,
        0.1754211187362671,
        -0.022378526628017426,
        -0.10288766026496887,
        0.07079433649778366,
        -0.08443266153335571,
        0.08497697860002518,
        0.13770553469657898,
        0.0945916399359703,
        0.1658029854297638,
        0.03206392377614975,
        0.06028130650520325,
        0.08029564470052719,
        -0.0888153612613678,
        0.09599827975034714,
        0.060410331934690475,
        -0.17373424768447876,
        0.0035608489997684956,
        -0.019164225086569786,
        0.13473168015480042,
        0.06429136544466019,
        -0.08955365419387817,
        -0.0053214337676763535,
        -0.01906338520348072,
        -0.06142619252204895,
        0.06041854992508888,
        -0.038220375776290894,
        0.1018514409661293,
        0.0006615413585677743,
        0.029403086751699448,
        -0.17155417799949646,
        0.08692076057195663,
        0.04993949085474014,
        0.12726032733917236,
        0.11511442065238953,
        -0.012176955118775368,
        0.05018480122089386,
        -0.16648271679878235,
        0.0156941469758749,
        -0.06728025525808334,
        0.23212452232837677,
        -0.02409038133919239,
        0.024453939869999886,
        -0.16429083049297333,
        0.09008748829364777,
        0.113535575568676,
        0.13191242516040802,
        -0.11492076516151428,
        0.12569136917591095,
        0.11800839751958847,
        0.04174380749464035,
        -0.014019607566297054,
        -0.10950228571891785,
        -0.13472621142864227,
        -0.054083820432424545,
        -0.08429459482431412,
        -0.0860326886177063,
        0.07123294472694397,
        -0.041432205587625504,
        -0.16723619401454926,
        0.10635020583868027,
        -0.007333948742598295,
        -0.06182333081960678,
        0.03516416251659393,
        -0.05052551254630089,
        -0.019827770069241524,
        0.02578401379287243,
        0.22032871842384338,
        0.1712753027677536,
        -0.04079407453536987,
        -0.10986826568841934,
        -0.023427700623869896,
        0.07319401204586029,
        0.13529177010059357,
        -0.08074423670768738,
        -0.10901156812906265,
        -0.06820917874574661,
        -0.0067925830371677876,
        -0.049802277237176895,
        0.19065338373184204,
        0.12143850326538086,
        0.06914382427930832,
        0.023238539695739746,
        -0.12910126149654388,
        -0.04365808516740799,
        -0.17260822653770447,
        -0.08015287667512894,
        0.11679196357727051,
        0.06585092097520828,
        -0.05393487587571144,
        0.025133764371275902,
        0.011757951229810715,
        0.15994514524936676,
        -0.1872287392616272,
        -0.16113398969173431,
        0.060170043259859085,
        0.010479820892214775,
        -0.011972667649388313,
        -0.004038001410663128,
        0.095820352435112,
        0.13248778879642487,
        -0.1513255089521408,
        -0.05726810544729233,
        -0.11857368797063828,
        -0.06488438695669174,
        -0.15025082230567932,
        -0.18592265248298645,
        -0.032718490809202194,
        -0.05265854299068451,
        0.1021307185292244,
        0.007049460429698229,
        0.07023501396179199,
        0.012813301756978035,
        0.09581387042999268,
        0.13574793934822083,
        -0.1949639767408371,
        -0.09632540494203568,
        0.01852833852171898,
        0.13146409392356873,
        0.17435289919376373,
        0.029651381075382233,
        -0.08671289682388306,
        0.16939255595207214,
        -0.09657374024391174,
        -0.16897337138652802,
        0.03342380374670029,
        0.05138807371258736,
        -0.13496121764183044,
        0.2792567312717438,
        0.14341014623641968,
        0.12938719987869263,
        -0.17874114215373993,
        0.07220632582902908,
        -0.051164139062166214,
        -0.07493406534194946,
        -0.05183161050081253,
        0.1887192279100418,
        -0.057206250727176666,
        0.14721505343914032,
        -0.11958473920822144,
        -0.009097056463360786,
        0.004244706127792597,
        0.04855218902230263,
        -0.030871104449033737,
        0.006160547956824303,
        0.10739067941904068,
        -0.18884597718715668,
        -0.11472128331661224,
        -0.14333386719226837,
        0.17386490106582642,
        -0.27201202511787415,
        -0.13121873140335083,
        0.1391056925058365,
        -0.028046008199453354,
        -0.27243372797966003,
        0.16003325581550598,
        0.05054180324077606,
        -0.13419677317142487,
        -0.025336068123579025,
        0.005330071318894625,
        -0.172321155667305,
        -0.08372951298952103,
        0.026333946734666824,
        -0.09017657488584518,
        0.024472102522850037,
        0.18456529080867767,
        -0.19886992871761322,
        -0.053739987313747406,
        -0.19271518290042877,
        -0.15249872207641602,
        -0.011830286122858524,
        0.02707401104271412,
        -0.028302526101469994,
        -0.13875772058963776,
        0.23247836530208588,
        0.15174169838428497,
        -0.08389018476009369,
        -0.07099027931690216,
        -0.18393467366695404,
        -0.24555422365665436,
        -0.20573727786540985,
        0.12004707008600235,
        -0.16448874771595,
        0.15901947021484375,
        0.14017021656036377,
        -0.03712906688451767,
        -0.046411216259002686,
        0.15781357884407043,
        0.0030775913037359715,
        -0.1440640687942505,
        0.07614772021770477,
        -0.12228173017501831,
        -0.10824833065271378,
        -0.02757437899708748,
        -0.008961373008787632,
        0.14389705657958984,
        0.14314784109592438,
        0.0857703909277916,
        0.10125262290239334,
        0.10086324065923691,
        -0.025625556707382202,
        0.22516702115535736,
        0.22993320226669312,
        -0.14774562418460846,
        0.0964151918888092,
        0.030584800988435745,
        0.04221015423536301,
        -0.1428695172071457,
        -0.0038993593771010637,
        -0.128164604306221,
        -0.19974763691425323,
        0.024748753756284714,
        0.1882142722606659,
        -0.029703425243496895,
        -0.03740236535668373,
        0.1521950513124466,
        0.1806182563304901,
        0.020247099921107292,
        0.15144820511341095,
        -0.04870428144931793,
        0.030034057796001434,
        0.04296175390481949,
        0.05125408619642258,
        0.03201489895582199,
        0.02660953812301159,
        0.0006531810504384339,
        0.1638827919960022,
        -0.11950647085905075,
        0.16490423679351807,
        -0.15105879306793213,
        0.07553230971097946,
        0.1638437807559967,
        0.09700674563646317,
        -0.011224916204810143,
        0.1093011274933815,
        0.009026099927723408,
        0.16833283007144928,
        0.15989068150520325,
        0.07993069291114807,
        -0.07784917205572128,
        -0.05131616070866585,
        -0.007095986511558294,
        0.14549164474010468,
        0.07889511436223984,
        0.2178938239812851,
        -0.1226610392332077,
        0.019048824906349182,
        -0.20538781583309174,
        -0.041178278625011444,
        0.15942558646202087,
        -0.09451330453157425,
        -0.05286598578095436,
        -0.16271428763866425,
        0.03957793489098549,
        0.02734876610338688,
        0.049343448132276535,
        -0.1604374796152115,
        0.02015603892505169,
        0.1523660570383072,
        -0.10030877590179443,
        0.20005419850349426,
        -0.008096277713775635,
        -0.10191473364830017,
        -0.16615614295005798,
        -0.11426953226327896,
        0.015198688954114914,
        0.08622321486473083,
        0.010401178151369095,
        -0.0938795953989029,
        -0.04565928503870964,
        0.13475963473320007,
        0.07182081788778305,
        0.18498629331588745,
        -0.011009627021849155,
        -0.023738941177725792,
        -0.08311332017183304,
        -0.14970722794532776,
        0.022630685940384865,
        0.05232344940304756,
        0.11772241443395615,
        0.024890631437301636,
        0.023711800575256348,
        -0.13436922430992126,
        0.006275110878050327,
        0.17283864319324493,
        -0.07277125865221024,
        0.07644790410995483,
        0.09807140380144119,
        -0.016018060967326164,
        0.0984097272157669,
        -0.036745015531778336,
        0.01137608103454113,
        0.09691080451011658,
        -0.1273902952671051,
        0.0383436344563961,
        0.03271673992276192,
        -0.027602877467870712,
        0.16513897478580475,
        0.05032816529273987,
        -0.007451431360095739,
        -0.09816565364599228,
        -0.13647155463695526,
        0.1413687765598297,
        0.14857876300811768,
        0.08476909250020981,
        0.007658365182578564,
        -0.13678334653377533,
        -0.05781691521406174,
        0.10530705004930496,
        -0.07047943025827408,
        -0.10639595240354538,
        0.09105207771062851,
        -0.17988421022891998,
        0.012134992517530918,
        -0.16278737783432007,
        0.11152306944131851,
        0.14975957572460175,
        0.1034919023513794,
        0.16808052361011505,
        0.030485669150948524,
        0.1848752796649933,
        -0.036872413009405136,
        0.18623733520507812,
        -0.11677811294794083,
        0.14134396612644196,
        0.09425417333841324,
        0.09381464123725891,
        -0.0280001200735569,
        -0.1522793024778366,
        0.09153395891189575,
        -0.07678093761205673,
        0.14780813455581665,
        -0.03065197914838791,
        -0.18007783591747284,
        -0.023618264123797417,
        0.06106781214475632,
        -0.024086393415927887,
        -0.04297664761543274,
        -0.04941762238740921,
        0.1937333345413208,
        0.09263653308153152,
        -0.1008080318570137,
        -0.16173847019672394,
        -0.3195679187774658,
        -0.18116287887096405,
        0.01638091541826725,
        0.14070570468902588,
        -0.0697048231959343,
        -0.027958089485764503,
        0.12315743416547775,
        0.1828078329563141,
        -0.1252719759941101,
        0.07135947048664093,
        -0.1328326314687729,
        0.1380302906036377,
        -0.024380668997764587,
        -0.06548821926116943,
        0.08593045920133591,
        0.05950239673256874,
        -0.18323634564876556,
        0.07962450385093689,
        -0.010781599208712578,
        -0.14523303508758545,
        -0.10311858355998993,
        0.044893186539411545,
        -0.16423095762729645,
        0.07334773242473602,
        -0.030161527916789055,
        0.14526817202568054,
        0.04994191974401474,
        -0.11945650726556778,
        0.05899530276656151,
        -0.09546700119972229,
        0.17658235132694244,
        0.2190731167793274,
        -0.10232914984226227,
        0.16156721115112305,
        -0.08168807625770569,
        -0.14732582867145538,
        0.017947698011994362,
        0.0568951740860939,
        0.018337307497859,
        0.012602628208696842,
        -0.1569821685552597,
        -0.036870330572128296,
        -0.04837310314178467,
        -0.02522675320506096,
        -0.10685485601425171,
        -0.09779215604066849,
        -0.08897006511688232,
        -0.016575895249843597,
        -0.06779353320598602,
        0.08436726033687592,
        -0.1279236227273941,
        -0.13950423896312714,
        -0.0439654216170311,
        0.04627283290028572,
        0.0025566841941326857,
        0.07523420453071594,
        0.13405205309391022,
        -0.09483207762241364,
        -0.08039280772209167,
        -0.055109892040491104,
        -0.03786630183458328,
        0.20680460333824158,
        0.09023235738277435,
        -0.1039661094546318,
        -0.056038402020931244,
        -0.01796601340174675,
        -0.03697805106639862,
        0.12585461139678955,
        0.1560821384191513,
        0.19997255504131317,
        0.15354961156845093,
        -0.08796417713165283,
        -0.016281865537166595,
        0.24527987837791443,
        0.24760802090168,
        0.1055077388882637,
        -0.12482739984989166,
        0.17302992939949036,
        0.1659826785326004,
        0.15744036436080933,
        0.15514519810676575,
        0.05890020728111267,
        0.22563476860523224,
        -0.0499626062810421,
        0.1397687941789627,
        -0.04736343398690224,
        0.0775291696190834,
        -0.060266751796007156,
        0.06772708892822266,
        0.10897595435380936,
        -0.010395273566246033,
        -0.14376644790172577,
        -0.11181247979402542,
        0.1597381830215454,
        -0.07919732481241226,
        -0.16377878189086914,
        -0.0601932555437088,
        -0.1226121261715889,
        0.003292571986094117,
        0.07661043852567673,
        -0.1026984229683876,
        0.19748108088970184,
        -0.012095513753592968,
        0.12683814764022827,
        0.04158041626214981,
        0.03857475146651268,
        -0.023016037419438362,
        0.14515800774097443,
        -0.14749224483966827,
        -0.14008507132530212,
        -0.15479804575443268,
        -0.017819184809923172,
        0.08671969175338745,
        0.05279160663485527,
        0.10975375771522522,
        0.1816989630460739,
        -0.32709553837776184,
        -0.2007249891757965,
        -0.05024566128849983,
        0.02910151705145836,
        0.1981038749217987,
        -0.06897813826799393,
        0.08139168471097946,
        0.011793036013841629,
        0.1783369481563568,
        0.08011102676391602,
        0.0982871949672699,
        0.1348697692155838,
        -0.15695422887802124,
        -0.11272383481264114,
        -0.15617893636226654,
        -0.08470835536718369,
        -0.11624365299940109,
        -0.038327015936374664,
        -0.1564147174358368,
        -0.1329813450574875,
        0.09043397009372711,
        0.12046760320663452,
        -0.22750280797481537,
        0.20120276510715485,
        -0.17475906014442444,
        -0.06476972997188568,
        -0.01605348289012909,
        0.13846343755722046,
        0.11634141206741333,
        0.10912854969501495,
        0.11606680601835251,
        0.1106400191783905,
        0.1258798986673355,
        -0.01296915952116251,
        0.05458240211009979,
        0.07352583110332489,
        0.07789686322212219,
        -0.04735282436013222,
        0.16820663213729858,
        0.04481138288974762,
        -0.015499488450586796,
        0.11172405630350113,
        -0.10977553576231003,
        -0.1108940988779068,
        -0.08911305665969849,
        -0.12672728300094604,
        0.08126834034919739,
        -0.17323419451713562,
        0.05322180688381195,
        -0.1288403868675232,
        0.16925731301307678,
        0.15183356404304504,
        -0.011108607053756714,
        -0.029978854581713676,
        0.11209004372358322,
        0.03517577052116394,
        -0.4214174747467041,
        0.08304516226053238,
        -0.1000046581029892,
        -0.11173973977565765,
        -0.007271987851709127,
        -0.026143595576286316,
        -0.1655813753604889,
        0.021601824089884758,
        0.025232970714569092,
        -0.15570342540740967,
        0.07252566516399384,
        -0.005771603900939226,
        -0.04146788641810417,
        0.14145271480083466,
        0.007085809484124184,
        -0.13236339390277863,
        -0.06556814908981323,
        -0.16849201917648315,
        -0.0401991531252861,
        0.16746540367603302,
        0.14759302139282227,
        -0.059893883764743805,
        -0.17096005380153656,
        -0.06931576132774353,
        0.14041461050510406,
        0.005120028275996447,
        -0.16303767263889313,
        -0.1241309717297554,
        0.009903865866363049,
        -0.031452566385269165,
        0.13281559944152832,
        0.11971341073513031,
        0.08851606398820877,
        0.23147261142730713,
        -0.20052208006381989,
        -0.1392880082130432,
        0.0967991054058075,
        0.07297753542661667,
        -0.01874186284840107,
        0.11917071789503098,
        -0.03222902491688728,
        0.10512971132993698,
        0.12113404273986816,
        -0.14502644538879395,
        -0.06869619339704514,
        -0.17552326619625092,
        0.20713867247104645,
        -0.03322272747755051,
        -0.1592254787683487,
        -0.12298063933849335,
        0.08150696009397507,
        -0.11665301024913788,
        0.01972794719040394,
        -0.13517963886260986,
        -0.15089933574199677,
        0.1010335236787796,
        0.12831297516822815,
        0.15913783013820648,
        -0.0916457250714302,
        0.016806796193122864,
        -0.0017124342266470194,
        0.1453569382429123,
        -0.13821615278720856,
        -0.008758856914937496,
        -0.17584073543548584,
        0.03867817297577858,
        0.10409479588270187,
        0.04499392211437225,
        -0.16457636654376984,
        0.16121923923492432,
        0.1556837558746338,
        0.1031697615981102,
        0.05327258259057999,
        -0.24508404731750488,
        -0.03730180487036705,
        -0.07707347720861435,
        -0.032979566603899,
        0.11967381089925766,
        -0.005083896219730377,
        0.12404000014066696,
        0.1261272430419922,
        -0.023537028580904007,
        -0.0042977407574653625,
        -0.1850256621837616,
        -0.21625986695289612,
        0.08829085528850555,
        0.305386483669281,
        -0.09903787821531296,
        -0.12057033181190491,
        0.11744698882102966,
        0.1306186467409134,
        -0.19529663026332855,
        -0.13508950173854828,
        0.11684437841176987,
        0.04895007237792015,
        -0.020569708198308945,
        0.16747286915779114,
        -0.003681246191263199,
        0.010424296371638775,
        0.04165859520435333,
        0.12726567685604095,
        0.009813033044338226,
        0.15203659236431122,
        0.015391881577670574,
        -0.10249253362417221,
        0.04961612820625305,
        0.12291429936885834,
        -0.06784159690141678,
        0.19445385038852692,
        0.15365569293498993,
        -0.17322076857089996,
        0.06456845253705978,
        0.054580770432949066,
        0.09713947027921677,
        -0.013588953763246536,
        0.008855805732309818,
        -0.10692428797483444,
        -0.031816910952329636,
        0.118987537920475,
        0.2778286039829254,
        0.0006291807512752712,
        -0.015283572487533092,
        -0.05305836349725723,
        0.08339182287454605,
        -0.012691287323832512,
        -0.1770707070827484,
        -0.01687692292034626,
        -0.10965968668460846,
        -0.16753384470939636,
        0.2499510645866394,
        0.014177259057760239,
        0.08356408029794693,
        -0.03549084812402725,
        -0.04636634886264801,
        0.20447123050689697,
        0.15207220613956451,
        -0.023028185591101646,
        0.03706871345639229,
        0.05371006950736046,
        -0.14611802995204926,
        0.027117451652884483,
        0.05789102613925934,
        0.13363514840602875,
        -0.15162280201911926,
        -0.053656142204999924,
        -0.07416725158691406,
        -0.0291475560516119,
        -0.035097554326057434,
        0.1900416910648346,
        0.08934450894594193,
        0.00797420833259821,
        0.08294466137886047,
        0.13203538954257965,
        -0.02109142765402794,
        -0.024895746260881424,
        -0.005809231195598841,
        0.10362114012241364,
        0.055575087666511536,
        -0.1254357248544693,
        0.11013367772102356,
        -0.06624381244182587,
        -0.10150928050279617,
        0.015478993766009808,
        0.11306055635213852,
        -0.07157780230045319,
        0.044041913002729416,
        0.04423745721578598,
        0.07688827067613602,
        0.1511302888393402,
        0.02945829927921295,
        0.12572824954986572,
        -0.02642405964434147,
        -0.24429674446582794,
        0.06462359428405762,
        0.17571528255939484,
        -0.0032016404438763857,
        -0.012889490462839603,
        -0.12003855407238007,
        0.07768288999795914,
        -0.034139424562454224,
        0.07712055742740631,
        -0.010098854079842567,
        -0.04206065461039543,
        0.08823937922716141,
        0.17645417153835297,
        0.18203870952129364,
        -0.04590196534991264,
        -0.07787014544010162,
        0.10656663775444031,
        0.13419616222381592,
        -0.04576545208692551,
        -0.09880470484495163,
        0.1072167232632637,
        -0.11512628942728043,
        -0.13239814341068268,
        0.08124357461929321,
        0.13932833075523376,
        0.16600589454174042,
        0.08382058888673782,
        -0.05151344835758209,
        0.09858682751655579,
        0.1240299865603447,
        -0.05530039593577385,
        0.17262442409992218,
        0.030541682615876198,
        -0.07130003720521927,
        -0.08472868800163269,
        -0.18535569310188293,
        0.11023584753274918,
        0.0885818675160408,
        0.05407403036952019,
        -0.021043889224529266,
        0.05938393995165825,
        0.07099288702011108,
        0.1099010705947876,
        0.05678030103445053,
        0.06102124601602554,
        0.14828447997570038,
        -0.09370381385087967,
        -0.011311276815831661,
        0.17787380516529083,
        -0.06132518872618675,
        0.13173508644104004,
        0.0874837264418602,
        0.10734520852565765,
        -0.037271641194820404,
        -0.06408519297838211,
        0.15426276624202728,
        0.13447029888629913,
        -0.08383260667324066,
        0.19757267832756042,
        -0.06800300627946854,
        -0.13992291688919067,
        0.0718270093202591,
        -0.09819810092449188,
        0.050389546900987625,
        0.03711250424385071,
        -0.01648986153304577,
        0.10211765766143799,
        0.06242761015892029,
        0.20257747173309326,
        0.1324552446603775,
        0.014380605891346931,
        0.04220908135175705,
        -0.13860903680324554,
        -0.07817130535840988,
        -0.15721456706523895,
        -0.0416952520608902,
        -0.017932400107383728,
        0.13803671300411224,
        0.05925298482179642,
        0.07369290292263031,
        0.07939869165420532,
        0.004078746307641268,
        -0.14404217898845673,
        -0.10782685875892639,
        0.1113487109541893,
        -0.11308560520410538,
        0.041731227189302444,
        0.010592865757644176,
        -0.1511102020740509,
        0.12779946625232697,
        0.0685984343290329,
        0.1246647834777832,
        0.09953174740076065,
        0.09407845884561539,
        0.2376643717288971,
        0.22738467156887054,
        -0.09301672130823135,
        0.13389290869235992,
        0.11077062040567398,
        0.024002013728022575,
        -0.16940005123615265,
        -0.12528540194034576,
        -0.03591519221663475,
        0.07842905074357986,
        -0.11844071000814438,
        -0.09464750438928604,
        -0.09437723457813263,
        0.04859098419547081,
        -0.15387244522571564,
        0.0990981012582779,
        -0.17496824264526367,
        -0.012889624573290348,
        0.19985437393188477,
        0.08690907061100006,
        -0.09584633260965347,
        0.0830109566450119,
        -0.08374971151351929,
        0.13253864645957947,
        0.07658698409795761,
        -0.02614412270486355,
        0.0699596256017685,
        -0.0796516165137291,
        -0.077767014503479,
        -0.12764041125774384,
        0.1415124535560608,
        -0.08833396434783936,
        -0.0694550946354866,
        -0.11154527962207794,
        0.14188367128372192,
        0.3347289562225342,
        0.10899437218904495,
        0.08749900758266449,
        0.19795136153697968,
        -0.08831184357404709,
        -0.07627667486667633,
        0.04705072194337845,
        -0.14265164732933044,
        0.16926051676273346,
        0.012302350252866745,
        -0.10456082969903946,
        -0.11251309514045715,
        0.08173777908086777,
        0.058583248406648636,
        0.16662874817848206,
        0.004317559767514467,
        -0.1084308922290802,
        0.10396670550107956,
        0.03704628720879555,
        0.10534419119358063,
        0.06915988028049469,
        0.11541776359081268,
        -0.03667133301496506,
        0.10688543319702148,
        0.009791192598640919,
        -0.008376208133995533,
        -0.06632193177938461,
        0.17358560860157013,
        0.14336037635803223,
        -0.14150238037109375,
        0.2908361554145813,
        -0.015200091525912285,
        -0.07164683938026428,
        -0.07441097497940063,
        -0.02458677627146244,
        -0.13499000668525696,
        -0.10886270552873611,
        0.15001057088375092,
        -0.001198522630147636,
        0.19912678003311157,
        -0.16638429462909698,
        -0.07441815733909607,
        -0.1349388062953949,
        0.03920216113328934,
        -0.1539962738752365,
        -0.03500116243958473,
        -0.07119504362344742,
        -0.00866504106670618,
        -0.15933403372764587,
        0.011790535412728786,
        0.1594613939523697,
        -0.03481880575418472,
        -0.05641218274831772,
        0.05700065940618515,
        -0.04767289385199547,
        -0.03844645619392395,
        -0.11664927005767822,
        -0.06233127787709236,
        0.06184031441807747,
        0.0377345010638237,
        0.07400238513946533,
        -0.13171076774597168,
        0.09904830902814865,
        -0.10398370772600174,
        0.13779643177986145,
        0.16615460813045502,
        -0.18370026350021362,
        -0.05692772939801216,
        0.16930422186851501,
        0.028060827404260635,
        0.035568103194236755,
        0.11201987415552139,
        0.01430453546345234,
        0.14409023523330688,
        0.1488296389579773,
        -0.05529036745429039,
        0.0986885204911232,
        0.12354131042957306,
        -0.14185862243175507,
        0.09906507283449173,
        0.0586589053273201,
        0.13664546608924866,
        0.050958454608917236,
        -0.17733973264694214,
        -0.07315008342266083,
        2.7305344701744616e-05,
        -0.07931555807590485,
        0.11287226527929306,
        0.030643625184893608,
        -0.005467941984534264,
        0.0681459829211235,
        -0.09311379492282867,
        -0.14588750898838043,
        -0.10097474604845047,
        -0.16909930109977722,
        0.05229508504271507,
        -0.04650435224175453,
        0.01767481118440628,
        0.12346459925174713,
        0.08447127789258957,
        -0.1571163535118103,
        0.07687663286924362,
        0.07177072018384933,
        -0.1255389004945755,
        -0.11327945441007614,
        0.2021833211183548,
        -0.0978788211941719,
        0.10345957428216934,
        0.06272974610328674,
        -0.14826615154743195,
        0.016008246690034866,
        0.19510112702846527,
        0.110910564661026,
        -0.03145883232355118,
        0.040914177894592285,
        -0.12312085181474686,
        -0.1807178258895874,
        0.13308560848236084,
        0.12963594496250153,
        0.05392688512802124,
        0.1342182755470276,
        -0.10433515161275864,
        -0.062565378844738,
        -0.1172700747847557,
        0.08300371468067169,
        0.06951861828565598,
        0.05656842514872551,
        -0.09397885948419571,
        0.11202269047498703,
        0.14169199764728546,
        -0.03621302545070648,
        0.00952370185405016,
        -0.17968454957008362,
        0.002342047169804573,
        0.130894735455513,
        -0.051552269607782364,
        0.018988000229001045,
        -0.053400516510009766,
        -0.050851814448833466,
        -0.05023397505283356,
        -0.11379099637269974,
        -0.1111326813697815,
        -0.11659601330757141,
        0.01514826063066721,
        0.22078344225883484,
        0.11908420920372009,
        -0.15049415826797485,
        0.0799512267112732,
        0.16258956491947174,
        -0.06823746860027313,
        0.09580555558204651,
        0.16832996904850006,
        0.02644900418817997,
        0.03187539055943489,
        -0.15792059898376465,
        -0.09582284837961197,
        -0.0761430412530899,
        -0.14790961146354675,
        0.011379031464457512,
        0.22100819647312164,
        0.10430655628442764,
        -0.0008181286975741386,
        0.12360778450965881,
        0.018176887184381485,
        -0.10591264814138412,
        0.032762426882982254,
        0.14145146310329437,
        -0.021692529320716858,
        0.022113222628831863,
        0.14991779625415802,
        -0.02730250358581543,
        0.003439737716689706,
        0.27714359760284424,
        0.14777235686779022,
        -0.08143032342195511,
        0.07503493130207062,
        -0.04653075709939003,
        0.05146237090229988,
        0.09868545085191727,
        0.06707873195409775,
        0.09784567356109619,
        0.06964387744665146,
        -0.06171610578894615,
        0.1816367655992508,
        0.05107276141643524,
        0.11283711344003677,
        0.10707232356071472,
        0.014410118572413921,
        -0.0680212527513504,
        0.10949759185314178,
        0.039797551929950714,
        -0.04092954099178314,
        -0.046025972813367844,
        0.17199642956256866,
        -0.1080077588558197,
        0.12654927372932434,
        -0.18749311566352844,
        0.0018957557622343302,
        0.13420484960079193,
        -0.12994317710399628,
        -0.03405095636844635,
        -0.049153901636600494,
        0.019252663478255272,
        0.1084013432264328,
        -0.052170973271131516,
        0.07264988124370575,
        -0.1303580403327942,
        -0.11467680335044861,
        0.03632846847176552,
        -0.12827493250370026,
        0.09980185329914093,
        -0.07461215555667877,
        0.19127704203128815,
        -0.03935408219695091,
        0.04197913780808449,
        0.31316959857940674,
        -0.05055613070726395,
        -0.12263697385787964,
        0.03560257703065872,
        -0.11932546645402908,
        0.09527714550495148,
        -0.08967234939336777,
        -0.0766746774315834,
        0.06785435229539871,
        -0.05491926521062851,
        -0.0490773506462574,
        -0.07850214838981628,
        0.17779923975467682,
        0.0050277733244001865,
        -0.06188483163714409,
        0.1397487223148346,
        -0.10343170166015625,
        -0.133080393075943,
        0.04924330860376358,
        -0.14651204645633698,
        0.11356435716152191,
        0.07936927676200867,
        -0.01614968478679657,
        -0.004097431432455778,
        -0.025647500529885292,
        -0.10175596177577972,
        0.010180811397731304,
        0.17781823873519897,
        -0.12752553820610046,
        -0.10178322345018387,
        -0.0051603843457996845,
        0.1348399519920349,
        -0.16606295108795166,
        0.12925077974796295,
        0.007535971235483885,
        -0.05078848823904991,
        0.08526410162448883,
        -0.04834088683128357,
        -0.011617619544267654,
        0.0584292896091938,
        -0.038236938416957855,
        -0.12422657757997513,
        0.09225040674209595,
        0.21851786971092224,
        -0.05156003683805466,
        -0.016488973051309586,
        0.0714973732829094,
        -0.10090652853250504,
        0.057600390166044235,
        -0.14743083715438843,
        0.12178270518779755,
        0.12682083249092102,
        0.0645921602845192,
        0.1135144829750061,
        0.06646988540887833,
        -0.021557878702878952,
        -0.11761284619569778,
        0.021123722195625305,
        0.07089551538228989,
        0.009902617894113064,
        -0.016925107687711716,
        -0.07492781430482864,
        -0.14241382479667664,
        -0.03493731468915939,
        0.06445260345935822,
        -0.012548314407467842,
        -0.06530467420816422,
        -0.102117158472538,
        -0.04798213392496109,
        0.07410574704408646,
        0.10895616561174393,
        0.12877249717712402,
        0.17572826147079468,
        0.005017969757318497,
        -0.1581316590309143,
        0.19056841731071472,
        0.16711625456809998,
        0.15645666420459747,
        -0.0008878311491571367,
        0.0019845161586999893,
        -0.16059406101703644,
        0.07626350969076157,
        -0.026559799909591675,
        0.16489501297473907,
        0.20149832963943481,
        -0.12484373897314072,
        -0.11178865283727646,
        0.025618750602006912,
        -0.11170398443937302,
        -0.01783178187906742,
        0.10828670114278793,
        0.15211983025074005,
        0.07239247858524323,
        0.04173906147480011,
        0.10317515581846237,
        -0.10545488446950912,
        -0.11702081561088562,
        -0.192682147026062,
        0.04231058806180954,
        0.1435452699661255,
        0.11668208986520767,
        -0.058984123170375824,
        0.09352973848581314,
        0.0927438884973526,
        -0.10833282023668289,
        -0.06292350590229034,
        0.015306791290640831,
        -0.1449713557958603,
        -0.04436527192592621,
        -0.17418241500854492,
        -0.19455213844776154,
        0.15149904787540436,
        0.1770760864019394,
        0.15615782141685486,
        -0.005043896846473217,
        0.12467632442712784,
        0.15767332911491394,
        0.02329730987548828,
        -0.06009694188833237,
        -0.3461976647377014,
        0.13519251346588135,
        0.0036960181314498186,
        -0.05147075653076172,
        -0.08746492862701416,
        -0.09428121149539948,
        -0.1457568109035492,
        -0.14105810225009918,
        0.01685289479792118,
        -0.027605753391981125,
        -0.08943218737840652,
        -0.08778199553489685,
        -0.059727348387241364,
        -0.013052374124526978,
        0.06287411600351334,
        0.1488194465637207,
        0.14374911785125732,
        -0.013770118355751038,
        0.14593301713466644,
        0.19682998955249786,
        0.11209516227245331,
        0.009640198200941086,
        0.0704219713807106,
        0.21917429566383362,
        -0.12238416820764542,
        -0.17744261026382446,
        0.08868458867073059,
        0.04647354409098625,
        0.11022324115037918,
        -0.030579719692468643,
        -0.041082169860601425,
        0.16937774419784546,
        -0.05730823799967766,
        -0.09309383481740952,
        0.17153912782669067,
        0.0950707346200943,
        0.03466251865029335,
        -0.04089166969060898,
        0.0360235720872879,
        -0.035582419484853745,
        -0.13473917543888092,
        -0.01716243103146553,
        -0.060734983533620834,
        -0.07157723605632782,
        0.09616094082593918,
        -0.03635670617222786,
        0.06658092886209488,
        -0.1684187352657318,
        0.02684622071683407,
        0.20093896985054016,
        -0.06278174370527267,
        -0.15931522846221924,
        -0.0690341591835022,
        0.12005896121263504,
        0.12840351462364197,
        0.07017957419157028,
        0.13866090774536133,
        0.1969381868839264,
        -0.053378406912088394,
        -0.037268854677677155,
        -0.019343040883541107,
        -0.13466686010360718,
        -0.12043319642543793,
        0.09063037484884262,
        0.19090305268764496,
        -0.16132129728794098,
        0.18148905038833618,
        0.19104744493961334,
        -0.07129435986280441,
        -0.14633141458034515,
        -0.11911475658416748,
        -0.05248077213764191,
        -0.14453381299972534,
        -0.05034308880567551,
        0.015538797713816166,
        -0.08881743997335434,
        0.08135639131069183,
        -0.12911967933177948,
        -0.004373357631266117,
        0.027651775628328323,
        0.10852108895778656,
        -0.05620303004980087,
        -0.18144984543323517,
        0.02622958831489086,
        0.15632829070091248,
        -0.04565567150712013,
        0.10010895133018494,
        0.0652608647942543,
        -0.13694773614406586,
        -0.021788179874420166,
        -0.07798796892166138,
        0.045318566262722015,
        -0.016719544306397438,
        0.12300751358270645,
        -0.11581987142562866,
        -0.08441752940416336,
        0.039206333458423615,
        0.15277862548828125,
        0.10659117251634598,
        0.05976222828030586,
        -0.10757424682378769,
        -0.19808703660964966,
        -0.0045331744477152824,
        0.012362505309283733,
        -0.0821470394730568,
        -0.04349510371685028,
        0.05370480567216873,
        0.07766343653202057,
        0.1036844253540039,
        0.1818767786026001,
        -0.0956985205411911,
        0.04324782267212868,
        0.11770998686552048,
        0.129568412899971,
        0.17622435092926025,
        0.14121170341968536,
        -0.11882496625185013,
        -0.171695739030838,
        -0.07440531253814697,
        -0.06152285635471344,
        0.10271217674016953,
        0.05037408694624901,
        0.11371871083974838,
        -0.13505710661411285,
        0.12245118618011475,
        0.1217494085431099,
        -0.03610546514391899,
        -0.1319233775138855,
        -0.0034205748233944178,
        -0.0019915790762752295,
        0.08549871295690536,
        -0.020405380055308342,
        -0.09970392286777496,
        -0.15420451760292053,
        0.07512219250202179,
        0.15547806024551392,
        0.13035212457180023,
        0.20092028379440308,
        0.07597824931144714,
        -0.04490366578102112,
        -0.04451990872621536,
        0.07422739267349243,
        0.16081389784812927,
        0.1229211613535881,
        0.03430180624127388,
        0.05976772680878639,
        -0.04824741184711456,
        0.10135658085346222,
        -0.009248713031411171,
        0.058502446860075,
        -0.14516384899616241,
        -0.02734183892607689,
        0.0036317233461886644,
        -0.19074614346027374,
        -0.10407856106758118,
        0.11522208154201508,
        -0.11501027643680573,
        0.08115258067846298,
        0.06816370785236359,
        0.10072080790996552,
        -0.18857477605342865,
        0.05720088258385658,
        -0.12913937866687775,
        -0.12562961876392365,
        0.12583494186401367,
        -0.10488682240247726,
        0.12630678713321686,
        -0.022939171642065048,
        -0.05458627641201019,
        -0.04196976125240326,
        -0.1182677373290062,
        0.1637376844882965,
        -0.32816484570503235,
        -0.012189015746116638,
        0.14605984091758728,
        0.030883723869919777,
        0.11661245673894882,
        -0.025364533066749573,
        -0.1589101403951645,
        0.1439000815153122,
        0.08577825129032135,
        0.03996095061302185,
        -0.15109296143054962,
        0.09543882310390472,
        0.015129447914659977,
        0.05887138098478317,
        -0.028664905577898026,
        0.19108836352825165,
        0.16077522933483124,
        0.07178472727537155,
        0.05328097566962242,
        -0.12353314459323883,
        0.02504243515431881,
        -0.16985318064689636,
        -0.08434520661830902,
        -0.15525056421756744,
        -0.05139379948377609,
        0.15548714995384216,
        0.051387909799814224,
        -0.07313556969165802,
        0.004209228791296482,
        0.10971951484680176,
        0.043960027396678925,
        0.16846425831317902,
        -0.03950947895646095,
        0.15959432721138,
        0.18776673078536987,
        0.16028347611427307,
        -0.03165910020470619,
        -0.11182887107133865,
        0.019102903082966805,
        -0.19756335020065308,
        0.12273741513490677,
        0.14021828770637512,
        -0.12904274463653564,
        -0.26111212372779846,
        0.028654426336288452,
        -0.09498049318790436,
        0.06893990188837051,
        -0.010101573541760445,
        0.018012776970863342,
        -0.18542112410068512,
        -0.09491441398859024,
        -0.1486329883337021,
        0.10095971822738647,
        0.17752739787101746,
        -0.09305428713560104,
        0.012157902121543884,
        0.10366883873939514,
        -0.12441647052764893,
        0.17894670367240906,
        -0.14022603631019592,
        -0.09217900037765503,
        0.1556442677974701,
        -0.14211519062519073,
        -0.11476538330316544,
        -0.10054455697536469,
        -0.1270151436328888,
        -0.041004300117492676,
        -0.08030781894922256,
        -0.08108802884817123,
        0.05345596373081207,
        -0.15687179565429688,
        -0.07819263637065887,
        -0.11904670298099518,
        0.04180830717086792,
        -0.10947831720113754,
        -0.17428357899188995,
        -0.08915744721889496,
        -0.07709744572639465,
        -0.17224238812923431,
        -0.13647089898586273,
        -0.003450334072113037,
        -0.14639967679977417,
        -0.03789922595024109,
        0.11961811780929565,
        0.10903650522232056,
        0.09151169657707214,
        -0.02226153016090393,
        0.05889312922954559,
        -0.07795526832342148,
        -0.14286060631275177,
        0.04557216167449951,
        0.008069321513175964,
        0.01653752289712429,
        0.15752820670604706,
        0.08667825162410736,
        -0.0172931719571352,
        0.26497578620910645,
        -0.11151409894227982,
        -0.13925118744373322,
        -0.1600285917520523,
        -0.08369802683591843,
        0.21418820321559906,
        0.027931658551096916,
        0.0023638505954295397,
        -0.007041247561573982,
        0.15795539319515228,
        -0.15141437947750092,
        -0.16223633289337158,
        -0.12360280007123947,
        -0.10623972117900848,
        0.10918674618005753,
        -0.034934334456920624,
        0.12987227737903595,
        0.1141384169459343,
        0.10666590183973312,
        0.17139489948749542,
        0.05774862319231033,
        0.04690717160701752,
        -0.11220983415842056,
        -0.10304880142211914,
        0.09366005659103394,
        0.074062779545784,
        -0.03149687126278877,
        0.1671205312013626,
        -0.07875331491231918,
        -0.04915066435933113,
        0.17810331284999847,
        -0.03350624442100525,
        -0.09572350978851318,
        0.08958666771650314,
        -0.010180381126701832,
        -0.01594182848930359,
        0.07823629677295685,
        0.10278923809528351,
        -0.1194538027048111,
        -0.0870513916015625,
        -0.07287409901618958,
        -0.07125718891620636,
        0.15899142622947693,
        -0.38281741738319397,
        0.10135560482740402,
        -0.0006473640096373856,
        0.1628822684288025,
        -0.06043200194835663,
        0.08449940383434296,
        -0.009059014730155468,
        -0.03869577869772911,
        -0.06030987948179245,
        0.15351085364818573,
        -0.1865408569574356,
        0.055392444133758545,
        -0.13536007702350616,
        0.10784398764371872,
        0.08442165702581406,
        -0.045247647911310196,
        -0.10513332486152649,
        0.16807821393013,
        -0.07334654778242111,
        -0.07859177887439728,
        0.11570068448781967,
        -0.05312250554561615,
        0.036171238869428635,
        -0.0107648940756917,
        0.13000376522541046,
        -0.003773084841668606,
        0.10326776653528214,
        -0.00906580314040184,
        -0.08794666826725006,
        -0.2146737426519394,
        0.10045691579580307,
        -0.06946346908807755,
        -0.04659370332956314,
        0.16209162771701813,
        -0.14656712114810944,
        -0.08713378012180328,
        -0.07933661341667175,
        -0.012186594307422638,
        0.054535672068595886,
        -0.0536101758480072,
        0.08481521904468536,
        0.06415034830570221,
        0.010261880233883858,
        -0.1545674055814743,
        -0.15666592121124268,
        0.052798349410295486,
        0.16250476241111755,
        -0.13814829289913177,
        -0.06849897652864456,
        0.1560744345188141,
        -0.01766720600426197,
        -0.028732798993587494,
        -0.028775878250598907,
        -0.15180739760398865,
        -0.01926819235086441,
        -0.11887845396995544,
        0.08762873709201813,
        0.17355234920978546,
        0.022056663408875465,
        0.03248745575547218,
        0.021872039884328842,
        0.17344249784946442,
        0.20969195663928986,
        -0.0031321493443101645,
        0.07473473995923996,
        -0.010042183101177216,
        0.12789537012577057,
        -0.07060948014259338,
        -0.15699072182178497,
        0.1956074833869934,
        0.1513938456773758,
        0.16420429944992065,
        -0.11543253064155579,
        0.06740638613700867,
        -0.02203338034451008,
        -0.14617688953876495,
        -0.24507026374340057,
        -0.022631540894508362,
        -0.1549963355064392,
        -0.03485290706157684,
        -0.16097301244735718,
        0.1148478090763092,
        0.15128713846206665,
        0.03131280839443207,
        -0.12549154460430145,
        -0.16614161431789398,
        0.048848237842321396,
        -0.20470544695854187,
        -0.0949677899479866,
        0.15541720390319824,
        0.007949124090373516,
        -0.014944959431886673,
        -0.04173729941248894,
        0.07068222761154175,
        0.04915386438369751,
        -0.00044136002543382347,
        -0.09899330884218216,
        -0.1815243810415268,
        0.04456524923443794,
        -0.018375173211097717,
        0.06503625214099884,
        -0.1934552788734436,
        -0.026395384222269058,
        -0.074192576110363,
        -0.0682833343744278,
        0.020098766312003136,
        0.07870496064424515,
        -0.016208510845899582,
        -0.09759005904197693,
        0.02156296744942665,
        0.15544216334819794,
        0.09037107229232788,
        0.09986748546361923,
        -0.06704367697238922,
        0.09976951032876968,
        0.07999783754348755,
        0.17045587301254272,
        -0.12344538420438766,
        0.09509672969579697,
        0.002851491793990135,
        -0.07985711097717285,
        -0.09802275896072388,
        0.0934276357293129,
        0.0437447689473629,
        -0.06611288338899612,
        0.06994850188493729,
        0.11113250255584717,
        -0.12305989861488342,
        -0.09528449922800064,
        -0.10293735563755035,
        -0.06158440187573433,
        -0.07355993986129761,
        0.05727098137140274,
        -0.0564274899661541,
        0.05504128336906433,
        0.043132439255714417,
        -0.008352444507181644,
        -0.1038307473063469,
        -0.22575484216213226,
        0.1250326931476593,
        0.01594635471701622,
        0.03908325359225273,
        0.1075955256819725,
        0.15305927395820618,
        0.05897217616438866,
        -0.03907408565282822,
        0.14208263158798218,
        0.047847896814346313,
        -0.059014663100242615,
        -0.1473914235830307,
        0.07403545081615448,
        -0.14053040742874146,
        -0.055942632257938385,
        -0.010062742047011852,
        -0.1200365200638771,
        -0.09009595960378647,
        -0.01457705907523632,
        -0.08996770530939102,
        0.06275768578052521,
        -0.26376160979270935,
        -0.17971353232860565,
        -0.1131686195731163,
        0.2329011708498001,
        0.15666818618774414,
        -0.01660021021962166,
        0.1614612191915512,
        0.09471665322780609,
        0.10155221819877625,
        0.02408130280673504,
        0.1451149582862854,
        -0.004248398821800947,
        -0.04847528785467148,
        0.3055737614631653,
        0.06821292638778687,
        -0.038463253527879715,
        0.019134731963276863,
        0.05929679423570633,
        0.12436757981777191,
        -0.10278736054897308,
        0.19197110831737518,
        -0.11009164899587631,
        0.11717994511127472,
        -0.03985600918531418,
        0.007000668905675411,
        0.14107656478881836,
        0.02670889161527157,
        0.06473009288311005,
        -0.03075564280152321,
        -0.013740370981395245,
        -0.06329339742660522,
        -0.05409879609942436,
        -0.09731610119342804,
        0.08295750617980957,
        -0.15328499674797058,
        -0.10002686083316803,
        -0.022695977240800858,
        -0.15479309856891632,
        -0.06934804469347,
        -0.1867288202047348,
        -0.156282439827919,
        0.15314176678657532,
        -0.09285172820091248,
        -0.004867494571954012,
        -0.11372984200716019,
        -0.03928982466459274,
        0.07129782438278198,
        -0.08087114989757538,
        0.04693499580025673,
        0.02068554051220417,
        -0.024481505155563354,
        0.029063042253255844,
        0.009744546376168728,
        0.07965067774057388,
        0.09620847553014755,
        -0.09395960718393326,
        -0.10128667950630188,
        -0.08596730977296829,
        -0.047306835651397705,
        0.031112225726246834,
        -0.006390275899320841,
        0.086463563144207,
        -0.09118892252445221,
        -0.1206512302160263,
        0.050831519067287445,
        0.11954772472381592,
        0.052278295159339905,
        0.04844120144844055,
        0.06357830762863159,
        0.02800987847149372,
        -0.16345873475074768,
        0.018475547432899475,
        -0.14340618252754211,
        -0.04185936972498894,
        0.05634795129299164,
        -0.12236706912517548,
        -0.11948585510253906,
        -0.11146243661642075,
        -0.02403389848768711,
        0.24770255386829376,
        0.04950582608580589,
        -0.05429837852716446,
        0.10338155925273895,
        -0.12116071581840515,
        0.07806270569562912,
        0.023383211344480515,
        0.19321511685848236,
        0.2046390324831009,
        -0.019126353785395622,
        0.08683214336633682,
        0.18290148675441742,
        0.21001094579696655,
        -0.0691206082701683,
        0.06595936417579651,
        -0.003504187799990177,
        0.1814301759004593,
        -0.11949488520622253,
        -0.12047331035137177,
        0.02845410257577896,
        -0.15694323182106018,
        0.1353527009487152,
        0.03358812257647514,
        -0.057847779244184494,
        -0.0008912468329071999,
        -0.12520839273929596,
        0.11929559707641602,
        -0.003673749277368188,
        0.10049740225076675,
        0.17432451248168945,
        0.2093980759382248,
        -0.1705092489719391,
        0.07682479918003082,
        -0.009874960407614708,
        0.20771169662475586,
        0.0647190511226654,
        0.11526665836572647,
        0.12054301053285599,
        -0.021951692178845406,
        -0.07336413860321045,
        0.02281155250966549,
        0.09737608581781387,
        -0.14771535992622375,
        0.03720051050186157,
        -0.05808471143245697,
        0.03613296151161194,
        -0.004796264693140984,
        0.11225143074989319,
        0.09178486466407776,
        0.009911000728607178,
        -0.005780824925750494,
        -0.18263542652130127,
        -0.003984754905104637,
        0.10915306210517883,
        -0.13253505527973175,
        0.05445077642798424,
        0.09183510392904282,
        -0.15877948701381683,
        0.046021997928619385,
        -0.10804681479930878,
        0.06856583058834076,
        -0.0034285965375602245,
        -0.1471744328737259,
        0.030018417164683342,
        -0.05224617198109627,
        0.1737382709980011,
        -0.06635664403438568,
        -0.07901240140199661,
        0.05654009431600571,
        -0.07610297948122025,
        0.07069335877895355,
        0.1457938402891159,
        0.0303976908326149,
        -0.10916469246149063,
        -0.14110709726810455,
        0.0037317518144845963,
        0.17866250872612,
        0.07962528616189957,
        -0.05747203528881073,
        -0.1391715109348297,
        0.034506309777498245,
        0.15182742476463318,
        -0.011752814054489136,
        0.1649848371744156,
        0.017028983682394028,
        0.07993968576192856,
        -0.08286529034376144,
        0.08369047939777374,
        -0.052435729652643204,
        0.07067296653985977,
        -0.0541468970477581,
        0.05388208478689194,
        0.08934003114700317,
        -0.2906082570552826,
        -0.16049422323703766,
        0.11625884473323822,
        0.06921875476837158,
        -0.03558347001671791,
        0.005800583399832249,
        -0.019794750958681107,
        -0.05486179143190384,
        -0.017043380066752434,
        -0.1259976029396057,
        -0.13144972920417786,
        0.009460296481847763,
        -0.05095294862985611,
        0.11526036262512207,
        -0.12123233824968338,
        -0.005470928270369768,
        -0.08912953734397888,
        -0.1648070365190506,
        -0.11467641592025757,
        0.11529382318258286,
        0.0764460489153862,
        0.10294105112552643,
        -0.19100321829319,
        -0.12771832942962646,
        -0.07666578888893127,
        0.10474701970815659,
        0.02262324094772339,
        0.1612299382686615,
        -0.1641479730606079,
        -0.0924782007932663,
        0.12079821527004242,
        -0.055512115359306335,
        0.15919853746891022,
        -0.10718339681625366,
        -0.0490230992436409,
        -0.1162499338388443,
        0.16909287869930267,
        -0.030369561165571213,
        -0.14206454157829285,
        0.16415546834468842,
        0.10492611676454544,
        0.025464294478297234,
        0.029006537050008774,
        -0.1398124396800995,
        -0.07798407971858978,
        -0.1187809556722641,
        -0.06384001672267914,
        -0.04359142854809761,
        -0.10687030106782913,
        0.1527394950389862,
        -0.029944809153676033,
        0.17033037543296814,
        0.14684252440929413,
        0.10492686182260513,
        -0.08011043816804886,
        0.01734749972820282,
        0.09709236025810242,
        0.08808860182762146,
        0.07696733623743057,
        -0.14267224073410034,
        0.13265731930732727,
        -0.11540385335683823,
        0.09252125024795532,
        -0.18649490177631378,
        0.16788025200366974,
        0.05647691339254379,
        -0.14222180843353271,
        0.12708786129951477,
        0.17588400840759277,
        0.040205519646406174,
        0.16939128935337067,
        -0.04874251410365105,
        0.17690742015838623,
        0.07698959857225418,
        0.09158458560705185,
        -0.08660736680030823,
        0.004124901723116636,
        -0.08743134140968323,
        -0.051960378885269165,
        -0.13000012934207916,
        0.071051225066185,
        0.018140902742743492,
        -0.15756478905677795,
        -0.021560395136475563,
        -0.09599902480840683,
        0.07917802780866623,
        0.0357317291200161,
        0.019958633929491043,
        -0.04648873209953308,
        0.1962594836950302,
        0.06254652887582779,
        -0.03026513010263443,
        0.08480864018201828,
        0.15348854660987854,
        0.08927876502275467,
        0.0675404742360115,
        -0.07017938047647476,
        0.08198623359203339,
        -0.13618505001068115,
        0.03477855771780014,
        -0.15855267643928528,
        0.16017532348632812,
        0.13048724830150604,
        0.09062926471233368,
        0.19489584863185883,
        -0.09245041757822037,
        0.04815265163779259,
        -0.173898845911026,
        -0.19349224865436554,
        -0.08951294422149658,
        -0.14231346547603607,
        0.20935122668743134,
        0.08485054224729538,
        0.020582344383001328,
        -0.14596015214920044,
        0.06506693363189697,
        0.06293384730815887,
        0.14574892818927765,
        0.02266712486743927,
        -0.025660254061222076,
        0.12695789337158203,
        -0.10865134000778198,
        -0.032982539385557175,
        -0.018742388114333153,
        0.017503580078482628,
        -0.027792207896709442,
        -0.0009152537095360458,
        -0.08490064740180969,
        0.15052826702594757,
        -0.2767903804779053,
        -0.19334135949611664,
        0.18066143989562988,
        -0.09420834481716156,
        0.08737175166606903,
        -0.21246011555194855,
        0.1935713142156601,
        0.06671904772520065,
        0.12516972422599792,
        0.13175559043884277,
        0.1555611938238144,
        0.01724633388221264,
        -0.16617347300052643,
        0.340478777885437,
        0.058286335319280624,
        0.08404023945331573,
        -0.11695937812328339,
        -0.07734346389770508,
        0.20728248357772827,
        -0.0645853653550148,
        -0.03058129921555519,
        0.05321946367621422,
        0.0109248673543334,
        0.11218732595443726,
        -0.0927981436252594,
        -0.12032249569892883,
        0.002244215225800872,
        -0.15342217683792114,
        0.19700101017951965,
        0.06870952993631363,
        0.07016826421022415,
        -0.2105085700750351,
        0.012382106855511665,
        0.12181434035301208,
        -0.11841651052236557,
        0.08405296504497528,
        0.17222382128238678,
        -0.05952158197760582,
        0.11536113172769547,
        0.027639294043183327,
        -0.07095785439014435,
        -0.08623238652944565,
        0.00497397780418396,
        0.06932058185338974,
        0.13827873766422272,
        -0.19634035229682922,
        0.20758484303951263,
        -0.1194508895277977,
        0.10213831812143326,
        -0.05286018177866936,
        0.11034048348665237,
        -0.20962543785572052,
        0.015809549018740654,
        -0.12469648569822311,
        -0.020567547529935837,
        0.08385322242975235,
        0.08750324696302414,
        -0.11618693917989731,
        -0.10741133242845535,
        0.07577463984489441,
        -0.058060742914676666,
        0.14714626967906952,
        -0.034785281866788864,
        0.13603471219539642,
        -0.1882609724998474,
        0.060764506459236145,
        -0.12152814865112305,
        -0.16715942323207855,
        0.0681196078658104,
        -0.10503429174423218,
        0.06511599570512772,
        0.1380625218153,
        -0.13890011608600616,
        0.0424332320690155,
        0.007512620650231838,
        -0.10458026081323624,
        0.06113986298441887,
        0.1567305624485016,
        -0.2725793123245239,
        0.2619790732860565,
        0.1635768860578537,
        0.13673068583011627,
        -0.05991087481379509,
        -0.1400088667869568,
        -0.1151130199432373,
        0.09884411096572876,
        0.04365488886833191,
        -0.040743451565504074,
        0.028296424075961113,
        0.04335387051105499,
        -0.1304045468568802,
        0.2225143164396286,
        -0.15328513085842133,
        0.09478551149368286,
        0.06719981133937836,
        0.14524634182453156,
        0.008607899770140648,
        0.21446895599365234,
        -0.0076633840799331665,
        -0.07399841398000717,
        0.17242196202278137,
        0.039644092321395874,
        0.002105110324919224,
        0.18571020662784576,
        -0.08888190239667892,
        0.015417233109474182,
        0.14758266508579254,
        0.09368311613798141,
        -0.14264726638793945,
        0.012374273501336575,
        0.04169100522994995,
        -0.006608477793633938,
        -0.10869531333446503,
        -0.08846791088581085,
        0.15888792276382446,
        -0.09226718544960022,
        -0.05710093677043915,
        -0.07934096455574036,
        0.1818079948425293,
        0.03399664908647537,
        -0.10326012223958969,
        0.16133135557174683,
        -0.05288105085492134,
        0.05647362396121025,
        0.012955364771187305,
        -0.12241724133491516,
        0.011525159701704979,
        0.18594354391098022,
        0.07355190068483353,
        -0.10489479452371597,
        -0.056473229080438614,
        0.046723373234272,
        -0.016739243641495705,
        0.11047277599573135,
        -0.05854680389165878,
        0.037982601672410965,
        -0.0899437963962555,
        -0.15657055377960205,
        0.09446722269058228,
        -0.10985082387924194,
        -0.16954302787780762,
        -0.12908852100372314,
        0.07733399420976639,
        -0.13366009294986725,
        -0.023068686947226524,
        0.08788294345140457,
        -0.0020783436484634876,
        -0.23243838548660278,
        -0.08675312250852585,
        -0.08003422617912292,
        -0.06378544867038727,
        -0.07988803833723068,
        0.019455665722489357,
        0.007979661226272583,
        0.05945954844355583,
        0.16062399744987488,
        0.16892756521701813,
        0.057034578174352646,
        0.03947508707642555,
        0.141263946890831,
        -0.06197920814156532,
        0.12503734230995178,
        -0.06398770213127136,
        -0.14623786509037018,
        -0.026396675035357475,
        -0.1316443383693695,
        0.035883769392967224,
        0.1162598505616188,
        0.1355808973312378,
        -0.08906199783086777,
        0.026851626113057137,
        0.14547540247440338,
        -0.29800841212272644,
        -0.1497391313314438,
        0.016154838725924492,
        0.08038299530744553,
        0.02703044004738331,
        0.18700262904167175,
        0.12341690063476562,
        -0.05607374757528305,
        0.0961204245686531,
        0.15484470129013062,
        -0.04398241639137268,
        -0.09177588671445847,
        -0.041764020919799805,
        0.015534813515841961,
        -0.030083876103162766,
        0.1425296813249588,
        0.16460883617401123,
        -0.06475772708654404,
        0.07102885842323303,
        0.09632580727338791,
        -0.12184067815542221,
        0.15885993838310242,
        -0.05300718918442726,
        -0.06873371452093124,
        0.08710996806621552,
        0.09053302556276321,
        0.15774287283420563,
        0.0783417597413063,
        0.05107678100466728,
        0.1939161717891693,
        -0.0346461683511734,
        -0.10020222514867783,
        0.013778764754533768,
        -0.09566997736692429,
        0.17913325130939484,
        -0.015833621844649315,
        0.0812176838517189,
        0.13221430778503418,
        -0.07673121243715286,
        0.0009106805664487183,
        0.10758130997419357,
        0.0706925019621849,
        -0.005037862807512283,
        -0.06424564123153687,
        0.07205043733119965,
        -0.026962153613567352,
        0.04027245566248894,
        -0.10243566334247589,
        0.08045487850904465,
        0.17893123626708984,
        -0.12404883652925491,
        -0.0927753821015358,
        -0.1527223289012909,
        0.09401513636112213,
        0.2093396931886673,
        0.16429172456264496,
        0.11338475346565247,
        0.009909259155392647,
        0.07498203963041306,
        0.03107655607163906,
        0.057901494204998016,
        0.20174191892147064,
        0.24634456634521484,
        0.12446817010641098,
        -0.034617431461811066,
        0.05191060155630112,
        0.22409990429878235,
        0.1275024116039276,
        0.15607960522174835,
        -0.1591748595237732,
        -0.06977725774049759,
        -0.052702825516462326,
        -0.0042899735271930695,
        0.12582869827747345,
        0.06636648625135422,
        0.03878990560770035,
        0.08610080927610397,
        0.031113317236304283,
        0.13282310962677002,
        0.01399183738976717,
        0.01776311919093132,
        0.07547469437122345,
        0.09987995028495789,
        0.09069573134183884,
        -0.04907716438174248,
        -0.02510763145983219,
        -0.020131895318627357,
        0.1767546385526657,
        -0.18730024993419647,
        -0.18561767041683197,
        -0.15812057256698608,
        0.261669397354126,
        -0.13691480457782745,
        0.12882664799690247,
        4.586252998706186e-06,
        0.11937124282121658,
        0.1466601938009262,
        -0.04597063362598419,
        0.10157527774572372,
        0.12597401440143585,
        0.04702391475439072,
        -0.17295102775096893,
        -0.04887223616242409,
        0.07532846927642822,
        -0.11726228147745132,
        0.008202498778700829,
        0.13636593520641327,
        -0.024631017819046974,
        0.12121985852718353,
        0.08768483251333237,
        0.09410082548856735,
        -0.09676637500524521,
        0.04101397469639778,
        -0.12216092646121979,
        -0.14222732186317444,
        0.18173599243164062,
        0.11161144822835922,
        0.2064204216003418,
        -0.006185980513691902,
        -0.053119760006666183,
        0.01850057765841484,
        0.22735531628131866,
        -0.12858852744102478,
        -0.07745376229286194,
        0.1112273633480072,
        -0.0015978020383045077,
        0.007924572564661503,
        -0.08085799962282181,
        0.2198413461446762,
        -0.28976163268089294,
        -0.2521064579486847,
        0.01851245015859604,
        -0.1832672357559204,
        0.03164337947964668,
        0.20870766043663025,
        -0.016093522310256958,
        0.06470324099063873,
        0.19746793806552887,
        0.1702280193567276,
        0.17044256627559662,
        0.22784994542598724,
        -0.12822400033473969,
        0.032990723848342896,
        -0.14247989654541016,
        0.07901855558156967,
        0.14968302845954895,
        -0.04545921832323074,
        0.13044556975364685,
        -0.19267110526561737,
        0.10885731130838394,
        -0.1666158139705658,
        -0.10948782414197922,
        0.1416558474302292,
        -0.13161328434944153,
        -0.1573125720024109,
        0.05555417016148567,
        0.03125762194395065,
        -0.06418591737747192,
        0.07627300918102264,
        -0.00600894819945097,
        0.1750769168138504,
        0.0817287489771843,
        -0.10896524786949158,
        -0.127323716878891,
        0.20889844000339508,
        0.13522207736968994,
        -0.01894393004477024,
        0.07039761543273926,
        0.1007009819149971,
        0.14258833229541779,
        0.06856495141983032,
        0.12032799422740936,
        0.17076441645622253,
        0.23974138498306274,
        -0.003974966239184141,
        -0.18740783631801605,
        0.030485091730952263,
        -0.008172485046088696,
        -0.1359008550643921,
        -0.08057000488042831,
        0.15646742284297943,
        -0.1877395659685135,
        0.1953660398721695,
        0.01760094054043293,
        0.1556876003742218,
        0.1593267172574997,
        -0.04317162558436394,
        0.03711533546447754,
        -0.07701399177312851,
        -0.047906868159770966,
        0.1654704213142395,
        -0.1618555635213852,
        -0.1725977510213852,
        -0.0918729305267334,
        0.021418828517198563,
        -0.15369942784309387,
        0.11625979095697403,
        -0.025770166888833046,
        -0.20383889973163605,
        0.0924249216914177,
        -0.16087448596954346,
        -0.12661519646644592,
        0.12508350610733032,
        0.030930232256650925,
        0.07560020685195923,
        0.09267830103635788,
        0.0647115409374237,
        -0.020050406455993652,
        0.11245176941156387,
        0.05929155647754669,
        0.1526617854833603,
        -0.08871736377477646,
        -0.016185995191335678,
        0.0795775055885315,
        -0.058311138302087784,
        0.13423675298690796,
        -0.14750242233276367,
        -0.07853730022907257,
        -0.07460275292396545,
        0.07304113358259201,
        -0.00571013055741787,
        0.14322006702423096,
        0.041308578103780746,
        0.17522884905338287,
        0.03255211189389229,
        -0.12958413362503052,
        0.06905309110879898,
        0.15356577932834625,
        -0.07758539170026779,
        0.11563293635845184,
        -0.0339692123234272,
        -0.12219972908496857,
        -0.02676875703036785,
        0.13152626156806946,
        -0.1553833782672882,
        0.1090414896607399,
        0.12499719858169556,
        -0.04500235989689827,
        0.17548812925815582,
        -0.0384642593562603,
        -0.07983559370040894,
        -0.08994002640247345,
        0.05583575740456581,
        0.03645123913884163,
        -0.018726740032434464,
        0.17411671578884125,
        0.10641347616910934,
        0.013865135610103607,
        -0.1492585390806198,
        0.07029236108064651,
        0.060614656656980515,
        0.08845187723636627,
        0.16637836396694183,
        0.14346174895763397,
        -0.007756317965686321,
        0.06161417439579964,
        0.1259612739086151,
        0.11061137169599533,
        0.17539526522159576,
        0.17184105515480042,
        -0.16568619012832642,
        -0.1846245527267456,
        -0.17856265604496002,
        -0.0758027508854866,
        -0.0464140884578228,
        -0.11988262087106705,
        0.015994422137737274,
        0.11832350492477417,
        -0.09791544079780579,
        0.20195381343364716,
        -0.022921478375792503,
        -0.16181163489818573,
        0.11907952278852463,
        -0.13143979012966156,
        -0.07729274779558182,
        0.13970394432544708,
        -0.04120541736483574,
        -0.2211184948682785,
        -0.08338463306427002,
        0.012673587538301945,
        -0.15458299219608307,
        -0.12131840735673904,
        -0.12525179982185364,
        0.04163585975766182,
        -0.0443798191845417,
        0.052683982998132706,
        -0.08496712148189545,
        0.09541450440883636,
        -0.0228237584233284,
        -0.041101813316345215,
        -0.10256984084844589,
        0.04744693264365196,
        -0.16075867414474487,
        0.12047600746154785,
        -0.03377146273851395,
        0.1652538776397705,
        0.1905336230993271,
        0.08871696889400482,
        0.02502920664846897,
        0.020794380456209183,
        0.20979458093643188,
        0.147780641913414,
        0.20572051405906677,
        0.10712920874357224,
        -0.20353583991527557,
        0.03992772474884987,
        -0.12401266396045685,
        0.18574799597263336,
        -0.08902151882648468,
        -0.13704273104667664,
        0.08205872774124146,
        0.05966906249523163,
        -0.21823909878730774,
        0.03929772228002548,
        0.23062242567539215,
        -0.17664502561092377,
        0.011948462575674057,
        -0.14626936614513397,
        -0.09283985942602158,
        -0.0700986236333847,
        0.07998243719339371,
        0.19823361933231354,
        0.047115497291088104,
        -0.07054048031568527,
        -0.11425895243883133,
        0.12375372648239136,
        0.057053904980421066,
        0.1735880970954895,
        0.06686574220657349,
        0.1012856513261795,
        0.17353343963623047,
        0.16938936710357666,
        0.026303451508283615,
        -0.16511331498622894,
        -0.09926774352788925,
        0.07287062704563141,
        0.11285264790058136,
        -0.11440081894397736,
        -0.016194427385926247,
        0.09653592109680176,
        0.04185594245791435,
        0.14744016528129578,
        -0.03534037992358208,
        0.07889513671398163,
        -0.07806165516376495,
        -0.24279385805130005,
        -0.08364593982696533,
        0.1281696856021881,
        -0.18237026035785675,
        -0.11808492988348007,
        0.1640113890171051,
        0.11218725144863129,
        -0.00811472162604332,
        0.1856958121061325,
        -0.10010847449302673,
        -0.0833272784948349,
        0.0017232474638149142,
        0.04695885255932808,
        0.09612589329481125,
        -0.09967782348394394,
        -0.11556846648454666,
        0.17592737078666687,
        0.030469894409179688,
        -0.08982284367084503,
        -0.016404082998633385,
        -0.043365728110075,
        -0.022205069661140442,
        -0.03848183527588844,
        -0.04645320400595665,
        0.026353277266025543,
        0.0820603147149086,
        -0.08023543655872345,
        -0.08105277270078659,
        0.09064499288797379,
        -0.09765448421239853,
        0.1540490835905075,
        -0.08819185942411423,
        -0.0440540611743927,
        -0.08717767149209976,
        0.1190682128071785,
        -0.06463224440813065,
        -0.23698504269123077,
        0.11499502509832382,
        -0.012550203129649162,
        0.05135039612650871,
        0.13846634328365326,
        0.11319819837808609,
        -0.14515434205532074,
        -0.07470820099115372,
        -0.17723461985588074,
        0.0370214581489563,
        0.1412188559770584,
        -0.12216596305370331,
        -0.030299337580800056,
        0.007056498434394598,
        -0.03860469534993172,
        -0.044480644166469574,
        -0.13042272627353668,
        0.09720060974359512,
        0.1599830985069275,
        0.35279718041419983,
        0.08783572912216187,
        0.001629431382752955,
        0.006109196692705154,
        -0.15463608503341675,
        0.018637921661138535,
        -0.018196480348706245,
        0.017325082793831825,
        0.09664694219827652,
        0.19461706280708313,
        -0.07779958844184875,
        0.09644346684217453,
        0.03554869443178177,
        -0.05823177471756935,
        0.07677525281906128,
        0.04288865625858307,
        0.1300029754638672,
        -0.13531579077243805,
        -0.03238710016012192,
        -0.01951121911406517,
        -0.16317149996757507,
        0.0845954567193985,
        0.01057630404829979,
        0.1832132637500763,
        -0.06366103887557983,
        -0.11298727989196777,
        -0.03812161833047867,
        0.004298357293009758,
        0.10472273826599121,
        0.1773928701877594,
        0.21536067128181458,
        0.11476561427116394,
        0.008312861435115337,
        -0.06571284681558609,
        -0.08972994983196259,
        0.12876665592193604,
        -0.05547817051410675,
        0.0008096683886833489,
        -0.12803861498832703,
        -0.1331368237733841,
        -0.0921546071767807,
        -0.005726711358875036,
        0.09861163794994354,
        -0.2616495192050934,
        -0.16290301084518433,
        -0.11174002289772034,
        0.0337064154446125,
        0.18187950551509857,
        0.14598913490772247,
        -0.06863190233707428,
        -0.004167092498391867,
        0.10956749320030212,
        -0.06811952590942383,
        0.1419934183359146,
        0.059285543859004974,
        0.08599961549043655,
        0.037942539900541306,
        -0.12237351387739182,
        -0.15975648164749146,
        -0.049790773540735245,
        -0.10991557687520981,
        -0.060369379818439484,
        0.14756596088409424,
        0.10934100300073624,
        0.05790426582098007,
        -0.0037710017058998346,
        0.02595256082713604,
        0.0450228713452816,
        0.07569727301597595,
        0.1914699375629425,
        0.19194640219211578,
        -0.0677606537938118,
        0.07836563885211945,
        -0.12527945637702942,
        -0.06568078696727753,
        -0.07348579168319702,
        0.04755501076579094,
        -0.060835450887680054,
        -0.1234709769487381,
        0.17961598932743073,
        0.11874303221702576,
        0.0036377045325934887,
        0.22029341757297516,
        0.18957902491092682,
        0.017910487949848175,
        0.03107387386262417,
        -0.0029621340800076723,
        0.013918580487370491,
        0.09194769710302353,
        0.02695695124566555,
        0.14413374662399292,
        -0.1601029634475708,
        0.057756051421165466,
        0.1594080775976181,
        -0.12024975568056107,
        0.0552661307156086,
        0.1960277408361435,
        -0.12935484945774078,
        0.1238510012626648,
        0.06810945272445679,
        0.0542944110929966,
        -0.08081561326980591,
        0.1616188883781433,
        0.1555369347333908,
        0.08673268556594849,
        -0.11203286796808243,
        -0.08552099019289017,
        0.07710465043783188,
        -0.027913425117731094,
        -0.09159563481807709,
        0.03290201723575592,
        -0.029828103259205818,
        -0.1209101527929306,
        0.13898484408855438,
        0.0654907301068306,
        -0.12180715054273605,
        -0.24803920090198517,
        -0.19398647546768188,
        -0.08163359761238098,
        -0.00981102418154478,
        -0.09104828536510468,
        0.004703922662883997,
        0.045145183801651,
        -0.12413047254085541,
        -0.01565619558095932,
        -0.07822774350643158,
        -0.16917921602725983,
        -0.09448650479316711,
        0.06970648467540741,
        -0.20956595242023468,
        -0.1609296351671219,
        0.1540367305278778,
        -0.06334400922060013,
        0.06159437820315361,
        -0.17017993330955505,
        -0.12235954403877258,
        -0.05615707114338875,
        0.1396869421005249,
        0.056926097720861435,
        0.08575408905744553,
        0.08150157332420349,
        0.0991661474108696,
        -0.038574039936065674,
        -0.08902186900377274,
        -0.07012540102005005,
        -0.0451841838657856,
        0.18474169075489044,
        0.08892600238323212,
        0.08976607769727707,
        0.12489931285381317,
        0.13483589887619019,
        0.14699693024158478,
        -0.11755596846342087,
        0.2064196765422821,
        -0.11419588327407837,
        -0.1878061443567276,
        -0.0029247726779431105,
        -0.029149681329727173,
        0.2049824446439743,
        -0.21782518923282623,
        -0.00968057569116354,
        -0.14131934940814972,
        0.27025964856147766,
        -0.07855453342199326,
        0.15071463584899902,
        -0.12450715899467468,
        0.0824301689863205,
        0.0183611661195755,
        0.12890946865081787,
        0.05953632667660713,
        0.22264482080936432,
        -0.0530330054461956,
        -0.1821124106645584,
        -0.1647215038537979,
        -0.12281167507171631,
        -0.03603117913007736,
        0.05791731923818588,
        0.1692657172679901,
        -0.0525439977645874,
        0.04245685786008835,
        -0.0020036420319229364,
        0.049915608018636703,
        0.13266953825950623,
        -0.135199174284935,
        -0.06579962372779846,
        -0.02703815884888172,
        0.13176803290843964,
        0.03558695316314697,
        0.04047417268157005,
        -0.17151294648647308,
        -0.12984736263751984,
        -0.005935933906584978,
        0.16790758073329926,
        -0.14410805702209473,
        -0.2258065789937973,
        -0.0895000472664833,
        0.10167938470840454,
        -0.08122219145298004,
        0.23601175844669342,
        0.20458896458148956,
        -0.001268067630007863,
        -0.21227231621742249,
        0.038461633026599884,
        0.12657968699932098,
        0.021638978272676468,
        -0.2293105274438858,
        0.1448763608932495,
        -0.06356213986873627,
        -0.053397417068481445,
        0.07183379679918289,
        -0.0509893000125885,
        -0.08032213896512985,
        0.06666085124015808,
        0.15285693109035492,
        0.03297881782054901,
        -0.07580388337373734,
        0.14843472838401794,
        -0.04422690346837044,
        0.11889304965734482,
        -0.015111000277101994,
        0.21755442023277283,
        -0.039414625614881516,
        -0.10803801566362381,
        -0.09643559157848358,
        -0.08363080769777298,
        0.07903613150119781,
        -0.09611953794956207,
        -0.005404171999543905,
        0.021115075796842575,
        -0.12365953624248505,
        -0.15483629703521729,
        -0.2179812341928482,
        0.11944885551929474,
        0.12705685198307037,
        0.1833527833223343,
        -0.09465528279542923,
        -0.039514508098363876,
        0.15328620374202728,
        0.04493926838040352,
        -0.003155865939334035,
        -0.06626643985509872,
        0.16254587471485138,
        -0.11515633016824722,
        0.084209144115448,
        -0.0594571977853775,
        0.16950368881225586,
        0.005446184892207384,
        -0.16097339987754822,
        0.16111347079277039,
        0.11410971730947495,
        -0.011097717098891735,
        0.07485028356313705,
        -0.01395536307245493,
        0.07264459878206253,
        -0.04880775883793831,
        -0.1010938435792923,
        -0.1710883527994156,
        0.15254956483840942,
        -0.029231620952486992,
        -0.1643812507390976,
        0.03653327748179436,
        -0.09818213433027267,
        0.12339813262224197,
        0.09671271592378616,
        -0.06281445175409317,
        0.0894717276096344,
        -0.0895424336194992,
        -0.1421480029821396,
        0.07937552779912949,
        0.16977272927761078,
        -0.08046518266201019,
        0.18924611806869507,
        -0.038696080446243286,
        -0.12724754214286804,
        -0.13033536076545715,
        0.08999864757061005,
        -0.019326234236359596,
        -0.12575966119766235,
        -0.13780765235424042,
        0.10295462608337402,
        -0.21041175723075867,
        0.004949921276420355,
        -0.0552871972322464,
        0.14268141984939575,
        -0.20378631353378296,
        0.093315988779068,
        -0.025334976613521576,
        0.24758000671863556,
        -0.2785019874572754,
        0.06369340419769287,
        -0.016662023961544037,
        0.1354520171880722,
        -0.12417842447757721,
        -0.14736215770244598,
        0.15761993825435638,
        0.08855395019054413,
        0.07044115662574768,
        0.0020957812666893005,
        0.13567601144313812,
        0.07777383923530579,
        0.09055348485708237,
        0.24831247329711914,
        0.02630104497075081,
        0.1317805051803589,
        0.0806407555937767,
        0.011207452043890953,
        0.05013350024819374,
        -0.07055894285440445,
        0.1574837565422058,
        0.03482692688703537,
        -0.15497900545597076,
        0.010786415077745914,
        -0.07673796266317368,
        0.08819276839494705,
        0.10388372093439102,
        0.07881764322519302,
        -0.05610132962465286,
        0.07331184297800064,
        -0.11906206607818604,
        -0.190346822142601,
        0.15508933365345,
        0.09108167886734009,
        0.06996462494134903,
        -0.3513506054878235,
        -0.09117976576089859,
        0.03181116282939911,
        -0.09900140017271042,
        0.023622067645192146,
        -0.03430181369185448,
        -0.1306227743625641,
        -0.12486454844474792,
        0.09817679971456528,
        -0.04535200819373131,
        -0.14150038361549377,
        0.18800830841064453,
        -0.14253254234790802,
        -0.10557615756988525,
        -0.14219453930854797,
        -0.0828334242105484,
        -0.07621888816356659,
        0.08026092499494553,
        -0.097271628677845,
        0.12089879810810089,
        -0.11145900189876556,
        -0.16053304076194763,
        0.08026151359081268,
        0.1384175419807434,
        -0.019083943217992783,
        -0.18446460366249084,
        -0.16295629739761353,
        -0.12326925992965698,
        -0.10055086016654968,
        0.12370353192090988,
        0.15003660321235657,
        -0.12176131457090378,
        0.005356112029403448,
        -0.07049854099750519,
        0.06751164048910141,
        -0.1844104379415512,
        -0.12324079871177673,
        -0.17273691296577454,
        -0.18289881944656372,
        -0.16564302146434784,
        -0.06337404251098633,
        0.01991221122443676,
        -0.18229158222675323,
        -0.16056594252586365,
        0.08063165098428726,
        -0.1576012223958969,
        0.00019423046614974737,
        0.019770080223679543,
        -0.1616390198469162,
        0.077271968126297,
        -0.07787933200597763,
        -0.13399016857147217,
        0.06445898115634918,
        0.07508845627307892,
        0.010672385804355145,
        0.03309645503759384,
        0.06080297380685806,
        -0.1635766327381134,
        -0.13361427187919617,
        0.07427661865949631,
        0.10919240117073059,
        0.010667198337614536,
        0.20808802545070648,
        0.14313383400440216,
        -0.07439741492271423,
        0.16703535616397858,
        0.019649604335427284,
        -0.1279749721288681,
        0.032698679715394974,
        0.20213112235069275,
        0.18361644446849823,
        0.1344369798898697,
        -0.13551490008831024,
        -0.038348548114299774,
        -0.1209985539317131,
        0.013969412073493004,
        0.056927189230918884,
        0.03958906978368759,
        0.09185250848531723,
        -0.11635123193264008,
        0.025166071951389313,
        0.01948009617626667,
        0.051340341567993164,
        -0.12962967157363892,
        0.0006945011555217206,
        -0.06997380405664444,
        -0.1295170933008194,
        0.02668529748916626,
        0.04936845600605011,
        -0.07321245968341827,
        -0.12809552252292633,
        0.0021507658530026674,
        -0.026286983862519264,
        -0.14606119692325592,
        0.1417457014322281,
        0.08025296777486801,
        0.0775148794054985,
        -0.02834004908800125,
        -0.21151119470596313,
        0.14003632962703705,
        0.03622787073254585,
        -0.09024423360824585,
        0.15925490856170654,
        0.10815244168043137,
        0.05274641141295433,
        -0.06051381304860115,
        -0.09908872842788696,
        -0.07683400064706802,
        0.19285179674625397,
        -0.11122152954339981,
        0.08883532136678696,
        -0.13082848489284515,
        0.08305760473012924,
        -0.04191421717405319,
        -0.10888819396495819,
        -0.13090358674526215,
        -0.1434297114610672,
        0.10424923151731491,
        -0.10114701837301254,
        0.12209299951791763,
        -0.03589131683111191,
        -0.03249579295516014,
        -0.07655958831310272,
        -0.048705197870731354,
        -0.1590232104063034,
        -0.04973803833127022,
        -0.11162929981946945,
        0.13172979652881622,
        0.06925178319215775,
        -0.1907455027103424,
        -0.048945777118206024,
        0.2376047819852829,
        0.1796111762523651,
        0.016440553590655327,
        -0.014844552613794804,
        0.12905411422252655,
        -0.08405781537294388,
        0.1074259951710701,
        0.044887688010931015,
        -0.11013590544462204,
        -0.06986486911773682,
        0.06904403120279312,
        0.195463627576828,
        -0.09817836433649063,
        -0.0034290922340005636,
        0.09916871041059494,
        0.0690157562494278,
        0.1140107735991478,
        -0.15681937336921692,
        -0.008073505945503712,
        -0.10405731201171875,
        -0.16307611763477325,
        0.06948584318161011,
        -0.16054654121398926,
        -0.03431255742907524,
        -0.11226428300142288,
        -0.04150319844484329,
        -0.19957247376441956,
        0.04731643944978714,
        -0.17644765973091125,
        -0.02683284878730774,
        0.032447449862957,
        0.022719435393810272,
        0.16122335195541382,
        0.012411477975547314,
        0.05498558655381203,
        0.14016981422901154,
        -0.19064320623874664,
        0.1789962500333786,
        0.15162286162376404,
        0.10750409215688705,
        -0.009952588938176632,
        -0.25058209896087646,
        0.10000273585319519,
        0.18757140636444092,
        -0.03071437031030655,
        0.05350165441632271,
        0.1457662433385849,
        0.012718160636723042,
        -0.08732661604881287,
        0.03854246810078621,
        0.10043735057115555,
        -0.07061543315649033,
        -0.10506641864776611,
        0.09695008397102356,
        0.16970612108707428,
        -0.1425246149301529,
        -0.09900157153606415,
        -0.09478149563074112,
        0.19660064578056335,
        0.17856360971927643,
        -0.0406990721821785,
        0.0019543697126209736,
        -0.233640655875206,
        0.06818460673093796,
        0.005621624179184437,
        0.085748091340065,
        0.030136924237012863,
        0.036004576832056046,
        0.1584785431623459,
        0.12758508324623108,
        0.052188239991664886,
        -0.1053667813539505,
        0.05111101642251015,
        -0.031401120126247406,
        -0.08620517700910568,
        -0.07023925334215164,
        0.1753227710723877,
        -0.1645316332578659,
        -0.13088124990463257,
        -0.03166285529732704,
        0.10845311731100082,
        -0.02851841226220131,
        0.11658278107643127,
        -0.11489250510931015,
        0.0019562561064958572,
        0.10572835803031921,
        -0.00020707582007162273,
        0.16794472932815552,
        0.06659004837274551,
        -0.14352360367774963,
        0.06837902963161469,
        -0.06559907644987106,
        -0.21518495678901672,
        -0.1703936904668808,
        2.729494372033514e-05,
        -0.021899042651057243,
        0.08858952671289444,
        0.09758486598730087,
        -0.12189324200153351,
        0.0804169625043869,
        0.08148675411939621,
        -0.08622554689645767,
        0.11455659568309784,
        -0.06553163379430771,
        -0.07999447733163834,
        -0.1794876903295517,
        0.016690514981746674,
        0.1777733415365219,
