{
  "defaults": {},
  "inputs": [
    {
      "name": "DNNinput_ttag__channel",
      "offset": 3.0,
      "scale": 0.16666666666666666
    },
    {
      "name": "DNNinput_ttag__year",
      "offset": 3.0,
      "scale": 0.16666666666666666
    },
    {
      "name": "DNNinput_ttag__met_pt",
      "offset": -0.0,
      "scale": 0.0005
    },
    {
      "name": "DNNinput_ttag__met_phi",
      "offset": 4.0,
      "scale": 0.125
    },
    {
      "name": "DNNinput_ttag__lepton_pt",
      "offset": -0.0,
      "scale": 0.0005
    },
    {
      "name": "DNNinput_ttag__lepton_eta",
      "offset": 5.0,
      "scale": 0.1
    },
    {
      "name": "DNNinput_ttag__lepton_phi",
      "offset": 4.0,
      "scale": 0.125
    },
    {
      "name": "DNNinput_ttag__lepton_reliso",
      "offset": -0.0,
      "scale": 5.0
    },
    {
      "name": "DNNinput_ttag__lepton_charge",
      "offset": 1.0,
      "scale": 0.5
    },
    {
      "name": "DNNinput_ttag__lepton_dr_nextjet",
      "offset": -0.0,
      "scale": 0.16666666666666666
    },
    {
      "name": "DNNinput_ttag__lepton_dphi_nextjet",
      "offset": -0.0,
      "scale": 0.25
    },
    {
      "name": "DNNinput_ttag__lepton_deta_nextjet",
      "offset": -0.0,
      "scale": 0.16666666666666666
    },
    {
      "name": "DNNinput_ttag__lepton_ptrel_nextjet",
      "offset": -0.0,
      "scale": 0.00125
    },
    {
      "name": "DNNinput_ttag__lepton_dr_nextxjet",
      "offset": -0.0,
      "scale": 0.16666666666666666
    },
    {
      "name": "DNNinput_ttag__lepton_dphi_nextxjet",
      "offset": -0.0,
      "scale": 0.25
    },
    {
      "name": "DNNinput_ttag__lepton_deta_nextxjet",
      "offset": -0.0,
      "scale": 0.16666666666666666
    },
    {
      "name": "DNNinput_ttag__lepton_ptrel_nextxjet",
      "offset": -0.0,
      "scale": 0.00125
    },
    {
      "name": "DNNinput_ttag__dphi_lepton_met",
      "offset": -0.0,
      "scale": 0.25
    },
    {
      "name": "DNNinput_ttag__mtw",
      "offset": -0.0,
      "scale": 0.002
    },
    {
      "name": "DNNinput_ttag__pseudotop_m",
      "offset": -0.0,
      "scale": 0.00125
    },
    {
      "name": "DNNinput_ttag__tjet_pt",
      "offset": -0.0,
      "scale": 0.001
    },
    {
      "name": "DNNinput_ttag__tjet_eta",
      "offset": 5.0,
      "scale": 0.1
    },
    {
      "name": "DNNinput_ttag__tjet_phi",
      "offset": 4.0,
      "scale": 0.125
    },
    {
      "name": "DNNinput_ttag__dr_tjet_lepton",
      "offset": -0.0,
      "scale": 0.16666666666666666
    },
    {
      "name": "DNNinput_ttag__dphi_tjet_met",
      "offset": -0.0,
      "scale": 0.25
    },
    {
      "name": "DNNinput_ttag__ptbal_tjet_wboson",
      "offset": 2.0,
      "scale": 0.25
    },
    {
      "name": "DNNinput_ttag__ptbal_tjet_pseudotop",
      "offset": 2.0,
      "scale": 0.25
    },
    {
      "name": "DNNinput_ttag__n_xjets",
      "offset": -0.0,
      "scale": 0.1
    },
    {
      "name": "DNNinput_ttag__ht_xjets",
      "offset": -0.0,
      "scale": 0.001
    },
    {
      "name": "DNNinput_ttag__xjet1pt_pt",
      "offset": -0.0,
      "scale": 0.002
    },
    {
      "name": "DNNinput_ttag__xjet1pt_eta",
      "offset": 5.0,
      "scale": 0.1
    },
    {
      "name": "DNNinput_ttag__xjet1pt_phi",
      "offset": 4.0,
      "scale": 0.125
    },
    {
      "name": "DNNinput_ttag__xjet1pt_deepjet",
      "offset": -0.0,
      "scale": 1.0
    },
    {
      "name": "DNNinput_ttag__mass_xjet1pt_lepton",
      "offset": -0.0,
      "scale": 0.002
    },
    {
      "name": "DNNinput_ttag__dr_xjet1pt_lepton",
      "offset": -0.0,
      "scale": 0.16666666666666666
    },
    {
      "name": "DNNinput_ttag__dr_xjet1pt_tjet",
      "offset": -0.0,
      "scale": 0.16666666666666666
    },
    {
      "name": "DNNinput_ttag__xjet1dj_pt",
      "offset": -0.0,
      "scale": 0.002
    },
    {
      "name": "DNNinput_ttag__xjet1dj_eta",
      "offset": 5.0,
      "scale": 0.1
    },
    {
      "name": "DNNinput_ttag__xjet1dj_phi",
      "offset": 4.0,
      "scale": 0.125
    },
    {
      "name": "DNNinput_ttag__xjet1dj_deepjet",
      "offset": -0.0,
      "scale": 1.0
    },
    {
      "name": "DNNinput_ttag__mass_xjet1dj_lepton",
      "offset": -0.0,
      "scale": 0.002
    },
    {
      "name": "DNNinput_ttag__dr_xjet1dj_lepton",
      "offset": -0.0,
      "scale": 0.16666666666666666
    },
    {
      "name": "DNNinput_ttag__dr_xjet1dj_tjet",
      "offset": -0.0,
      "scale": 0.16666666666666666
    },
    {
      "name": "DNNinput_ttag__ijet1dj_deepjet",
      "offset": -0.0,
      "scale": 1.0
    },
    {
      "name": "DNNinput_ttag__dr_tjet_xjet",
      "offset": -0.0,
      "scale": 0.16666666666666666
    },
    {
      "name": "DNNinput_ttag__tnearestxjet_pt",
      "offset": -0.0,
      "scale": 0.002
    },
    {
      "name": "DNNinput_ttag__tnearestxjet_eta",
      "offset": 5.0,
      "scale": 0.1
    },
    {
      "name": "DNNinput_ttag__tnearestxjet_phi",
      "offset": 4.0,
      "scale": 0.125
    },
    {
      "name": "DNNinput_ttag__tnearestxjet_deepjet",
      "offset": -0.0,
      "scale": 1.0
    }
  ],
  "layers": [
    {
      "activation": "rectified",
      "architecture": "dense",
      "bias": [
        0.009967935271561146,
        -0.0072831884026527405,
        0.01613020710647106,
        0.019187388941645622,
        0.019349290058016777,
        0.00827791541814804,
        0.02266540192067623,
        0.015987057238817215,
        -0.008937230333685875,
        0.0029358111787587404,
        0.014454759657382965,
        -0.0064749219454824924,
        0.0003728419542312622,
        -0.008475898765027523,
        -0.007282887119799852,
        -0.011350414715707302,
        0.012902186252176762,
        0.00926918163895607,
        -0.020342037081718445,
        0.0065706875175237656,
        -0.009262624196708202,
        0.034173622727394104,
        0.021409492939710617,
        -0.0027051898650825024,
        0.0015025321627035737,
        0.014224023558199406,
        -0.005803131032735109,
        0.0370217002928257,
        0.00831328984349966,
        0.007354888133704662,
        -0.00745169073343277,
        0.015139402821660042,
        -0.012738185934722424,
        0.009158993139863014,
        -0.010904332622885704,
        0.019539987668395042,
        0.0058388677425682545,
        -0.0193229541182518,
        0.026705026626586914,
        0.002374600386247039,
        0.036796748638153076,
        0.02050388976931572,
        0.04714266210794449,
        0.0016155706252902746,
        -0.0007504472159780562,
        0.007701495196670294,
        0.006373515818268061,
        0.008996699005365372,
        -0.007552014198154211,
        0.018648197874426842,
        0.034877173602581024,
        0.0017294182907789946,
        -0.001511315000243485,
        0.005969474092125893,
        -0.018454326316714287,
        0.009379513561725616,
        0.010412001051008701,
        0.017798934131860733,
        -0.010678478516638279,
        0.01976972632110119,
        0.038755353540182114,
        0.02547607570886612,
        0.0025784061290323734,
        -0.00014322476636152714,
        0.02288057841360569,
        0.02480110339820385,
        -0.0033861587289720774,
        0.02545931190252304,
        -0.0023321013431996107,
        0.037825603038072586,
        0.008037954568862915,
        -0.0009806182933971286,
        0.014259514398872852,
        -0.002042611362412572,
        -0.0071402001194655895,
        0.0054862117394804955,
        0.005807538982480764,
        -0.012463863007724285,
        -0.000274139252724126,
        -0.0022267394233494997,
        0.035146258771419525,
        0.018854331225156784,
        0.02219151146709919,
        0.00033457824611105025,
        0.011642499826848507,
        0.04005928337574005,
        -0.013931076973676682,
        -0.0011684256605803967,
        0.00884376373142004,
        -0.002407630905508995,
        -0.007920128293335438,
        0.010496229864656925,
        0.004074293188750744,
        0.004112894181162119,
        -0.006110502872616053,
        0.0008830813458189368,
        0.02276620827615261,
        0.011233256198465824,
        -0.022698871791362762,
        -0.006418586242944002,
        0.002225578064098954,
        0.017378708347678185,
        0.0057120113633573055,
        0.013331746682524681,
        -0.01869802363216877,
        0.024103591218590736,
        0.024197515100240707,
        -0.0051797544583678246,
        -0.012400143779814243,
        0.014779027551412582,
        -0.0113070635125041,
        0.023329824209213257,
        0.02435421012341976,
        0.002303602173924446,
        0.02903025597333908,
        0.006539755966514349,
        0.01100658904761076,
        -0.0008244037162512541,
        -0.0019998732022941113,
        0.010168148204684258,
        0.008321774192154408,
        0.03513485938310623,
        0.0235738642513752,
        0.019210640341043472,
        0.010125570930540562,
        0.0030865680892020464,
        -0.0012090750969946384,
        -0.011632007546722889
      ],
      "weights": [
        0.009465637616813183,
        0.08444289118051529,
        -0.3745059072971344,
        0.09864455461502075,
        0.08395858854055405,
        -0.16552533209323883,
        -0.024253521114587784,
        -0.044555407017469406,
        0.10028082132339478,
        -0.09026383608579636,
        -0.05248884856700897,
        -0.032435785979032516,
        0.0813249945640564,
        0.11928144097328186,
        0.09675188362598419,
        -0.16936661303043365,
        0.06690563261508942,
        0.1814289093017578,
        -0.0026943767443299294,
        -0.18403807282447815,
        0.13272172212600708,
        0.10206504911184311,
        -0.06181025877594948,
        0.16758336126804352,
        0.039619188755750656,
        0.0854373499751091,
        0.07111074030399323,
        0.07426711916923523,
        0.12519855797290802,
        0.041549716144800186,
        -0.01315645407885313,
        0.16920194029808044,
        0.13529439270496368,
        0.09073936939239502,
        0.025806080549955368,
        -0.01633160002529621,
        0.10579182207584381,
        0.05296073108911514,
        0.07683831453323364,
        -0.1220768615603447,
        -0.06599622219800949,
        -0.0887271910905838,
        0.02159806899726391,
        0.1505742073059082,
        0.09847304970026016,
        0.17572255432605743,
        0.10757589340209961,
        0.14066052436828613,
        0.1357099413871765,
        -0.18459884822368622,
        -0.12511052191257477,
        -0.07277087867259979,
        -0.0724724531173706,
        0.13546369969844818,
        -0.14855903387069702,
        -0.012053539045155048,
        -0.17881879210472107,
        -0.10132358223199844,
        0.08892238140106201,
        0.09356377273797989,
        0.014392034150660038,
        0.13476935029029846,
        -0.03481273353099823,
        -0.1484564244747162,
        0.11461871862411499,
        -0.08866924792528152,
        0.2520650327205658,
        0.21669557690620422,
        0.02111126109957695,
        -0.06201882287859917,
        0.14394280314445496,
        0.04070486128330231,
        0.14771969616413116,
        -0.0039940495043993,
        -0.07501720637083054,
        -0.05899942293763161,
        -0.08479414135217667,
        -0.23167294263839722,
        -0.117669016122818,
        0.13050682842731476,
        -0.07838291674852371,
        -0.14792706072330475,
        -0.10832856595516205,
        -0.1176319271326065,
        0.1205466091632843,
        -0.032640241086483,
        -0.0537237711250782,
        0.08095753937959671,
        -0.07518661022186279,
        -0.18049553036689758,
        0.15114454925060272,
        0.04333476349711418,
        0.06824132055044174,
        -0.12596037983894348,
        -0.012235096655786037,
        -0.010293744504451752,
        -0.10548820346593857,
        -0.16317002475261688,
        0.059755269438028336,
        0.11051555722951889,
        -0.08405421674251556,
        -0.019867312163114548,
        0.12094856053590775,
        0.01261208113282919,
        -0.05476846545934677,
        0.11374027281999588,
        0.049039337784051895,
        0.011262746527791023,
        -0.11441519111394882,
        0.03978670388460159,
        -0.11407589167356491,
        0.10200538486242294,
        0.15366211533546448,
        -0.1382233053445816,
        -0.17677605152130127,
        0.16313788294792175,
        0.015036641620099545,
        0.056793492287397385,
        -0.14658941328525543,
        0.04311157017946243,
        -0.03437253087759018,
        -0.12561771273612976,
        -0.14053098857402802,
        -0.1754806786775589,
        0.009703963063657284,
        0.044886473566293716,
        0.11025110632181168,
        -0.007975103333592415,
        0.07166396081447601,
        0.1034955158829689,
        0.11377458274364471,
        0.08525005728006363,
        -0.008738203905522823,
        -0.13570410013198853,
        -0.04872877150774002,
        0.16211716830730438,
        0.16094796359539032,
        0.019090475514531136,
        0.026153700426220894,
        0.1345030963420868,
        0.19643650949001312,
        0.11000696569681168,
        -0.004066547378897667,
        -0.005356962326914072,
        0.18352003395557404,
        0.18936897814273834,
        -0.10546489804983139,
        0.10199194401502609,
        -0.15850326418876648,
        -0.19200579822063446,
        0.03200381621718407,
        0.061022091656923294,
        -0.16016443073749542,
        -0.03766706958413124,
        -0.17546029388904572,
        0.05772727355360985,
        0.14661675691604614,
        0.1723318099975586,
        -0.05150742828845978,
        0.043626073747873306,
        -0.11096412688493729,
        -0.10462378710508347,
        0.18564453721046448,
        0.16590596735477448,
        0.15514308214187622,
        -0.19949766993522644,
        -0.11408275365829468,
        0.08324480801820755,
        0.15936022996902466,
        -0.11217299848794937,
        -0.015803800895810127,
        0.1739974319934845,
        0.09197290241718292,
        -0.02686268277466297,
        0.09250848740339279,
        -0.05675065144896507,
        -0.1453283429145813,
        0.04288399964570999,
        -0.037326380610466,
        -0.03224708512425423,
        0.11607038229703903,
        0.11630118638277054,
        0.14449554681777954,
        -0.08432383835315704,
        -0.017722949385643005,
        0.10196936875581741,
        -0.011831887066364288,
        0.037757012993097305,
        -0.048234667629003525,
        -0.026051897555589676,
        -0.28492891788482666,
        -0.12154124677181244,
        0.09963909536600113,
        0.09945492446422577,
        -0.03618481010198593,
        -0.1112339049577713,
        0.17290137708187103,
        -0.2094840407371521,
        0.17279505729675293,
        0.06590009480714798,
        -0.0360075868666172,
        0.17964152991771698,
        -0.09092402458190918,
        0.08287244290113449,
        -0.07604657113552094,
        0.13219431042671204,
        0.16167117655277252,
        -0.14588569104671478,
        -0.1558559238910675,
        0.09337686002254486,
        0.07080262899398804,
        0.12794096767902374,
        0.03320206329226494,
        -0.0818905159831047,
        -0.06855879724025726,
        0.037777554243803024,
        0.045586634427309036,
        0.08765146136283875,
        0.0391404964029789,
        -0.04479438066482544,
        0.11257383227348328,
        0.21461233496665955,
        -0.09985048323869705,
        0.02388244867324829,
        -0.10914770513772964,
        0.0369967445731163,
        -0.06616481393575668,
        0.11583667248487473,
        0.09788195788860321,
        0.06116723269224167,
        0.10223343223333359,
        0.1471157819032669,
        0.18299834430217743,
        0.012388249859213829,
        0.13496069610118866,
        0.13233481347560883,
        -0.18176811933517456,
        0.04815063998103142,
        -0.10079018026590347,
        -0.17420531809329987,
        0.07679252326488495,
        0.08072911202907562,
        -0.0706779882311821,
        -0.1387396901845932,
        0.02636650949716568,
        0.08403367549180984,
        0.04640129581093788,
        -0.3617425858974457,
        -0.16011418402194977,
        0.09540832787752151,
        -0.0269492045044899,
        0.005678107030689716,
        -0.0956028401851654,
        -0.06858057528734207,
        0.048433057963848114,
        -0.16702520847320557,
        0.0006507844664156437,
        0.1937626302242279,
        -0.15270885825157166,
        -0.09442716091871262,
        0.03424856439232826,
        0.09585445374250412,
        0.09707655012607574,
        -0.1550731062889099,
        0.1292002946138382,
        -0.007908375933766365,
        0.08833951503038406,
        0.08655780553817749,
        0.084122434258461,
        -0.12594792246818542,
        0.022314641624689102,
        0.026385851204395294,
        -0.13126523792743683,
        0.16107922792434692,
        0.14183595776557922,
        0.07863625138998032,
        -0.0662783607840538,
        -0.01361803337931633,
        0.14149558544158936,
        0.08088430017232895,
        0.16663508117198944,
        0.17778617143630981,
        -0.006506339181214571,
        0.18414820730686188,
        -0.026016568765044212,
        0.18295474350452423,
        -0.0984322801232338,
        0.02896181493997574,
        -0.1406915783882141,
        0.0279201902449131,
        -0.04666011035442352,
        -0.07067784667015076,
        -0.13680143654346466,
        -0.16634930670261383,
        -0.054289646446704865,
        0.015948586165905,
        -0.22226274013519287,
        -0.12396243959665298,
        0.02780844457447529,
        0.14434804022312164,
        0.11976750195026398,
        -0.016876647248864174,
        0.026809759438037872,
        0.12017963081598282,
        0.14299066364765167,
        0.1727054864168167,
        0.17371512949466705,
        -0.11635779589414597,
        0.14923159778118134,
        0.10905162990093231,
        0.21722373366355896,
        -0.13013899326324463,
        0.0842999592423439,
        0.1243896633386612,
        -0.15015539526939392,
        0.15045207738876343,
        0.14994320273399353,
        -0.023113923147320747,
        -0.0769442766904831,
        0.14429542422294617,
        0.042460888624191284,
        0.1489589810371399,
        0.05942939594388008,
        -0.019557230174541473,
        -0.0043241288512945175,
        -0.10363601893186569,
        0.011581859551370144,
        -0.1318245381116867,
        0.021651487797498703,
        -0.040489066392183304,
        -0.06190211698412895,
        0.0832594782114029,
        -0.0020821713842451572,
        0.010037994012236595,
        -0.10586811602115631,
        -0.013582034967839718,
        -0.13854973018169403,
        -0.039815980941057205,
        0.015533128753304482,
        0.09659498929977417,
        0.19846397638320923,
        0.026175886392593384,
        0.1297602653503418,
        0.10306473076343536,
        -0.10977296531200409,
        -0.006656359881162643,
        -0.16103529930114746,
        -0.14513765275478363,
        0.07501152157783508,
        -0.1451827585697174,
        0.010235362686216831,
        0.042838409543037415,
        0.07464635372161865,
        0.053244296461343765,
        -0.010933877900242805,
        0.004658490419387817,
        0.030629752203822136,
        -0.05297485366463661,
        0.08069093525409698,
        0.04879610985517502,
        -0.14958003163337708,
        0.19460134208202362,
        -0.005136979278177023,
        0.12835246324539185,
        0.11220905929803848,
        0.0027909493073821068,
        0.0954209417104721,
        -0.1707000732421875,
        -0.027860550209879875,
        0.018839383497834206,
        0.20962387323379517,
        0.08859510719776154,
        0.0857471153140068,
        0.034022584557533264,
        0.006589842960238457,
        0.21144568920135498,
        -0.1145024448633194,
        0.03949964791536331,
        0.07923132926225662,
        -0.15495659410953522,
        0.01074907649308443,
        0.1135958805680275,
        -0.11027871817350388,
        -0.1307094395160675,
        -0.149542436003685,
        0.03786556050181389,
        0.20139406621456146,
        0.08257684111595154,
        0.028523944318294525,
        -0.01706002652645111,
        -0.07308832556009293,
        0.13691666722297668,
        -0.10748406499624252,
        -0.02946034073829651,
        0.01753023825585842,
        0.04698098078370094,
        -0.0601884201169014,
        0.012950170785188675,
        0.07264772802591324,
        0.015012139454483986,
        -0.015998635441064835,
        0.0611688569188118,
        -0.14906273782253265,
        -0.10022781044244766,
        -0.296580970287323,
        -0.08619678765535355,
        -0.10022085905075073,
        -0.048757076263427734,
        0.056733861565589905,
        -0.13421958684921265,
        -0.16169439256191254,
        0.08947889506816864,
        -0.179901123046875,
        -0.15924084186553955,
        -0.17061232030391693,
        -0.1278195083141327,
        -0.13895002007484436,
        0.150760218501091,
        -0.07608043402433395,
        -0.0018432150827720761,
        0.24868154525756836,
        -0.08306898176670074,
        0.16916586458683014,
        0.1065010204911232,
        -0.11580425500869751,
        0.18991120159626007,
        -0.02752399817109108,
        0.07535403221845627,
        0.0676383450627327,
        -0.14640852808952332,
        0.14663846790790558,
        -0.041504427790641785,
        0.015812620520591736,
        0.12429799139499664,
        -0.03150635212659836,
        0.197361022233963,
        0.024250857532024384,
        0.07804061472415924,
        -0.12613685429096222,
        0.17104046046733856,
        -0.17381899058818817,
        0.16233909130096436,
        -0.17690947651863098,
        0.18805748224258423,
        0.017543956637382507,
        -0.0735679417848587,
        -0.002634474541991949,
        -0.06623312830924988,
        0.07785114645957947,
        0.04089406505227089,
        0.012290183454751968,
        0.00463728467002511,
        0.10616155713796616,
        0.22208932042121887,
        0.13173101842403412,
        -0.13031557202339172,
        0.13740301132202148,
        0.022537952288985252,
        -0.03944866731762886,
        0.2915436029434204,
        0.23087571561336517,
        0.15300312638282776,
        0.14064529538154602,
        -0.1354960948228836,
        0.013698459602892399,
        -0.06813232600688934,
        0.1624443531036377,
        0.10001768171787262,
        0.03934784606099129,
        -0.0065465462394058704,
        -0.07926023006439209,
        0.1700323224067688,
        0.008998693898320198,
        0.01109550055116415,
        0.1053657978773117,
        0.10434924811124802,
        -0.16095469892024994,
        0.16892816126346588,
        -0.0942998081445694,
        -0.14205928146839142,
        -0.008170442655682564,
        -0.11723494529724121,
        0.04137105867266655,
        0.1273159235715866,
        -0.15365608036518097,
        0.13070622086524963,
        0.08628126233816147,
        -0.051567722111940384,
        -0.0485326386988163,
        -0.03139464557170868,
        -0.03285077586770058,
        0.10756532847881317,
        -0.030065814033150673,
        0.0387137308716774,
        -0.06471859663724899,
        0.10248613357543945,
        -0.15641388297080994,
        0.06528973579406738,
        -0.07373952120542526,
        0.0368531309068203,
        0.03122979961335659,
        -0.06169792264699936,
        0.1389186680316925,
        -0.1694057732820511,
        0.17874769866466522,
        -0.1106342002749443,
        0.00048238158342428505,
        0.06717387586832047,
        -0.08517028391361237,
        -0.005818390753120184,
        0.0988442674279213,
        0.18151986598968506,
        0.040663860738277435,
        0.07871963083744049,
        -0.06759850680828094,
        0.014515085145831108,
        0.14753910899162292,
        -0.055073484778404236,
        -0.051761697977781296,
        0.014313578605651855,
        0.06185896694660187,
        -0.0896795466542244,
        0.023794187232851982,
        0.011691484600305557,
        0.16385537385940552,
        -0.06524572521448135,
        -0.07991113513708115,
        -0.1463734656572342,
        0.18873517215251923,
        -0.11772751808166504,
        -0.10102935135364532,
        -0.0930369421839714,
        -0.1666555106639862,
        -0.14580270648002625,
        -0.1528516262769699,
        -0.038085367530584335,
        -0.10043121129274368,
        0.15507738292217255,
        0.0240523312240839,
        -0.1403144896030426,
        -0.10629813373088837,
        0.040445953607559204,
        0.1785023957490921,
        -0.11566529422998428,
        0.08673258870840073,
        -0.12371990084648132,
        -0.09335822612047195,
        -0.10682366788387299,
        0.2044728845357895,
        0.16961877048015594,
        0.03976152464747429,
        -0.14797739684581757,
        -0.013942656107246876,
        -0.09564406424760818,
        0.1379457712173462,
        0.08698717504739761,
        -0.07735397666692734,
        0.2273714244365692,
        -0.001906747929751873,
        -0.05549940839409828,
        -0.0242551788687706,
        0.05446028336882591,
        0.04966713860630989,
        -0.16541330516338348,
        0.04133778437972069,
        0.019608810544013977,
        -0.08455492556095123,
        0.1596611589193344,
        -0.06988605856895447,
        0.06690201908349991,
        0.10709477216005325,
        0.1564764678478241,
        -0.04142826423048973,
        0.06646079570055008,
        0.13080404698848724,
        0.17159251868724823,
        0.008113373070955276,
        0.14552359282970428,
        0.20764648914337158,
        0.1970917135477066,
        0.13885007798671722,
        -0.013830693438649178,
        0.2083023488521576,
        0.009328119456768036,
        -0.061568424105644226,
        0.17969200015068054,
        -0.1290525197982788,
        0.04932932183146477,
        -0.03729955852031708,
        0.13626651465892792,
        0.09090539067983627,
        -0.08270806074142456,
        -0.014899875968694687,
        0.05128186196088791,
        0.04311619699001312,
        0.1351516991853714,
        0.021775711327791214,
        -0.10687367618083954,
        0.1151166781783104,
        -0.00030984837212599814,
        0.13635487854480743,
        0.09156602621078491,
        0.037612851709127426,
        0.13007213175296783,
        -0.09007056057453156,
        0.06290783733129501,
        0.21271933615207672,
        -0.043381303548812866,
        0.16053348779678345,
        -0.10478517413139343,
        -0.10888282209634781,
        -0.14812320470809937,
        0.08921249955892563,
        -0.11912165582180023,
        0.18115651607513428,
        -0.15542669594287872,
        0.023844458162784576,
        -0.14903908967971802,
        0.10768935084342957,
        -0.11507225036621094,
        -0.12892121076583862,
        -0.09751046448945999,
        0.06640307605266571,
        0.12705670297145844,
        0.11788759380578995,
        -0.14183443784713745,
        -0.02737390249967575,
        -0.07676715403795242,
        0.1892002522945404,
        0.06568508595228195,
        -0.1596585214138031,
        0.2726634740829468,
        0.07395794987678528,
        0.12930788099765778,
        0.15102405846118927,
        -0.03659692034125328,
        0.11181889474391937,
        -0.07296298444271088,
        -0.11243144422769547,
        -0.13241618871688843,
        -0.08483655005693436,
        0.08768507093191147,
        0.1395179033279419,
        -0.022878756746649742,
        -0.08441168069839478,
        -0.10792922228574753,
        -0.11234402656555176,
        0.12604618072509766,
        -0.14614266157150269,
        -0.16517873108386993,
        -0.016103612259030342,
        0.019815705716609955,
        0.058798808604478836,
        -0.005555161740630865,
        -0.04048590734601021,
        0.05213761702179909,
        -0.08430978655815125,
        -0.17392028868198395,
        -0.1694900393486023,
        0.04161941260099411,
        0.035588644444942474,
        -0.07260558754205704,
        -0.18778471648693085,
        0.10292927920818329,
        -0.03154931589961052,
        0.02161058969795704,
        -0.1131841391324997,
        -0.11667681485414505,
        0.12284419685602188,
        -0.12675094604492188,
        -0.02545131742954254,
        -0.03988846391439438,
        0.1735793948173523,
        0.001713015604764223,
        -0.05022914335131645,
        0.16619972884655,
        -0.12022589147090912,
        -0.14886339008808136,
        0.10591287165880203,
        -0.0735388770699501,
        0.13257092237472534,
        -0.03624027967453003,
        -0.17333368957042694,
        -0.11381970345973969,
        -0.03751039132475853,
        -0.15853004157543182,
        -0.015522017143666744,
        -0.04083065316081047,
        -0.12841975688934326,
        -0.05703172832727432,
        0.2191854566335678,
        0.13573655486106873,
        -0.02431384101510048,
        0.004667046945542097,
        0.028694288805127144,
        0.15908117592334747,
        0.16493593156337738,
        -0.16196143627166748,
        0.1503719985485077,
        -0.019654862582683563,
        0.11306077241897583,
        -0.05896153673529625,
        0.06291773170232773,
        -0.09071757644414902,
        0.04222874343395233,
        -0.05273818224668503,
        0.056444935500621796,
        0.050079260021448135,
        0.09087259322404861,
        0.11992029845714569,
        -0.18210354447364807,
        -0.10133440792560577,
        -0.09680049121379852,
        -0.17048996686935425,
        -0.009761177934706211,
        0.19512346386909485,
        -0.08246055245399475,
        0.13543498516082764,
        0.07259518653154373,
        -0.06105361878871918,
        -0.041750892996788025,
        -0.07655749469995499,
        0.05328264832496643,
        0.09455298632383347,
        -0.0816107839345932,
        -0.03385712951421738,
        0.02661021426320076,
        -0.06691086292266846,
        0.03794800862669945,
        0.05167309194803238,
        0.10474690049886703,
        0.1104469895362854,
        -0.05323765426874161,
        -0.16583047807216644,
        -0.14032572507858276,
        0.13770714402198792,
        0.040123820304870605,
        0.001611360115930438,
        0.17441876232624054,
        -0.1818070411682129,
        -0.09381354600191116,
        -0.08189263939857483,
        0.03940826654434204,
        -0.019730696454644203,
        -0.009550326503813267,
        -0.07484178990125656,
        0.18094982206821442,
        -0.1520424634218216,
        -0.06824035942554474,
        0.07404885441064835,
        0.018663186579942703,
        -0.20371492207050323,
        -0.2215634137392044,
        0.108578622341156,
        -0.08056209981441498,
        -0.19034673273563385,
        -0.1634366512298584,
        0.05163038149476051,
        -0.1585247665643692,
        0.02116374485194683,
        -0.13860385119915009,
        0.08158956468105316,
        0.08645410090684891,
        -0.021518316119909286,
        -0.11901358515024185,
        0.14608538150787354,
        -0.02826470322906971,
        0.05822194367647171,
        0.18035194277763367,
        0.13503025472164154,
        -0.049736931920051575,
        0.04348191246390343,
        -0.0882314071059227,
        0.024605384096503258,
        -0.07734806090593338,
        -0.11376409977674484,
        -0.08294905722141266,
        0.0801033303141594,
        0.16206516325473785,
        0.13906438648700714,
        -0.11246941983699799,
        -0.0009069350780919194,
        0.1638689637184143,
        -0.0945768877863884,
        -0.019928211346268654,
        0.1803755909204483,
        0.08123106509447098,
        -0.08050401508808136,
        0.14824651181697845,
        0.041546862572431564,
        0.05185282230377197,
        0.07330937683582306,
        -0.05787963420152664,
        0.1427052766084671,
        -0.1716710925102234,
        -0.02683682180941105,
        0.03915165737271309,
        -0.017891649156808853,
        -0.07482706010341644,
        0.08601965755224228,
        0.029586434364318848,
        -0.013238860294222832,
        -0.030035069212317467,
        0.1774187684059143,
        -0.04424485191702843,
        0.004929773975163698,
        0.11870399862527847,
        0.04246882349252701,
        0.024660414084792137,
        -0.13572973012924194,
        0.003928490914404392,
        -0.12181515991687775,
        0.1372791975736618,
        0.00039088158519007266,
        -0.019844187423586845,
        -0.15850470960140228,
        0.14946028590202332,
        -0.03569292649626732,
        -0.14390237629413605,
        0.15782158076763153,
        0.08100473880767822,
        -0.010166079737246037,
        -0.0012969148810952902,
        -0.06435923278331757,
        0.08952019363641739,
        -0.06953564286231995,
        0.11355185508728027,
        0.11455697566270828,
        -0.16699974238872528,
        0.08312168717384338,
        -0.15161757171154022,
        -0.014706913381814957,
        0.08957970887422562,
        -0.18121999502182007,
        0.07692402601242065,
        -0.19739368557929993,
        0.04193294420838356,
        0.11283321678638458,
        0.037006109952926636,
        -0.08349590003490448,
        -0.1149669960141182,
        0.06632053852081299,
        -0.09289166331291199,
        0.1058957651257515,
        -0.10738026350736618,
        0.06881383061408997,
        -0.11854822188615799,
        -0.05740988254547119,
        -0.08100326359272003,
        -0.15763328969478607,
        -0.01620117761194706,
        -0.12386845052242279,
        -0.06354411691427231,
        -0.09270506352186203,
        -0.06884510070085526,
        0.09486865997314453,
        0.0024003577418625355,
        0.1898147165775299,
        -0.14365176856517792,
        -0.17416401207447052,
        0.09131979942321777,
        0.026844115927815437,
        0.11564464867115021,
        -0.06280358135700226,
        0.1728043258190155,
        0.10025978833436966,
        -0.11523739248514175,
        0.16641095280647278,
        0.169694721698761,
        0.013149921782314777,
        -0.010958218015730381,
        0.1490069031715393,
        0.12641988694667816,
        0.17558692395687103,
        0.21353557705879211,
        0.031380437314510345,
        -0.1474197804927826,
        -0.06693356484174728,
        -0.11465051025152206,
        0.018833322450518608,
        0.10243245214223862,
        -0.0041730678640306,
        0.10953876376152039,
        0.06275800615549088,
        0.14610005915164948,
        -0.1046667993068695,
        -0.12087740004062653,
        -0.1308480054140091,
        -0.1466941386461258,
        -0.1402449756860733,
        -0.08197477459907532,
        0.16716855764389038,
        0.10586792975664139,
        -0.08593291789293289,
        0.014964908361434937,
        -0.1653641313314438,
        0.14833028614521027,
        0.16579104959964752,
        -0.0811682790517807,
        -0.24182996153831482,
        -0.05957423523068428,
        0.1838936060667038,
        0.12718811631202698,
        0.16487683355808258,
        0.10129105299711227,
        -0.14976918697357178,
        0.1111559122800827,
        -0.027583854272961617,
        0.14954480528831482,
        -0.05049717798829079,
        0.10026571899652481,
        -0.13930782675743103,
        0.04391712695360184,
        0.028635729104280472,
        -0.04793720692396164,
        -0.05752355232834816,
        0.16877084970474243,
        0.007459921762347221,
        0.023424021899700165,
        -0.022388983517885208,
        -0.08906765282154083,
        -0.16131895780563354,
        0.0859728679060936,
        0.08916798233985901,
        0.07419118285179138,
        0.2164522260427475,
        -0.12548919022083282,
        0.09666682034730911,
        -0.1709144562482834,
        0.07776877284049988,
        0.12751378118991852,
        -0.08674079179763794,
        -0.16261130571365356,
        -0.18799130618572235,
        0.1940544992685318,
        0.2315259724855423,
        -0.12591296434402466,
        -0.04601287841796875,
        -0.01734982058405876,
        -0.037785157561302185,
        -0.18334278464317322,
        0.050116218626499176,
        0.17613865435123444,
        -0.06745127588510513,
        -0.031441014260053635,
        0.06701681762933731,
        -0.07073824852705002,
        -0.10388647019863129,
        0.00868817139416933,
        0.058154717087745667,
        0.08980540931224823,
        -0.19174475967884064,
        0.1775961071252823,
        -0.003106761258095503,
        0.14420484006404877,
        -0.16130714118480682,
        -0.1384962648153305,
        -0.15635809302330017,
        -0.1430516541004181,
        0.030294809490442276,
        -0.15090766549110413,
        0.09921018034219742,
        0.01069074310362339,
        -0.035253703594207764,
        0.06709138303995132,
        -0.1380380243062973,
        0.14302866160869598,
        -0.02487117424607277,
        0.05139337107539177,
        0.06987717747688293,
        -0.10545951873064041,
        -0.12006546556949615,
        0.003916125278919935,
        0.16616208851337433,
        0.23732373118400574,
        0.022249732166528702,
        0.04068876802921295,
        -0.04448441416025162,
        0.08073998987674713,
        -0.08699667453765869,
        0.03605979308485985,
        0.08245528489351273,
        0.12424725294113159,
        -0.09101884812116623,
        -0.17185278236865997,
        -0.19725188612937927,
        -0.024933310225605965,
        0.07775133103132248,
        0.07174046337604523,
        -0.11386490613222122,
        0.12541118264198303,
        -0.14560091495513916,
        -0.20573754608631134,
        -0.06589458137750626,
        0.06748497486114502,
        -0.025218045338988304,
        -0.03388001769781113,
        -0.19793015718460083,
        -0.15441693365573883,
        0.14753496646881104,
        -0.027513068169355392,
        0.08490773290395737,
        -0.02528798207640648,
        0.07466437667608261,
        0.07549893110990524,
        -0.14279156923294067,
        -0.12232454121112823,
        0.23789316415786743,
        -0.056009139865636826,
        -0.02904745191335678,
        -0.039621464908123016,
        0.18515849113464355,
        -0.11415969580411911,
        0.004525382071733475,
        -0.07986829429864883,
        -0.12161219865083694,
        0.09772569686174393,
        0.015734903514385223,
        -0.0907130241394043,
        -0.1288301944732666,
        0.16776983439922333,
        -0.1520286351442337,
        0.07616809010505676,
        -0.01068864669650793,
        -0.14028377830982208,
        0.011905405670404434,
        -0.07419688999652863,
        -0.014024343341588974,
        -0.049865782260894775,
        0.004477680195122957,
        -0.1818551868200302,
        -0.34197762608528137,
        0.15685801208019257,
        0.17556039988994598,
        0.20957864820957184,
        -0.04119011387228966,
        -0.10012403875589371,
        0.09537149965763092,
        -0.09979169070720673,
        0.018268629908561707,
        -0.21745450794696808,
        0.14674779772758484,
        0.031067801639437675,
        -0.0030554335098713636,
        0.08183290809392929,
        -0.16426672041416168,
        0.09140308201313019,
        -0.0018558198353275657,
        -0.11877476423978806,
        0.19676870107650757,
        -0.018993429839611053,
        -0.015899574384093285,
        0.08313795179128647,
        -0.1202513799071312,
        0.11297211796045303,
        -0.10579536855220795,
        0.05302353948354721,
        0.174988254904747,
        0.07989189028739929,
        0.15299473702907562,
        -0.05963340401649475,
        -0.14784108102321625,
        -0.10914827138185501,
        0.07588576525449753,
        -0.006651951000094414,
        -0.10234513133764267,
        0.18678103387355804,
        0.03865009918808937,
        -0.04986192658543587,
        0.052612707018852234,
        0.07863683253526688,
        0.18957947194576263,
        0.09662377834320068,
        -0.09170103818178177,
        -0.1248326450586319,
        0.020378582179546356,
        -0.11271613836288452,
        0.19112703204154968,
        0.009472246281802654,
        -0.08032900840044022,
        -0.10292719304561615,
        0.13268481194972992,
        0.08447044342756271,
        0.20181190967559814,
        -0.05135462060570717,
        0.16359438002109528,
        0.14517374336719513,
        -0.04008889198303223,
        -0.030760962516069412,
        -0.11227817088365555,
        -0.015602116473019123,
        -0.12486651539802551,
        0.01974712498486042,
        0.12060815095901489,
        -0.054752200841903687,
        0.1594293862581253,
        0.10841726511716843,
        -0.03081025928258896,
        0.027968937531113625,
        0.06942684948444366,
        -0.07206349819898605,
        -0.1086307093501091,
        -0.11062535643577576,
        -0.1550532579421997,
        -0.08788193762302399,
        -0.121088907122612,
        -0.07472827285528183,
        -0.00284687802195549,
        -0.030983692035079002,
        0.025390759110450745,
        -0.13077734410762787,
        -0.0483415350317955,
        0.16823630034923553,
        -0.050574079155921936,
        -0.012186813168227673,
        0.12167389690876007,
        0.07352468371391296,
        -0.016511645168066025,
        0.14982926845550537,
        -0.08880514651536942,
        -0.05528350919485092,
        -0.22988371551036835,
        -0.05835486203432083,
        0.01762346737086773,
        0.18896929919719696,
        -0.025746339932084084,
        0.09577162563800812,
        0.003857674077153206,
        0.14230774343013763,
        0.111839160323143,
        -0.1377743035554886,
        -0.0016264839796349406,
        -0.17794813215732574,
        0.11148500442504883,
        -0.130817249417305,
        -0.12969018518924713,
        0.023807598277926445,
        0.192440927028656,
        0.06987106800079346,
        0.1877952218055725,
        0.018157601356506348,
        0.20262280106544495,
        0.22701969742774963,
        -0.029817726463079453,
        -0.011008599773049355,
        -0.17252789437770844,
        -0.12467032670974731,
        0.030894843861460686,
        -0.1621263027191162,
        -0.052300624549388885,
        0.058114491403102875,
        0.09586440026760101,
        -0.028743209317326546,
        -0.166700080037117,
        0.022333158180117607,
        -0.11752209812402725,
        -0.02999027632176876,
        -0.06441725045442581,
        0.1664702445268631,
        0.039299122989177704,
        0.03734730929136276,
        0.18787945806980133,
        0.1218385100364685,
        0.09680892527103424,
        0.02663307823240757,
        -0.06307996809482574,
        -0.026651756837964058,
        -0.14063183963298798,
        0.142716184258461,
        -0.0378018356859684,
        -0.1112695261836052,
        0.01639300212264061,
        -0.13652527332305908,
        -0.09349571913480759,
        0.08306021988391876,
        0.10928680002689362,
        0.09687136858701706,
        -0.10728755593299866,
        0.08867320418357849,
        -0.06037594750523567,
        -0.1940918266773224,
        0.11052809655666351,
        0.12293671816587448,
        -0.08049037307500839,
        -0.18376424908638,
        0.09856317192316055,
        -0.1911681741476059,
        -0.15781424939632416,
        -0.004648386500775814,
        -0.0146056292578578,
        -0.04580732062458992,
        0.03651357442140579,
        -0.04204145073890686,
        0.04303434491157532,
        0.024242673069238663,
        0.0096596609801054,
        -0.05675790458917618,
        -0.04983656853437424,
        0.04271683096885681,
        0.04530996456742287,
        0.12163127958774567,
        0.08072461187839508,
        -0.09882210940122604,
        -0.09185975044965744,
        -0.020787445828318596,
        -0.23728251457214355,
        -0.029412563890218735,
        0.0832991972565651,
        -0.09479433298110962,
        -0.060817569494247437,
        0.019213959574699402,
        0.16411009430885315,
        -0.17652496695518494,
        0.0008226577774621546,
        -0.024418339133262634,
        0.13517038524150848,
        0.0828629732131958,
        0.042158473283052444,
        -0.13540992140769958,
        -0.019798871129751205,
        0.06738846004009247,
        0.040928080677986145,
        0.029270749539136887,
        -0.10256374627351761,
        -0.1780046671628952,
        -0.09580415487289429,
        0.026666395366191864,
        0.03469457849860191,
        0.10546180605888367,
        -0.10237246006727219,
        0.16332587599754333,
        -0.022843440994620323,
        0.05944136530160904,
        -0.05074257776141167,
        0.035036906599998474,
        0.08344537019729614,
        -0.1451420933008194,
        0.005787473637610674,
        -0.07951396703720093,
        -0.022965649142861366,
        -0.03551296517252922,
        -0.04013824835419655,
        0.11304348707199097,
        -0.0499865785241127,
        -0.12334573268890381,
        -0.04404328018426895,
        -0.09043997526168823,
        0.08263803273439407,
        0.02572721056640148,
        0.07420574128627777,
        -0.13463395833969116,
        0.006469101179391146,
        -0.02935275249183178,
        -0.030043885111808777,
        -0.1179160550236702,
        0.03359881043434143,
        0.012335826642811298,
        0.14119388163089752,
        -0.1507434993982315,
        0.010573587380349636,
        -0.09245563298463821,
        0.08011732995510101,
        0.09125255048274994,
        0.16722026467323303,
        0.2109268754720688,
        -0.10206551104784012,
        -0.19037307798862457,
        0.002543505048379302,
        0.029452042654156685,
        -0.13485035300254822,
        -0.10891694575548172,
        0.16304980218410492,
        0.1324954628944397,
        -0.018493279814720154,
        0.14374834299087524,
        -0.15662986040115356,
        0.3616331219673157,
        -0.033582545816898346,
        0.13817298412322998,
        0.13499516248703003,
        -0.02185090444982052,
        -0.08555120974779129,
        -0.11006174236536026,
        0.14952243864536285,
        0.14330218732357025,
        -0.10768792778253555,
        -0.05993277579545975,
        0.09700871258974075,
        0.10083629190921783,
        0.027119150385260582,
        0.15524600446224213,
        -0.06040191277861595,
        0.12871181964874268,
        -0.002712937770411372,
        0.20122584700584412,
        0.025969594717025757,
        0.015024380758404732,
        -0.10514301061630249,
        0.08526013791561127,
        0.032898884266614914,
        0.09785579144954681,
        -0.10624533146619797,
        0.00346174999140203,
        -0.07180093973875046,
        -0.14304974675178528,
        0.16328564286231995,
        -0.1710507869720459,
        -0.11064796894788742,
        0.04457896947860718,
        -0.16018302738666534,
        -0.13253724575042725,
        -0.0356217585504055,
        -0.1313263326883316,
        0.17775261402130127,
        0.013373320922255516,
        0.05505169555544853,
        -0.14771799743175507,
        0.14150457084178925,
        0.13927102088928223,
        0.039849814027547836,
        -0.08588836342096329,
        0.1545765995979309,
        -0.07429255545139313,
        0.1254020482301712,
        0.07653368264436722,
        -0.2884390950202942,
        -0.1549086570739746,
        -0.11493910849094391,
        -0.13269741833209991,
        -0.01348362397402525,
        0.11241505295038223,
        0.003941153641790152,
        -0.010259604081511497,
        -0.14373847842216492,
        -0.18162713944911957,
        0.17900800704956055,
        0.15093564987182617,
        -0.14987066388130188,
        0.15267343819141388,
        0.09079331904649734,
        -0.029673390090465546,
        -0.0031902773771435022,
        -0.14796385169029236,
        -0.16748933494091034,
        0.08308964967727661,
        0.12945392727851868,
        0.09585600346326828,
        0.06739385426044464,
        0.053995199501514435,
        0.15362827479839325,
        -0.06624060869216919,
        -0.021579891443252563,
        0.027664918452501297,
        0.05792742595076561,
        0.020267799496650696,
        -0.008020219393074512,
        0.0013034235453233123,
        0.05217673256993294,
        0.08430055528879166,
        0.07252153009176254,
        -0.009922388009727001,
        0.04885932430624962,
        -0.14139531552791595,
        0.07963057607412338,
        -0.008881676942110062,
        -0.013271141797304153,
        -0.03431906923651695,
        0.12101797759532928,
        -0.0348631851375103,
        -0.14914827048778534,
        0.11804305762052536,
        -0.06433438509702682,
        -0.08397979289293289,
        -0.12288833409547806,
        0.28018078207969666,
        0.14575614035129547,
        0.05934157595038414,
        0.10417482256889343,
        0.02835080213844776,
        -0.034929338842630386,
        -0.06337185949087143,
        0.1451716274023056,
        -0.16683800518512726,
        0.07697653770446777,
        0.10722731798887253,
        0.1504841446876526,
        0.06302884221076965,
        -0.0558907575905323,
        0.03418979048728943,
        -0.0594574436545372,
        0.09033948183059692,
        0.04713428020477295,
        0.007260673679411411,
        0.118383027613163,
        0.02307269349694252,
        0.03934108093380928,
        0.15447813272476196,
        0.1923997700214386,
        0.04652247205376625,
        -0.08069557696580887,
        -0.18490222096443176,
        -0.07679803669452667,
        -0.0033949832431972027,
        -0.06255632638931274,
        0.16784058511257172,
        -0.040661491453647614,
        -0.004969612695276737,
        -0.05941658467054367,
        -0.03018982708454132,
        -0.13402216136455536,
        0.08735977113246918,
        -0.04491530358791351,
        -0.05207471176981926,
        -0.08889508247375488,
        -0.06642143428325653,
        -0.03727387636899948,
        -0.1034436821937561,
        0.11638227105140686,
        -0.12947842478752136,
        0.04945768415927887,
        -0.08271149545907974,
        0.015028868801891804,
        0.16517210006713867,
        0.05626871809363365,
        -0.14907778799533844,
        0.0005235083517618477,
        -0.05471530929207802,
        0.06750525534152985,
        -0.01686597429215908,
        0.030523631721735,
        -0.11097352206707001,
        -0.14941975474357605,
        -0.200633704662323,
        0.12198392301797867,
        -0.043424468487501144,
        -0.04634600877761841,
        0.08501061052083969,
        -0.13129855692386627,
        -0.002814891282469034,
        -0.0034430355299264193,
        0.10068739205598831,
        0.20830774307250977,
        -0.07939846068620682,
        0.03340056538581848,
        0.16133050620555878,
        0.16436821222305298,
        -0.05105925723910332,
        0.17334213852882385,
        0.17348812520503998,
        -0.1031852662563324,
        -0.13806292414665222,
        -0.14772069454193115,
        0.09054271131753922,
        0.15178342163562775,
        -0.15704236924648285,
        0.08875344693660736,
        -0.11167436093091965,
        0.16942577064037323,
        -0.09889610856771469,
        0.036659639328718185,
        0.07399437576532364,
        0.07336714118719101,
        -0.07644808292388916,
        0.12807859480381012,
        -0.034129951149225235,
        -0.053398411720991135,
        0.14522714912891388,
        0.1384977400302887,
        0.08003205060958862,
        -0.09682714939117432,
        0.12099870294332504,
        0.0627961978316307,
        0.024024320766329765,
        -0.04956597089767456,
        -0.07877839356660843,
        0.004611959680914879,
        0.0017908504232764244,
        0.07732616364955902,
        0.0535762645304203,
        -0.012493954040110111,
        0.06539026647806168,
        -0.13640055060386658,
        -0.0911952555179596,
        -0.07342591136693954,
        -0.12075579911470413,
        0.07939353585243225,
        -0.17772075533866882,
        -0.2655370831489563,
        -0.16712847352027893,
        -0.07050047069787979,
        -0.05518846958875656,
        0.030761659145355225,
        -0.027166415005922318,
        -0.1153128445148468,
        0.07225357741117477,
        0.10669177025556564,
        0.11132431775331497,
        -0.05287596583366394,
        0.0604366809129715,
        -0.2419603168964386,
        0.012398065999150276,
        0.03709238022565842,
        0.022341175004839897,
        -0.17885038256645203,
        0.09331560134887695,
        0.12134433537721634,
        0.06051894277334213,
        0.15425553917884827,
        0.027997426688671112,
        -0.08832210302352905,
        -0.18556980788707733,
        0.11387627571821213,
        -0.061858851462602615,
        0.06019127368927002,
        0.0491691455245018,
        -0.017058543860912323,
        -0.037167418748140335,
        -0.08254023641347885,
        -0.02462390623986721,
        -0.052666038274765015,
        -0.004826451186090708,
        0.19385741651058197,
        -0.08844666928052902,
        0.13972780108451843,
        -0.1346372812986374,
        -0.03669468313455582,
        -0.0021366411820054054,
        0.11300277709960938,
        0.1294001191854477,
        -0.0673295184969902,
        -0.07155078649520874,
        -0.06920143961906433,
        -0.09805510938167572,
        0.07464800029993057,
        0.1346977949142456,
        0.05084088444709778,
        -0.19039368629455566,
        -0.05262373015284538,
        0.010639270767569542,
        0.11572098731994629,
        -0.053781185299158096,
        0.17856578528881073,
        0.08943010121583939,
        0.16140159964561462,
        0.08408046513795853,
        0.2078327089548111,
        0.16932415962219238,
        0.10603128373622894,
        0.0498768575489521,
        0.1588267832994461,
        -0.02662068046629429,
        0.0104732820764184,
        -0.014588982798159122,
        -0.15024405717849731,
        0.06962979584932327,
        -0.12014807015657425,
        0.12495691329240799,
        0.15271341800689697,
        0.07782841473817825,
        -0.014693431556224823,
        0.11312144994735718,
        0.11092111468315125,
        0.10366354137659073,
        0.04158527031540871,
        0.16862298548221588,
        0.08131781965494156,
        0.16067247092723846,
        0.13509798049926758,
        -0.14053554832935333,
        0.022314371541142464,
        0.06272777915000916,
        0.1642446517944336,
        0.1940593719482422,
        -0.19147075712680817,
        -0.149248406291008,
        -0.015335672535002232,
        -0.021439315751194954,
        0.0003735306963790208,
        -0.000894635624717921,
        0.06342460215091705,
        -0.02753300406038761,
        0.12007652968168259,
        0.11822184920310974,
        0.16606341302394867,
        0.15000835061073303,
        -0.1247522160410881,
        0.1215384304523468,
        0.16695988178253174,
        0.05271301418542862,
        0.08340021222829819,
        -0.16226819157600403,
        -0.13753622770309448,
        0.1466076523065567,
        -0.14042651653289795,
        -0.022115783765912056,
        -0.07789435982704163,
        0.04838104546070099,
        -0.09872470796108246,
        0.10308057069778442,
        0.028859185054898262,
        0.05454147234559059,
        -0.09657508879899979,
        -0.07462179660797119,
        0.044317446649074554,
        0.09535878896713257,
        0.15025991201400757,
        0.0634055957198143,
        0.12207535654306412,
        0.1336165815591812,
        0.1255297064781189,
        -0.08415289223194122,
        -0.05485283210873604,
        0.011198518797755241,
        -0.06784377247095108,
        -0.023187223821878433,
        -0.12405751645565033,
        0.0955195277929306,
        0.16202574968338013,
        -0.16727720201015472,
        0.13122417032718658,
        0.08886171132326126,
        -0.03985888138413429,
        -0.024290798231959343,
        -0.05551459640264511,
        0.08086104691028595,
        -0.023358959704637527,
        0.07927310466766357,
        0.07369398325681686,
        -0.015043260529637337,
        -0.03132842481136322,
        -0.031255338340997696,
        0.00545467110350728,
        -0.1554483026266098,
        -0.07286734879016876,
        0.15729130804538727,
        0.05434102565050125,
        -0.16363482177257538,
        -0.07974343746900558,
        -0.09978188574314117,
        0.15431293845176697,
        0.04670378938317299,
        0.015473165549337864,
        0.1040143072605133,
        -0.09035366773605347,
        -0.1378960907459259,
        -0.018166150897741318,
        -0.025911562144756317,
        0.1163562685251236,
        0.03624363988637924,
        0.08397263288497925,
        -0.14253878593444824,
        0.16619804501533508,
        -0.04591074213385582,
        0.060845211148262024,
        0.08565345406532288,
        0.01487091463059187,
        0.20691141486167908,
        -0.1679048091173172,
        -0.11704910546541214,
        0.04612051695585251,
        0.14935751259326935,
        0.13894271850585938,
        -0.03589150309562683,
        0.18206313252449036,
        -0.16616331040859222,
        0.13908767700195312,
        0.11648684740066528,
        -0.03493582457304001,
        -0.05249015986919403,
        -0.10709192603826523,
        -0.2116364687681198,
        -0.11307667940855026,
        0.11516208946704865,
        -0.12325562536716461,
        -0.04491022974252701,
        0.18997463583946228,
        -0.05854921415448189,
        0.2085404098033905,
        -0.15343965590000153,
        0.17645305395126343,
        -0.08664743602275848,
        0.20767147839069366,
        -0.005444307345896959,
        -0.033478591591119766,
        -0.16984498500823975,
        0.016165168955922127,
        -0.15892453491687775,
        0.08996974676847458,
        0.10768909007310867,
        -0.18134711682796478,
        -0.045194800943136215,
        0.12825435400009155,
        0.09042222052812576,
        -0.16164883971214294,
        0.11458668112754822,
        -0.08816499263048172,
        -0.1604003757238388,
        0.052932996302843094,
        0.1950228065252304,
        0.07351356744766235,
        0.04154597967863083,
        -0.08749159425497055,
        -0.09841477125883102,
        -0.04978941008448601,
        -0.04459882527589798,
        0.13621659576892853,
        0.049115270376205444,
        0.06378759443759918,
        -0.02441108226776123,
        -0.055062051862478256,
        0.11033321917057037,
        0.11373601108789444,
        -0.0022504960652440786,
        -0.07148578017950058,
        0.12936215102672577,
        0.035894300788640976,
        0.11582202464342117,
        0.03983362019062042,
        0.02213095873594284,
        -0.019963428378105164,
        -0.0867769792675972,
        0.10916028916835785,
        0.028344715014100075,
        0.007699513342231512,
        0.15802156925201416,
        -0.03051784448325634,
        -0.09175895899534225,
        -0.12115870416164398,
        0.11072640120983124,
        -0.04915269464254379,
        0.011860057711601257,
        -0.07994358241558075,
        -0.047085024416446686,
        -0.17799797654151917,
        -0.14546319842338562,
        -0.12208299338817596,
        -0.05022767558693886,
        0.12961065769195557,
        0.06693563610315323,
        -0.1224549412727356,
        -0.13769270479679108,
        0.15929748117923737,
        0.1462295800447464,
        0.019309990108013153,
        0.031167306005954742,
        0.10821547359228134,
        0.10381562262773514,
        0.14382219314575195,
        0.02858356013894081,
        0.010986167937517166,
        -0.03883057087659836,
        0.04869486391544342,
        -0.013143453747034073,
        -0.12502706050872803,
        0.12661224603652954,
        -0.18526402115821838,
        0.1310301274061203,
        0.048085767775774,
        0.0731913223862648,
        -0.12717117369174957,
        0.1544228494167328,
        -0.13402611017227173,
        0.08548498153686523,
        0.0837523490190506,
        0.04608969762921333,
        -0.02895132638514042,
        -0.12401816993951797,
        0.19380970299243927,
        0.20912130177021027,
        -0.18156011402606964,
        -0.008110606111586094,
        -0.009195280261337757,
        0.15758836269378662,
        0.07646328955888748,
        0.16968992352485657,
        0.0007489334093406796,
        -0.15015780925750732,
        -0.16905330121517181,
        0.17503267526626587,
        -0.06786621361970901,
        0.2283737063407898,
        0.24537761509418488,
        0.11108643561601639,
        0.026278246194124222,
        0.02873397432267666,
        0.15247583389282227,
        -0.1319602131843567,
        -0.08507657051086426,
        0.10099902749061584,
        -0.090541310608387,
        -0.08276025205850601,
        -0.019430851563811302,
        -0.08273497968912125,
        -0.1707628220319748,
        0.011081165634095669,
        -0.13075444102287292,
        -0.11626967042684555,
        0.14136788249015808,
        0.1361902803182602,
        -0.13121549785137177,
        0.06378763914108276,
        0.10739237070083618,
        -0.09363901615142822,
        -0.1654273271560669,
        -0.15240736305713654,
        -0.0019546973053365946,
        0.04943741858005524,
        0.287003755569458,
        0.005025043617933989,
        -0.11626885831356049,
        0.14376014471054077,
        0.1372179538011551,
        0.07418126612901688,
        0.16483327746391296,
        -0.03825842961668968,
        0.1427992880344391,
        -0.13160578906536102,
        0.04657634720206261,
        0.14611057937145233,
        0.1396511346101761,
        0.053229331970214844,
        0.1476684808731079,
        0.08424346894025803,
        -0.07782488316297531,
        -0.09469175338745117,
        -0.03708255663514137,
        0.07120879739522934,
        0.0331391841173172,
        0.1656496524810791,
        -0.08207746595144272,
        -0.18449054658412933,
        0.1914316862821579,
        0.0009086990030482411,
        0.1496269553899765,
        0.09734077751636505,
        0.0740390494465828,
        -0.0367773212492466,
        0.1097736582159996,
        0.05962001532316208,
        -0.154911607503891,
        -0.11136095225811005,
        -0.022117625921964645,
        0.1227070763707161,
        0.13453152775764465,
        -0.09638220816850662,
        -0.00785699300467968,
        -0.1271871030330658,
        0.06544828414916992,
        0.07837091386318207,
        0.08304490894079208,
        0.1688677966594696,
        -0.1212240532040596,
        -0.15691502392292023,
        0.18665747344493866,
        0.052111364901065826,
        -0.017872951924800873,
        -0.0936654657125473,
        -0.05600367486476898,
        0.020428165793418884,
        -0.006770016625523567,
        0.026529410853981972,
        0.16064488887786865,
        0.09978076070547104,
        -0.02682347223162651,
        -0.09336953610181808,
        -0.057326726615428925,
        0.1258506029844284,
        0.16355137526988983,
        0.16573092341423035,
        0.13766588270664215,
        -0.08036012202501297,
        -0.09668459743261337,
        -0.0841764435172081,
        0.11580146104097366,
        -0.16748036444187164,
        -0.02762550860643387,
        -0.017327576875686646,
        0.04730408638715744,
        0.06484872102737427,
        -0.1191580519080162,
        0.12153816968202591,
        0.03824757784605026,
        0.03453810513019562,
        0.02036883495748043,
        0.07112044095993042,
        0.031056581065058708,
        0.17967623472213745,
        -0.12816007435321808,
        -0.12425584346055984,
        -0.091975636780262,
        0.2034035176038742,
        -0.025837430730462074,
        0.20925480127334595,
        -0.012644599191844463,
        -0.08763549476861954,
        0.047828737646341324,
        0.028688017278909683,
        0.17907379567623138,
        0.14681655168533325,
        0.0683806911110878,
        0.06860183924436569,
        0.06364434212446213,
        -0.06668274104595184,
        -0.11399977654218674,
        0.07690472900867462,
        0.06572793424129486,
        -0.05210910737514496,
        0.09019337594509125,
        -0.05100349709391594,
        0.09340519458055496,
        0.1749401092529297,
        0.07949481159448624,
        0.05333593487739563,
        -0.04212835058569908,
        -0.0020682525355368853,
        0.08963572978973389,
        0.09288796782493591,
        0.08176065981388092,
        0.10380526632070541,
        -0.13061927258968353,
        0.1019376665353775,
        0.0980411246418953,
        0.1226322129368782,
        0.10010227560997009,
        -0.16733364760875702,
        -0.14083175361156464,
        0.032266583293676376,
        -0.053410861641168594,
        -0.0857401192188263,
        0.009694676846265793,
        -0.09431957453489304,
        -0.17154136300086975,
        -0.0682092159986496,
        0.1426021307706833,
        0.09429436177015305,
        -0.14727678894996643,
        0.13000184297561646,
        0.10422225296497345,
        0.017614370211958885,
        0.07372210919857025,
        -0.09878430515527725,
        -0.13396917283535004,
        -0.13235227763652802,
        -0.1313435584306717,
        0.1431492269039154,
        0.04990759491920471,
        -0.08416285365819931,
        -0.1281316578388214,
        0.051359739154577255,
        0.0855875089764595,
        -0.16453899443149567,
        0.1546253263950348,
        -0.1555984914302826,
        -0.11752194911241531,
        -0.21410216391086578,
        -0.15886129438877106,
        -0.10478825122117996,
        0.013332178816199303,
        0.00563416350632906,
        0.04078543558716774,
        0.012416752055287361,
        -0.09669877588748932,
        -0.1576487421989441,
        0.007101257331669331,
        0.14446258544921875,
        0.007878882810473442,
        -0.01775660365819931,
        0.09796152263879776,
        0.17329032719135284,
        -0.04840603843331337,
        0.10680615156888962,
        -0.07716728001832962,
        0.14808742702007294,
        -0.15049614012241364,
        0.14262160658836365,
        0.14661338925361633,
        -0.08532874286174774,
        0.2500259578227997,
        0.06189786642789841,
        0.10812374204397202,
        0.1682182103395462,
        0.03290783613920212,
        0.041194722056388855,
        0.14746588468551636,
        0.12035262584686279,
        -0.11360645294189453,
        -0.0732676163315773,
        -0.14212580025196075,
        0.07321461290121078,
        0.04160862788558006,
        0.1859711855649948,
        -0.015370265580713749,
        -0.039373476058244705,
        0.06598412245512009,
        -0.1595417857170105,
        -0.07288441061973572,
        0.0599852092564106,
        -0.14471478760242462,
        -0.09836083650588989,
        -0.13025957345962524,
        -0.09265416115522385,
        0.00036091561196371913,
        0.1080653965473175,
        -0.2018536627292633,
        -0.002253686310723424,
        0.12813223898410797,
        0.06858275830745697,
        0.04277234524488449,
        0.152777761220932,
        -0.09135270118713379,
        -0.1513518989086151,
        -0.06512491405010223,
        -0.15164615213871002,
        -0.13874366879463196,
        0.18874669075012207,
        -0.09151021391153336,
        0.11513446271419525,
        0.05282873287796974,
        -0.17759054899215698,
        -0.023118963465094566,
        -0.13891515135765076,
        0.1732136607170105,
        -0.16932518780231476,
        -0.15810221433639526,
        0.025804171338677406,
        -0.11589276045560837,
        0.023325249552726746,
        0.06794698536396027,
        0.13958318531513214,
        -0.09623546153306961,
        0.19669923186302185,
        0.15378437936306,
        0.09319330006837845,
        0.13436509668827057,
        -0.019694766029715538,
        -0.1506049484014511,
        0.13273175060749054,
        0.03731523081660271,
        0.031384021043777466,
        -0.0014839760260656476,
        0.13128995895385742,
        0.031309451907873154,
        0.013528753072023392,
        -0.11897909641265869,
        0.0016868285601958632,
        -0.14530161023139954,
        -0.13277806341648102,
        -0.16020208597183228,
        0.07045555114746094,
        0.021205909550189972,
        0.1112588495016098,
        0.16015920042991638,
        0.14385132491588593,
        0.15124236047267914,
        0.07684715837240219,
        0.15682052075862885,
        -0.005658597685396671,
        -0.0978306457400322,
        -0.0001874179724836722,
        0.007885501720011234,
        -0.39766713976860046,
        0.10020488500595093,
        -0.03390282019972801,
        0.05463610962033272,
        0.08257679641246796,
        0.12188593298196793,
        0.15573406219482422,
        -0.15457099676132202,
        -0.07497213780879974,
        0.12546728551387787,
        -0.1312328726053238,
        -0.050905972719192505,
        0.19770683348178864,
        -0.06733827292919159,
        0.10160370171070099,
        0.03311370313167572,
        0.08855925500392914,
        -0.07006800919771194,
        0.11851365119218826,
        0.09114116430282593,
        0.06574688106775284,
        0.06030454486608505,
        0.060888178646564484,
        0.18633992969989777,
        -0.15316900610923767,
        0.016949275508522987,
        -0.07282513380050659,
        0.19262675940990448,
        -0.060833655297756195,
        0.0310402549803257,
        0.07667975127696991,
        -0.17830343544483185,
        -0.03522442281246185,
        0.22321586310863495,
        0.0070307436399161816,
        0.13052649796009064,
        0.15043549239635468,
        0.1295507848262787,
        0.11157237738370895,
        -0.14480777084827423,
        0.04572383314371109,
        0.15140260756015778,
        0.03117883764207363,
        0.13649320602416992,
        -0.051424991339445114,
        -0.008060608990490437,
        0.12393650412559509,
        -0.0895170122385025,
        0.03484748676419258,
        0.23159851133823395,
        0.047133952379226685,
        0.12667812407016754,
        -0.07923310250043869,
        -0.08547183126211166,
        -0.1147649958729744,
        -0.1410866230726242,
        0.16783684492111206,
        -0.06139910966157913,
        -0.05472691357135773,
        0.14838562905788422,
        -0.07466719299554825,
        0.003240782069042325,
        0.09885729849338531,
        0.1212908923625946,
        -0.17687822878360748,
        0.05777264013886452,
        0.09573774039745331,
        0.0031978264451026917,
        -0.08895126730203629,
        0.001227638334967196,
        -0.14492075145244598,
        0.10509001463651657,
        -0.12158265709877014,
        0.19487930834293365,
        -0.006895533762872219,
        -0.1480685919523239,
        -0.09510296583175659,
        0.03599002957344055,
        -0.03172583132982254,
        -0.154063880443573,
        0.10931257158517838,
        -0.1344301849603653,
        0.16018925607204437,
        0.06374809145927429,
        -0.101114921271801,
        0.058197684586048126,
        -0.009737720713019371,
        -0.12487024813890457,
        0.1783512979745865,
        0.019819792360067368,
        -0.17451544106006622,
        0.055735308676958084,
        0.1382678598165512,
        0.12752850353717804,
        0.16037464141845703,
        -0.037898194044828415,
        -0.008411227725446224,
        0.03357110172510147,
        0.0322464182972908,
        -0.10688113421201706,
        -0.1000559851527214,
        -0.1762671023607254,
        0.0890122577548027,
        0.012989028356969357,
        -0.16896803677082062,
        0.09388978034257889,
        -0.05416359007358551,
        0.11175020039081573,
        -0.1251070201396942,
        0.1935121715068817,
        -0.09184580296278,
        0.14486545324325562,
        0.16510498523712158,
        -0.03313381224870682,
        -0.10985016077756882,
        -0.06506780534982681,
        0.10584929585456848,
        0.14003130793571472,
        0.14428550004959106,
        0.16729214787483215,
        -0.16836437582969666,
        -0.03650590404868126,
        0.004635142628103495,
        -0.1324491798877716,
        -0.06474202871322632,
        -0.11101341247558594,
        0.07440456748008728,
        -0.14613455533981323,
        -0.11842507123947144,
        0.06598704308271408,
        0.06751594692468643,
        0.0023520130198448896,
        0.0021561048924922943,
        0.17362080514431,
        -0.058396194130182266,
        -0.1551988273859024,
        -0.0930846557021141,
        0.031074685975909233,
        -0.0672246441245079,
        0.08613994717597961,
        -0.07813470810651779,
        -0.09085236489772797,
        0.08386663347482681,
        -0.006491333246231079,
        -0.08005999773740768,
        0.11517579853534698,
        0.025305291637778282,
        -0.021326374262571335,
        0.12333332747220993,
        -0.23560097813606262,
        0.028969833627343178,
        -0.16298845410346985,
        0.23316119611263275,
        0.13757547736167908,
        -0.20506170392036438,
        -0.013259557075798512,
        0.09475497901439667,
        -0.05099569261074066,
        -0.1534249484539032,
        -0.16228997707366943,
        0.16525545716285706,
        0.01867578737437725,
        0.028224121779203415,
        -0.006860663183033466,
        0.02822435460984707,
        0.02042088843882084,
        0.060171086341142654,
        0.10250471532344818,
        -0.012252365238964558,
        0.13571754097938538,
        -0.1326831579208374,
        0.1414671540260315,
        0.08377271890640259,
        -0.08712276071310043,
        -0.05077165737748146,
        -0.024704890325665474,
        -0.06547417491674423,
        -0.044041819870471954,
        0.10464800149202347,
        -0.06481921672821045,
        -0.030701644718647003,
        0.10882440954446793,
        0.07815711945295334,
        -0.14506974816322327,
        0.0009133354178629816,
        -0.06305596977472305,
        0.07045761495828629,
        0.13813450932502747,
        0.13970138132572174,
        0.139297217130661,
        0.15396547317504883,
        0.18125379085540771,
        -0.1536598801612854,
        -0.06765725463628769,
        -0.0012022936716675758,
        -0.1989077925682068,
        0.3149477541446686,
        0.09046117961406708,
        -0.19633528590202332,
        0.04356857016682625,
        -0.0371013879776001,
        0.15409287810325623,
        -0.032191138714551926,
        0.1311781406402588,
        0.05600770562887192,
        -0.017025066539645195,
        0.0804794654250145,
        -0.12702496349811554,
        -0.14829328656196594,
        0.10465577244758606,
        -0.055206120014190674,
        0.047949738800525665,
        0.06036607176065445,
        0.08122614026069641,
        0.0817074328660965,
        0.019475582987070084,
        0.012962096370756626,
        0.1460910439491272,
        0.09174982458353043,
        -0.10167811810970306,
        0.03355108201503754,
        -0.04976702108979225,
        -0.1884787231683731,
        -0.051928043365478516,
        0.09727779775857925,
        -0.05710134655237198,
        -0.052717387676239014,
        0.06283095479011536,
        -0.09920419752597809,
        -0.07993356138467789,
        0.005242824088782072,
        -0.06530947238206863,
        0.18840470910072327,
        0.1322142630815506,
        -0.01981576718389988,
        0.11284344643354416,
        0.10646094381809235,
        -0.2446504533290863,
        -0.13899564743041992,
        0.02887948974967003,
        0.12983828783035278,
        0.0313151553273201,
        -0.05205946043133736,
        0.014347619377076626,
        0.07199282199144363,
        0.13307075202465057,
        -0.14870208501815796,
        -0.22085554897785187,
        -0.16888681054115295,
        0.13526330888271332,
        -0.10525823384523392,
        -0.06103529781103134,
        -0.1260095238685608,
        0.05550643429160118,
        -0.05400002375245094,
        -0.009461164474487305,
        0.16425496339797974,
        -0.11518828570842743,
        -0.18455705046653748,
        0.01790149137377739,
        -0.12668801844120026,
        0.03237332031130791,
        0.06972406804561615,
        0.15566584467887878,
        0.05588328838348389,
        0.04469408467411995,
        0.06832127273082733,
        -0.023154208436608315,
        0.16377480328083038,
        0.06993769109249115,
        -0.19023853540420532,
        -0.11308132857084274,
        0.16894669830799103,
        -0.0318744033575058,
        0.14153718948364258,
        -0.09139636904001236,
        -0.07997097820043564,
        -0.008032741025090218,
        0.15776176750659943,
        -0.0032643356826156378,
        0.14140217006206512,
        -0.05229311063885689,
        -0.18486331403255463,
        -0.22465883195400238,
        -0.009765869937837124,
        0.011755361221730709,
        -0.14982953667640686,
        -0.07470159232616425,
        -0.14799487590789795,
        0.13483522832393646,
        0.11248727887868881,
        -0.02286742813885212,
        0.08873401582241058,
        -0.1446065455675125,
        0.2526833415031433,
        0.03275853022933006,
        -0.0836501270532608,
        0.1448788195848465,
        -0.04566870257258415,
        -0.06821220368146896,
        0.07571485638618469,
        -0.10349413752555847,
        0.18339721858501434,
        0.02937185950577259,
        0.043602485209703445,
        -0.05584760755300522,
        0.0634617954492569,
        0.08010109513998032,
        0.06571825593709946,
        -0.0004904363886453211,
        0.11902166903018951,
        0.10868094861507416,
        0.16688039898872375,
        -0.05757450684905052,
        -0.1345314234495163,
        0.10554277151823044,
        -0.04705197736620903,
        0.15014146268367767,
        0.1723957508802414,
        0.07417838275432587,
        -0.002701732562854886,
        0.10522062331438065,
        0.1420760601758957,
        -0.14152514934539795,
        0.07232153415679932,
        0.004598627798259258,
        -0.08585528284311295,
        -0.14398515224456787,
        -0.12471161037683487,
        0.013573630712926388,
        -0.1394420564174652,
        0.12793053686618805,
        0.13146114349365234,
        -0.11082050204277039,
        -0.07488104701042175,
        -0.1530970335006714,
        -0.17798827588558197,
        -0.010833488777279854,
        0.1526966691017151,
        0.07070967555046082,
        0.12397218495607376,
        0.02805495820939541,
        -0.09436287730932236,
        -0.1788608580827713,
        0.056200072169303894,
        -0.18678303062915802,
        0.15385614335536957,
        0.16723215579986572,
        0.11435854434967041,
        -0.051523640751838684,
        0.030782220885157585,
        0.1808980107307434,
        -0.05882367491722107,
        -0.08870469778776169,
        0.0478171780705452,
        0.1001303642988205,
        0.13403990864753723,
        0.15296827256679535,
        0.1322098970413208,
        0.0006295192870311439,
        0.03715818375349045,
        -0.10584895312786102,
        -0.12857070565223694,
        0.013493032194674015,
        0.10966616868972778,
        0.004143264144659042,
        -0.022124798968434334,
        -0.11483347415924072,
        0.16053730249404907,
        0.1547481268644333,
        0.23259593546390533,
        0.09001016616821289,
        -0.0008175949915312231,
        0.07211393862962723,
        0.0025557195767760277,
        0.07018952071666718,
        0.13511572778224945,
        -0.05040837824344635,
        -0.03684234246611595,
        -0.09315556287765503,
        -0.04947572201490402,
        -0.07617480307817459,
        0.011199145577847958,
        0.03678002208471298,
        -0.2136114239692688,
        -0.08465605974197388,
        0.1943860501050949,
        0.07933606952428818,
        0.1652931421995163,
        -0.13115134835243225,
        0.03344518691301346,
        -0.012367729097604752,
        0.06697814911603928,
        -0.0617789700627327,
        -0.08815957605838776,
        -0.06638286262750626,
        0.1667197346687317,
        0.06150488555431366,
        0.14179295301437378,
        -0.034932419657707214,
        0.04556455463171005,
        -0.11804869025945663,
        0.045116838067770004,
        -0.06457236409187317,
        -0.03630290925502777,
        0.05232260748744011,
        -0.16307489573955536,
        -0.15058533847332,
        0.004798296373337507,
        -0.17939423024654388,
        0.17868268489837646,
        0.08258373290300369,
        -0.04646392911672592,
        0.14578281342983246,
        0.062297385185956955,
        0.08523388206958771,
        0.09055939316749573,
        -0.11325977742671967,
        -0.1066417396068573,
        0.03448034077882767,
        -0.07419390231370926,
        0.08227590471506119,
        -0.07671993970870972,
        -0.05399244651198387,
        -0.14251826703548431,
        0.13392694294452667,
        0.010571531020104885,
        0.08239827305078506,
        -0.023079976439476013,
        0.08746819943189621,
        -0.18078379333019257,
        0.044765010476112366,
        0.011411771178245544,
        -0.11511847376823425,
        -0.127326101064682,
        0.09237987548112869,
        0.1200719028711319,
        0.17402225732803345,
        -0.019234884530305862,
        -0.08088577538728714,
        -0.07668203860521317,
        0.17029035091400146,
        0.09564337134361267,
        0.03882494196295738,
        -0.02364024706184864,
        0.11459513753652573,
        -0.12361639738082886,
        0.016858354210853577,
        0.03582903370261192,
        -0.11320699751377106,
        0.13235141336917877,
        0.04559772461652756,
        -0.0743248388171196,
        0.16253562271595,
        -0.11768389493227005,
        0.06329987943172455,
        -0.05260590463876724,
        -0.06481693685054779,
        0.09658358991146088,
        -0.0217511635273695,
        -0.12088634073734283,
        0.1728781908750534,
        0.003769911825656891,
        -0.13159297406673431,
        -0.04218655079603195,
        0.0803060457110405,
        -0.06824970990419388,
        0.18496374785900116,
        -0.04169911891222,
        0.1560499519109726,
        -0.04458995163440704,
        0.025715002790093422,
        -0.15571343898773193,
        -0.06372895836830139,
        0.12971267104148865,
        0.16737452149391174,
        -0.07219918817281723,
        0.10573043674230576,
        0.08733786642551422,
        0.014943980611860752,
        0.1275450885295868,
        0.13659031689167023,
        0.005908879917114973,
        -0.13352029025554657,
        0.15106774866580963,
        0.011368443258106709,
        0.1276124119758606,
        -0.05378890037536621,
        -0.04440803825855255,
        -0.028775976970791817,
        0.14593854546546936,
        -0.09725412726402283,
        -0.041536569595336914,
        -0.15815071761608124,
        0.03164270520210266,
        0.11502966284751892,
        -0.0910566970705986,
        -0.0986834168434143,
        0.14851494133472443,
        -0.1016947478055954,
        -0.03473452106118202,
        -0.015266207046806812,
        0.0024587709922343493,
        -0.08657044172286987,
        -0.11587989330291748,
        0.08535013347864151,
        -0.1403217315673828,
        0.08902901411056519,
        0.0520341582596302,
        -0.11892008036375046,
        0.02018739841878414,
        -0.03090858832001686,
        0.020800122991204262,
        0.060357723385095596,
        -0.10169845819473267,
        -0.13177625834941864,
        0.18861143290996552,
        0.14619080722332,
        0.08199270069599152,
        0.07722295820713043,
        0.011551545932888985,
        -0.1269284188747406,
        -0.09229269623756409,
        0.09583897143602371,
        -0.11527891457080841,
        -0.10921462625265121,
        0.1282971352338791,
        0.03382214158773422,
        -0.009848237037658691,
        0.029901260510087013,
        0.032452017068862915,
        0.05998104810714722,
        0.0025457122828811407,
        0.1340523660182953,
        -0.007590677123516798,
        -0.036301035434007645,
        -0.13464564085006714,
        0.06482741981744766,
        -0.16364048421382904,
        0.15487530827522278,
        0.08125802874565125,
        -0.004605259280651808,
        -0.12837016582489014,
        0.16019318997859955,
        -0.16663004457950592,
        0.1093403548002243,
        -0.06478944420814514,
        -0.04871070757508278,
        0.20226459205150604,
        0.12057889997959137,
        -0.036563411355018616,
        0.058844439685344696,
        0.043541036546230316,
        -0.08962827175855637,
        -0.07992300391197205,
        0.10125899314880371,
        0.08147957921028137,
        0.13484762609004974,
        0.15740790963172913,
        -0.045449625700712204,
        0.08639086782932281,
        0.08466903120279312,
        -0.0407802052795887,
        0.1318979263305664,
        -0.0023067258298397064,
        0.11384277045726776,
        -0.18425816297531128,
        -0.09550507366657257,
        -0.12113671004772186,
        0.11676975339651108,
        0.15855756402015686,
        0.037566881626844406,
        0.10165828466415405,
        -0.17745697498321533,
        -0.003721705637872219,
        0.16698499023914337,
        0.07998385280370712,
        -0.09806326776742935,
        0.13725051283836365,
        -0.10189726203680038,
        -0.09053122997283936,
        -0.11445219814777374,
        0.024257726967334747,
        -0.15945236384868622,
        0.02850472740828991,
        0.04760746657848358,
        0.11403282731771469,
        -0.11453600227832794,
        0.3701264262199402,
        0.03597092255949974,
        0.16529254615306854,
        -0.07726360112428665,
        -0.040852125734090805,
        -0.1703011840581894,
        0.14567333459854126,
        0.10313989222049713,
        0.013241312466561794,
        0.08800762891769409,
        0.12546859681606293,
        0.15104708075523376,
        -0.018727319315075874,
        -0.10575635731220245,
        -0.052506498992443085,
        0.03481648117303848,
        -0.027768868952989578,
        -0.1514887511730194,
        0.07073720544576645,
        -0.09894096851348877,
        0.1732773333787918,
        -0.01994190737605095,
        0.01879757270216942,
        -0.1390797197818756,
        0.07837948203086853,
        -0.036318596452474594,
        0.13874836266040802,
        0.14263734221458435,
        0.0299343504011631,
        0.08601899445056915,
        -0.08168184757232666,
        0.13052915036678314,
        0.03897181153297424,
        0.13210804760456085,
        0.12541472911834717,
        -0.044017866253852844,
        0.10850971937179565,
        0.18873588740825653,
        -0.025676341727375984,
        0.17666682600975037,
        0.03222410008311272,
        0.20613816380500793,
        -0.06084401533007622,
        -0.1657717227935791,
        0.1544858068227768,
        0.04275968298316002,
        0.0601034089922905,
        0.0761738047003746,
        0.08723386377096176,
        -0.36699846386909485,
        -0.009205221198499203,
        0.09893843531608582,
        0.06091000512242317,
        0.04586534574627876,
        -0.009600930847227573,
        -0.11512979120016098,
        -0.13030660152435303,
        0.1767609417438507,
        -0.02049226313829422,
        0.18654203414916992,
        -0.11965064704418182,
        -0.13608217239379883,
        0.17478230595588684,
        0.17876873910427094,
        0.15420860052108765,
        -0.05694093927741051,
        -0.12014113366603851,
        0.1290625035762787,
        0.12487823516130447,
        -0.1455138623714447,
        -0.05795670300722122,
        0.07295318692922592,
        0.17168958485126495,
        -0.18530331552028656,
        0.014040837064385414,
        -0.05573403835296631,
        0.013446025550365448,
        0.14527271687984467,
        0.08106778562068939,
        0.0719221904873848,
        0.21888679265975952,
        -0.06175548955798149,
        -0.15283124148845673,
        0.0984644666314125,
        0.1670621633529663,
        -0.07165800780057907,
        -0.1070285364985466,
        0.06526394188404083,
        -0.12939973175525665,
        0.09071335196495056,
        0.2475358545780182,
        -0.06244795396924019,
        -0.059365157037973404,
        0.17047005891799927,
        -0.11897197365760803,
        -0.012266135774552822,
        -0.10284744948148727,
        0.04095132648944855,
        -0.16232344508171082,
        0.15306463837623596,
        -0.0542616993188858,
        -0.03974597156047821,
        -0.08532478660345078,
        -0.030462535098195076,
        -0.012594585306942463,
        -0.180512934923172,
        0.072838693857193,
        -0.07416039705276489,
        -0.039473339915275574,
        0.04708331078290939,
        -0.17107143998146057,
        -0.05713256075978279,
        0.026492374017834663,
        0.11691915988922119,
        -0.08038835227489471,
        -0.16890382766723633,
        -0.05629992485046387,
        0.0690041184425354,
        0.025137068703770638,
        0.0057356590405106544,
        -0.1653522551059723,
        -0.05541079118847847,
        0.09780573099851608,
        -0.03290574625134468,
        -0.1156676709651947,
        0.02831905521452427,
        0.11266566067934036,
        -0.13723555207252502,
        -0.08031585067510605,
        0.12726810574531555,
        0.052352603524923325,
        -0.034777890890836716,
        -0.14634041488170624,
        0.038605932146310806,
        -0.02345060557126999,
        0.08415564149618149,
        0.12531615793704987,
        0.1361810714006424,
        0.10830489546060562,
        0.09337813407182693,
        -0.1397075057029724,
        -0.05396586284041405,
        0.0599747896194458,
        0.10324534773826599,
        -0.12284919619560242,
        0.17790058255195618,
        0.21210919320583344,
        0.09208610653877258,
        -0.13800619542598724,
        -0.18247166275978088,
        -0.08464566618204117,
        -0.03792957589030266,
        -0.13718201220035553,
        0.0828128382563591,
        0.05834237113595009,
        0.06965429335832596,
        -0.16207261383533478,
        -0.13777649402618408,
        0.059475820511579514,
        0.029841160401701927,
        -0.0006076579447835684,
        -0.03192310780286789,
        0.11649677157402039,
        -0.10294757038354874,
        0.13636140525341034,
        0.015166808851063251,
        0.16559816896915436,
        -0.08264918625354767,
        -0.06422673165798187,
        0.14686016738414764,
        0.0933675467967987,
        -0.14340883493423462,
        -0.005183364264667034,
        -0.017787974327802658,
        0.032419197261333466,
        0.01908738911151886,
        -0.062162116169929504,
        -0.1258438676595688,
        0.07680384814739227,
        0.13637693226337433,
        -0.06501089781522751,
        0.16533049941062927,
        0.10152101516723633,
        -0.06550619006156921,
        -0.04859566316008568,
        -0.02257819101214409,
        0.14576822519302368,
        -0.12927855551242828,
        -0.23684030771255493,
        0.07910992950201035,
        0.09017832577228546,
        0.06866659224033356,
        0.1813584864139557,
        0.00807629618793726,
        0.02503175660967827,
        -0.17704017460346222,
        0.4698443114757538,
        -0.1377764642238617,
        0.029113925993442535,
        0.07661788165569305,
        -0.1254773586988449,
        -0.047953952103853226,
        0.041272569447755814,
        0.17934884130954742,
        0.17841768264770508,
        0.07360312342643738,
        -0.2371186912059784,
        0.08178847283124924,
        -0.023308873176574707,
        0.04578356444835663,
        -0.08879102766513824,
        -0.1397750824689865,
        0.09847912192344666,
        0.12559261918067932,
        0.03407389298081398,
        0.06786825507879257,
        -0.08173420280218124,
        0.12529391050338745,
        0.13782237470149994,
        0.14152206480503082,
        0.08516424894332886,
        0.038870666176080704,
        0.03324892744421959,
        0.006793361622840166,
        -0.025367608293890953,
        0.012925148010253906,
        -0.1746736764907837,
        0.1975935399532318,
        0.09796327352523804,
        0.08605765551328659,
        0.139763742685318,
        -0.008083580993115902,
        -0.03409428521990776,
        0.15254728496074677,
        -0.021553965285420418,
        0.05955018475651741,
        -0.16106966137886047,
        0.17438428103923798,
        -0.14416338503360748,
        0.044424571096897125,
        0.1770213544368744,
        -0.022478939965367317,
        0.02103523164987564,
        -0.08636046946048737,
        -0.12698085606098175,
        -0.2429206520318985,
        -0.05782580375671387,
        -0.14361922442913055,
        -0.13245992362499237,
        0.16027168929576874,
        -0.05682108551263809,
        0.10403601080179214,
        -0.10154391825199127,
        -0.10789506137371063,
        -0.11412613838911057,
        0.1508767306804657,
        0.17810983955860138,
        -0.15645456314086914,
        0.09659476578235626,
        0.16632811725139618,
        -0.049124158918857574,
        -0.2421838492155075,
        0.025761162862181664,
        0.16504763066768646,
        -0.08430521190166473,
        0.05074382945895195,
        0.09972880035638809,
        -0.11325658112764359,
        0.023689277470111847,
        0.028888845816254616,
        0.08804256469011307,
        0.0654694065451622,
        0.15007592737674713,
        0.011146730743348598,
        0.14853984117507935,
        -0.14261893928050995,
        -0.008066064678132534,
        -0.15029041469097137,
        0.039028242230415344,
        0.03483409062027931,
        0.10995994508266449,
        0.16115237772464752,
        -0.06267814338207245,
        -0.09737025946378708,
        0.16890212893486023,
        0.1514464020729065,
        -0.22882293164730072,
        -0.026862557977437973,
        0.07696601748466492,
        0.17509008944034576,
        0.108073391020298,
        -0.063725546002388,
        -0.006464438512921333,
        0.008304940536618233,
        -0.042299460619688034,
        0.03324900195002556,
        -0.06438235193490982,
        0.03741832450032234,
        0.0936761274933815,
        -0.08298507332801819,
        -0.0014986719470471144,
        0.014856347814202309,
        -0.034917283803224564,
        0.01541372574865818,
        0.08747640252113342,
        0.00359737453982234,
        0.2188001126050949,
        -0.06298141181468964,
        0.20217181742191315,
        0.2094026803970337,
        -0.0619983896613121,
        -0.13946689665317535,
        -0.13051114976406097,
        -0.07597450166940689,
        -0.14126411080360413,
        0.055387455970048904,
        -0.03153872489929199,
        -0.17343394458293915,
        0.01755434274673462,
        0.12799136340618134,
        -0.1319529265165329,
        0.154847651720047,
        -0.08667495101690292,
        -0.00922517292201519,
        0.0779137834906578,
        -0.15060369670391083,
        -0.038749199360609055,
        0.08038352429866791,
        0.12222282588481903,
        -0.036952465772628784,
        0.12893268465995789,
        -0.08640173822641373,
        -0.051683589816093445,
        -0.012895176187157631,
        0.1105920746922493,
        0.115990050137043,
        0.11928006261587143,
        0.005415585823357105,
        0.02860911376774311,
        -0.07754279673099518,
        0.09654940664768219,
        -0.08641601353883743,
        0.0013708305777981877,
        -0.037973035126924515,
        0.021761633455753326,
        -0.0686969980597496,
        0.0888180285692215,
        0.15083158016204834,
        -0.1556081622838974,
        0.019165631383657455,
        -0.10736948251724243,
        0.046721577644348145,
        0.13655522465705872,
        0.22003087401390076,
        -0.16982436180114746,
        -0.0056952605955302715,
        -0.12784340977668762,
        0.09813545644283295,
        0.20216141641139984,
        -0.15238967537879944,
        -0.08898171037435532,
        -0.09040016680955887,
        0.19206373393535614,
        -0.151201069355011,
        0.17957629263401031,
        0.0825224444270134,
        0.07442392408847809,
        0.16809503734111786,
        0.08114708960056305,
        0.13230186700820923,
        0.07611160725355148,
        -0.11898918449878693,
        -0.09459147602319717,
        0.04470502585172653,
        -0.04421531781554222,
        0.11944175511598587,
        -0.07936462014913559,
        0.04663700982928276,
        0.0938403531908989,
        -0.14611901342868805,
        0.16663923859596252,
        -0.20387697219848633,
        0.05747697502374649,
        -0.1280558854341507,
        0.05337412282824516,
        -0.11711110919713974,
        -0.14723584055900574,
        -0.16196082532405853,
        0.00877633411437273,
        0.06011724844574928,
        -0.0023323511704802513,
        0.12707602977752686,
        0.18058937788009644,
        0.1107337474822998,
        -0.14639119803905487,
        -0.04249020665884018,
        0.0581655390560627,
        -0.11152242869138718,
        -0.007785886060446501,
        0.026438867673277855,
        -0.007279941346496344,
        -0.15382111072540283,
        -0.13645236194133759,
        -0.038939110934734344,
        0.1796654313802719,
        0.021337881684303284,
        -0.1586139053106308,
        -0.044202495366334915,
        0.026753809303045273,
        -0.10864034295082092,
        -0.1382257640361786,
        -0.17249391973018646,
        0.10965423285961151,
        -0.15171097218990326,
        -0.039571743458509445,
        0.16572414338588715,
        0.06801840662956238,
        -0.034010980278253555,
        -0.016824040561914444,
        0.019604302942752838,
        -0.0019329931819811463,
        0.11598324030637741,
        -0.02149619534611702,
        0.035839252173900604,
        0.09705057740211487,
        -0.11844480037689209,
        0.13588763773441315,
        -0.01291526947170496,
        -0.08561360836029053,
        -0.16925476491451263,
