{
  "defaults": {},
  "inputs": [
    {
      "name": "DNNinput_wtag__channel",
      "offset": 3.0,
      "scale": 0.16666666666666666
    },
    {
      "name": "DNNinput_wtag__year",
      "offset": 3.0,
      "scale": 0.16666666666666666
    },
    {
      "name": "DNNinput_wtag__met_pt",
      "offset": -0.0,
      "scale": 0.0005
    },
    {
      "name": "DNNinput_wtag__met_phi",
      "offset": 4.0,
      "scale": 0.125
    },
    {
      "name": "DNNinput_wtag__lepton_pt",
      "offset": -0.0,
      "scale": 0.0005
    },
    {
      "name": "DNNinput_wtag__lepton_eta",
      "offset": 5.0,
      "scale": 0.1
    },
    {
      "name": "DNNinput_wtag__lepton_phi",
      "offset": 4.0,
      "scale": 0.125
    },
    {
      "name": "DNNinput_wtag__lepton_reliso",
      "offset": -0.0,
      "scale": 5.0
    },
    {
      "name": "DNNinput_wtag__lepton_charge",
      "offset": 1.0,
      "scale": 0.5
    },
    {
      "name": "DNNinput_wtag__lepton_dr_nextjet",
      "offset": -0.0,
      "scale": 0.16666666666666666
    },
    {
      "name": "DNNinput_wtag__lepton_dphi_nextjet",
      "offset": -0.0,
      "scale": 0.25
    },
    {
      "name": "DNNinput_wtag__lepton_deta_nextjet",
      "offset": -0.0,
      "scale": 0.16666666666666666
    },
    {
      "name": "DNNinput_wtag__lepton_ptrel_nextjet",
      "offset": -0.0,
      "scale": 0.00125
    },
    {
      "name": "DNNinput_wtag__lepton_dr_nextxjet",
      "offset": -0.0,
      "scale": 0.16666666666666666
    },
    {
      "name": "DNNinput_wtag__lepton_dphi_nextxjet",
      "offset": -0.0,
      "scale": 0.25
    },
    {
      "name": "DNNinput_wtag__lepton_deta_nextxjet",
      "offset": -0.0,
      "scale": 0.16666666666666666
    },
    {
      "name": "DNNinput_wtag__lepton_ptrel_nextxjet",
      "offset": -0.0,
      "scale": 0.00125
    },
    {
      "name": "DNNinput_wtag__dphi_lepton_met",
      "offset": -0.0,
      "scale": 0.25
    },
    {
      "name": "DNNinput_wtag__mtw",
      "offset": -0.0,
      "scale": 0.002
    },
    {
      "name": "DNNinput_wtag__pseudotop_m",
      "offset": -0.0,
      "scale": 0.00125
    },
    {
      "name": "DNNinput_wtag__wjet_pt",
      "offset": -0.0,
      "scale": 0.001
    },
    {
      "name": "DNNinput_wtag__wjet_eta",
      "offset": 5.0,
      "scale": 0.1
    },
    {
      "name": "DNNinput_wtag__wjet_phi",
      "offset": 4.0,
      "scale": 0.125
    },
    {
      "name": "DNNinput_wtag__dr_wjet_lepton",
      "offset": -0.0,
      "scale": 0.16666666666666666
    },
    {
      "name": "DNNinput_wtag__dphi_wjet_met",
      "offset": -0.0,
      "scale": 0.25
    },
    {
      "name": "DNNinput_wtag__ptbal_wjet_wboson",
      "offset": 2.0,
      "scale": 0.25
    },
    {
      "name": "DNNinput_wtag__ptbal_wjet_pseudotop",
      "offset": 2.0,
      "scale": 0.25
    },
    {
      "name": "DNNinput_wtag__n_xjets",
      "offset": -0.0,
      "scale": 0.1
    },
    {
      "name": "DNNinput_wtag__ht_xjets",
      "offset": -0.0,
      "scale": 0.001
    },
    {
      "name": "DNNinput_wtag__xjet1pt_pt",
      "offset": -0.0,
      "scale": 0.002
    },
    {
      "name": "DNNinput_wtag__xjet1pt_eta",
      "offset": 5.0,
      "scale": 0.1
    },
    {
      "name": "DNNinput_wtag__xjet1pt_phi",
      "offset": 4.0,
      "scale": 0.125
    },
    {
      "name": "DNNinput_wtag__xjet1pt_deepjet",
      "offset": -0.0,
      "scale": 1.0
    },
    {
      "name": "DNNinput_wtag__mass_xjet1pt_lepton",
      "offset": -0.0,
      "scale": 0.002
    },
    {
      "name": "DNNinput_wtag__dr_xjet1pt_lepton",
      "offset": -0.0,
      "scale": 0.16666666666666666
    },
    {
      "name": "DNNinput_wtag__dr_xjet1pt_wjet",
      "offset": -0.0,
      "scale": 0.16666666666666666
    },
    {
      "name": "DNNinput_wtag__xjet1dj_pt",
      "offset": -0.0,
      "scale": 0.002
    },
    {
      "name": "DNNinput_wtag__xjet1dj_eta",
      "offset": 5.0,
      "scale": 0.1
    },
    {
      "name": "DNNinput_wtag__xjet1dj_phi",
      "offset": 4.0,
      "scale": 0.125
    },
    {
      "name": "DNNinput_wtag__xjet1dj_deepjet",
      "offset": -0.0,
      "scale": 1.0
    },
    {
      "name": "DNNinput_wtag__mass_xjet1dj_lepton",
      "offset": -0.0,
      "scale": 0.002
    },
    {
      "name": "DNNinput_wtag__dr_xjet1dj_lepton",
      "offset": -0.0,
      "scale": 0.16666666666666666
    },
    {
      "name": "DNNinput_wtag__dr_xjet1dj_wjet",
      "offset": -0.0,
      "scale": 0.16666666666666666
    },
    {
      "name": "DNNinput_wtag__ijet1dj_deepjet",
      "offset": -0.0,
      "scale": 1.0
    },
    {
      "name": "DNNinput_wtag__dr_wjet_xjet",
      "offset": -0.0,
      "scale": 0.16666666666666666
    },
    {
      "name": "DNNinput_wtag__wnearestxjet_pt",
      "offset": -0.0,
      "scale": 0.002
    },
    {
      "name": "DNNinput_wtag__wnearestxjet_eta",
      "offset": 5.0,
      "scale": 0.1
    },
    {
      "name": "DNNinput_wtag__wnearestxjet_phi",
      "offset": 4.0,
      "scale": 0.125
    },
    {
      "name": "DNNinput_wtag__wnearestxjet_deepjet",
      "offset": -0.0,
      "scale": 1.0
    }
  ],
  "layers": [
    {
      "activation": "rectified",
      "architecture": "dense",
      "bias": [
        0.013538946397602558,
        0.021343335509300232,
        -0.012620341032743454,
        -0.003051541978493333,
        0.01618134044110775,
        0.017086809501051903,
        0.018657807260751724,
        0.02224591188132763,
        0.03067607246339321,
        -0.020279530435800552,
        0.022375937551259995,
        0.01488772127777338,
        -0.0013022406492382288,
        0.016013504937291145,
        0.020409366115927696,
        0.019594067707657814,
        -0.0049377065151929855,
        0.010272801853716373,
        0.03494303673505783,
        -0.0017362122889608145,
        -0.005198058672249317,
        -0.005449961870908737,
        0.007899316027760506,
        -0.0157856997102499,
        0.035417307168245316,
        0.004544582683593035,
        0.00831214152276516,
        -0.003705852897837758,
        0.01607203669846058,
        0.015321159735321999,
        0.006552926264703274,
        0.014997676946222782,
        0.00989674311131239,
        0.006972568109631538,
        -0.015283258631825447,
        0.00013704074081033468,
        -0.002699644770473242,
        -0.005699902307242155,
        -0.0014143071603029966,
        0.0031368834897875786,
        0.00992122944444418,
        -0.013178329914808273,
        0.01623549312353134,
        0.018283741548657417,
        -0.010768300853669643,
        0.013026540167629719,
        0.01286686398088932,
        0.0012116149300709367,
        -0.015836574137210846,
        0.022621316835284233,
        0.021804561838507652,
        0.00842832401394844,
        0.002874203724786639,
        0.013490930199623108,
        -0.006744259502738714,
        0.00959760881960392,
        0.018912862986326218,
        0.013909789733588696,
        0.006500708404928446,
        0.008974537253379822,
        -0.005194775760173798,
        0.0033496476244181395,
        -0.00924533698707819,
        0.02493852749466896,
        -0.002871096832677722,
        0.004301161039620638,
        0.02599003165960312,
        -0.004691367037594318,
        0.01437152735888958,
        0.010596368461847305,
        -0.011425476521253586,
        0.008774137124419212,
        0.017555832862854004,
        0.006731938570737839,
        -0.010197659023106098,
        0.008037851192057133,
        -0.006301910616457462,
        -0.013262102380394936,
        0.011885699816048145,
        0.013284358195960522,
        0.029302945360541344,
        0.0024841860868036747,
        -0.03496568650007248,
        0.025569021701812744,
        0.0002686319930944592,
        0.0071951849386096,
        0.011101631447672844,
        0.0018617750611156225,
        -0.006088379770517349,
        0.036385513842105865,
        -0.001473490847274661,
        -0.0043866909109056,
        -0.002592909149825573,
        -0.007091431878507137,
        0.005132967606186867,
        0.007872779853641987,
        0.012066179886460304,
        -0.010278372094035149,
        0.012332990765571594,
        -0.0009368142345920205,
        -0.011456242762506008,
        0.012856375426054,
        0.016932867467403412,
        0.0014563505537807941,
        -0.010438811033964157,
        0.002521942835301161,
        0.011944732628762722,
        0.0023089966271072626,
        0.004169684834778309,
        0.028303544968366623,
        -0.004449340980499983,
        0.009133939631283283,
        0.010791061446070671,
        0.017736073583364487,
        -0.001780452555976808,
        0.001691489014774561,
        0.02374941110610962,
        0.01854902319610119,
        0.003457964165136218,
        0.0058591063134372234,
        0.001466905465349555,
        0.00828952994197607,
        0.006834600120782852,
        -0.009871735237538815,
        0.009281669743359089,
        -0.006305927410721779,
        0.0019064717926084995,
        -0.0063981181010603905
      ],
      "weights": [
        0.017153684049844742,
        0.1595975011587143,
        -0.018710587173700333,
        0.1809624880552292,
        -0.11744902282953262,
        -0.09934026002883911,
        0.021713862195611,
        -0.02480960637331009,
        0.09198325872421265,
        -0.08759236335754395,
        -0.12025921046733856,
        0.18998566269874573,
        0.028072785586118698,
        -0.09372688084840775,
        -0.03216465190052986,
        0.05056469142436981,
        -0.16670429706573486,
        -0.02912009507417679,
        -0.0324840173125267,
        0.18016043305397034,
        0.24312721192836761,
        -0.07728057354688644,
        -0.07499388605356216,
        0.07386566698551178,
        0.08699551969766617,
        -0.030840003862977028,
        -0.061145711690187454,
        -0.10986009985208511,
        -0.12200610339641571,
        0.1963944435119629,
        0.11050212383270264,
        -0.13632537424564362,
        0.11705457419157028,
        0.1797708421945572,
        -0.16061274707317352,
        -0.13373467326164246,
        0.003291563829407096,
        -0.13720184564590454,
        -0.028661616146564484,
        0.22164402902126312,
        0.02224777080118656,
        0.009633153676986694,
        -0.06339730322360992,
        -0.04642469063401222,
        -0.09717835485935211,
        0.032254572957754135,
        0.03593660145998001,
        -0.002580807311460376,
        -0.0018793873023241758,
        0.056221652776002884,
        -0.055914830416440964,
        0.023625949397683144,
        -0.14385296404361725,
        0.10421988368034363,
        0.004894176498055458,
        -0.058661557734012604,
        -0.009596985764801502,
        -0.015467872843146324,
        0.051427122205495834,
        -0.0885818675160408,
        -0.02783905528485775,
        0.038404129445552826,
        0.023539895191788673,
        -0.08817647397518158,
        0.013243311084806919,
        0.06515438109636307,
        0.008567184209823608,
        0.03623555600643158,
        -0.13059674203395844,
        0.037186551839113235,
        0.008251785300672054,
        0.08448128402233124,
        0.027280164882540703,
        0.1715892255306244,
        0.11381679028272629,
        0.05242285132408142,
        0.11309803277254105,
        -0.12563921511173248,
        0.007849838584661484,
        0.17221668362617493,
        -0.07373498380184174,
        -0.08410201966762543,
        -0.03062250278890133,
        -0.18049658834934235,
        0.18062743544578552,
        -0.02143251523375511,
        -0.10068445652723312,
        -0.0794985294342041,
        0.2057790458202362,
        -0.10580896586179733,
        -0.19616684317588806,
        0.12723630666732788,
        -0.052926789969205856,
        0.15065798163414001,
        -0.0785592794418335,
        0.18462659418582916,
        0.15118424594402313,
        -0.011686974205076694,
        0.0997619554400444,
        0.025795968249440193,
        -0.20648278295993805,
        0.1665990799665451,
        -0.1402357518672943,
        0.1347716599702835,
        -0.14140915870666504,
        0.06167333945631981,
        -0.07669558376073837,
        -0.09048663079738617,
        -0.01707693375647068,
        -0.17024050652980804,
        -0.1456708163022995,
        0.062452249228954315,
        0.059445787221193314,
        0.07437388598918915,
        0.05579279735684395,
        0.09867176413536072,
        0.07015341520309448,
        -0.03291398659348488,
        -0.013139164075255394,
        -0.04100825637578964,
        -0.13057605922222137,
        0.058227796107530594,
        -0.06461767852306366,
        -0.18157745897769928,
        0.13235628604888916,
        -0.19853879511356354,
        -0.013940881937742233,
        0.016214696690440178,
        -0.028397386893630028,
        0.02625378966331482,
        0.11065764725208282,
        -0.03277173638343811,
        0.08928436785936356,
        -0.1341889500617981,
        -0.0838591679930687,
        -0.033355191349983215,
        0.12663495540618896,
        -0.17197342216968536,
        0.12971660494804382,
        -0.2279132902622223,
        0.050775524228811264,
        0.2558019757270813,
        0.10571642965078354,
        0.023112250491976738,
        0.14564400911331177,
        0.06608960777521133,
        -0.15306644141674042,
        0.08996672183275223,
        0.1074531301856041,
        0.1449361890554428,
        -0.16638672351837158,
        0.015367421321570873,
        -0.024171186611056328,
        0.03628530353307724,
        -0.12911532819271088,
        0.06769043207168579,
        -0.11622832715511322,
        0.019986271858215332,
        -0.15370787680149078,
        0.015235401690006256,
        0.16463708877563477,
        -0.08699961006641388,
        0.0029822387732565403,
        0.09225556999444962,
        -0.17389726638793945,
        0.05786915123462677,
        0.1322806477546692,
        -0.2093157321214676,
        -0.0933912917971611,
        0.15110747516155243,
        -0.10464955866336823,
        0.0712038055062294,
        0.1350553035736084,
        0.09637545049190521,
        0.17337149381637573,
        0.007196266204118729,
        -0.10005999356508255,
        -0.17603453993797302,
        0.02218073047697544,
        0.0042952788062393665,
        0.12359122186899185,
        0.04473165422677994,
        0.21044839918613434,
        0.03009049780666828,
        -0.18341757357120514,
        0.011715184897184372,
        0.16431915760040283,
        -0.10144724696874619,
        0.05906634032726288,
        0.15013927221298218,
        0.21537239849567413,
        0.116946280002594,
        0.1714976280927658,
        -0.18157880008220673,
        0.16284513473510742,
        -0.07679904997348785,
        0.11983658373355865,
        0.11841882765293121,
        -0.1980247050523758,
        0.09887820482254028,
        0.2288575917482376,
        0.11430089175701141,
        -0.023768728598952293,
        -0.042421214282512665,
        0.12375597655773163,
        -0.12439549714326859,
        -0.1629095822572708,
        -0.12928266823291779,
        -0.1687912940979004,
        0.06666328758001328,
        -0.10843563079833984,
        0.12737956643104553,
        0.012387009337544441,
        -0.09796922653913498,
        0.1934717297554016,
        0.030659077689051628,
        0.2414512038230896,
        -0.06797792762517929,
        0.06232314184308052,
        -0.05664744973182678,
        0.09524284303188324,
        0.12575219571590424,
        0.11696674674749374,
        0.0954471230506897,
        0.09110268205404282,
        -0.012460404075682163,
        0.12761174142360687,
        0.12472761422395706,
        0.04561668634414673,
        -0.11690760403871536,
        0.10046875476837158,
        -0.019997676834464073,
        -0.18189574778079987,
        -0.05005606636404991,
        -0.03734475374221802,
        0.12057316303253174,
        -0.12688538432121277,
        -0.14838892221450806,
        0.096431203186512,
        -0.08604041486978531,
        -0.0865306407213211,
        0.07029350101947784,
        0.12321390956640244,
        0.17504660785198212,
        0.1651374101638794,
        0.16272658109664917,
        0.058172184973955154,
        0.0018146184738725424,
        0.17693284153938293,
        -0.019220536574721336,
        0.15923914313316345,
        -0.0011147083714604378,
        0.21250700950622559,
        -0.022054359316825867,
        -0.14518435299396515,
        -0.07166226208209991,
        0.07553323358297348,
        -0.2782455384731293,
        -0.03597479313611984,
        -0.17278040945529938,
        -0.17240996658802032,
        -0.19847409427165985,
        0.13648287951946259,
        -0.038841817528009415,
        0.025485705584287643,
        0.22783112525939941,
        -0.04977809265255928,
        0.09601414948701859,
        0.015193079598248005,
        -0.020424511283636093,
        -0.17473343014717102,
        -0.022403966635465622,
        0.03754740580916405,
        0.1467929631471634,
        0.06978825479745865,
        -0.04499069228768349,
        -0.15170001983642578,
        0.041407279670238495,
        0.05119035020470619,
        0.15301600098609924,
        0.06653618812561035,
        -0.0958317369222641,
        0.05076082795858383,
        0.14221076667308807,
        0.11261605471372604,
        -0.2203160673379898,
        0.11035914719104767,
        0.14383564889431,
        -0.07523150742053986,
        -0.06249528378248215,
        -0.07953517138957977,
        0.037167925387620926,
        -0.09992171078920364,
        -0.06931393593549728,
        0.16919398307800293,
        -0.14223401248455048,
        -0.04287338629364967,
        -0.038423504680395126,
        0.25975313782691956,
        0.05578336492180824,
        -0.02890073135495186,
        0.02891148068010807,
        -0.13014613091945648,
        -0.09262169897556305,
        0.09017878770828247,
        -0.10260219126939774,
        -0.0913783460855484,
        0.17772360146045685,
        0.13197611272335052,
        -0.04123345762491226,
        -0.14211326837539673,
        -0.17702122032642365,
        0.10111851990222931,
        -0.055415280163288116,
        -0.10389449447393417,
        -0.11777347326278687,
        -0.027081215754151344,
        0.12383394688367844,
        0.03565535694360733,
        0.1606818586587906,
        0.09607149660587311,
        0.18663020431995392,
        -0.011671934276819229,
        0.0014898567460477352,
        0.009764933958649635,
        0.013216603547334671,
        -0.055666521191596985,
        -0.02850933186709881,
        -0.08969733119010925,
        0.009052683599293232,
        -0.0006290670135058463,
        0.1609617918729782,
        -0.0829697921872139,
        0.13825136423110962,
        -0.0828571543097496,
        0.13440537452697754,
        -0.00011932537017855793,
        0.02927207574248314,
        0.07874004542827606,
        0.08024851977825165,
        -0.02667657472193241,
        0.15211334824562073,
        0.003556350478902459,
        0.1161888912320137,
        0.0066307540982961655,
        0.02929813228547573,
        0.009471509605646133,
        0.21157439053058624,
        -0.07611560821533203,
        0.16123178601264954,
        0.177460715174675,
        0.0167689211666584,
        -0.02920491062104702,
        0.08089406043291092,
        0.08269260078668594,
        0.1457175463438034,
        -0.07731925696134567,
        -0.10301661491394043,
        0.003290489548817277,
        -0.10941120982170105,
        -0.16629527509212494,
        0.046342529356479645,
        -0.0735638216137886,
        0.2340296357870102,
        0.19348570704460144,
        0.15396790206432343,
        -0.015037908218801022,
        0.05857651308178902,
        0.2083679884672165,
        -0.13710808753967285,
        -0.10192916542291641,
        0.14918139576911926,
        -0.031839385628700256,
        -0.04970911890268326,
        -0.00941871665418148,
        0.010387279093265533,
        -0.09139551967382431,
        0.1309066116809845,
        -0.010145535692572594,
        -0.0488489605486393,
        -0.09997500479221344,
        -0.12842966616153717,
        0.2009572982788086,
        0.18354076147079468,
        0.12731784582138062,
        -0.16145716607570648,
        0.20009256899356842,
        -0.010874305851757526,
        -0.1119830384850502,
        -0.11474522948265076,
        0.07819205522537231,
        -0.024372411891818047,
        0.05650929734110832,
        -0.013508708216249943,
        -0.18437930941581726,
        0.08055145293474197,
        -0.13628622889518738,
        0.064977265894413,
        -0.034618183970451355,
        -0.0919078141450882,
        -0.10478010773658752,
        0.06519894301891327,
        -0.08439920097589493,
        0.07243688404560089,
        -0.17185916006565094,
        -0.1696467250585556,
        -0.1257058084011078,
        -0.18747302889823914,
        0.09393597394227982,
        -0.09695374965667725,
        -0.18591855466365814,
        0.042182788252830505,
        -0.23414085805416107,
        -0.012606967240571976,
        -0.09291093051433563,
        -0.037012286484241486,
        -0.019797129556536674,
        0.21126596629619598,
        -0.06667401641607285,
        0.08812011778354645,
        0.09694720804691315,
        0.131356880068779,
        -0.01498857419937849,
        -0.13458798825740814,
        -0.152345210313797,
        0.11640322953462601,
        0.18058419227600098,
        -0.11431329697370529,
        -0.10690897703170776,
        0.10749772191047668,
        0.001102278009057045,
        0.1319926232099533,
        -0.15120014548301697,
        -0.09919796139001846,
        -0.1350754052400589,
        0.15855975449085236,
        -0.13635265827178955,
        -0.16200855374336243,
        0.20059962570667267,
        0.05633504316210747,
        0.048067737370729446,
        -0.07850128412246704,
        -0.012256314978003502,
        0.21751785278320312,
        0.1718638837337494,
        -0.0842217281460762,
        0.060597583651542664,
        -0.10376140475273132,
        0.014357124455273151,
        -0.09461348503828049,
        -0.1712275892496109,
        0.18640732765197754,
        -0.14790178835391998,
        -0.09265930205583572,
        -0.09112975001335144,
        0.11056984961032867,
        -0.02083050087094307,
        -0.05073254182934761,
        0.09740695357322693,
        0.03258705884218216,
        0.03953442722558975,
        0.06539691984653473,
        0.1416243314743042,
        0.10795695334672928,
        -0.022695839405059814,
        -0.1838860809803009,
        0.1227308064699173,
        -0.020912932232022285,
        -0.0011051807086914778,
        0.16247573494911194,
        0.13046686351299286,
        0.011561521328985691,
        0.052354615181684494,
        0.07144279032945633,
        0.006216511130332947,
        0.014184470288455486,
        0.02124718762934208,
        0.12427916377782822,
        -0.16265736520290375,
        0.06715250760316849,
        0.09038183093070984,
        0.17553560435771942,
        -0.04415735602378845,
        -0.008867311291396618,
        -0.05959106609225273,
        0.025460517033934593,
        0.18156510591506958,
        0.07083085179328918,
        0.15626266598701477,
        -0.11298772692680359,
        0.0626562163233757,
        0.06799851357936859,
        0.08958549052476883,
        -0.11503440141677856,
        0.04142553359270096,
        -0.1578158438205719,
        -0.05217427387833595,
        0.11725862324237823,
        -0.11766522377729416,
        0.025138787925243378,
        -0.020327409729361534,
        -0.1625325232744217,
        -0.2459745556116104,
        0.08968964219093323,
        -0.049904197454452515,
        -0.1289745271205902,
        -0.06832970678806305,
        0.10832247138023376,
        0.005997609347105026,
        -0.01602151244878769,
        0.04730060696601868,
        0.1849416047334671,
        0.10392065346240997,
        -0.02142142690718174,
        0.07375563681125641,
        0.13825419545173645,
        -0.02016838826239109,
        -0.0211622454226017,
        0.01719343475997448,
        0.06048949435353279,
        -0.14569230377674103,
        -0.05352814123034477,
        0.09936201572418213,
        -0.14157624542713165,
        0.0044103399850428104,
        -0.03798229992389679,
        0.09777788072824478,
        0.17930927872657776,
        -0.002201689640060067,
        0.11029205471277237,
        0.03824957087635994,
        -0.06666645407676697,
        0.08775383979082108,
        -0.1743519902229309,
        -0.04620499536395073,
        0.13956907391548157,
        0.03378058597445488,
        -0.0382746122777462,
        -0.026431748643517494,
        -0.14972613751888275,
        0.12064331769943237,
        0.008551167324185371,
        -0.09111562371253967,
        0.11748772859573364,
        0.01506971288472414,
        -0.0722200945019722,
        0.02062111161649227,
        -0.06775728613138199,
        0.20611681044101715,
        0.10368724167346954,
        0.07379955798387527,
        -0.07158898562192917,
        -0.09189342707395554,
        0.08797673135995865,
        0.1781645119190216,
        0.22121909260749817,
        0.02213195152580738,
        0.1575542837381363,
        0.14156927168369293,
        0.09820129722356796,
        0.19922888278961182,
        0.10494828224182129,
        0.11967556923627853,
        0.11936096101999283,
        0.02819574996829033,
        0.07239246368408203,
        -0.039880890399217606,
        0.06983983516693115,
        -0.045749176293611526,
        -0.10175102949142456,
        0.0033770406153053045,
        0.05488331988453865,
        -0.02566954493522644,
        -0.0069715725257992744,
        -0.005208134185522795,
        -0.08771802484989166,
        0.11494112759828568,
        0.07676628232002258,
        -0.12272293120622635,
        0.07956724613904953,
        0.09686531871557236,
        0.06280835717916489,
        -0.2576640844345093,
        -0.030281350016593933,
        0.1016712412238121,
        -0.03140903264284134,
        0.02074359357357025,
        0.19423708319664001,
        -0.025901485234498978,
        0.11508184671401978,
        -0.026995468884706497,
        -0.04980713501572609,
        0.1439298391342163,
        0.009812520816922188,
        0.08200989663600922,
        0.033223383128643036,
        -0.0636308416724205,
        -0.1693778932094574,
        0.02763773687183857,
        -0.029030874371528625,
        -0.1339205652475357,
        0.1202215626835823,
        -0.15412114560604095,
        -0.048238471150398254,
        -0.13813525438308716,
        -0.016426216810941696,
        0.1430968940258026,
        0.18347454071044922,
        0.1639985740184784,
        0.1278887540102005,
        -0.058623362332582474,
        -0.09738459438085556,
        0.05436507984995842,
        -0.02435586228966713,
        -0.09073854982852936,
        -0.09250134974718094,
        0.1608080118894577,
        -0.10209722071886063,
        -0.05341161787509918,
        -0.1448725312948227,
        0.04321789741516113,
        -0.054654356092214584,
        -0.16238471865653992,
        0.14651361107826233,
        -0.1987871378660202,
        0.07203372567892075,
        -0.0756605714559555,
        -0.12197192013263702,
        0.11600238084793091,
        0.1401013433933258,
        0.021452460438013077,
        -0.09994419664144516,
        -0.21479150652885437,
        -0.19791646301746368,
        0.0494418665766716,
        -0.001144307549111545,
        0.10498718172311783,
        -0.0914795845746994,
        0.19559061527252197,
        -0.10655832290649414,
        0.1706288456916809,
        -0.07729320973157883,
        0.11528851836919785,
        0.10159910470247269,
        -0.0542057529091835,
        -0.1286434382200241,
        -0.12487901002168655,
        0.16561463475227356,
        0.020324189215898514,
        0.08332725614309311,
        0.11676415801048279,
        -0.03178185224533081,
        0.07906057685613632,
        -0.08241906017065048,
        -0.06963811069726944,
        0.17672033607959747,
        -0.09773308783769608,
        0.11030259728431702,
        0.014557993039488792,
        0.10649562627077103,
        -0.02378409169614315,
        0.053820282220840454,
        0.12244918942451477,
        0.1397310048341751,
        0.02901012822985649,
        -0.16290678083896637,
        -0.09856130927801132,
        0.0506787970662117,
        -0.14205364882946014,
        0.08348064124584198,
        0.15748511254787445,
        0.07678009569644928,
        -0.1586194783449173,
        -0.11860198527574539,
        -0.10159970819950104,
        -0.05540332943201065,
        -0.15597009658813477,
        0.20647725462913513,
        0.0441136509180069,
        -0.04677144065499306,
        -0.004599079489707947,
        0.08044083416461945,
        -0.20055325329303741,
        -0.1599825769662857,
        0.027217112481594086,
        -0.10765592753887177,
        0.056039899587631226,
        -0.019136562943458557,
        0.2182769924402237,
        -0.08411853015422821,
        -0.017167439684271812,
        0.0028954860754311085,
        0.018682925030589104,
        -0.051613785326480865,
        -0.14795538783073425,
        -0.18542882800102234,
        0.038120087236166,
        0.11137693375349045,
        -0.035441745072603226,
        -0.1427229344844818,
        0.06653565913438797,
        -0.07364917546510696,
        -0.039317239075899124,
        0.19475142657756805,
        0.058039579540491104,
        0.19803565740585327,
        0.05438685789704323,
        0.19039496779441833,
        0.053158003836870193,
        -0.01849847473204136,
        -0.027184518054127693,
        -0.024115758016705513,
        0.11730906367301941,
        0.16101780533790588,
        -0.15438969433307648,
        0.06664177775382996,
        0.06291037052869797,
        -0.10631199926137924,
        -0.123444564640522,
        -0.07129140198230743,
        -0.16729964315891266,
        0.1297207623720169,
        -0.08131018280982971,
        0.12821058928966522,
        0.13031746447086334,
        -0.05402728170156479,
        -0.1462751179933548,
        0.0925251916050911,
        0.19447733461856842,
        0.10388772934675217,
        -0.09374972432851791,
        0.05655226856470108,
        -0.14165686070919037,
        0.12304776161909103,
        0.041348930448293686,
        -0.08762627094984055,
        0.09153974056243896,
        -0.07379528135061264,
        0.07101068645715714,
        -0.2248915284872055,
        0.1598135083913803,
        -0.008282245136797428,
        0.17382337152957916,
        -0.10766927897930145,
        -0.15121616423130035,
        0.15371671319007874,
        0.015358496457338333,
        -0.1868426501750946,
        -0.1411547213792801,
        -0.07614605873823166,
        -0.14739201962947845,
        0.0323321558535099,
        0.15512725710868835,
        0.02614484541118145,
        -0.17037001252174377,
        0.022375015541911125,
        -0.03345136716961861,
        0.03340687230229378,
        0.05340265855193138,
        0.14129161834716797,
        -0.04706810042262077,
        -0.08368892222642899,
        -0.173604354262352,
        0.13080133497714996,
        0.07977518439292908,
        0.04604185000061989,
        -0.03278077766299248,
        0.14341486990451813,
        0.018019968643784523,
        -0.022073684260249138,
        -0.0941343754529953,
        -0.09420280158519745,
        0.013852276839315891,
        0.1692952662706375,
        -0.11377868801355362,
        -0.14164698123931885,
        0.03179093077778816,
        0.09977687895298004,
        -0.137992262840271,
        0.012247509323060513,
        -0.08501191437244415,
        -0.08552102744579315,
        -0.033535148948431015,
        -0.002794170519337058,
        0.04120912402868271,
        0.008386430330574512,
        0.014851951040327549,
        0.02610761672258377,
        -0.029463866725564003,
        0.16336818039417267,
        -0.15993015468120575,
        0.0009408259647898376,
        -0.08842895179986954,
        -0.12566202878952026,
        -0.07907115668058395,
        0.10242977738380432,
        -0.09968910366296768,
        0.15453249216079712,
        0.16654643416404724,
        0.09452269971370697,
        -0.022093091160058975,
        0.01585359126329422,
        -0.12773354351520538,
        -0.0130129000172019,
        -0.10412418097257614,
        0.14608390629291534,
        0.06087592616677284,
        0.05794448032975197,
        -0.11383090168237686,
        0.03878933936357498,
        -0.050117455422878265,
        0.20397436618804932,
        0.040277592837810516,
        0.05534651130437851,
        0.15892869234085083,
        0.0658666118979454,
        0.1301589459180832,
        -0.16635312139987946,
        -0.16765300929546356,
        0.19147245585918427,
        0.048659730702638626,
        -0.09346853941679001,
        0.0395919531583786,
        -0.07463178783655167,
        0.08566152304410934,
        -0.0653957799077034,
        0.03632146865129471,
        0.059594523161649704,
        -0.15068235993385315,
        -0.05770149454474449,
        -0.06703545153141022,
        0.1605369597673416,
        -0.047696564346551895,
        0.04568686708807945,
        0.05731247365474701,
        0.02333153411746025,
        0.0665554627776146,
        -0.02576017566025257,
        0.11085609346628189,
        0.1046866774559021,
        -0.025989366695284843,
        -0.02100623957812786,
        0.03876190632581711,
        0.06129828840494156,
        -0.021350663155317307,
        0.1538078337907791,
        0.07460329681634903,
        -0.021768806502223015,
        0.08590641617774963,
        -0.14486996829509735,
        -0.030526695773005486,
        0.11102405190467834,
        0.12136182188987732,
        0.11522060632705688,
        0.1277732402086258,
        -0.0792265385389328,
        -0.0055352384224534035,
        0.09488943219184875,
        -0.021257581189274788,
        0.04598929360508919,
        -0.08551297336816788,
        -0.012524012476205826,
        0.09169550240039825,
        0.0387490913271904,
        -0.029492013156414032,
        -0.07785100489854813,
        -0.011280265636742115,
        -0.06327348202466965,
        -0.12138429284095764,
        0.006248965859413147,
        0.07249218225479126,
        -0.08903336524963379,
        0.11300235241651535,
        -0.11983203142881393,
        -0.039728742092847824,
        -0.1762578934431076,
        0.1816607266664505,
        0.05417395010590553,
        -0.08351112902164459,
        -0.06070111319422722,
        0.014610154554247856,
        -0.10381773859262466,
        -0.14113779366016388,
        -0.024569420143961906,
        0.0716257095336914,
        0.14323873817920685,
        0.16438446938991547,
        0.07895834743976593,
        0.01561956387013197,
        -0.16814884543418884,
        -0.10577321797609329,
        0.08066119998693466,
        -0.10021761059761047,
        0.06763027608394623,
        0.14901524782180786,
        -0.029807060956954956,
        -0.06827536970376968,
        -0.013807712122797966,
        0.012745039537549019,
        0.15423999726772308,
        0.019099866971373558,
        -0.06958891451358795,
        0.05817531421780586,
        -0.11136912554502487,
        -0.016661688685417175,
        -0.10196445882320404,
        -0.04744523763656616,
        -0.0585445761680603,
        0.20260171592235565,
        0.16226477921009064,
        -0.048473626375198364,
        -0.10649970173835754,
        0.12453176081180573,
        0.113373301923275,
        0.24269413948059082,
        -0.2091590315103531,
        -0.17919856309890747,
        -0.002878301776945591,
        0.17306719720363617,
        -0.15070198476314545,
        -0.08608602732419968,
        0.0828964114189148,
        0.0789397731423378,
        -0.19338372349739075,
        0.14426010847091675,
        0.06852302700281143,
        -0.03337246552109718,
        -0.02586364932358265,
        -0.07034527510404587,
        -0.14124205708503723,
        0.15331411361694336,
        0.08294819295406342,
        -0.17358045279979706,
        -0.12408249825239182,
        -0.014576103538274765,
        -0.06420307606458664,
        -0.06029681861400604,
        0.15894488990306854,
        -0.10431607812643051,
        -0.14410381019115448,
        -0.14082735776901245,
        0.027769479900598526,
        -0.15252520143985748,
        0.10580617189407349,
        0.11776164174079895,
        0.047988589853048325,
        0.07809510082006454,
        -0.08148832619190216,
        0.00804984476417303,
        0.08442354947328568,
        -0.13114623725414276,
        -0.11596261709928513,
        0.01718795858323574,
        -0.10059630125761032,
        -0.1036892980337143,
        -0.0061509073711931705,
        -0.014594663865864277,
        -0.009217293001711369,
        -0.11326100677251816,
        -0.14397013187408447,
        -0.006137934047728777,
        0.15954621136188507,
        -0.0820232406258583,
        0.015965815633535385,
        0.08402974903583527,
        0.15661293268203735,
        0.12065389007329941,
        0.024553213268518448,
        0.01175734493881464,
        -0.18169620633125305,
        -0.009256330318748951,
        0.14711236953735352,
        0.1513334959745407,
        0.07891632616519928,
        -0.000601725303567946,
        -0.1357336938381195,
        -0.0045120492577552795,
        0.09144394099712372,
        -0.11393923312425613,
        -0.03585143759846687,
        0.17082388699054718,
        -0.15370722115039825,
        0.12500140070915222,
        -0.14467713236808777,
        0.0632673054933548,
        0.07526303082704544,
        0.1326351761817932,
        0.04539995267987251,
        -0.023552831262350082,
        0.10268811136484146,
        0.012989046983420849,
        0.024057840928435326,
        -0.11113853007555008,
        0.13139663636684418,
        0.07191247493028641,
        0.11581269651651382,
        -0.07644732296466827,
        -0.1466192752122879,
        -0.11318250000476837,
        -0.11445192992687225,
        -0.0541621558368206,
        -0.17851808667182922,
        -0.10050436109304428,
        -0.06471799314022064,
        -0.10392724722623825,
        -0.09201432764530182,
        0.06945095956325531,
        0.12295747548341751,
        -0.028782781213521957,
        -0.08287797123193741,
        -0.05049939453601837,
        0.06578188389539719,
        -0.17883452773094177,
        -0.17472665011882782,
        -0.05807308852672577,
        -0.0554434098303318,
        -0.08363993465900421,
        -0.11788706481456757,
        -0.1695958971977234,
        -0.16748200356960297,
        -0.06521698832511902,
        0.13246990740299225,
        -0.08191383630037308,
        -0.07282217592000961,
        -0.09719064086675644,
        -0.04542326182126999,
        -0.12692879140377045,
        0.15032453835010529,
        0.053001631051301956,
        -0.15429788827896118,
        0.0027082993183285,
        0.17333433032035828,
        0.12935982644557953,
        -0.19233198463916779,
        0.1151105985045433,
        -0.04062088206410408,
        0.11562923341989517,
        0.02008272334933281,
        -0.025907481089234352,
        0.07694774121046066,
        -0.04866156354546547,
        -0.038309045135974884,
        -0.14318177103996277,
        0.022068103775382042,
        0.1758529245853424,
        0.02006653882563114,
        -0.050220321863889694,
        -0.09544385224580765,
        -0.16227121651172638,
        0.08448544889688492,
        0.024695105850696564,
        0.08080712705850601,
        -0.11002861708402634,
        0.08078937232494354,
        0.08046413958072662,
        0.10812994837760925,
        0.1573691964149475,
        0.11005445569753647,
        -0.16115650534629822,
        -0.01287859957665205,
        -0.12955071032047272,
        -0.19578270614147186,
        0.0560607835650444,
        0.09375615417957306,
        0.15435603260993958,
        -0.05323163419961929,
        0.012276627123355865,
        0.14046527445316315,
        0.07593885064125061,
        0.030621174722909927,
        0.061218831688165665,
        0.08809752762317657,
        -0.20143385231494904,
        -0.1468401551246643,
        0.04921354353427887,
        0.16132646799087524,
        -0.03892543539404869,
        -0.08658424764871597,
        0.11957051604986191,
        -0.004400764591991901,
        0.0700024664402008,
        -0.08186440169811249,
        -0.03630232438445091,
        0.03537307307124138,
        -0.003683391259983182,
        0.1348755806684494,
        0.1342725306749344,
        0.19471375644207,
        -0.07923243939876556,
        0.18349294364452362,
        -0.09944860637187958,
        -0.09905975311994553,
        -0.04604204744100571,
        -0.08500111848115921,
        -0.11769474297761917,
        0.14982056617736816,
        -0.0882398784160614,
        0.01734793558716774,
        0.059605348855257034,
        0.03233252465724945,
        -0.15129204094409943,
        -0.13599905371665955,
        0.14063285291194916,
        -0.16128283739089966,
        0.08528222888708115,
        -0.1348595768213272,
        0.19121553003787994,
        0.1903696060180664,
        -0.0035503001417964697,
        -0.04158955067396164,
        0.09939760714769363,
        0.15157029032707214,
        0.008329726755619049,
        -0.04654962569475174,
        0.005407118704169989,
        -0.06555770337581635,
        -0.0993541032075882,
        -0.0038485131226480007,
        -0.0595623180270195,
        -0.12727080285549164,
        -0.17523598670959473,
        -0.04530426859855652,
        0.06410790234804153,
        0.09046616405248642,
        -0.016967445611953735,
        -0.14444048702716827,
        0.08595959842205048,
        0.15826073288917542,
        0.012767563574016094,
        0.03211814537644386,
        0.07741368561983109,
        0.09633947908878326,
        -0.057291287928819656,
        -0.13042481243610382,
        -0.15578854084014893,
        -0.15803171694278717,
        0.13733616471290588,
        -0.08116216957569122,
        -0.16209742426872253,
        0.061248019337654114,
        0.08522578328847885,
        0.12354722619056702,
        -0.1370510309934616,
        0.18956628441810608,
        -0.03606430068612099,
        -0.11440000683069229,
        0.125030979514122,
        0.06844455003738403,
        -0.05568259209394455,
        0.09975501149892807,
        0.002367632230743766,
        0.11391077190637589,
        -0.027420107275247574,
        -0.1016048863530159,
        0.010492737405002117,
        0.09890223294496536,
        0.1522451490163803,
        0.1613670140504837,
        -0.17824895679950714,
        0.08704473078250885,
        0.15802216529846191,
        0.060348063707351685,
        0.1963261067867279,
        0.05990750715136528,
        0.003807918867096305,
        0.11790739744901657,
        -0.10556703060865402,
        -0.01813189871609211,
        0.1535308063030243,
        0.03312976658344269,
        -0.05220840498805046,
        -0.056614235043525696,
        0.10539215058088303,
        -0.04705245420336723,
        0.1767522692680359,
        -0.1243065670132637,
        0.09281126409769058,
        -0.14451150596141815,
        -0.22368057072162628,
        -0.019110266119241714,
        -0.10858763754367828,
        -0.015358952805399895,
        0.10929005593061447,
        0.19403795897960663,
        0.17828531563282013,
        -0.034838467836380005,
        -0.1164848580956459,
        0.021312875673174858,
        -0.08128572255373001,
        0.10566996783018112,
        -0.0037104689981788397,
        0.005804090760648251,
        -0.14994953572750092,
        0.15626788139343262,
        0.015166639350354671,
        -0.16356196999549866,
        0.12896855175495148,
        0.12364407628774643,
        0.03357654809951782,
        -0.033556584268808365,
        -0.024250159040093422,
        -0.016117334365844727,
        0.025853769853711128,
        0.2470167726278305,
        -0.14644365012645721,
        -0.09986831247806549,
        -0.037699151784181595,
        0.08394759148359299,
        0.14306829869747162,
        -0.10160234570503235,
        -0.11222726851701736,
        -0.07323723286390305,
        -0.027945809066295624,
        0.11403954774141312,
        0.07240036129951477,
        -0.0163828544318676,
        -0.08876414597034454,
        -0.14643974602222443,
        -0.06515201181173325,
        0.029469743371009827,
        0.08479593694210052,
        -0.09643328189849854,
        -0.0948052853345871,
        0.10762345790863037,
        0.12462257593870163,
        -0.02580047957599163,
        -0.11234385520219803,
        -0.06349620968103409,
        -0.10672406107187271,
        -0.179704949259758,
        -0.11523981392383575,
        0.009284553118050098,
        -0.1642867773771286,
        -0.0018661866197362542,
        -0.18458841741085052,
        -0.10938414186239243,
        0.14209693670272827,
        0.03757456690073013,
        0.1855042576789856,
        0.08807915449142456,
        0.15008008480072021,
        -0.05957504361867905,
        -0.10880900919437408,
        -0.12682916224002838,
        0.1037808358669281,
        0.07073795050382614,
        0.03365855664014816,
        0.023598801344633102,
        -0.11551210284233093,
        -0.04396246746182442,
        0.06807393580675125,
        -0.07086703926324844,
        -0.18027059733867645,
        0.10687597841024399,
        0.20261786878108978,
        -0.072356216609478,
        0.12075424939393997,
        -0.2226453274488449,
        0.17132730782032013,
        -0.08988283574581146,
        0.11503510922193527,
        -0.10998623818159103,
        0.1839790940284729,
        -0.13359908759593964,
        -0.01785004325211048,
        0.02746111899614334,
        0.051979441195726395,
        0.12088912725448608,
        -0.04370749741792679,
        0.1785021871328354,
        0.150955468416214,
        0.1533445119857788,
        -0.012201772071421146,
        -0.19506271183490753,
        0.09085649251937866,
        -0.09749633818864822,
        0.10011395066976547,
        0.15513330698013306,
        0.019356654956936836,
        0.18680937588214874,
        0.05098016560077667,
        0.13222254812717438,
        -0.04465930536389351,
        -0.08460977673530579,
        0.08144534379243851,
        0.18445903062820435,
        0.1706036478281021,
        0.15889516472816467,
        -0.0008583393064327538,
        0.02600739523768425,
        0.0852283239364624,
        -0.050967685878276825,
        0.14908863604068756,
        0.0816357210278511,
        0.08255980908870697,
        -0.0029431746806949377,
        0.09293727576732635,
        0.023281151428818703,
        0.14451324939727783,
        0.17834500968456268,
        -0.14921945333480835,
        -0.1341085433959961,
        -0.17468805611133575,
        0.11812202632427216,
        0.12913085520267487,
        0.016480041667819023,
        -0.16569489240646362,
        0.17140692472457886,
        0.13862574100494385,
        -0.19201120734214783,
        -0.20648905634880066,
        0.10023179650306702,
        -0.06919266283512115,
        -0.2308889776468277,
        0.07159095257520676,
        0.11105367541313171,
        -0.09131624549627304,
        -0.04126817360520363,
        -0.06997059285640717,
        0.13175009191036224,
        -0.17150922119617462,
        0.18503551185131073,
        0.04354438558220863,
        -0.16078144311904907,
        -0.1470245122909546,
        0.10398074239492416,
        -0.08534325659275055,
        -0.11531928181648254,
        0.035405661910772324,
        0.036402035504579544,
        0.03571682795882225,
        0.15504047274589539,
        -0.12595821917057037,
        -0.0004132061148993671,
        0.14951872825622559,
        -0.11178449541330338,
        -0.02598123997449875,
        -0.04947344586253166,
        0.09209735691547394,
        -0.0902610719203949,
        -0.03143743798136711,
        0.02991306409239769,
        0.031032932922244072,
        -0.04563825950026512,
        0.053932033479213715,
        -0.01013174932450056,
        0.06802608072757721,
        0.13591234385967255,
        0.17682722210884094,
        -0.01635243557393551,
        0.03509432077407837,
        0.13143765926361084,
        0.17539015412330627,
        0.04390135407447815,
        -0.1599189192056656,
        -0.11393521726131439,
        0.02017514407634735,
        0.05359591543674469,
        -0.06894845515489578,
        0.13478711247444153,
        0.10964421927928925,
        -0.13396434485912323,
        -0.028189916163682938,
        0.012358898296952248,
        0.17127253115177155,
        0.10899759829044342,
        -0.11919015645980835,
        -0.05123282968997955,
        -0.14518608152866364,
        0.013431970961391926,
        0.06369408965110779,
        0.03795189410448074,
        0.1381177306175232,
        -0.01773695833981037,
        0.02585756778717041,
        0.09690845757722855,
        0.07421053946018219,
        -0.04588310793042183,
        -0.15404336154460907,
        -0.13345155119895935,
        0.04792501777410507,
        0.15944749116897583,
        -0.160950168967247,
        0.12037992477416992,
        -0.10013052076101303,
        -0.08484454452991486,
        -0.10164478421211243,
        0.16790008544921875,
        -0.1733102947473526,
        0.15750016272068024,
        -0.019024638459086418,
        0.04894929379224777,
        0.12414617091417313,
        0.01846645586192608,
        0.1143631786108017,
        -0.14871852099895477,
        0.011094766668975353,
        0.13772176206111908,
        -0.03400224447250366,
        0.022357571870088577,
        0.17031200230121613,
        -0.06601542234420776,
        0.07736639678478241,
        0.13531257212162018,
        0.17629492282867432,
        0.061822567135095596,
        -0.10841327905654907,
        0.03514217212796211,
        0.0601523295044899,
        -0.15680551528930664,
        0.019868673756718636,
        0.029095953330397606,
        0.030587777495384216,
        -0.10813307762145996,
        -0.01828913390636444,
        -0.23220902681350708,
        0.1982031911611557,
        -0.148698091506958,
        0.014877326786518097,
        -0.06009090691804886,
        -0.1411316692829132,
        -0.04505130276083946,
        0.055919162929058075,
        0.0946539118885994,
        -0.006514676846563816,
        -0.22873274981975555,
        -0.025486893951892853,
        0.13584090769290924,
        -0.030041631311178207,
        0.12530799210071564,
        -0.1173890009522438,
        0.06861485540866852,
        -0.0372496023774147,
        -0.01726686581969261,
        0.2116081714630127,
        -0.015906373038887978,
        0.12239433079957962,
        0.20030054450035095,
        0.001832453883253038,
        -0.18181534111499786,
        0.16478142142295837,
        0.0725904107093811,
        0.1776832789182663,
        -0.05304136499762535,
        0.018652919679880142,
        -0.13644446432590485,
        -0.05048714205622673,
        -0.14047619700431824,
        0.19768936932086945,
        0.04197237268090248,
        -0.059038758277893066,
        0.040811680257320404,
        -0.015534576959908009,
        -0.1690969169139862,
        0.15970300137996674,
        -0.12391631305217743,
        -0.00417595449835062,
        -0.04454003646969795,
        -0.11499037593603134,
        0.17635057866573334,
        -0.07998702675104141,
        0.04621579125523567,
        -0.018093308433890343,
        -0.13450020551681519,
        -0.257563978433609,
        -0.11381544917821884,
        0.029746364802122116,
        0.04319455474615097,
        0.08271879702806473,
        0.04029015824198723,
        0.11749406158924103,
        -0.14436642825603485,
        0.1747487336397171,
        -0.015095410868525505,
        0.01693367213010788,
        0.18200664222240448,
        -0.16975587606430054,
        -0.017818167805671692,
        0.024381667375564575,
        0.04086391627788544,
        -0.013529877178370953,
        0.003356389934197068,
        -0.10230115056037903,
        0.1968899667263031,
        -0.02130548655986786,
        0.1936272382736206,
        0.012596501968801022,
        -0.08110292255878448,
        0.04932825639843941,
        0.038298506289720535,
        -0.138816237449646,
        -0.12311552464962006,
        -0.13060754537582397,
        0.13074839115142822,
        -0.08890743553638458,
        0.137736514210701,
        -0.026982706040143967,
        0.12949661910533905,
        -0.13195650279521942,
        0.0976225808262825,
        0.16491714119911194,
        0.022420944646000862,
        0.14394040405750275,
        0.11967411637306213,
        0.19736447930335999,
        -0.1824468970298767,
        -0.05382230132818222,
        0.0034215410705655813,
        -0.02687002345919609,
        0.15895256400108337,
        0.1038534939289093,
        0.08811786025762558,
        0.14212730526924133,
        0.22739893198013306,
        -0.2135622203350067,
        0.16401724517345428,
        -0.10376524180173874,
        -0.12397885322570801,
        0.1453605741262436,
        -0.14278057217597961,
        0.03569698706269264,
        -0.08181311935186386,
        0.15691249072551727,
        0.20760074257850647,
        0.14040066301822662,
        -0.11373323202133179,
        -0.16600212454795837,
        0.11069726198911667,
        0.13410136103630066,
        0.17710864543914795,
        0.03035205416381359,
        -0.02655075490474701,
        -0.0777582898736,
        -0.13214333355426788,
        -0.1608809232711792,
        -0.04785965755581856,
        0.15869468450546265,
        -0.11623386293649673,
        -0.01900937594473362,
        0.004156109876930714,
        0.03138389065861702,
        -0.12866242229938507,
        0.09571151435375214,
        0.022822463884949684,
        0.1533459722995758,
        0.0066069127060472965,
        -0.15615662932395935,
        -0.18981674313545227,
        -0.14680136740207672,
        0.06927522271871567,
        -0.1661701798439026,
        -0.001296939910389483,
        0.14269480109214783,
        0.1538112461566925,
        -0.15104810893535614,
        -0.03679799661040306,
        0.17095938324928284,
        -0.1418408751487732,
        -0.11045732349157333,
        -0.11383577436208725,
        -0.18003928661346436,
        -0.1364969164133072,
        0.1464066505432129,
        0.07348859310150146,
        0.08060962706804276,
        0.06560932099819183,
        0.10824494063854218,
        0.0928102433681488,
        -0.04917099326848984,
        -0.008455370552837849,
        0.07345817983150482,
        -0.07632619887590408,
        -0.028631260618567467,
        -0.11793570220470428,
        0.03189114108681679,
        0.14047227799892426,
        0.01367328129708767,
        0.16033713519573212,
        0.02073502168059349,
        0.2200925052165985,
        -0.07264436036348343,
        0.06321097165346146,
        0.17277345061302185,
        -0.06261873245239258,
        0.17309314012527466,
        -0.0660179927945137,
        0.0808495432138443,
        -0.017098018899559975,
        -0.14660809934139252,
        0.03427021577954292,
        -0.008483350276947021,
        0.11798066645860672,
        0.17370294034481049,
        0.026532359421253204,
        0.006347400601953268,
        0.07939048111438751,
        0.024364124983549118,
        -0.039742425084114075,
        0.1524122655391693,
        -0.07674024999141693,
        -0.08684825152158737,
        -0.09274592250585556,
        0.1839669644832611,
        -0.09893102943897247,
        -0.11082085967063904,
        0.07753533124923706,
        0.1579797863960266,
        -0.014994636178016663,
        -0.06151459738612175,
        0.07340937852859497,
        -0.0940236747264862,
        -0.3595181107521057,
        -0.1497870236635208,
        -0.06428397446870804,
        0.09072964638471603,
        -0.08316346257925034,
        0.05650880187749863,
        0.1693025380373001,
        -0.07065073400735855,
        -0.03281276673078537,
        -0.014190642163157463,
        0.11647845059633255,
        0.08262377977371216,
        0.1869189590215683,
        0.016769835725426674,
        -0.12964491546154022,
        0.10271590203046799,
        0.01973593980073929,
        0.13661792874336243,
        0.12881027162075043,
        0.10805877298116684,
        0.16008318960666656,
        -0.003229788038879633,
        0.07510962337255478,
        -0.19421614706516266,
        0.048498209565877914,
        0.1644497811794281,
        0.14446204900741577,
        -0.1139855831861496,
        -0.15980052947998047,
        -0.08920823782682419,
        -0.09108872711658478,
        0.015769675374031067,
        0.07127347588539124,
        -0.16353318095207214,
        0.0022197591606527567,
        0.09913574159145355,
        -0.11608404666185379,
        0.18995603919029236,
        -0.09072704613208771,
        0.08348434418439865,
        -0.11064708232879639,
        0.0344463549554348,
        0.08188703656196594,
        0.09499981999397278,
        0.17960241436958313,
        0.195937842130661,
        0.1443544626235962,
        0.08598943799734116,
        -0.006841149181127548,
        -0.03685905411839485,
        -0.03902332857251167,
        -0.14026418328285217,
        -0.03369761258363724,
        -0.13876280188560486,
        0.13723303377628326,
        -0.1459544599056244,
        -0.01649375632405281,
        -0.08821399509906769,
        0.04077785834670067,
        -0.20052479207515717,
        -0.009932288900017738,
        -0.08209917694330215,
        0.16731524467468262,
        -0.14704032242298126,
        0.16331025958061218,
        -0.12580762803554535,
        0.07524673640727997,
        -0.11105866730213165,
        0.15021483600139618,
        -0.056202199310064316,
        -0.0368058979511261,
        0.1656186878681183,
        0.11886544525623322,
        -0.16905105113983154,
        0.12592937052249908,
        0.032022442668676376,
        0.11045563220977783,
        0.17704588174819946,
        -0.08374286442995071,
        -0.0971926748752594,
        -0.16554024815559387,
        -0.040229398757219315,
        0.04351675137877464,
        -0.003694930113852024,
        0.2265898883342743,
        -0.1456093192100525,
        -0.1605655401945114,
        0.07599238306283951,
        0.026429414749145508,
        0.16441702842712402,
        0.09919761121273041,
        0.17292436957359314,
        0.16847862303256989,
        0.1267319768667221,
        0.049593087285757065,
        0.19290708005428314,
        0.024403197690844536,
        0.1658792644739151,
        0.07035854458808899,
        -0.16033503413200378,
        0.19697564840316772,
        -0.032781682908535004,
        0.08151661604642868,
        0.12722930312156677,
        -0.05777158960700035,
        0.09858701378107071,
        -0.15266522765159607,
        0.00952000729739666,
        0.15570995211601257,
        -0.05413396283984184,
        -0.04599649831652641,
        -0.033214081078767776,
        -0.018732473254203796,
        0.06584126502275467,
        -0.1315658688545227,
        0.13316145539283752,
        0.004388241562992334,
        -0.0926169753074646,
        0.15082105994224548,
        -0.1310032457113266,
        -0.027368932962417603,
        -0.0728498175740242,
        -0.05929532274603844,
        0.13936349749565125,
        -0.10791477560997009,
        0.03740159422159195,
        -0.16187018156051636,
        0.0774676650762558,
        0.16299377381801605,
        0.1920778751373291,
        -0.14650960266590118,
        0.1526658833026886,
        -0.12153297662734985,
        -0.1621491014957428,
        0.14761511981487274,
        0.12375112622976303,
        -0.12072993814945221,
        0.08126620948314667,
        -0.04961099103093147,
        0.1108909398317337,
        0.16685931384563446,
        0.07782907038927078,
        -0.10710127651691437,
        0.12552063167095184,
        0.03049602545797825,
        -0.19041013717651367,
        0.1543036699295044,
        0.1492600440979004,
        0.16970662772655487,
        -0.1706124246120453,
        -0.1656213402748108,
        0.14794404804706573,
        -0.04389993101358414,
        -0.05717046558856964,
        0.03607959672808647,
        0.027117742225527763,
        -0.054513052105903625,
        0.13205409049987793,
        -0.09231724590063095,
        0.028544526547193527,
        -0.14012834429740906,
        -0.02657235972583294,
        -0.02517036534845829,
        -0.11380358785390854,
        0.13784785568714142,
        0.07781941443681717,
        0.034036677330732346,
        -0.009209675714373589,
        -0.0022561566438525915,
        0.08075109869241714,
        -0.2097417265176773,
        0.07849569618701935,
        -0.09081042557954788,
        -0.10831595212221146,
        0.16018229722976685,
        -0.0341934897005558,
        0.016356103122234344,
        -0.10920203477144241,
        0.19708795845508575,
        0.1873391568660736,
        0.17231380939483643,
        -0.13814197480678558,
        0.021169763058423996,
        0.0033179977908730507,
        0.07666625827550888,
        0.01716102845966816,
        0.1775641292333603,
        -0.1053866520524025,
        -0.06353367120027542,
        0.13751235604286194,
        -0.00716776167973876,
        -0.07944482564926147,
        -0.17924641072750092,
        -0.07199853658676147,
        -0.057864710688591,
        0.05619756132364273,
        0.029637077823281288,
        0.05504263564944267,
        0.19167207181453705,
        -0.10764741897583008,
        -0.07276122272014618,
        0.0061081829480826855,
        0.1323232650756836,
        -0.17039281129837036,
        0.11556810885667801,
        0.1050892248749733,
        -0.017076538875699043,
        -0.12066586315631866,
        0.04342895373702049,
        0.1462254524230957,
        -0.15238548815250397,
        -0.09791672229766846,
        -0.09474745392799377,
        0.14750522375106812,
        0.09809304773807526,
        0.0567701980471611,
        -0.06758439540863037,
        -0.15412753820419312,
        -0.1137465238571167,
        -0.12237556278705597,
        0.09958516061306,
        -0.18561550974845886,
        -0.10038828104734421,
        0.11277787387371063,
        0.02630416676402092,
        0.1281260997056961,
        0.051065634936094284,
        -0.012662370689213276,
        -0.08075698465108871,
        -0.028882240876555443,
        0.17020319402217865,
        -0.1280744969844818,
        0.03352219611406326,
        0.011749246157705784,
        -0.041813924908638,
        0.046533018350601196,
        0.11537684500217438,
        -0.02498442865908146,
        0.006247146986424923,
        0.12239129841327667,
        0.05967596918344498,
        -0.18789996206760406,
        0.01740358956158161,
        0.10761453956365585,
        0.18654866516590118,
        -0.18450438976287842,
        0.0084946034476161,
        0.1353822946548462,
        0.06905707716941833,
        -0.0412592776119709,
        -0.11235366016626358,
        0.1009245365858078,
        -0.0897410660982132,
        -0.08993635326623917,
        -0.03455760329961777,
        0.032687898725271225,
        -0.047934290021657944,
        -0.11659914255142212,
        -0.015355248935520649,
        0.13670337200164795,
        0.1584794521331787,
        0.145527184009552,
        -0.13735374808311462,
        0.0001849307882366702,
        0.015335068106651306,
        0.0348159596323967,
        0.008703100495040417,
        0.22153455018997192,
        0.04359215497970581,
        -0.09791674464941025,
        0.12458626925945282,
        -0.10743658989667892,
        0.13925983011722565,
        0.013482285663485527,
        -0.03485481068491936,
        -0.09974685311317444,
        -0.10677900165319443,
        0.04973499849438667,
        -0.05132472515106201,
        -0.0441637746989727,
        0.20051869750022888,
        -0.11293824017047882,
        0.15198512375354767,
        -0.24226993322372437,
        -0.0041131447069346905,
        0.10428670793771744,
        0.0825989693403244,
        0.13473939895629883,
        -0.14532798528671265,
        -0.07473379373550415,
        -0.08281277120113373,
        -0.029834287241101265,
        -0.03201565518975258,
        0.18352951109409332,
        -0.14477278292179108,
        0.1318516582250595,
        -0.08172448724508286,
        0.023675383999943733,
        -0.13607282936573029,
        0.007265918422490358,
        -0.13424167037010193,
        0.0802227333188057,
        -0.1254994422197342,
        0.1918940544128418,
        0.18116916716098785,
        0.06898349523544312,
        -0.15734843909740448,
        -0.14852865040302277,
        -0.10901916027069092,
        -0.13629984855651855,
        -0.04340071603655815,
        0.01900177262723446,
        0.16141776740550995,
        -0.036738939583301544,
        -0.07817331701517105,
        0.0960623100399971,
        -0.043264105916023254,
        0.06437405943870544,
        0.18362516164779663,
        -0.033983368426561356,
        -0.018716832622885704,
        0.15974628925323486,
        0.059228748083114624,
        -0.1564885824918747,
        -0.15140758454799652,
        0.08982892334461212,
        -0.022179177030920982,
        -0.023883657529950142,
        -0.0746297761797905,
        0.13906480371952057,
        -0.1688949018716812,
        -0.1408621072769165,
        -0.13567517697811127,
        -0.054159827530384064,
        -0.10236527770757675,
        0.12663139402866364,
        -0.04728473350405693,
        0.1255894899368286,
        0.06416429579257965,
        0.0554409921169281,
        0.01735326461493969,
        -0.051082562655210495,
        0.10373132675886154,
        -0.21180230379104614,
        -0.05869229510426521,
        0.14074963331222534,
        0.08823227137327194,
        0.20636719465255737,
        -0.00041890243301168084,
        -0.025582479313015938,
        0.056567274034023285,
        -0.0415533185005188,
        0.12163916230201721,
        -0.11314887553453445,
        0.08403179049491882,
        -0.09927859902381897,
        0.01854444481432438,
        0.007113823667168617,
        0.12651872634887695,
        -0.17268508672714233,
        0.05473710224032402,
        0.13398173451423645,
        -0.14593389630317688,
        0.04782554879784584,
        -0.10401533544063568,
        -0.15514075756072998,
        0.14192529022693634,
        -0.01401669904589653,
        0.013527334667742252,
        -0.11359334737062454,
        0.03262428939342499,
        -0.1321948915719986,
        -0.17264048755168915,
        0.01657550409436226,
        0.04430611431598663,
        0.1926470398902893,
        0.04550836235284805,
        -0.00678429426625371,
        -0.04744696617126465,
        -0.042273662984371185,
        -0.007877553813159466,
        -0.10142746567726135,
        0.07790388911962509,
        0.1901526153087616,
        0.026732776314020157,
        -0.07769754528999329,
        0.14807148277759552,
        -0.12142854183912277,
        0.2097332775592804,
        -0.09255114942789078,
        0.018587615340948105,
        0.05341125652194023,
        -0.1023285835981369,
        -0.24934566020965576,
        -0.13669195771217346,
        -0.05664831027388573,
        -0.12408114224672318,
        0.06596843153238297,
        0.14325939118862152,
        0.15158943831920624,
        0.20500512421131134,
        -0.14024221897125244,
        0.10706833750009537,
        0.17908167839050293,
        0.02304851822555065,
        -0.17287017405033112,
        -0.10864010453224182,
        0.01924709416925907,
        -0.15497063100337982,
        0.11196064203977585,
        0.1407415121793747,
        0.11268867552280426,
        -0.02963644452393055,
        -0.14300410449504852,
        0.1312382072210312,
        0.15602825582027435,
        0.11571519076824188,
        0.11557105928659439,
        0.16281861066818237,
        -0.18100358545780182,
        0.10023462027311325,
        -0.010797068476676941,
        -0.09851709008216858,
        -0.07275037467479706,
        -0.12773461639881134,
        -0.07825502008199692,
        -0.007763945031911135,
        0.08517736196517944,
        0.05929327756166458,
        -0.12230034917593002,
        -0.04059109464287758,
        -0.10707993060350418,
        -0.04487837478518486,
        0.04379945248365402,
        -0.1442277580499649,
        -0.11710234731435776,
        0.172730952501297,
        -0.03491511940956116,
        0.019214242696762085,
        -0.18963846564292908,
        0.15552487969398499,
        -0.09501148760318756,
        -0.1062929555773735,
        -0.03296520560979843,
        -0.147877037525177,
        0.09594179689884186,
        0.08763117343187332,
        0.0035184319131076336,
        0.10858150571584702,
        0.011860647238790989,
        -0.050148434937000275,
        0.049865566194057465,
        0.0591546930372715,
        -0.005462241359055042,
        0.0676344558596611,
        -0.022458214312791824,
        0.14493900537490845,
        0.017318781465291977,
        -0.10025688260793686,
        0.11018868535757065,
        0.018683327361941338,
        -0.15903693437576294,
        0.17225070297718048,
        0.1068074107170105,
        -0.001120524713769555,
        0.10333089530467987,
        -0.14630812406539917,
        -0.017008421942591667,
        -0.09901105612516403,
        -0.1392722874879837,
        0.007112066727131605,
        -0.09393081814050674,
        -0.15992432832717896,
        0.03851552680134773,
        -0.0054127066396176815,
        0.07480056583881378,
        -0.16377456486225128,
        -0.1503659188747406,
        -0.09718160331249237,
        0.08038239181041718,
        0.1114259883761406,
        -0.06386122852563858,
        -0.04261663556098938,
        0.14632651209831238,
        0.09123526513576508,
        -0.05086306855082512,
        0.03825581446290016,
        -0.1343143731355667,
        -0.17472977936267853,
        -0.15802018344402313,
        0.07918389141559601,
        0.017920831218361855,
        0.042241424322128296,
        -0.13323630392551422,
        0.05493239685893059,
        0.010742317885160446,
        0.05016860365867615,
        0.023240266367793083,
        -0.14919862151145935,
        0.10393426567316055,
        0.002691177884116769,
        -0.07601188868284225,
        -0.028253186494112015,
        0.05959327518939972,
        0.04202960804104805,
        -0.05922723561525345,
        -0.0170808844268322,
        0.016651397570967674,
        -0.14805324375629425,
        -0.055934932082891464,
        -0.04376797750592232,
        0.0865689292550087,
        -0.07625507563352585,
        0.1444571167230606,
        -0.06584849953651428,
        0.022927433252334595,
        -0.2039111703634262,
        0.02895149402320385,
        0.1365712285041809,
        -0.0911826640367508,
        0.04391181096434593,
        -0.026609977707266808,
        0.07066599279642105,
        0.08896501362323761,
        -0.03707265853881836,
        0.036467865109443665,
        -0.11330362409353256,
        0.061808109283447266,
        0.15844441950321198,
        -0.15398189425468445,
        0.004774703178554773,
        -0.1287144124507904,
        -0.1508592963218689,
        -0.052954915910959244,
        0.07327800989151001,
        0.224758118391037,
        -0.27771762013435364,
        0.12614116072654724,
        -0.10154050588607788,
        0.22638560831546783,
        -0.14773274958133698,
        -0.05569308623671532,
        0.03727078065276146,
        0.05210387334227562,
        0.09678599238395691,
        -0.15656614303588867,
        0.16427238285541534,
        0.19751664996147156,
        -0.16018792986869812,
        -0.04609648510813713,
        -0.05846480652689934,
        -0.018058937042951584,
        0.019864432513713837,
        -0.12210576981306076,
        0.024827532470226288,
        -0.09019563347101212,
        -0.1277736872434616,
        -0.1221417561173439,
        0.09543957561254501,
        -0.11234188079833984,
        0.08808501809835434,
        -0.00037341596907936037,
        -0.035771097987890244,
        0.2828792631626129,
        0.17749819159507751,
        -0.015652675181627274,
        0.12160971015691757,
        0.05070660263299942,
        0.04265207797288895,
        -0.06242790445685387,
        0.04696009308099747,
        -0.08098544925451279,
        0.07321984320878983,
        0.015798475593328476,
        0.002576462458819151,
        -0.056654032319784164,
        -0.03025156632065773,
        0.005877675022929907,
        -0.15095798671245575,
        -0.13003860414028168,
        -0.1313033401966095,
        0.008805990219116211,
        0.024661222472786903,
        0.12238447368144989,
        -0.05350235477089882,
        -0.13540016114711761,
        -0.15813490748405457,
        0.0438426174223423,
        0.1759524941444397,
        0.162387415766716,
        -0.10142935812473297,
        0.01419871300458908,
        -0.044928159564733505,
        0.03817266598343849,
        -0.0065185148268938065,
        -0.111284539103508,
        -0.0020721321925520897,
        -0.08541405200958252,
        0.0625074952840805,
        0.03150966763496399,
        0.13709640502929688,
        -0.1491975337266922,
        -0.13709986209869385,
        0.16027839481830597,
        -0.11576887965202332,
        -0.009225460700690746,
        -0.1513725221157074,
        -0.0966719463467598,
        0.17997418344020844,
        0.16616499423980713,
        -0.17014919221401215,
        -0.053659699857234955,
        0.17536646127700806,
        -0.07553107291460037,
        0.20195555686950684,
        -0.059134189039468765,
        -0.03339221328496933,
        -0.10136882215738297,
        0.1148364469408989,
        0.1710246354341507,
        -0.0553777813911438,
        -0.14710286259651184,
        0.15307961404323578,
        -0.15105046331882477,
        0.03718871623277664,
        -0.016389068216085434,
        -0.02683448977768421,
        0.06573469936847687,
        -0.13934853672981262,
        -0.04605906829237938,
        0.11885621398687363,
        0.10396823287010193,
        0.035134200006723404,
        0.19060438871383667,
        0.06001070886850357,
        -0.009250801987946033,
        -0.018819445744156837,
        -0.16980384290218353,
        0.05503782629966736,
        -0.10082978755235672,
        0.1608552187681198,
        0.1058531105518341,
        0.07272998243570328,
        0.0445064902305603,
        0.061069801449775696,
        -0.20393124222755432,
        -0.08923404663801193,
        -0.05017397552728653,
        0.010048499330878258,
        0.13466863334178925,
        -0.03136040270328522,
        -0.028608636930584908,
        0.10034602135419846,
        0.04498560354113579,
        -0.06632525473833084,
        0.07689816504716873,
        0.06982018798589706,
        0.14569133520126343,
        -0.1415538191795349,
        0.09279141575098038,
        -0.13959507644176483,
        -0.07456887513399124,
        0.20159481465816498,
        -0.03681798651814461,
        0.1116165816783905,
        0.08206172287464142,
        -0.08733914792537689,
        0.022726714611053467,
        0.007092700339853764,
        -0.08667417615652084,
        0.022250238806009293,
        -0.012484514154493809,
        -0.22978194057941437,
        -0.04446990415453911,
        0.0446343757212162,
        -0.012894640676677227,
        0.005527589935809374,
        0.14510394632816315,
        -0.08222468942403793,
        0.09249728173017502,
        0.024177186191082,
        0.02442738227546215,
        -0.16478002071380615,
        -0.06984156370162964,
        -0.02889549359679222,
        -0.08933993428945541,
        0.1189393624663353,
        0.1277974247932434,
        -0.0036020539700984955,
        0.04775116220116615,
        -0.09768690913915634,
        -0.20837818086147308,
        -0.16566027700901031,
        -7.596005161758512e-06,
        0.09499737620353699,
        -0.058095142245292664,
        -0.13054057955741882,
        -0.13302652537822723,
        -0.12935444712638855,
        0.1674829125404358,
        0.032879360020160675,
        0.09597907215356827,
        0.030770352110266685,
        -0.1199759840965271,
        0.11401934176683426,
        -0.17159117758274078,
        0.13698266446590424,
        -0.14309100806713104,
        0.06217768043279648,
        -0.007325093261897564,
        0.09520819038152695,
        0.044937863945961,
        0.024341218173503876,
        0.08476357907056808,
        -0.11693648248910904,
        -0.0032032160088419914,
        -0.1539754867553711,
        -0.1294332593679428,
        -0.04607653245329857,
        -0.15780019760131836,
        -0.19632327556610107,
        0.14061316847801208,
        -0.02353609912097454,
        0.0873287171125412,
        -0.16696691513061523,
        -0.059374257922172546,
        -0.021918291226029396,
        0.048350799828767776,
        0.1262570470571518,
        -0.1344504952430725,
        0.18193469941616058,
        0.04869787022471428,
        0.03684958815574646,
        0.08674454689025879,
        -0.008328557014465332,
        -0.09058743715286255,
        -0.11036409437656403,
        -0.05754808336496353,
        0.16751906275749207,
        0.1294538676738739,
        -0.05085192620754242,
        -0.15043030679225922,
        0.1515979915857315,
        0.19887667894363403,
        0.11341513693332672,
        -0.044092223048210144,
        0.0922689363360405,
        0.0770505964756012,
        0.13851504027843475,
        0.05759308859705925,
        -0.20836946368217468,
        -0.013245527632534504,
        -0.09901146590709686,
        0.12300735712051392,
        -0.02760379947721958,
        -0.07676548510789871,
        0.018641555681824684,
        0.14548107981681824,
        0.015835558995604515,
        -0.19142015278339386,
        -0.007907357066869736,
        0.0265151746571064,
        -0.13647623360157013,
        0.15314258635044098,
        -0.14268113672733307,
        -0.03978174552321434,
        -0.15415149927139282,
        0.053397711366415024,
        0.10791429877281189,
        -0.1303253471851349,
        0.18075647950172424,
        0.1304512619972229,
        0.07208685576915741,
        -0.18737708032131195,
        0.1625823676586151,
        -0.12481481581926346,
        0.11837094277143478,
        -0.04559206962585449,
        0.12409379333257675,
        0.1319589763879776,
        -0.13454854488372803,
        -0.01798873580992222,
        -0.04674236476421356,
        0.06082305684685707,
        0.13968726992607117,
        -0.02445833384990692,
        0.02581815794110298,
        -0.16141857206821442,
        0.12536826729774475,
        -0.10936053097248077,
        -0.06194091960787773,
        0.14560532569885254,
        0.15015476942062378,
        0.17552706599235535,
        -0.017024852335453033,
        0.1381920427083969,
        -0.11418967694044113,
        0.12832246720790863,
        -0.05460153520107269,
        -0.0924874097108841,
        -0.10080410540103912,
        -0.09248390793800354,
        0.20809634029865265,
        0.1252078413963318,
        -0.06905003637075424,
        0.03834568336606026,
        0.17039945721626282,
        0.09787650406360626,
        -0.1505512297153473,
        0.1658206731081009,
        0.09853482991456985,
        -0.11385124921798706,
        -0.09439853578805923,
        0.004949737340211868,
        -0.10249540209770203,
        -0.1218748465180397,
        0.17364980280399323,
        -0.12602286040782928,
        0.1289552003145218,
        0.029292160645127296,
        -0.1293991059064865,
        -0.08524885028600693,
        -0.16818520426750183,
        -0.025281362235546112,
        0.18752896785736084,
        0.1109740287065506,
        -0.04606563225388527,
        0.12083243578672409,
        -0.06245606392621994,
        -0.19473744928836823,
        0.10103616863489151,
        0.09581125527620316,
        -0.05650807172060013,
        -0.2372467964887619,
        0.10554315149784088,
        0.008187814615666866,
        0.007896563038229942,
        -0.06172477826476097,
        -0.07691914588212967,
        -0.033801645040512085,
        -0.11173208057880402,
        -0.12017246335744858,
        -0.0911429226398468,
        0.08957599103450775,
        0.05631288141012192,
        -0.1108817383646965,
        -0.1702166348695755,
        0.10136239230632782,
        0.056363463401794434,
        -0.18788795173168182,
        0.02253982052206993,
        -0.1052098348736763,
        0.1471439152956009,
        -0.1448661834001541,
        0.20589075982570648,
        0.11169333755970001,
        0.207235649228096,
        -0.13831782341003418,
        0.09628676623106003,
        -0.030311524868011475,
        -0.15022271871566772,
        0.13289424777030945,
        0.06587497144937515,
        0.033746104687452316,
        -0.16374938189983368,
        0.15766088664531708,
        -0.03746844083070755,
        -0.20684342086315155,
        -0.1931779384613037,
        0.02562677301466465,
        -0.010019803419709206,
        -0.11209467798471451,
        -0.13594287633895874,
        -0.05723981559276581,
        0.12968268990516663,
        -0.07761064171791077,
        -0.13057731091976166,
        -0.156880721449852,
        0.06424301117658615,
        -0.1197710707783699,
        -0.0026975616347044706,
        0.15603043138980865,
        -0.09235379844903946,
        0.013539815321564674,
        0.07999630272388458,
        0.19035594165325165,
        0.10558246821165085,
        0.09140131622552872,
        0.03755521401762962,
        -0.061195019632577896,
        0.01958128809928894,
        0.09750308096408844,
        0.0544477216899395,
        0.1317332535982132,
        -0.10755497962236404,
        0.07429421693086624,
        0.0654497966170311,
        0.0037717425730079412,
        0.053230948746204376,
        -0.09513667970895767,
        0.027572108432650566,
        -0.08989480882883072,
        0.04018300399184227,
        0.16575582325458527,
        0.09815603494644165,
        0.16674935817718506,
        0.02623498998582363,
        -0.060795437544584274,
        0.0019512680592015386,
        -0.02042420767247677,
        -0.15357550978660583,
        0.1722635179758072,
        -0.08373129367828369,
        0.19316864013671875,
        -0.013077930547297001,
        0.1551385223865509,
        -0.052503738552331924,
        0.007053596433252096,
        -0.09974584728479385,
        0.16863784193992615,
        0.07730184495449066,
        -0.10165975987911224,
        -0.11814243346452713,
        0.10216932743787766,
        0.21948087215423584,
        0.08044080436229706,
        0.12859253585338593,
        -0.16669145226478577,
        -0.13128434121608734,
        0.14054371416568756,
        0.12457920610904694,
        0.1869405210018158,
        -0.04380146041512489,
        -0.1005270853638649,
        -0.10486865788698196,
        0.08052891492843628,
        -0.056292444467544556,
        0.17033419013023376,
        0.10187721252441406,
        -0.08570154011249542,
        -0.09014169126749039,
        -0.18265323340892792,
        -0.0010550174629315734,
        -0.06149142235517502,
        0.11624978482723236,
        0.1604687124490738,
        0.07213564217090607,
        -0.1626298427581787,
        0.10592211782932281,
        -0.07072554528713226,
        0.08062967658042908,
        -0.022463757544755936,
        -0.05402151495218277,
        0.1938876509666443,
        -0.05819015949964523,
        -0.017110371962189674,
        0.06262475252151489,
        -0.0762116014957428,
        -0.10128074139356613,
        0.0658227875828743,
        -0.0793261006474495,
        0.14833493530750275,
        0.11012566089630127,
        -0.03153350204229355,
        -0.052399151027202606,
        0.11306971311569214,
        0.0562765970826149,
        0.05666680634021759,
        0.055717434734106064,
        -0.07070675492286682,
        0.13748976588249207,
        -0.14940394461154938,
        0.16747654974460602,
        0.21027441322803497,
        0.16164354979991913,
        0.07137706875801086,
        -0.14109188318252563,
        -0.1763746440410614,
        -0.006905958987772465,
        0.051838792860507965,
        0.08621963113546371,
        0.07172373682260513,
        0.1489333063364029,
        0.08084511756896973,
        0.1332302838563919,
        0.058524761348962784,
        -0.026476340368390083,
        0.06475879997015,
        0.005901546683162451,
        0.05229252576828003,
        0.07688243687152863,
        0.16471165418624878,
        -0.07998218387365341,
        -0.02537553757429123,
        0.09861542284488678,
        -0.08848583698272705,
        0.16529475152492523,
        0.1398313194513321,
        0.07536649703979492,
        0.031983353197574615,
        -0.1615625023841858,
        0.022460289299488068,
        0.2247849851846695,
        0.20649850368499756,
        0.181942418217659,
        0.021878398954868317,
        0.2488076388835907,
        -0.15824003517627716,
        -0.0755297914147377,
        0.018991321325302124,
        -0.12106166779994965,
        0.02893572486937046,
        0.00357766798697412,
        -0.0460188090801239,
        0.12037481367588043,
        0.06500145047903061,
        -0.05519317463040352,
        0.10245009511709213,
        -0.018040809780359268,
        0.1727904975414276,
        0.13084587454795837,
        0.015336918644607067,
        -0.14542755484580994,
        -0.13077396154403687,
        -0.012765368446707726,
        -0.18189585208892822,
        0.17722433805465698,
        0.17656752467155457,
        -0.14466583728790283,
        0.1307031661272049,
        0.1747722327709198,
        -0.006549042649567127,
        0.13514845073223114,
        0.17089524865150452,
        0.08844783157110214,
        -0.16122326254844666,
        0.04449879378080368,
        0.11875050514936447,
        -0.12543588876724243,
        -0.06575087457895279,
        -0.08575751632452011,
        -0.08169297128915787,
        0.06199956312775612,
        0.04322248697280884,
        0.057296041399240494,
        -0.16677553951740265,
        0.17455823719501495,
        0.012485791929066181,
        -0.06522528827190399,
        -0.04115641489624977,
        0.005098380614072084,
        0.11905786395072937,
        -0.11082524061203003,
        0.06953572481870651,
        -0.17088694870471954,
        0.06367939710617065,
        -0.09330159425735474,
        -0.18260741233825684,
        0.05297079309821129,
        -0.058799486607313156,
        -0.15904730558395386,
        -0.025905106216669083,
        0.13855500519275665,
        -0.13570120930671692,
        -0.1404445916414261,
        0.0925535187125206,
        -0.06936129927635193,
        -0.09350399672985077,
        -0.14981615543365479,
        -0.07395965605974197,
        0.13851743936538696,
        -0.1668185293674469,
        0.13201887905597687,
        0.02079721726477146,
        0.15995600819587708,
        -0.06292589753866196,
        -0.026850828900933266,
        -0.172568216919899,
        -0.12885774672031403,
        -0.027570949867367744,
        0.034884389489889145,
        0.17460954189300537,
        0.012376143597066402,
        -0.1571490615606308,
        -0.033817317336797714,
        -0.03098498284816742,
        0.04611128941178322,
        0.16520269215106964,
        0.09819548577070236,
        -0.13800889253616333,
        0.08366583287715912,
        -0.02845488116145134,
        -0.014652213081717491,
        0.036543138325214386,
        0.09489225596189499,
        0.11699777841567993,
        -0.09664512425661087,
        0.060175999999046326,
        0.15360955893993378,
        0.07202663272619247,
        0.03167473152279854,
        -0.13519616425037384,
        -0.07748056948184967,
        0.15625882148742676,
        0.16431047022342682,
        -0.09277269244194031,
        -0.1361730992794037,
        0.097403384745121,
        0.07197818905115128,
        0.007189430296421051,
        0.023916177451610565,
        0.16727674007415771,
        -0.12122470885515213,
        0.17328085005283356,
        -0.07933495193719864,
        0.0972362831234932,
        -0.07957260310649872,
        0.11111631244421005,
        0.06765521317720413,
        0.020777832716703415,
        0.04117395728826523,
        0.06031195446848869,
        -0.12255588173866272,
        -0.22747454047203064,
        0.04663744196295738,
        0.05944151431322098,
        0.08942671865224838,
        -0.15837901830673218,
        0.14835231006145477,
        0.12242987751960754,
        -0.1276543289422989,
        -0.15286847949028015,
        0.16143468022346497,
        -0.000339399091899395,
        -0.1592201143503189,
        -0.1639624685049057,
        0.10205801576375961,
        0.06539889425039291,
        0.09894036501646042,
        0.1626053750514984,
        0.04538580775260925,
        -0.1043442115187645,
        -0.11825427412986755,
        0.18920572102069855,
        0.01850992627441883,
        -0.10665684938430786,
        -0.03781730309128761,
        -0.0755947157740593,
        -0.09337402135133743,
        -0.13770070672035217,
        0.07699821144342422,
        -0.024095091968774796,
        0.07570087164640427,
        0.12692128121852875,
        0.11507374048233032,
        0.06795761734247208,
        -0.0774325281381607,
        -0.033021871000528336,
        -0.01797216571867466,
        -0.12244629114866257,
        0.011181765235960484,
        -0.09486263245344162,
        -0.1305229812860489,
        0.012147142551839352,
        0.1672649383544922,
        0.05583095923066139,
        0.023437028750777245,
        0.0104524539783597,
        -0.023767899721860886,
        0.030349018052220345,
        0.13791689276695251,
        0.10474574565887451,
        -0.11666124314069748,
        -0.06696947664022446,
        -0.1331685185432434,
        -0.0205075666308403,
        0.17709262669086456,
        0.20703968405723572,
        -0.13675419986248016,
        -0.09385533630847931,
        0.17522212862968445,
        0.15170420706272125,
        0.1771593987941742,
        0.0382361076772213,
        -0.007553940173238516,
        0.10806821286678314,
        -0.11382345110177994,
        0.014289340004324913,
        -0.14269590377807617,
        0.21717673540115356,
        0.05604894086718559,
        0.15265274047851562,
        -0.035378094762563705,
        0.08420687913894653,
        0.08307880163192749,
        0.18485909700393677,
        0.04466049745678902,
        0.1488822102546692,
        -0.1365155279636383,
        -0.03187840059399605,
        0.16989678144454956,
        0.17401836812496185,
        0.05605049058794975,
        -0.0379030741751194,
        0.1391492486000061,
        0.06279566884040833,
        -0.021335182711482048,
        0.10486722737550735,
        -0.08300832659006119,
        0.08004963397979736,
        -0.006981670390814543,
        -0.14516758918762207,
        -0.0936337560415268,
        -0.030638283118605614,
        0.05413290858268738,
        0.12889277935028076,
        0.1030091941356659,
        -0.08855273574590683,
        -0.22467778623104095,
        -0.007717509754002094,
        0.04670226573944092,
        -0.05839677155017853,
        0.05248955637216568,
        -0.1374552994966507,
        0.19514065980911255,
        0.0946166142821312,
        0.19972392916679382,
        0.0436958484351635,
        -0.15796293318271637,
        0.15217448770999908,
        0.011447777971625328,
        -0.16304054856300354,
        0.13320280611515045,
        -0.08684352785348892,
        0.19413577020168304,
        0.001390877878293395,
        0.05578235909342766,
        -0.13586415350437164,
        0.03890280798077583,
        -0.0889296680688858,
        0.09210046380758286,
        -0.06172449514269829,
        -0.03961025923490524,
        -0.11879930645227432,
        0.01875375024974346,
        0.05107609182596207,
        0.1416979432106018,
        0.0009117695735767484,
        -0.15498590469360352,
        0.017793547362089157,
        -0.13940703868865967,
        -0.08680380880832672,
        -0.10565356910228729,
        -0.033126555383205414,
        -0.13062584400177002,
        0.17287829518318176,
        0.1311439573764801,
        -0.0460977628827095,
        0.0480649396777153,
        0.18335552513599396,
        -0.03657587245106697,
        0.04451591521501541,
        -0.06566666811704636,
        -0.1176207959651947,
        0.20043835043907166,
        0.16069768369197845,
        0.13766957819461823,
        0.24132685363292694,
        -0.06687673926353455,
        -0.02867676317691803,
        -0.010373672470450401,
        -0.013530055992305279,
        0.07314202189445496,
        0.1732736974954605,
        -0.09882622957229614,
        0.16384465992450714,
        0.15947337448596954,
        -0.07777976989746094,
        0.17014215886592865,
        -0.05642290040850639,
        0.0038416218012571335,
        -0.1098819375038147,
        0.08752186596393585,
        0.1766492873430252,
        -0.20464129745960236,
        -0.053959157317876816,
        0.08735626935958862,
        -0.09051237255334854,
        -0.04186173528432846,
        -0.047277919948101044,
        0.0597543939948082,
        -0.193327859044075,
        0.06154107674956322,
        -0.04937686398625374,
        0.10710147023200989,
        0.045873235911130905,
        -0.07256687432527542,
        0.0011707772500813007,
        0.013210359960794449,
        0.035114552825689316,
        -0.155622661113739,
        0.1538400948047638,
        0.10283832997083664,
        -0.12815210223197937,
        -0.034255657345056534,
        -0.021015193313360214,
        -0.1418839991092682,
        0.0914963111281395,
        0.08347836136817932,
        -0.08233977854251862,
        -0.04792467877268791,
        0.09680213779211044,
        -0.15477627515792847,
        0.18616437911987305,
        -0.060729701071977615,
        0.03202882036566734,
        -2.70405307674082e-05,
        -0.1480955183506012,
        -0.07248667627573013,
        0.0981384664773941,
        -0.1909296065568924,
        0.17221888899803162,
        0.051545802503824234,
        0.12799730896949768,
        0.09877197444438934,
        -0.12913993000984192,
        -0.084972083568573,
        0.05274083837866783,
        -0.11337434500455856,
        -0.008417148143053055,
        0.17850926518440247,
        -0.05235015228390694,
        0.11073029041290283,
        -0.22022978961467743,
        0.030995551496744156,
        -0.0006100403261370957,
        0.02864941582083702,
        -0.037357084453105927,
        -0.18071860074996948,
        0.032569341361522675,
        0.11136850714683533,
        -0.18787816166877747,
        -0.11337060481309891,
        -0.06567759066820145,
        0.05939747393131256,
        0.03846858814358711,
        0.18112654983997345,
        -0.1319434493780136,
        -0.17926542460918427,
        0.07054712623357773,
        0.13716839253902435,
        0.14915981888771057,
        -0.1475287228822708,
        -0.10723216831684113,
        0.05142723023891449,
        -0.09971314668655396,
        -0.10589354485273361,
        -0.16986164450645447,
        0.11186135560274124,
        -0.09216400980949402,
        -0.020793255418539047,
        -0.015103612095117569,
        0.10976137220859528,
        -0.17793989181518555,
        0.11345477402210236,
        0.025202123448252678,
        0.11695603281259537,
        -0.02509467303752899,
        0.1569937765598297,
        -0.12805989384651184,
        0.010251685976982117,
        0.010386219248175621,
        -0.18721525371074677,
        0.11790063232183456,
        0.1538720279932022,
        -0.004435993265360594,
        -0.1523040235042572,
        -0.001012684777379036,
        0.09486831724643707,
        0.034068480134010315,
        0.1575617790222168,
        0.060337744653224945,
        0.21098101139068604,
        0.14604628086090088,
        0.026022763922810555,
        -0.12801863253116608,
        -0.11974667757749557,
        0.1187673881649971,
        0.0680665597319603,
        -0.08898856490850449,
        0.011706996709108353,
        -0.07498399913311005,
        0.04506960138678551,
        0.1252240091562271,
        0.13529354333877563,
        -0.026494372636079788,
        0.15046508610248566,
        -0.06010890007019043,
        0.042336687445640564,
        -0.03648395463824272,
        -0.09130360186100006,
        0.14830923080444336,
        -0.17288236320018768,
        0.027669768780469894,
        0.18864649534225464,
        -0.09645029157400131,
        -0.10083828866481781,
        0.074567511677742,
        -0.09527494013309479,
        0.0411762073636055,
        0.15904679894447327,
        0.179920956492424,
        0.15459010004997253,
        -0.11864873766899109,
        -0.10279291123151779,
        -0.17648911476135254,
        0.0020484074484556913,
        0.05300147831439972,
        0.06972356885671616,
        0.012199976481497288,
        0.06349105387926102,
        0.2021205723285675,
        0.1328045278787613,
        0.10742127895355225,
        -0.14714379608631134,
        0.1806277185678482,
        0.11069092154502869,
        -0.07632917165756226,
        -0.17820574343204498,
        -0.04628480225801468,
        0.02834959700703621,
        0.12385933101177216,
        -0.161252960562706,
        -0.1725088357925415,
        0.03589465096592903,
        -0.166703462600708,
        -0.023869575932621956,
        -0.07102862000465393,
        0.022444341331720352,
        0.12342140078544617,
        0.06159604713320732,
        -0.14754968881607056,
        -0.059070855379104614,
        -0.1668570637702942,
        -0.18652716279029846,
        0.0672057494521141,
        0.046645332127809525,
        0.042320579290390015,
        0.08633533865213394,
        0.14973479509353638,
        -0.11304520815610886,
        0.06640130281448364,
        -0.12074210494756699,
        -0.08464664220809937,
        0.018681852146983147,
        -0.18079431354999542,
        0.0585331954061985,
        -0.1779583841562271,
        0.09336919337511063,
        -0.06516674160957336,
        0.05167646333575249,
        -0.08082689344882965,
        0.12709057331085205,
        -0.13867807388305664,
        0.07754399627447128,
        -0.13504166901111603,
        0.13000714778900146,
