{
  "defaults": {},
  "inputs": [
    {
      "name": "DNNinput_wtag__channel",
      "offset": 3.0,
      "scale": 0.16666666666666666
    },
    {
      "name": "DNNinput_wtag__year",
      "offset": 3.0,
      "scale": 0.16666666666666666
    },
    {
      "name": "DNNinput_wtag__met_pt",
      "offset": -0.0,
      "scale": 0.0005
    },
    {
      "name": "DNNinput_wtag__met_phi",
      "offset": 4.0,
      "scale": 0.125
    },
    {
      "name": "DNNinput_wtag__lepton_pt",
      "offset": -0.0,
      "scale": 0.0005
    },
    {
      "name": "DNNinput_wtag__lepton_eta",
      "offset": 5.0,
      "scale": 0.1
    },
    {
      "name": "DNNinput_wtag__lepton_phi",
      "offset": 4.0,
      "scale": 0.125
    },
    {
      "name": "DNNinput_wtag__lepton_reliso",
      "offset": -0.0,
      "scale": 5.0
    },
    {
      "name": "DNNinput_wtag__lepton_charge",
      "offset": 1.0,
      "scale": 0.5
    },
    {
      "name": "DNNinput_wtag__lepton_dr_nextjet",
      "offset": -0.0,
      "scale": 0.16666666666666666
    },
    {
      "name": "DNNinput_wtag__lepton_dphi_nextjet",
      "offset": -0.0,
      "scale": 0.25
    },
    {
      "name": "DNNinput_wtag__lepton_deta_nextjet",
      "offset": -0.0,
      "scale": 0.16666666666666666
    },
    {
      "name": "DNNinput_wtag__lepton_ptrel_nextjet",
      "offset": -0.0,
      "scale": 0.00125
    },
    {
      "name": "DNNinput_wtag__lepton_dr_nextxjet",
      "offset": -0.0,
      "scale": 0.16666666666666666
    },
    {
      "name": "DNNinput_wtag__lepton_dphi_nextxjet",
      "offset": -0.0,
      "scale": 0.25
    },
    {
      "name": "DNNinput_wtag__lepton_deta_nextxjet",
      "offset": -0.0,
      "scale": 0.16666666666666666
    },
    {
      "name": "DNNinput_wtag__lepton_ptrel_nextxjet",
      "offset": -0.0,
      "scale": 0.00125
    },
    {
      "name": "DNNinput_wtag__dphi_lepton_met",
      "offset": -0.0,
      "scale": 0.25
    },
    {
      "name": "DNNinput_wtag__mtw",
      "offset": -0.0,
      "scale": 0.002
    },
    {
      "name": "DNNinput_wtag__pseudotop_m",
      "offset": -0.0,
      "scale": 0.00125
    },
    {
      "name": "DNNinput_wtag__wjet_pt",
      "offset": -0.0,
      "scale": 0.001
    },
    {
      "name": "DNNinput_wtag__wjet_eta",
      "offset": 5.0,
      "scale": 0.1
    },
    {
      "name": "DNNinput_wtag__wjet_phi",
      "offset": 4.0,
      "scale": 0.125
    },
    {
      "name": "DNNinput_wtag__dr_wjet_lepton",
      "offset": -0.0,
      "scale": 0.16666666666666666
    },
    {
      "name": "DNNinput_wtag__dphi_wjet_met",
      "offset": -0.0,
      "scale": 0.25
    },
    {
      "name": "DNNinput_wtag__ptbal_wjet_wboson",
      "offset": 2.0,
      "scale": 0.25
    },
    {
      "name": "DNNinput_wtag__ptbal_wjet_pseudotop",
      "offset": 2.0,
      "scale": 0.25
    },
    {
      "name": "DNNinput_wtag__n_xjets",
      "offset": -0.0,
      "scale": 0.1
    },
    {
      "name": "DNNinput_wtag__ht_xjets",
      "offset": -0.0,
      "scale": 0.001
    },
    {
      "name": "DNNinput_wtag__xjet1pt_pt",
      "offset": -0.0,
      "scale": 0.002
    },
    {
      "name": "DNNinput_wtag__xjet1pt_eta",
      "offset": 5.0,
      "scale": 0.1
    },
    {
      "name": "DNNinput_wtag__xjet1pt_phi",
      "offset": 4.0,
      "scale": 0.125
    },
    {
      "name": "DNNinput_wtag__xjet1pt_deepjet",
      "offset": -0.0,
      "scale": 1.0
    },
    {
      "name": "DNNinput_wtag__mass_xjet1pt_lepton",
      "offset": -0.0,
      "scale": 0.002
    },
    {
      "name": "DNNinput_wtag__dr_xjet1pt_lepton",
      "offset": -0.0,
      "scale": 0.16666666666666666
    },
    {
      "name": "DNNinput_wtag__dr_xjet1pt_wjet",
      "offset": -0.0,
      "scale": 0.16666666666666666
    },
    {
      "name": "DNNinput_wtag__xjet1dj_pt",
      "offset": -0.0,
      "scale": 0.002
    },
    {
      "name": "DNNinput_wtag__xjet1dj_eta",
      "offset": 5.0,
      "scale": 0.1
    },
    {
      "name": "DNNinput_wtag__xjet1dj_phi",
      "offset": 4.0,
      "scale": 0.125
    },
    {
      "name": "DNNinput_wtag__xjet1dj_deepjet",
      "offset": -0.0,
      "scale": 1.0
    },
    {
      "name": "DNNinput_wtag__mass_xjet1dj_lepton",
      "offset": -0.0,
      "scale": 0.002
    },
    {
      "name": "DNNinput_wtag__dr_xjet1dj_lepton",
      "offset": -0.0,
      "scale": 0.16666666666666666
    },
    {
      "name": "DNNinput_wtag__dr_xjet1dj_wjet",
      "offset": -0.0,
      "scale": 0.16666666666666666
    },
    {
      "name": "DNNinput_wtag__ijet1dj_deepjet",
      "offset": -0.0,
      "scale": 1.0
    },
    {
      "name": "DNNinput_wtag__dr_wjet_xjet",
      "offset": -0.0,
      "scale": 0.16666666666666666
    },
    {
      "name": "DNNinput_wtag__wnearestxjet_pt",
      "offset": -0.0,
      "scale": 0.002
    },
    {
      "name": "DNNinput_wtag__wnearestxjet_eta",
      "offset": 5.0,
      "scale": 0.1
    },
    {
      "name": "DNNinput_wtag__wnearestxjet_phi",
      "offset": 4.0,
      "scale": 0.125
    },
    {
      "name": "DNNinput_wtag__wnearestxjet_deepjet",
      "offset": -0.0,
      "scale": 1.0
    }
  ],
  "layers": [
    {
      "activation": "rectified",
      "architecture": "dense",
      "bias": [
        -0.002345252549275756,
        0.03064912185072899,
        0.0020081293769180775,
        -0.000838046835269779,
        0.005797471385449171,
        0.0017772428691387177,
        0.01025861594825983,
        -0.013637385331094265,
        0.004240149632096291,
        0.009100819937884808,
        -0.005374100524932146,
        -0.002255761995911598,
        0.006406787782907486,
        -0.001202668179757893,
        0.002950523979961872,
        0.0038031504955142736,
        0.02037278562784195,
        0.00718868849799037,
        0.016549868509173393,
        0.009344921447336674,
        0.014761741273105145,
        0.01841365545988083,
        -0.005447042174637318,
        0.0015790614997968078,
        -0.0030291262082755566,
        0.002199058420956135,
        0.0032098095398396254,
        0.025419948622584343,
        0.021731454879045486,
        0.005787968169897795,
        0.0006951395771466196,
        -0.010998557321727276,
        0.008041978813707829,
        -0.010257559828460217,
        0.01953304000198841,
        0.00822403933852911,
        0.027640588581562042,
        0.011602764017879963,
        0.023325763642787933,
        -0.02463950589299202,
        -0.009005649946630001,
        0.01737627387046814,
        0.0003578430332709104,
        -0.013893643394112587,
        0.021046455949544907,
        -0.006952306255698204,
        0.02115890569984913,
        -0.007383199408650398,
        0.008296933025121689,
        -0.005252775736153126,
        0.0180914718657732,
        -0.006031222175806761,
        -0.008427540771663189,
        0.01923981122672558,
        0.01673220656812191,
        0.013483341783285141,
        0.00399196520447731,
        0.0015363574493676424,
        -0.0008584234165027738,
        -0.004573787096887827,
        0.00966421328485012,
        0.011075167916715145,
        0.004171039909124374,
        0.005829947534948587,
        -0.003474037628620863,
        0.0015617862809449434,
        0.00960987526923418,
        0.005542234051972628,
        0.031454309821128845,
        -0.002113419584929943,
        -0.031058799475431442,
        0.004720210563391447,
        0.01205295417457819,
        0.01876557432115078,
        -0.014755970798432827,
        -0.0030623546335846186,
        0.005373109597712755,
        0.007018564734607935,
        0.009306976571679115,
        -0.007349939085543156,
        0.019331468269228935,
        0.00087562738917768,
        0.006663833744823933,
        0.01710473746061325,
        0.01868295483291149,
        0.028867093846201897,
        0.007281386759132147,
        0.01134080532938242,
        0.003162295324727893,
        -0.005385643802583218,
        -0.013228876516222954,
        0.027954723685979843,
        0.010931010358035564,
        -0.0003489011724013835,
        0.008522771298885345,
        -0.0005256141885183752,
        0.002002087654545903,
        0.007005029823631048,
        0.0061256252229213715,
        0.0006242985255084932,
        0.0010173595510423183,
        0.004589401185512543,
        -0.0019303610315546393,
        -0.010907634161412716,
        -0.001413894584402442,
        0.0025683327112346888,
        0.012436681427061558,
        0.005927594378590584,
        0.0070541310124099255,
        0.022758029401302338,
        0.012852159328758717,
        0.02084079012274742,
        0.012344215996563435,
        -0.01574716903269291,
        0.005644524469971657,
        0.0053502460941672325,
        -0.0016308487392961979,
        0.01334904134273529,
        -0.00909586250782013,
        -0.01820506900548935,
        0.007323375903069973,
        0.015424501150846481,
        0.008923928253352642,
        0.019637102261185646,
        0.011837491765618324,
        0.02152642421424389,
        0.011231226846575737,
        0.00432910630479455
      ],
      "weights": [
        0.024592325091362,
        0.1796213984489441,
        0.07175285369157791,
        -0.01611683890223503,
        0.005762376356869936,
        -0.023059368133544922,
        0.12271206825971603,
        0.169016033411026,
        -0.10473234206438065,
        0.06569436192512512,
        0.16162675619125366,
        -0.18178097903728485,
        -0.12768042087554932,
        0.06541779637336731,
        -0.06505905836820602,
        -0.09081550687551498,
        -0.002072195755317807,
        -0.033526573330163956,
        0.10376216471195221,
        0.038819555193185806,
        -0.16175015270709991,
        -0.029458509758114815,
        -0.04537440091371536,
        0.045126911252737045,
        0.026542257517576218,
        0.1724623441696167,
        -0.0405498668551445,
        -0.12879766523838043,
        -0.07118826359510422,
        0.10227447748184204,
        -0.1274135857820511,
        -0.10295181721448898,
        0.005280600395053625,
        -0.052748631685972214,
        0.1941993683576584,
        0.07878179848194122,
        0.006932792253792286,
        -0.1427537053823471,
        -0.0871490016579628,
        0.13922886550426483,
        -0.035133253782987595,
        -0.1704104095697403,
        -0.08698335289955139,
        -0.07915132492780685,
        -0.13145789504051208,
        -0.07765048742294312,
        -0.16247683763504028,
        -0.047248583287000656,
        0.16973821818828583,
        0.1584526151418686,
        -0.09118793904781342,
        0.005973379593342543,
        0.10964690148830414,
        -0.069669708609581,
        -0.026126373559236526,
        -0.034736763685941696,
        0.09565095603466034,
        -0.11475852876901627,
        0.03646599501371384,
        0.036921177059412,
        -0.06159448251128197,
        0.08393795043230057,
        0.10195697098970413,
        -0.005019552074372768,
        0.01810995303094387,
        0.06748533993959427,
        -0.025052843615412712,
        -0.08910684287548065,
        -0.11999157816171646,
        0.15621408820152283,
        0.0768384337425232,
        -0.13704615831375122,
        -0.10360551625490189,
        0.17776553332805634,
        -0.14598019421100616,
        0.18721050024032593,
        0.049159519374370575,
        -0.17914514243602753,
        -0.054604578763246536,
        -0.03070339933037758,
        -0.08854010701179504,
        0.12378665804862976,
        -0.14203321933746338,
        -0.15049169957637787,
        -0.10676400363445282,
        0.005372889805585146,
        -0.11361470818519592,
        0.19955658912658691,
        0.00981965847313404,
        -0.10345461219549179,
        -0.03707924112677574,
        -0.1413717120885849,
        0.19140689074993134,
        -0.17296937108039856,
        -0.1376161426305771,
        0.1806672215461731,
        -0.008479875512421131,
        -0.02991924248635769,
        -0.11310281604528427,
        0.12795604765415192,
        0.17616978287696838,
        -0.021993959322571754,
        0.17597658932209015,
        0.10078685730695724,
        -0.0982866883277893,
        -0.035292189568281174,
        0.08147476613521576,
        -0.14333271980285645,
        0.02959974855184555,
        -0.06766544282436371,
        -0.007171756587922573,
        -0.02722775563597679,
        0.1515645831823349,
        -0.0023845171090215445,
        0.07342113554477692,
        0.025984060019254684,
        0.05409975349903107,
        0.13424046337604523,
        0.14347614347934723,
        0.14555510878562927,
        0.17289136350154877,
        -0.14045369625091553,
        0.16657698154449463,
        -0.08782150596380234,
        -0.15906170010566711,
        0.09973825514316559,
        -0.16310659050941467,
        0.09566144645214081,
        0.11273464560508728,
        -0.17200800776481628,
        -0.24903689324855804,
        -0.1251128762960434,
        0.06318590044975281,
        -0.16794976592063904,
        -0.15548895299434662,
        -0.0597849078476429,
        0.15221332013607025,
        -0.17509356141090393,
        0.055183880031108856,
        -0.022416802123188972,
        0.007511259987950325,
        -0.14757999777793884,
        -0.10301771014928818,
        0.17998076975345612,
        -0.16041553020477295,
        0.14617803692817688,
        -0.16154946386814117,
        0.17685741186141968,
        0.0610305480659008,
        0.15975342690944672,
        0.18288075923919678,
        0.08685225248336792,
        0.1747971922159195,
        -0.1650543063879013,
        -0.11710906028747559,
        -0.1619449108839035,
        -0.07881074398756027,
        0.028012242168188095,
        0.12855450809001923,
        0.02872447296977043,
        -0.1208827942609787,
        -0.10360155254602432,
        -0.04654676094651222,
        0.1149633452296257,
        0.11873648315668106,
        -0.019720641896128654,
        0.12817983329296112,
        0.2375645637512207,
        0.14194361865520477,
        -0.15255126357078552,
        0.05486109107732773,
        -0.06469745934009552,
        0.06120411306619644,
        -0.12343300879001617,
        -0.08945516496896744,
        0.032957132905721664,
        0.08621600270271301,
        0.1747283786535263,
        0.0662628784775734,
        0.12190597504377365,
        0.006449759006500244,
        0.11100050061941147,
        0.1634107530117035,
        -0.1690063327550888,
        0.04542243480682373,
        0.16892559826374054,
        0.06093648821115494,
        -0.002237852429971099,
        0.036165960133075714,
        -0.06172489747405052,
        -0.11891785264015198,
        0.20239149034023285,
        -0.07394570857286453,
        -0.05200953781604767,
        -0.048486534506082535,
        -0.11675062030553818,
        -0.06292331963777542,
        -0.17183955013751984,
        -0.06794898957014084,
        -0.15257079899311066,
        -0.23507080972194672,
        -0.012019539251923561,
        0.05236729234457016,
        0.13611218333244324,
        0.09955386072397232,
        0.018851105123758316,
        0.10022200644016266,
        -0.08323197066783905,
        -0.05088096112012863,
        0.10461737215518951,
        0.0847957581281662,
        0.0444515086710453,
        0.15434591472148895,
        -0.15681788325309753,
        -0.1377543807029724,
        0.08338553458452225,
        0.14597246050834656,
        0.18690791726112366,
        -0.09128671139478683,
        -0.010610700584948063,
        -0.048869539052248,
        -0.01705765351653099,
        -0.054115165024995804,
        0.09040818363428116,
        0.00983902346342802,
        0.1439526081085205,
        0.16655732691287994,
        0.09623243659734726,
        -0.0599251314997673,
        0.017889976501464844,
        0.1785620152950287,
        0.16803057491779327,
        -0.014711642637848854,
        0.10451977699995041,
        0.0038555150385946035,
        -0.013371254317462444,
        0.1836220920085907,
        -0.0775403305888176,
        -0.09214715659618378,
        -0.14727717638015747,
        -0.05647833272814751,
        0.06384599953889847,
        -0.1441953182220459,
        0.07218014448881149,
        -0.003281259909272194,
        0.1905980259180069,
        0.061079803854227066,
        0.18785502016544342,
        0.007701943628489971,
        -0.12211301177740097,
        0.17602086067199707,
        -0.008375586941838264,
        -0.05058692768216133,
        -0.09919337928295135,
        0.07166147977113724,
        -0.05129043757915497,
        0.07386046648025513,
        -0.06912887841463089,
        0.05866829305887222,
        0.15737733244895935,
        -0.01836198940873146,
        -0.029003016650676727,
        0.034517087042331696,
        -0.058456480503082275,
        -0.1212829202413559,
        -0.1373157501220703,
        -0.018236147239804268,
        0.007452280726283789,
        0.17618322372436523,
        -0.15795962512493134,
        -0.1612568199634552,
        0.0286776851862669,
        -0.006854991894215345,
        -0.05616900697350502,
        -0.09589627385139465,
        -0.017922230064868927,
        -0.09961613267660141,
        -0.07784391939640045,
        0.16865327954292297,
        0.10361258685588837,
        -0.019796499982476234,
        0.16084499657154083,
        -0.05371106043457985,
        0.10710568726062775,
        -0.10044312477111816,
        0.1866833120584488,
        0.055260851979255676,
        -0.005454795900732279,
        -0.17835339903831482,
        0.03479735925793648,
        -0.03610127046704292,
        0.1259232610464096,
        -0.12669076025485992,
        -0.04853770509362221,
        -0.12707579135894775,
        0.11804040521383286,
        -0.11929706484079361,
        0.022936519235372543,
        0.04633939638733864,
        -0.0546894334256649,
        -0.1763537973165512,
        0.17815452814102173,
        -0.0730002298951149,
        0.03696499392390251,
        0.09048052877187729,
        0.1333840787410736,
        -0.019421853125095367,
        -0.12407329678535461,
        0.16789476573467255,
        -0.0812789723277092,
        -0.04948318749666214,
        -0.03574353829026222,
        0.17397765815258026,
        -0.01136050745844841,
        0.05533315986394882,
        0.03892117366194725,
        0.15321040153503418,
        -0.07229692488908768,
        0.07607683539390564,
        -0.047906551510095596,
        0.026791729032993317,
        0.1715073436498642,
        0.09908290207386017,
        0.1326170265674591,
        0.0102769136428833,
        0.04733484610915184,
        0.11696012318134308,
        0.1509435623884201,
        0.13849282264709473,
        -0.007291574031114578,
        0.007042489945888519,
        0.06272628158330917,
        -0.1735014021396637,
        0.1954420655965805,
        -0.021225476637482643,
        0.07304362207651138,
        0.10497685521841049,
        -0.03875269368290901,
        -0.15759027004241943,
        -0.1577279418706894,
        0.17478729784488678,
        0.03617507964372635,
        0.10011932253837585,
        0.07398275285959244,
        -0.15189717710018158,
        0.008091457188129425,
        -0.1360836923122406,
        0.036699194461107254,
        0.030688518658280373,
        -0.06807950139045715,
        -0.05903489515185356,
        -0.0003031282394658774,
        0.1437797099351883,
        0.11074929684400558,
        0.16987167298793793,
        -0.1415172666311264,
        -0.19071143865585327,
        0.0908614918589592,
        0.1269427388906479,
        0.06989696621894836,
        -0.128902867436409,
        -0.059473246335983276,
        0.08612307906150818,
        -0.14760099351406097,
        0.12407901138067245,
        -0.04050013795495033,
        -0.07936705648899078,
        -0.1558283269405365,
        -0.01611931249499321,
        -0.13829714059829712,
        -0.036960355937480927,
        -0.1392838954925537,
        0.029296059161424637,
        -0.15272940695285797,
        0.1147848442196846,
        0.15009891986846924,
        -0.014184433966875076,
        0.0015736048808321357,
        0.08944457769393921,
        -0.005847604013979435,
        -0.040372077375650406,
        -0.03521023690700531,
        -0.0655316710472107,
        -0.06090443208813667,
        -0.135223850607872,
        -0.16960075497627258,
        -0.1418077051639557,
        -0.0533226877450943,
        0.14208711683750153,
        0.13745495676994324,
        -0.05703491345047951,
        -0.06373616307973862,
        -0.011620580218732357,
        0.14646342396736145,
        0.21930880844593048,
        -0.06928526610136032,
        0.0022606898564845324,
        -0.13634443283081055,
        0.10303889960050583,
        -0.16699446737766266,
        -0.11264581233263016,
        0.03320356458425522,
        -0.13491025567054749,
        -0.09284121543169022,
        -0.062499623745679855,
        0.05238328129053116,
        0.053046029061079025,
        0.12091419100761414,
        0.12650877237319946,
        -0.06444764137268066,
        -0.0570598803460598,
        0.13073965907096863,
        0.15086251497268677,
        0.12583386898040771,
        -0.10339885950088501,
        0.09417448937892914,
        -0.08807715028524399,
        0.04376573860645294,
        0.1785506308078766,
        -0.004665923770517111,
        0.15282036364078522,
        0.16838079690933228,
        0.13716307282447815,
        -0.05662160366773605,
        -0.2500503361225128,
        -0.047871652990579605,
        0.03134685754776001,
        0.12073512375354767,
        -0.1535724550485611,
        0.09098202735185623,
        -0.10298911482095718,
        -0.17526507377624512,
        0.00041959850932471454,
        -0.12572619318962097,
        -0.02252652682363987,
        -0.13466079533100128,
        0.018544793128967285,
        -0.11091797798871994,
        -0.04271070659160614,
        -0.12876202166080475,
        -0.080840103328228,
        -0.09273095428943634,
        -0.13094937801361084,
        -0.14765019714832306,
        0.125001460313797,
        -0.014611425809562206,
        -0.17787285149097443,
        0.1003444641828537,
        -0.08710356801748276,
        -0.09655936062335968,
        0.12419755011796951,
        0.01649409532546997,
        0.14094606041908264,
        0.16188184916973114,
        0.035130660980939865,
        0.03782409429550171,
        -0.11307398229837418,
        -0.15206894278526306,
        -0.12672291696071625,
        0.0464826337993145,
        0.13277886807918549,
        0.11906652897596359,
        0.17985600233078003,
        0.17617204785346985,
        0.09509959816932678,
        -0.044775549322366714,
        0.06392624229192734,
        0.022001540288329124,
        -0.1448434740304947,
        -0.19741104543209076,
        0.1491139531135559,
        0.15820355713367462,
        -0.15136072039604187,
        0.16376040875911713,
        -0.13077551126480103,
        0.09555789828300476,
        0.1819167584180832,
        -0.016149450093507767,
        -0.05671851709485054,
        -0.04644683748483658,
        0.09675049036741257,
        -0.18485276401042938,
        -0.1570073962211609,
        -0.017031488940119743,
        0.1862359195947647,
        0.005766503047198057,
        0.09457653760910034,
        0.13061007857322693,
        0.0075867148116230965,
        -0.14509110152721405,
        -0.10173451155424118,
        -0.09535086154937744,
        -0.14346592128276825,
        -0.06674521416425705,
        0.11286821216344833,
        -0.18535810708999634,
        0.05652042478322983,
        0.013351775705814362,
        0.03401044383645058,
        -0.04853390157222748,
        -0.1185389906167984,
        -0.14956291019916534,
        0.1286536455154419,
        0.10246764123439789,
        0.1038932353258133,
        -0.15671102702617645,
        0.10771919786930084,
        0.12552262842655182,
        0.1585422158241272,
        -0.06386612355709076,
        0.02113034762442112,
        0.0018733447650447488,
        -0.08711016178131104,
        0.1437986046075821,
        0.03388091176748276,
        -0.14615637063980103,
        0.1050117239356041,
        0.03821966052055359,
        -0.05458108335733414,
        -0.08809560537338257,
        -0.13440081477165222,
        0.09035548567771912,
        -0.06608796864748001,
        0.013777745887637138,
        0.08620232343673706,
        0.10167419165372849,
        0.15883491933345795,
        -0.15620169043540955,
        -0.116692453622818,
        -0.17374299466609955,
        0.04021256044507027,
        0.13518331944942474,
        0.1378055214881897,
        -0.016940580680966377,
        0.18120816349983215,
        0.1453663408756256,
        0.18663588166236877,
        0.13124924898147583,
        -0.15597523748874664,
        0.09401591867208481,
        0.13041219115257263,
        0.10171203315258026,
        -0.08694247156381607,
        -0.11288024485111237,
        -0.027226628735661507,
        -0.17355164885520935,
        0.10747026652097702,
        0.04333525896072388,
        -0.00826481357216835,
        -0.0650041326880455,
        -0.16203099489212036,
        -0.09893260896205902,
        0.06591259688138962,
        0.014652292244136333,
        -0.16101421415805817,
        0.10465370863676071,
        0.0444786474108696,
        -0.0016899538459256291,
        -0.100220687687397,
        -0.09830630570650101,
        -0.015322898514568806,
        0.019377076998353004,
        0.0006188551196828485,
        0.1095360517501831,
        -0.10985379666090012,
        -0.032254766672849655,
        0.07957987487316132,
        -0.15066154301166534,
        0.15189224481582642,
        -0.05082955211400986,
        0.027784626930952072,
        -0.06801215559244156,
        -0.01802717335522175,
        0.04854048416018486,
        0.10407707095146179,
        -0.050345733761787415,
        0.06933831423521042,
        -0.10999831557273865,
        -0.15305164456367493,
        -0.15686027705669403,
        0.008983651176095009,
        -0.14639396965503693,
        -0.14865878224372864,
        -0.11878092586994171,
        -0.1748717576265335,
        -0.11994314938783646,
        -0.08706589043140411,
        0.14117223024368286,
        0.07299455255270004,
        0.031191132962703705,
        -0.16044054925441742,
        0.027880840003490448,
        0.054871343076229095,
        -0.07399854063987732,
        -0.15785594284534454,
        -0.06994078308343887,
        0.10220646113157272,
        -0.15591390430927277,
        -0.12745967507362366,
        -0.1252738982439041,
        0.06300481408834457,
        0.043737173080444336,
        0.14477629959583282,
        -0.01694399118423462,
        0.03559000790119171,
        0.07065065950155258,
        0.10976074635982513,
        0.00150377640966326,
        0.11145933717489243,
        0.05270594358444214,
        -0.08518067747354507,
        0.03815720975399017,
        -0.02671496756374836,
        0.09025920927524567,
        0.180977001786232,
        -0.04944348335266113,
        -0.04011118412017822,
        -0.18961215019226074,
        0.03757680952548981,
        0.003393193706870079,
        0.12879973649978638,
        -0.08687052875757217,
        0.05189730226993561,
        0.18924826383590698,
        0.10759041458368301,
        -0.045572809875011444,
        0.1290379762649536,
        0.1278693825006485,
        -0.2287062406539917,
        0.10953737050294876,
        -0.005377958528697491,
        0.0408267118036747,
        -0.09106076508760452,
        -0.08361078798770905,
        0.08056697994470596,
        -0.06867212802171707,
        0.02695244736969471,
        -0.15520478785037994,
        -0.07900585979223251,
        -0.05679896101355553,
        0.09944436699151993,
        -0.1874862015247345,
        -0.05586889758706093,
        -0.08939200639724731,
        -0.03427448868751526,
        0.02161974087357521,
        0.006041447166353464,
        0.06019678711891174,
        -0.15451356768608093,
        0.09640176594257355,
        -0.07288230210542679,
        0.12228967994451523,
        0.1267027109861374,
        0.0023760171607136726,
        0.07996153831481934,
        -0.004156964365392923,
        0.16038955748081207,
        0.21622788906097412,
        -0.1502666473388672,
        -0.020998582243919373,
        -0.03624218702316284,
        0.03899252042174339,
        0.1445554941892624,
        0.1649574488401413,
        -0.0014272993430495262,
        0.16907623410224915,
        -0.09550580382347107,
        0.03609506040811539,
        -0.11572042107582092,
        0.16407208144664764,
        0.12710252404212952,
        0.04911039397120476,
        -0.12395356595516205,
        0.0749383345246315,
        -0.010394458658993244,
        0.1436435729265213,
        0.020116670057177544,
        0.03362201526761055,
        -0.17964765429496765,
        0.05032815784215927,
        -0.1103551983833313,
        0.20584557950496674,
        0.00493078026920557,
        0.04422155022621155,
        0.046779029071331024,
        -0.12203359603881836,
        -0.08860733360052109,
        -0.14541420340538025,
        -0.1605619192123413,
        -0.02932814694941044,
        0.10530427098274231,
        -0.05193536356091499,
        -0.05811804160475731,
        -0.18806128203868866,
        -0.0031670734751969576,
        0.10162018239498138,
        0.1634180098772049,
        0.03025977686047554,
        -0.05775882303714752,
        0.12236189842224121,
        -0.016568507999181747,
        -0.09708800911903381,
        0.13852804899215698,
        0.12378444522619247,
        0.06643743813037872,
        -0.1852937936782837,
        0.19805143773555756,
        0.08255840092897415,
        -0.13869750499725342,
        -0.18148452043533325,
        -0.1608627289533615,
        -0.009019776247441769,
        -0.15326759219169617,
        0.17079676687717438,
        -0.07694268971681595,
        0.19946740567684174,
        0.0461752787232399,
        -0.023662667721509933,
        0.14615166187286377,
        -0.022921158000826836,
        -0.08012641221284866,
        0.08670240640640259,
        0.06675121188163757,
        0.07298611104488373,
        -0.18254390358924866,
        0.09310730546712875,
        -0.10604985058307648,
        0.0879356637597084,
        -0.043173328042030334,
        -0.050132185220718384,
        0.16079027950763702,
        -0.17025627195835114,
        0.08173246681690216,
        0.13534915447235107,
        -0.024318421259522438,
        -0.00017192150698974729,
        0.0069279177114367485,
        -0.06051972135901451,
        0.010762695223093033,
        -0.10148797184228897,
        -0.06704436987638474,
        0.049125704914331436,
        -0.15032753348350525,
        0.12494641542434692,
        0.08336963504552841,
        -0.02079293318092823,
        -0.18110555410385132,
        -0.014059563167393208,
        -0.19510169327259064,
        -0.16271887719631195,
        -0.08198516815900803,
        -0.11974870413541794,
        0.09861014783382416,
        0.06867548823356628,
        0.05880124121904373,
        -0.225474014878273,
        0.07267338782548904,
        0.11512815952301025,
        0.12680265307426453,
        0.030493412166833878,
        -0.15777894854545593,
        0.156853586435318,
        -0.11068496853113174,
        -0.07206056267023087,
        -0.016535388305783272,
        0.1497267484664917,
        -0.09521607309579849,
        0.07258639484643936,
        0.06908944994211197,
        0.15046553313732147,
        0.09010028839111328,
        0.1118408814072609,
        0.13568997383117676,
        -0.04236752539873123,
        0.05418732017278671,
        -0.18070638179779053,
        0.1353699266910553,
        -0.0862063467502594,
        0.14176379144191742,
        0.016701072454452515,
        -0.002696200041100383,
        -0.15573182702064514,
        -0.15466658771038055,
        0.057534389197826385,
        -0.006358960177749395,
        -0.09955290704965591,
        -0.07276584953069687,
        -0.0023369856644421816,
        0.06360996514558792,
        0.14234699308872223,
        -0.09361580014228821,
        -0.15694601833820343,
        -0.09708584100008011,
        -0.1456763595342636,
        -0.06773779541254044,
        0.1709442436695099,
        -0.02572735957801342,
        0.03091033548116684,
        0.11812113225460052,
        0.10810833424329758,
        0.05225676670670509,
        0.04231250286102295,
        -0.02764752134680748,
        0.0888182520866394,
        -0.11087421327829361,
        -0.0632011815905571,
        0.12128236889839172,
        0.052992574870586395,
        -0.09260569512844086,
        -0.09647409617900848,
        -0.018027599900960922,
        0.121474489569664,
        -0.19469204545021057,
        -0.11736037582159042,
        0.15286186337471008,
        0.04310713708400726,
        0.16037452220916748,
        -0.10854097455739975,
        -0.03400598466396332,
        0.04472227394580841,
        0.15022295713424683,
        -0.06069280207157135,
        0.13456976413726807,
        0.02105695754289627,
        0.05084289237856865,
        0.18942776322364807,
        -0.010404339991509914,
        0.1418248862028122,
        0.05806053802371025,
        0.06322912871837616,
        0.039814360439777374,
        0.11686396598815918,
        0.17369160056114197,
        0.11469744145870209,
        -0.09103389829397202,
        0.1698174923658371,
        0.1563987135887146,
        -0.16229046881198883,
        -0.17268414795398712,
        0.17599180340766907,
        -0.13178640604019165,
        -0.13598617911338806,
        -0.09253159165382385,
        0.12761381268501282,
        0.14195893704891205,
        -0.0458381250500679,
        -0.05037986859679222,
        -0.0021346984431147575,
        0.038736116141080856,
        0.20558588206768036,
        0.12456732988357544,
        -0.11129102110862732,
        0.13303907215595245,
        0.054550278931856155,
        0.07937173545360565,
        0.03372230753302574,
        -0.1478966474533081,
        -0.04485446214675903,
        -0.09938976913690567,
        -0.05799366161227226,
        -0.05099097639322281,
        -0.16222800314426422,
        0.15369842946529388,
        -0.09671255201101303,
        -0.06577553600072861,
        0.17883716523647308,
        0.1114049181342125,
        0.054013095796108246,
        0.04411482810974121,
        0.045288559049367905,
        0.1435764580965042,
        0.0396331362426281,
        -0.16632534563541412,
        -0.08652525395154953,
        0.08620551228523254,
        -0.00031086127273738384,
        -0.04398489370942116,
        -0.12532278895378113,
        0.11558020114898682,
        0.11561432480812073,
        0.09881246834993362,
        -0.04469247907400131,
        0.18461085855960846,
        -0.03916073217988014,
        0.12665043771266937,
        0.0055539230816066265,
        0.2398449331521988,
        -0.16851036250591278,
        0.14539216458797455,
        0.12041444331407547,
        0.16801856458187103,
        0.0957389622926712,
        0.04544975608587265,
        0.06207255646586418,
        0.12149383127689362,
        -0.02165117673575878,
        0.15272600948810577,
        -0.0049257539212703705,
        0.10059155523777008,
        -0.015449278056621552,
        -0.1373721808195114,
        -0.007176612038165331,
        -0.09386343508958817,
        0.0078076524659991264,
        -0.07015985250473022,
        -0.031166160479187965,
        0.0498114712536335,
        -0.10196864604949951,
        -0.051349543035030365,
        -0.15647448599338531,
        -0.00770649965852499,
        -0.13245679438114166,
        0.1925453245639801,
        -0.09317517280578613,
        -0.0074460688047111034,
        0.008458574302494526,
        -0.07053164392709732,
        -0.1530970335006714,
        -0.00970458798110485,
        -0.13049106299877167,
        0.18518748879432678,
        0.195613294839859,
        0.03556403890252113,
        -0.11403776705265045,
        0.13122990727424622,
        0.03050936944782734,
        0.10543431341648102,
        -0.003699838649481535,
        -0.08928029984235764,
        0.10096604377031326,
        0.14723263680934906,
        -0.13500480353832245,
        -0.09430257230997086,
        -0.15807437896728516,
        -0.1276084929704666,
        0.170813649892807,
        0.05410885810852051,
        0.1043221727013588,
        0.09517458081245422,
        0.17928577959537506,
        0.1674085110425949,
        0.10468894243240356,
        -0.0843961089849472,
        -0.06886076927185059,
        -0.12348854541778564,
        0.018328601494431496,
        -0.009974697604775429,
        0.12955521047115326,
        0.15120182931423187,
        0.18575359880924225,
        -0.01323650497943163,
        -0.1323471963405609,
        0.1652608960866928,
        0.09632659703493118,
        -0.12517614662647247,
        -0.116450734436512,
        0.06216664984822273,
        -0.11651882529258728,
        -0.05868731066584587,
        0.15954186022281647,
        -0.0048201847821474075,
        -0.0672462210059166,
        -0.07245714217424393,
        -0.13951386511325836,
        0.02210392989218235,
        -0.027506623417139053,
        -0.14712053537368774,
        0.1098678931593895,
        0.16219376027584076,
        -0.08836603164672852,
        0.08210412412881851,
        -0.06587609648704529,
        0.12856139242649078,
        0.11017966270446777,
        0.07252848893404007,
        -0.006421846803277731,
        0.18921345472335815,
        -0.0963803231716156,
        0.03944920003414154,
        -0.1351434290409088,
        0.08690004050731659,
        0.15769486129283905,
        -0.0741521343588829,
        -0.08623635023832321,
        0.06206856667995453,
        0.11317852884531021,
        0.05533188581466675,
        0.04831990599632263,
        -0.15302534401416779,
        -0.10221201926469803,
        -0.16265282034873962,
        0.09130198508501053,
        0.11679066717624664,
        0.02707565762102604,
        -0.046818558126688004,
        -0.06791388243436813,
        -0.10898148268461227,
        0.14200110733509064,
        0.03330578655004501,
        0.09653432667255402,
        0.07676375657320023,
        -0.0023145233280956745,
        0.19152839481830597,
        0.09015247225761414,
        -0.08403478562831879,
        0.12780854105949402,
        0.05219760537147522,
        0.08353336900472641,
        -0.07498282194137573,
        0.14557728171348572,
        -0.0468519926071167,
        0.05190890282392502,
        0.10821963846683502,
        0.009998008608818054,
        0.045500464737415314,
        0.059569526463747025,
        0.15436919033527374,
        0.12232766300439835,
        0.017702382057905197,
        0.0935216173529625,
        -0.12417546659708023,
        -0.024579890072345734,
        -0.14035318791866302,
        0.07502946257591248,
        0.03908094763755798,
        0.09513271600008011,
        0.00407869229093194,
        -0.09021557867527008,
        0.06759988516569138,
        -0.016378063708543777,
        0.06797170639038086,
        -0.059390731155872345,
        0.09480279684066772,
        -0.14719176292419434,
        0.12631332874298096,
        -0.06813184916973114,
        0.09752001613378525,
        0.15011665225028992,
        -0.12328921258449554,
        0.14403672516345978,
        -0.13206908106803894,
        -0.1584797352552414,
        -0.14262068271636963,
        0.060441095381975174,
        0.16127268970012665,
        -0.11875291168689728,
        0.13645601272583008,
        -0.15892812609672546,
        -0.037830863147974014,
        -0.03597606346011162,
        0.17226357758045197,
        0.1736402064561844,
        0.16273133456707,
        0.06624651700258255,
        -0.14455224573612213,
        -0.004442412871867418,
        0.20792777836322784,
        -0.12499397993087769,
        -0.1220538467168808,
        0.09134455025196075,
        0.03647666424512863,
        0.0621098056435585,
        0.03733991086483002,
        -0.01299976371228695,
        0.008269059471786022,
        -0.03183547779917717,
        -0.1498468518257141,
        0.024107957258820534,
        -0.0760296955704689,
        -0.05664873868227005,
        -0.11852741986513138,
        0.038532644510269165,
        -0.1465982347726822,
        0.05685380473732948,
        -0.1465102583169937,
        0.15179075300693512,
        -0.029788415879011154,
        -0.02158365212380886,
        0.029443999752402306,
        0.007969326339662075,
        0.20771288871765137,
        0.03648687154054642,
        -0.13590273261070251,
        0.06715414673089981,
        -0.07185440510511398,
        0.059211988002061844,
        0.0884847566485405,
        -0.13108783960342407,
        0.1153496652841568,
        0.12789955735206604,
        -0.034503910690546036,
        0.1569262146949768,
        -0.13949716091156006,
        0.04453703761100769,
        0.16240496933460236,
        0.1450832635164261,
        -0.05505763366818428,
        0.10940789431333542,
        -0.10596069693565369,
        -0.08003471791744232,
        0.13478457927703857,
        0.013059277087450027,
        0.050578635185956955,
        0.031388215720653534,
        -0.16210751235485077,
        0.013654868118464947,
        0.20507003366947174,
        0.21593235433101654,
        0.071122907102108,
        0.16638831794261932,
        -0.0018471985822543502,
        -0.07483047991991043,
        0.05955131724476814,
        0.019229061901569366,
        -0.09528185427188873,
        -0.17319120466709137,
        -0.0271406602114439,
        -0.17994621396064758,
        0.06604993343353271,
        0.1351848989725113,
        0.05848517268896103,
        -0.0035240943543612957,
        0.10273300111293793,
        0.0016884679207578301,
        -0.16687744855880737,
        0.11164422333240509,
        -0.1064351424574852,
        -0.033555079251527786,
        0.05513602867722511,
        0.05531059205532074,
        0.06855344772338867,
        -0.1307201385498047,
        -0.14116214215755463,
        -0.17505435645580292,
        0.019029779359698296,
        -0.045423176139593124,
        0.018476132303476334,
        0.04520263522863388,
        0.10978469252586365,
        -0.18569518625736237,
        0.06804803013801575,
        0.08505967259407043,
        -0.013480323366820812,
        -0.1888856738805771,
        0.15155744552612305,
        0.019258728250861168,
        -0.01897207647562027,
        0.013116824440658092,
        0.0523034892976284,
        0.1258360594511032,
        -0.002591947093605995,
        0.1302611231803894,
        -0.05237492173910141,
        0.14196470379829407,
        -0.10873136669397354,
        -0.10256105661392212,
        -0.04237345978617668,
        0.18019309639930725,
        -0.03245168924331665,
        -0.1314530372619629,
        -0.18343539535999298,
        0.004682495724409819,
        -0.11070764809846878,
        -0.03484184667468071,
        -0.08477690070867538,
        -0.005007667932659388,
        0.15308570861816406,
        0.11745427548885345,
        -0.1814373880624771,
        -0.09260737150907516,
        -0.08604153990745544,
        0.13730429112911224,
        0.08875136822462082,
        0.16507045924663544,
        0.06397824734449387,
        -0.046209223568439484,
        0.007551091723144054,
        0.003221426857635379,
        0.08102457970380783,
        0.18077175319194794,
        -0.17617526650428772,
        0.10970675945281982,
        -0.026126369833946228,
        0.006122197490185499,
        -0.12193205952644348,
        -0.06450402736663818,
        0.06681198626756668,
        -0.019115319475531578,
        -0.21388180553913116,
        0.06695421785116196,
        0.13355247676372528,
        -0.20120100677013397,
        -0.20479847490787506,
        -0.09543120861053467,
        0.08876354992389679,
        0.10408788919448853,
        0.22834444046020508,
        0.02260458841919899,
        0.08088864386081696,
        -0.04830802232027054,
        -0.07967150956392288,
        -0.13694849610328674,
        -0.18268653750419617,
        -0.16355468332767487,
        0.1299540400505066,
        0.07828478515148163,
        -0.14961685240268707,
        -0.010957768186926842,
        0.09110459685325623,
        -0.15227335691452026,
        0.04327717795968056,
        0.1095530241727829,
        -0.04903243109583855,
        0.09701326489448547,
        0.15000061690807343,
        0.09331483393907547,
        -0.06865863502025604,
        -0.013105890713632107,
        0.12031744420528412,
        -0.11633022874593735,
        0.025437187403440475,
        0.05309043079614639,
        0.016811203211545944,
        -0.020462537184357643,
        -0.06175435334444046,
        0.15830418467521667,
        0.0690368190407753,
        -0.17333421111106873,
        0.003030851949006319,
        -0.03422880545258522,
        -0.09682182222604752,
        -0.03781110420823097,
        -0.04538216069340706,
        -0.10035693645477295,
        0.04780765250325203,
        0.06418312340974808,
        0.09037115424871445,
        -0.2018929421901703,
        0.17986218631267548,
        0.17409230768680573,
        -0.1102827936410904,
        0.15219968557357788,
        0.03212170675396919,
        -0.1481015682220459,
        -4.399381396069657e-06,
        -0.1317582130432129,
        0.11961184442043304,
        0.04744414612650871,
        -0.0823540911078453,
        0.1472395956516266,
        0.1659528911113739,
        -0.05458355322480202,
        -0.16513857245445251,
        0.08136048167943954,
        -0.056980010122060776,
        -0.005466314498335123,
        0.02129197120666504,
        0.08930707722902298,
        0.05719960108399391,
        -0.03993165120482445,
        0.12991933524608612,
        -0.06776253134012222,
        -0.15035222470760345,
        -0.13775022327899933,
        0.10761085897684097,
        -0.0717201828956604,
        -0.11748813092708588,
        0.08532677590847015,
        -0.1700378954410553,
        0.08490021526813507,
        -0.05041401833295822,
        0.14216390252113342,
        -0.05251580476760864,
        0.10137400776147842,
        0.040232352912425995,
        0.02620135433971882,
        -0.2428670972585678,
        0.014317706227302551,
        0.11323686689138412,
        0.011384755373001099,
        -0.028501804918050766,
        0.05374190956354141,
        0.012141013517975807,
        0.03144139051437378,
        0.06629493087530136,
        0.07432199269533157,
        0.00851230975240469,
        0.16398325562477112,
        0.14120572805404663,
        0.14376692473888397,
        0.19030645489692688,
        0.02861596643924713,
        0.024193523451685905,
        -0.10609378665685654,
        -0.03455038741230965,
        0.024534396827220917,
        0.0647481307387352,
        0.14753754436969757,
        -0.11601050198078156,
        -0.09934627264738083,
        -0.024374904111027718,
        -0.157868430018425,
        -0.015316578559577465,
        -0.2568148374557495,
        0.1333843618631363,
        -0.11791478842496872,
        -0.04853122681379318,
        0.09649806469678879,
        0.10711495578289032,
        0.1446288526058197,
        -0.20533837378025055,
        -0.10716523975133896,
        -0.007408915553241968,
        -0.10834828019142151,
        -0.10569241642951965,
        0.1514536440372467,
        -0.144317626953125,
        0.08046356588602066,
        0.019826509058475494,
        -0.19394390285015106,
        -0.07681005448102951,
        0.10218408703804016,
        0.05489722266793251,
        -0.014967848546802998,
        -0.13952115178108215,
        -0.04328290745615959,
        -0.05275288224220276,
        0.16550888121128082,
        0.02679443359375,
        -0.04048134386539459,
        -0.03913772106170654,
        -0.0775371566414833,
        -0.015335671603679657,
        -0.07491200417280197,
        -0.052691489458084106,
        -0.13453960418701172,
        -0.011991217732429504,
        0.00042812677565962076,
        0.13013286888599396,
        -0.1284913271665573,
        0.1162656843662262,
        0.09226539731025696,
        0.16658644378185272,
        -0.1162487268447876,
        0.1979662925004959,
        -0.09632902592420578,
        0.11629913747310638,
        0.012645741924643517,
        0.13589730858802795,
        0.05431753024458885,
        0.09433718025684357,
        0.15911315381526947,
        0.10535388439893723,
        0.09844088554382324,
        -0.12516409158706665,
        -0.1370304375886917,
        -0.0949438288807869,
        0.044358931481838226,
        -0.11693176627159119,
        0.045048244297504425,
        0.09054923057556152,
        0.19852319359779358,
        0.20492106676101685,
        -0.04247639328241348,
        -0.05701132491230965,
        -0.07178723812103271,
        0.19723978638648987,
        -0.19516006112098694,
        -0.07863389700651169,
        -0.08154061436653137,
        -0.049131233245134354,
        0.03989708051085472,
        0.17609839141368866,
        0.17302006483078003,
        -0.0605594664812088,
        0.1473771184682846,
        0.14499378204345703,
        -0.14394617080688477,
        -0.050301775336265564,
        -0.10237976908683777,
        0.02395213209092617,
        -0.16341231763362885,
        -0.06937071681022644,
        0.06131098419427872,
        0.16814562678337097,
        -0.05710030347108841,
        -0.14062722027301788,
        -0.1319282501935959,
        -0.11679341644048691,
        0.09352424740791321,
        -0.0030415779910981655,
        -0.04148139804601669,
        -0.058708906173706055,
        0.14737088978290558,
        -0.08184009790420532,
        0.04096173867583275,
        -0.002586029004305601,
        0.01920243538916111,
        0.030628133565187454,
        -0.029185306280851364,
        0.17884717881679535,
        -0.03126058354973793,
        -0.08508291095495224,
        -0.094537653028965,
        0.18435052037239075,
        -0.14356641471385956,
        0.15751053392887115,
        -0.06836330890655518,
        -0.12267978489398956,
        -0.07001315802335739,
        0.16350360214710236,
        0.08063433319330215,
        0.043878477066755295,
        -0.15282516181468964,
        -0.13061363995075226,
        -0.14411719143390656,
        0.18824219703674316,
        -0.03430311381816864,
        0.07655848562717438,
        0.12241052836179733,
        0.058449819684028625,
        0.1307855099439621,
        -0.16238024830818176,
        0.0772322416305542,
        0.060678862035274506,
        -0.004227808676660061,
        0.0747988373041153,
        0.057837896049022675,
        0.03212608024477959,
        -0.052024465054273605,
        0.07684504985809326,
        0.0011222290340811014,
        0.06040678545832634,
        -0.01880382001399994,
        -0.06324592977762222,
        -0.1217024102807045,
        0.14693564176559448,
        0.18058985471725464,
        0.09395959973335266,
        -0.03723414987325668,
        0.10668158531188965,
        -0.17497354745864868,
        0.060936737805604935,
        -0.1478305459022522,
        -0.13269317150115967,
        0.09387863427400589,
        0.18196618556976318,
        0.07172997295856476,
        -0.15510068833827972,
        -0.16463665664196014,
        -0.12288486212491989,
        0.04287591576576233,
        -0.06173624470829964,
        -0.10169120132923126,
        0.017651373520493507,
        -0.09724467247724533,
        -0.047760989516973495,
        0.07124786078929901,
        0.1566820591688156,
        -0.09611838310956955,
        0.0514514297246933,
        0.14278444647789001,
        -0.017208293080329895,
        -0.08179634809494019,
        0.1661185622215271,
        -0.15620166063308716,
        -0.050118401646614075,
        0.0905684307217598,
        -0.09544654935598373,
        -0.0076304031535983086,
        0.09000423550605774,
        -0.051706667989492416,
        -0.1043698713183403,
        0.03795008733868599,
        0.09522581845521927,
        0.028861025348305702,
        0.0703490674495697,
        0.007085973862558603,
        -0.04646472632884979,
        0.09530258923768997,
        -0.041810352355241776,
        -0.16718721389770508,
        0.08614202588796616,
        -0.10193430632352829,
        0.10714409500360489,
        0.1199464499950409,
        0.029011530801653862,
        -0.014887087047100067,
        -0.12019652128219604,
        0.106734499335289,
        0.16551490128040314,
        -0.006928682792931795,
        0.1339322030544281,
        0.10670586675405502,
        0.09544689208269119,
        0.020394863560795784,
        0.15927563607692719,
        -0.10319249331951141,
        0.12179175764322281,
        -0.14087125658988953,
        -0.18068817257881165,
        -0.14028216898441315,
        0.1357455998659134,
        0.18577063083648682,
        0.03279446065425873,
        0.1398942917585373,
        0.00435794098302722,
        0.006632770877331495,
        -0.14027400314807892,
        -0.03646613284945488,
        -0.046697597950696945,
        -0.029430532827973366,
        -0.14884832501411438,
        0.14826767146587372,
        0.18872883915901184,
        -0.1297954022884369,
        0.10701052099466324,
        0.01096657756716013,
        -0.17297597229480743,
        0.08574172109365463,
        -0.12152326107025146,
        0.029793627560138702,
        0.06031667813658714,
        0.0738021731376648,
        -0.038841612637043,
        -0.10783926397562027,
        -0.12324577569961548,
        -0.08344295620918274,
        -0.16824139654636383,
        0.10823500156402588,
        0.1386663019657135,
        -0.05920308455824852,
        0.03675121068954468,
        0.13034488260746002,
        0.08903101086616516,
        0.17710824310779572,
        0.14307735860347748,
        0.028101691976189613,
        -0.15709123015403748,
        -0.20936159789562225,
        0.05330260470509529,
        0.13561636209487915,
        0.1770235300064087,
        0.028855422511696815,
        0.16208750009536743,
        0.09928105026483536,
        -0.10177142918109894,
        0.039391592144966125,
        0.07769478112459183,
        -0.10799995064735413,
        -0.07541624456644058,
        -0.1293676495552063,
        -0.14941400289535522,
        0.004728184547275305,
        0.1407565325498581,
        0.1413009613752365,
        0.09313901513814926,
        -0.038322146981954575,
        -0.019014693796634674,
        0.03986192122101784,
        0.05264574661850929,
        0.12216538935899734,
        0.117567278444767,
        0.09099613130092621,
        -0.037670884281396866,
        -0.07543595135211945,
        0.1047036349773407,
        0.10552778095006943,
        0.16636647284030914,
        0.1275673508644104,
        0.15542177855968475,
        0.07423229515552521,
        -0.04720759764313698,
        -0.008045913651585579,
        0.17027823626995087,
        0.01744774915277958,
        -0.0589141771197319,
        -0.10542893409729004,
        0.14539913833141327,
        -0.0016921967035159469,
        -0.1251956671476364,
        -0.15331409871578217,
        0.17407254874706268,
        -0.08824299275875092,
        0.12059711664915085,
        0.13535310328006744,
        0.14523933827877045,
        -0.1622631847858429,
        0.06101435050368309,
        -0.14856146275997162,
        -0.1485489308834076,
        0.14230132102966309,
        -0.1531381756067276,
        0.09294705837965012,
        0.19289402663707733,
        -0.15352760255336761,
        -0.06367221474647522,
        0.19322489202022552,
        -0.058583397418260574,
        0.09261462837457657,
        0.05822711065411568,
        -0.14583078026771545,
        -0.1640499383211136,
        -0.12468134611845016,
        0.030593279749155045,
        -0.0884087085723877,
        0.11914271861314774,
        0.16951419413089752,
        0.19420285522937775,
        0.07781621813774109,
        -0.13134866952896118,
        0.0017186912009492517,
        -0.10000114887952805,
        0.14173460006713867,
        0.1699126958847046,
        -0.030192645266652107,
        0.173214852809906,
        0.0003059226437471807,
        0.08391876518726349,
        -0.07196129113435745,
        0.16392046213150024,
        0.0753871500492096,
        -0.05035785585641861,
        -0.0758378878235817,
        -0.13868501782417297,
        -0.1121673658490181,
        0.1403660774230957,
        0.10773652046918869,
        0.029556378722190857,
        0.05695844441652298,
        -0.143504798412323,
        0.04572426900267601,
        -0.03365106135606766,
        -0.0754619613289833,
        0.1512831300497055,
        0.11520074307918549,
        -0.06763365864753723,
        0.001054288586601615,
        -0.06671115010976791,
        0.11435109376907349,
        0.13713479042053223,
        -0.15133784711360931,
        -0.13620267808437347,
        -0.18101727962493896,
        -0.08706891536712646,
        0.1755211353302002,
        -0.030575113371014595,
        0.08356068283319473,
        0.032153647392988205,
        0.03299787640571594,
        -0.13944128155708313,
        -0.041398730129003525,
        0.12020593136548996,
        -0.029680736362934113,
        -0.030473383143544197,
        0.1395033299922943,
        0.030152851715683937,
        -0.08128227293491364,
        0.18031901121139526,
        -0.03764824941754341,
        -0.23069961369037628,
        -0.1397101879119873,
        -0.099491648375988,
        0.022505512461066246,
        -0.06867582350969315,
        -0.07163713127374649,
        0.09235401451587677,
        -0.04449240118265152,
        0.10873916000127792,
        0.023903608322143555,
        -0.11041869223117828,
        -0.10766056180000305,
        0.13647225499153137,
        -0.09182702749967575,
        -0.08414313942193985,
        -0.06471849977970123,
        -0.12040972709655762,
        0.15909716486930847,
        0.09622762352228165,
        -0.035245537757873535,
        0.17371819913387299,
        0.14453591406345367,
        -0.03804180771112442,
        0.0062518008053302765,
        -0.09257357567548752,
        -0.041595764458179474,
        -0.08830747753381729,
        -0.07227864861488342,
        -0.10580336302518845,
        -0.12959414720535278,
        -0.05716634541749954,
        -0.14272987842559814,
        -0.08394428342580795,
        -0.08279093354940414,
        0.14145830273628235,
        0.13694991171360016,
        -0.006442150566726923,
        0.030456900596618652,
        -0.07675579190254211,
        0.04920476675033569,
        0.18705269694328308,
        -0.09098729491233826,
        0.07374567538499832,
        -0.024793459102511406,
        -0.013321870006620884,
        0.20783253014087677,
        0.04126417264342308,
        0.026287049055099487,
        -0.04972964525222778,
        0.16186067461967468,
        -0.08080370724201202,
        0.10281640291213989,
        0.11393222957849503,
        0.01914098672568798,
        -0.11574111878871918,
        0.01133705209940672,
        0.1487761288881302,
        0.13734836876392365,
        -0.1220937967300415,
        -0.13935734331607819,
        0.166098490357399,
        0.004626865964382887,
        0.17160959541797638,
        0.035509150475263596,
        0.0619390495121479,
        0.18016979098320007,
        -0.1343189924955368,
        0.18143269419670105,
        -0.167385071516037,
        0.009245053865015507,
        0.09416550397872925,
        0.06587836891412735,
        0.10471291840076447,
        0.03960882127285004,
        0.08151809871196747,
        0.10027968138456345,
        0.06742078065872192,
        0.18055850267410278,
        -0.027406593784689903,
        -0.18171724677085876,
        0.13878530263900757,
        -0.09445258229970932,
        -0.030139904469251633,
        -0.08688051253557205,
        0.03393508121371269,
        0.126420259475708,
        0.19202493131160736,
        -0.16315628588199615,
        -0.14523953199386597,
        0.013244153931736946,
        -0.055334948003292084,
        -0.014045340940356255,
        0.023639177903532982,
        0.055495232343673706,
        -0.11221129447221756,
        -0.10441230237483978,
        0.041562821716070175,
        0.13671793043613434,
        0.09652171283960342,
        0.05394182354211807,
        0.06561669707298279,
        0.030155079439282417,
        -0.13324886560440063,
        -0.11164186149835587,
        0.09583836048841476,
        0.16540519893169403,
        -0.22962172329425812,
        0.003984823357313871,
        -0.017255738377571106,
        0.1678280383348465,
        0.09140563756227493,
        0.15230681002140045,
        0.04147918149828911,
        0.18094146251678467,
        0.10260334610939026,
        -0.011036381125450134,
        -0.16555729508399963,
        0.04322187229990959,
        -0.13672469556331635,
        0.058715108782052994,
        0.09870103001594543,
        -0.028547165915369987,
        -0.033671244978904724,
        0.06799709051847458,
        0.014568996615707874,
        0.0025294520892202854,
        0.04611671715974808,
        -0.11955040693283081,
        -0.0013421998592093587,
        0.16074588894844055,
        -0.05885623022913933,
        0.09534592181444168,
        -0.13333626091480255,
        -0.09214063733816147,
        -0.09237469732761383,
        0.1734728366136551,
        -0.1732550859451294,
        -0.022217798978090286,
        0.06421105563640594,
        -0.11842324584722519,
        -0.16003009676933289,
        0.19683478772640228,
        -0.028822563588619232,
        0.16887040436267853,
        -0.009471332654356956,
        0.026075828820466995,
        -0.1753518283367157,
        -0.14482590556144714,
        0.03720196336507797,
        -0.014029821380972862,
        -0.05310946702957153,
        -0.16562151908874512,
        0.02167227491736412,
        0.026460159569978714,
        0.17382323741912842,
        -0.1430768072605133,
        -0.14014089107513428,
        0.01792481541633606,
        0.028540994971990585,
        -0.0665605291724205,
        0.04698152467608452,
        0.1443304866552353,
        -0.15730822086334229,
        -0.12657390534877777,
        -0.03343409299850464,
        -0.16424934566020966,
        -0.05182773619890213,
        0.10560832172632217,
        0.13850486278533936,
        0.15972711145877838,
        -0.127323180437088,
        0.1582944542169571,
        0.1661275029182434,
        0.0419246070086956,
        0.05170254409313202,
        0.02446572482585907,
        0.016340922564268112,
        -0.11190370470285416,
        -0.14994938671588898,
        -0.12249979376792908,
        0.022779084742069244,
        0.2349860817193985,
        -0.05740266665816307,
        0.14166755974292755,
        -0.1715957522392273,
        0.14864122867584229,
        0.06179061159491539,
        -0.038235925137996674,
        0.15418198704719543,
        -0.1728050708770752,
        -0.057057030498981476,
        0.033987581729888916,
        0.2028372436761856,
        0.019299454987049103,
        -0.0770212858915329,
        0.14735476672649384,
        -0.022024089470505714,
        -0.04998796805739403,
        -0.04381357878446579,
        0.1435587853193283,
        -0.07480911165475845,
        -0.08807605504989624,
        -0.07143118977546692,
        0.06947899609804153,
        -0.22036761045455933,
        0.17383024096488953,
        -0.07921679317951202,
        -0.12356248497962952,
        0.07086870819330215,
        -0.17659148573875427,
        -0.0058533078990876675,
        0.115774005651474,
        -0.1358465552330017,
        -0.02849513478577137,
        0.20609083771705627,
        -0.11889083683490753,
        -0.11603829264640808,
        0.09399788826704025,
        0.11918376386165619,
        -0.01574636809527874,
        -0.12142951786518097,
        0.024025531485676765,
        0.2051537185907364,
        -0.10867124795913696,
        0.19429339468479156,
        -0.010388888418674469,
        -0.025448152795433998,
        0.016082903370261192,
        0.1891510933637619,
        0.18794997036457062,
        0.12769851088523865,
        -0.10080798715353012,
        0.16228099167346954,
        0.07164806872606277,
        0.09364644438028336,
        -0.06477748602628708,
        0.0383901447057724,
        0.03893613442778587,
        0.014634126797318459,
        -0.03445632383227348,
        -0.15874433517456055,
        0.0643344298005104,
        -0.14660532772541046,
        0.14817985892295837,
        -0.1830339878797531,
        -0.2001408487558365,
        0.01779278740286827,
        -0.015666311606764793,
        -0.025448841974139214,
        0.11093758046627045,
        0.04737819731235504,
        0.13628412783145905,
        0.08668752014636993,
        -0.09973239153623581,
        0.034222833812236786,
        0.1200261041522026,
        -0.09668345749378204,
        -0.005572015885263681,
        0.055988069623708725,
        -0.15934498608112335,
        -0.14876466989517212,
        -0.16941618919372559,
        0.14085103571414948,
        -0.08182039111852646,
        0.0872463509440422,
        0.12418857961893082,
        0.01980006694793701,
        0.0019356139237061143,
        0.0453810840845108,
        0.058142561465501785,
        -0.11012329906225204,
        -0.17603616416454315,
        -0.1517387330532074,
        0.03808267414569855,
        -0.008132869377732277,
        -0.018714383244514465,
        0.10552027821540833,
        -0.19453875720500946,
        0.02913524955511093,
        0.030198432505130768,
        -0.10727609694004059,
        -0.029332086443901062,
        0.1254422962665558,
        -0.018719498068094254,
        -0.1750553995370865,
        -0.09664198011159897,
        0.0864727795124054,
        -0.19171744585037231,
        0.029723620042204857,
        -0.17108550667762756,
        -0.13117492198944092,
        0.05461754649877548,
        -0.17102086544036865,
        -0.004447478801012039,
        0.1316891610622406,
        -0.2013172060251236,
        -0.10155706107616425,
        -0.06333525478839874,
        -0.1957831084728241,
        0.1565500646829605,
        0.16269932687282562,
        -0.11853337287902832,
        -0.13686470687389374,
        0.05579550191760063,
        -0.04921552166342735,
        0.1421722173690796,
        0.14879100024700165,
        0.1083768978714943,
        -0.14808930456638336,
        -0.07900216430425644,
        -0.1513463407754898,
        0.015734003856778145,
        -0.19992488622665405,
        0.14462922513484955,
        -0.20795226097106934,
        0.013386419042944908,
        -0.15257740020751953,
        0.0035632115323096514,
        -0.09619632363319397,
        0.1175178587436676,
        0.16281366348266602,
        0.002940261736512184,
        -0.12347648292779922,
        0.11101344227790833,
        0.09205327928066254,
        -0.14003825187683105,
        0.1110328882932663,
        -0.009066809900105,
        0.13487139344215393,
        -0.2061072140932083,
        -0.08526135981082916,
        -0.12470896542072296,
        -0.18331177532672882,
        -0.09799719601869583,
        -0.004935302771627903,
        0.006590445525944233,
        0.13294166326522827,
        0.09069328010082245,
        0.1621379554271698,
        0.018279531970620155,
        0.07133937627077103,
        0.021862411871552467,
        -0.060444481670856476,
        0.1541557013988495,
        -0.06369742751121521,
        -0.1646837592124939,
        -0.13151046633720398,
        -0.05549178272485733,
        0.11449960619211197,
        0.03512055054306984,
        -0.0039739892818033695,
        0.05678499862551689,
        0.11141619086265564,
        -0.00474966736510396,
        0.16139306128025055,
        0.09654758125543594,
        0.1102856993675232,
        -0.014418595470488071,
        0.10925336927175522,
        -0.07833093404769897,
        -0.15272700786590576,
        -0.06699926406145096,
        0.03875058889389038,
        -0.10815881937742233,
        -0.10585974156856537,
        -0.048498816788196564,
        0.17111414670944214,
        0.1236492320895195,
        -0.10747068375349045,
        0.08560537546873093,
        -0.03929659724235535,
        0.12901954352855682,
        -0.0644359216094017,
        0.1135142594575882,
        0.014517473056912422,
        0.13298025727272034,
        0.14379946887493134,
        -0.02964380569756031,
        0.05579035356640816,
        -0.14538216590881348,
        0.14475484192371368,
        0.058619290590286255,
        0.007871732115745544,
        -0.13316673040390015,
        -0.04513630270957947,
        0.006947987712919712,
        0.17880448698997498,
        0.16379736363887787,
        0.055607520043849945,
        0.1537625789642334,
        -0.11454789340496063,
        -0.017010532319545746,
        -0.1920202076435089,
        -0.2133948802947998,
        -0.08301687240600586,
        0.14150871336460114,
        0.1601465940475464,
        -0.15592247247695923,
        -0.02037598192691803,
        -0.0676054060459137,
        -0.15448139607906342,
        -0.14091083407402039,
        0.07634152472019196,
        -0.01554237399250269,
        0.026464184746146202,
        0.11663041263818741,
        0.0875057578086853,
        0.0013347674394026399,
        -0.09423559159040451,
        0.002119220793247223,
        -0.14738790690898895,
        -0.1605013906955719,
        -0.02826732024550438,
        -0.061481717973947525,
        0.10882031172513962,
        -0.05389735475182533,
        -0.11390362679958344,
        -0.07692605257034302,
        0.12439354509115219,
        -0.07391636818647385,
        0.04660886898636818,
        -0.11126428842544556,
        0.004587605595588684,
        0.16652411222457886,
        -0.16927827894687653,
        0.16436591744422913,
        0.00424607377499342,
        -0.014199461787939072,
        0.05908584967255592,
        0.06472939252853394,
        0.08601794391870499,
        0.21393251419067383,
        0.030961450189352036,
        -0.14730839431285858,
        -0.08913122117519379,
        0.030033346265554428,
        0.08690442144870758,
        -0.0915692076086998,
        0.10845363140106201,
        0.09178522974252701,
        0.04165174812078476,
        0.12467461079359055,
        0.023482374846935272,
        0.046391140669584274,
        0.16021545231342316,
        0.174132838845253,
        0.14937767386436462,
        0.13289803266525269,
        -0.17964032292366028,
        0.11693479120731354,
        -0.1298176646232605,
        0.045811813324689865,
        0.0805530920624733,
        0.08181225508451462,
        0.02720455266535282,
        -0.10872778296470642,
        -0.11134076863527298,
        0.04170755296945572,
        0.16495287418365479,
        -0.1809038519859314,
        -0.10952699184417725,
        -0.09277257323265076,
        0.15856319665908813,
        0.1293177455663681,
        0.024877330288290977,
        -0.14320158958435059,
        -0.17186124622821808,
        -0.1529456526041031,
        -0.13665105402469635,
        -0.11970870196819305,
        -0.13410162925720215,
        0.06805876642465591,
        -0.17794707417488098,
        -0.033017028123140335,
        -0.1372356414794922,
        0.01977713033556938,
        0.11747327446937561,
        -0.00493698799982667,
        0.03415752202272415,
        -0.07543264329433441,
        -0.12335233390331268,
        -0.11069128662347794,
        0.12697385251522064,
        -0.07654404640197754,
        0.05489504709839821,
        -0.14379136264324188,
        -0.11769455671310425,
        0.017943013459444046,
        0.11045902967453003,
        0.16112537682056427,
        -0.1634882092475891,
        -0.1648794412612915,
        0.024744899943470955,
        -0.001075737876817584,
        0.06695332378149033,
        -0.028122223913669586,
        -0.12955448031425476,
        0.010728561319410801,
        0.21710637211799622,
        0.05880925804376602,
        0.011304297484457493,
        0.10428456962108612,
        -0.02635190077126026,
        0.19573259353637695,
        -0.11800774186849594,
        0.03333266079425812,
        0.17527392506599426,
        -0.11394573748111725,
        -0.08819209039211273,
        0.05881073698401451,
        0.08665172755718231,
        -0.1030159518122673,
        -0.004520792979747057,
        -0.11708122491836548,
        -0.183095321059227,
        -0.161068856716156,
        0.1656019389629364,
        -0.04491247981786728,
        -0.01855931058526039,
        -0.10547112673521042,
        0.13321033120155334,
        -0.03480348736047745,
        -0.09070046246051788,
        0.15390434861183167,
        -0.0228811614215374,
        -0.14768673479557037,
        0.016759442165493965,
        -0.06236547604203224,
        0.04518590867519379,
        0.16715334355831146,
        0.19259139895439148,
        0.04015670344233513,
        -0.14227664470672607,
        -0.05972092226147652,
        0.0974016785621643,
        0.11688663810491562,
        0.07803612947463989,
        -0.12013505399227142,
        -0.17912019789218903,
        -0.05865547060966492,
        -0.15854328870773315,
        -0.12982024252414703,
        0.16646163165569305,
        -0.016529321670532227,
        0.13209393620491028,
        -0.09560652822256088,
        0.10165520757436752,
        -0.041416965425014496,
        -0.10935105383396149,
        -0.002579251304268837,
        -0.14623554050922394,
        0.14958767592906952,
        -0.159895658493042,
        -0.09400647133588791,
        0.1109725683927536,
        -0.06385328620672226,
        -0.03843995928764343,
        0.06690804660320282,
        -0.17602655291557312,
        0.0942528024315834,
        -0.02335422858595848,
        -0.06682661175727844,
        -0.11399397253990173,
        0.08013113588094711,
        0.11310116201639175,
        -0.14436312019824982,
        0.12011031061410904,
        -0.08667835593223572,
        0.10814063251018524,
        -0.03161225840449333,
        -0.10213311016559601,
        0.05393842235207558,
        -0.019564038142561913,
        0.04978363960981369,
        0.12419083714485168,
        0.0870780199766159,
        -0.03014407679438591,
        0.11246265470981598,
        -0.07035081833600998,
        0.1041150689125061,
        -0.09517905861139297,
        0.16903549432754517,
        -0.021440504118800163,
        0.08544301986694336,
        -0.16320809721946716,
        -0.10999085754156113,
        0.04303448647260666,
        -0.13469168543815613,
        -0.13339351117610931,
        0.09927256405353546,
        -0.014996067620813847,
        -0.10426577925682068,
        -0.11594124138355255,
        0.025680137798190117,
        -0.15946312248706818,
        -0.08408284932374954,
        0.10234759747982025,
        0.1441497653722763,
        -0.05182214081287384,
        -0.10306130349636078,
        -0.07051639258861542,
        -0.14142140746116638,
        -0.02741881087422371,
        -0.0630364790558815,
        0.15934176743030548,
        0.11320733278989792,
        0.0466315858066082,
        -0.07075595110654831,
        0.07121887803077698,
        0.036381952464580536,
        -0.006733432877808809,
        -0.1949194371700287,
        0.09069632738828659,
        0.17791596055030823,
        -0.09147471934556961,
        -0.09568727761507034,
        0.1334070861339569,
        0.05520098656415939,
        0.018840864300727844,
        -0.09167468547821045,
        -0.10743264853954315,
        -0.02775869145989418,
        0.1198800653219223,
        0.148293137550354,
        -0.10188452899456024,
        0.022832537069916725,
        0.046314787119627,
        0.04799696430563927,
        0.1240951418876648,
        0.18179868161678314,
        0.0004623101558536291,
        0.07944289594888687,
        0.09428846836090088,
        0.09098097681999207,
        0.09691578894853592,
        -0.1724555343389511,
        0.14072996377944946,
        -0.008031608536839485,
        -0.06337069720029831,
        -0.09833044558763504,
        -0.1036670133471489,
        0.09671204537153244,
        0.11291400343179703,
        0.03915529325604439,
        0.0179568100720644,
        0.012077992781996727,
        -0.047351688146591187,
        -0.16151346266269684,
        -0.05639394000172615,
        0.06951066851615906,
        -0.028663508594036102,
        -0.09165293723344803,
        0.10481321811676025,
        0.026137545704841614,
        -0.09403561055660248,
        -0.08999867737293243,
        -0.06270839273929596,
        -0.1770942658185959,
        0.02883400209248066,
        -0.03142928332090378,
        0.15695708990097046,
        0.13484148681163788,
        -0.11594326794147491,
        0.1622207909822464,
        -0.1269838660955429,
        -0.022930167615413666,
        -0.023638824000954628,
        -0.0504259429872036,
        0.09626162052154541,
        0.10270975530147552,
        -0.15555675327777863,
        -0.06662077456712723,
        0.005275070201605558,
        0.03254972770810127,
        -0.15260344743728638,
        0.0331038199365139,
        0.025383761152625084,
        -0.041300784796476364,
        -0.12858203053474426,
        -0.09129894524812698,
        0.026279643177986145,
        -0.0794484093785286,
        0.07857836037874222,
        -0.1213076189160347,
        -0.17120951414108276,
        -0.03035541996359825,
        0.02523564174771309,
        0.01994537003338337,
        -0.025879574939608574,
        0.17196451127529144,
        0.019364558160305023,
        -0.20214390754699707,
        -0.07498304545879364,
        -0.17282365262508392,
        -0.025439543649554253,
        -0.06549174338579178,
        0.12558399140834808,
        0.15684781968593597,
        -0.13430649042129517,
        0.04203573241829872,
        0.09241661429405212,
        0.04583599045872688,
        -0.13412921130657196,
        0.08925171941518784,
        -0.11342490464448929,
        0.10597681254148483,
        0.09084711223840714,
        0.07502996921539307,
        -0.0677918791770935,
        0.015575405210256577,
        -0.004373481962829828,
        0.22668832540512085,
        -0.10070949047803879,
        0.11405196785926819,
        -0.020675599575042725,
        0.08155357837677002,
        0.16647584736347198,
        0.17361804842948914,
        -0.073023721575737,
        0.009040026925504208,
        0.13977587223052979,
        0.057101909071207047,
        0.05809672176837921,
        -0.05576550215482712,
        -0.10519138723611832,
        -0.06205810233950615,
        -0.10109893232584,
        0.04934686794877052,
        0.16578727960586548,
        0.10178633034229279,
        -0.049459077417850494,
        -0.019826725125312805,
        -0.09614104777574539,
        0.10531902313232422,
        0.0874577984213829,
        -0.16960971057415009,
        0.01928473822772503,
        -0.1267479658126831,
        -0.08956313133239746,
        0.16956448554992676,
        -0.08846389502286911,
        -0.039373744279146194,
        0.08493031561374664,
        0.09088839590549469,
        -0.05285397544503212,
        -0.053335871547460556,
        -0.08688528090715408,
        -0.07821467518806458,
        0.1260688751935959,
        -0.015127032995223999,
        0.19137801229953766,
        0.15982183814048767,
        0.1510029286146164,
        -0.017300214618444443,
        -0.1155928522348404,
        0.05233863368630409,
        -0.01666046865284443,
        0.16034412384033203,
        -0.10295815020799637,
        0.12464940547943115,
        0.0827949196100235,
        0.024888472631573677,
        -0.010526764206588268,
        0.005429419223219156,
        -0.10331061482429504,
        0.03563418611884117,
        0.02754698507487774,
        0.15687242150306702,
        0.08077064156532288,
        0.10779794305562973,
        0.03661297634243965,
        0.14701810479164124,
        0.1384705752134323,
        -0.015556436963379383,
        -0.15063810348510742,
        0.17067362368106842,
        -0.025405269116163254,
        0.18619729578495026,
        0.14717760682106018,
        0.12752732634544373,
        -0.19544006884098053,
        0.18792003393173218,
        0.06251415610313416,
        -0.14506547152996063,
        -0.1158812940120697,
        0.12370219826698303,
        0.026663878932595253,
        0.019677968695759773,
        0.07768883556127548,
        -0.0455191433429718,
        0.1485234946012497,
        -0.1237381100654602,
        -0.05587884038686752,
        0.014479384757578373,
        0.16093409061431885,
        -0.015575723722577095,
        0.16891765594482422,
        0.09063895791769028,
        -0.04947614669799805,
        -0.022155320271849632,
        -0.1332744061946869,
        0.05677328258752823,
        -0.05448848009109497,
        -0.12572336196899414,
        -0.0707831159234047,
        0.09336111694574356,
        -0.041780225932598114,
        0.033873941749334335,
        0.16771434247493744,
        0.09765990078449249,
        -0.1593148112297058,
        0.11743614077568054,
        -0.036860570311546326,
        -0.03338048607110977,
        -0.08236194401979446,
        0.02668740041553974,
        -0.038765184581279755,
        -0.024336667731404305,
        0.17220032215118408,
        -0.03894038498401642,
        0.06368687003850937,
        -0.02655011974275112,
        0.23489242792129517,
        -0.05158062279224396,
        0.15004543960094452,
        0.21540434658527374,
        0.18794764578342438,
        0.13514895737171173,
        -0.023968786001205444,
        0.16153600811958313,
        0.04437679797410965,
        0.14211872220039368,
        0.08234202116727829,
        -0.10332334041595459,
        -0.06916916370391846,
        -0.0925448015332222,
        0.01629212498664856,
        0.03198617696762085,
        0.1431838870048523,
        0.05975854769349098,
        0.006732882000505924,
        0.14315630495548248,
        -0.12467391788959503,
        0.032174501568078995,
        0.16895896196365356,
        -0.11230598390102386,
        -0.11873023211956024,
        0.11525559425354004,
        0.041653189808130264,
        -0.024916265159845352,
        -0.06285102665424347,
        -0.1743156611919403,
        0.19644267857074738,
        -0.02760658785700798,
        0.07275551557540894,
        -0.10264570266008377,
        -0.010396817699074745,
        -0.17263346910476685,
        0.13992245495319366,
        0.1334298700094223,
        -0.12084666639566422,
        0.15674331784248352,
        0.018460433930158615,
        -0.13048511743545532,
        -0.081244096159935,
        0.1300210803747177,
        -0.10885820537805557,
        0.1750156432390213,
        0.15951120853424072,
        0.17390581965446472,
        -0.037839263677597046,
        -0.05206502974033356,
        0.08269008994102478,
        -0.08232707530260086,
        0.0007892711437307298,
        0.10576419532299042,
        0.1555003970861435,
        -0.02707553282380104,
        0.1535499393939972,
        0.18462705612182617,
        0.15173083543777466,
        0.02527841366827488,
        -0.20307590067386627,
        0.03650662302970886,
        -0.14890936017036438,
        -0.1577713042497635,
        0.035722676664590836,
        0.041412804275751114,
        0.12322545051574707,
        -0.05543223023414612,
        0.17336617410182953,
        -0.06914890557527542,
        0.03454868495464325,
        0.06673157215118408,
        -0.17740029096603394,
        0.004314071964472532,
        0.07028578966856003,
        -0.0938255786895752,
        -0.09211047738790512,
        -0.14944785833358765,
        -0.09687115252017975,
        -0.14670449495315552,
        0.1389358639717102,
        -0.05132889002561569,
        0.14240621030330658,
        -0.20387525856494904,
        0.09986323863267899,
        -0.012059877626597881,
        0.16199423372745514,
        0.0030971623491495848,
        -0.13773031532764435,
        0.02903653308749199,
        -0.1252250224351883,
        0.09197885543107986,
        -0.0872497484087944,
        0.16748157143592834,
        0.14172402024269104,
        -0.06619037687778473,
        -0.17360326647758484,
        -0.05913780257105827,
        -0.04970372095704079,
        0.15589618682861328,
        -0.13358834385871887,
        -0.1127161756157875,
        0.07254775613546371,
        0.0856243371963501,
        0.07931020110845566,
        -0.16537629067897797,
        -0.07510153204202652,
        0.05963316187262535,
        -0.07177884876728058,
        -0.029499072581529617,
        0.03978040814399719,
        -0.17106521129608154,
        -0.14267507195472717,
        -0.19909970462322235,
        -0.1721087247133255,
        0.14809991419315338,
        0.027016855776309967,
        -0.13015864789485931,
        -0.13007284700870514,
        0.19005708396434784,
        0.024232447147369385,
        -0.07440405339002609,
        -0.14550745487213135,
        0.15471941232681274,
        0.00821034424006939,
        -0.17294616997241974,
        -0.16739532351493835,
        -0.0484551377594471,
        -0.09879079461097717,
        0.13915951550006866,
        0.023149503394961357,
        -0.007051579654216766,
        0.16474521160125732,
        0.16158969700336456,
        0.138138085603714,
        0.009647062048316002,
        0.014605937525629997,
        0.02153100073337555,
        -0.07768911123275757,
        0.052862245589494705,
        0.11660665273666382,
        -0.017392905429005623,
        0.17650917172431946,
        0.1619458645582199,
        -0.02572205848991871,
        -0.15780341625213623,
        -0.163572296500206,
        0.19946840405464172,
        -0.029162192717194557,
        0.11487448215484619,
        -0.01487651839852333,
        0.13002802431583405,
        -0.03489343449473381,
        -0.11545601487159729,
        0.09133555740118027,
        0.1080755740404129,
        0.052062973380088806,
        -0.17193247377872467,
        -0.17301253974437714,
        0.0692279189825058,
        -0.06732508540153503,
        0.028195122256875038,
        0.13480108976364136,
        0.18160834908485413,
        0.1922535002231598,
        0.029158703982830048,
        0.16505509614944458,
        0.0812501609325409,
        0.08287881314754486,
        -0.09889407455921173,
        -0.0209188349545002,
        -0.03673622012138367,
        -0.08868487924337387,
        -0.14138908684253693,
        0.042237140238285065,
        -0.14432352781295776,
        0.03921126946806908,
        0.18072627484798431,
        -0.14270620048046112,
        -0.06706606596708298,
        0.16044774651527405,
        0.037746820598840714,
        0.16376544535160065,
        0.1593313068151474,
        -0.17928017675876617,
        0.18596118688583374,
        -0.14296308159828186,
        0.05463400483131409,
        -0.11569249629974365,
        0.09767001867294312,
        0.08673394471406937,
        -0.15088482201099396,
        0.039520155638456345,
        0.07948955148458481,
        0.021974775940179825,
        0.08538499474525452,
        -0.19185221195220947,
        0.15849792957305908,
        -0.08635498583316803,
        -0.06112583354115486,
        -0.07217452675104141,
        0.12158183753490448,
        0.023118289187550545,
        -0.09342064708471298,
        -0.036700859665870667,
        -0.13111789524555206,
        -0.07975129038095474,
        0.13371768593788147,
        -0.07853963971138,
        0.07399263232946396,
        0.02290300466120243,
        0.16163232922554016,
        -0.12385834008455276,
        0.060275811702013016,
        -0.034815527498722076,
        -0.08219718188047409,
        -0.016193503513932228,
        0.035255756229162216,
        -0.029179241508245468,
        -0.0340920090675354,
        0.03820578753948212,
        -0.14760543406009674,
        -3.1544572266284376e-05,
        -0.0005381907685659826,
        -0.11846200376749039,
        -0.192571222782135,
        -0.06559386104345322,
        -0.15419915318489075,
        0.17346176505088806,
        -0.0418415367603302,
        -0.07504218816757202,
        -0.03802506625652313,
        0.1420009285211563,
        -0.022068805992603302,
        -0.10048110038042068,
        0.012454128824174404,
        -0.0626072809100151,
        0.15679915249347687,
        -0.02977411448955536,
        -0.1529885232448578,
        0.029245560988783836,
        0.10282588750123978,
        0.07890178263187408,
        -0.01425138209015131,
        0.06270197778940201,
        -0.013946926221251488,
        0.23560713231563568,
        0.18270599842071533,
        -0.11224937438964844,
        -0.03267618641257286,
        0.08974577486515045,
        0.18114973604679108,
        -0.05688566714525223,
        -0.1301310807466507,
        -0.04227301850914955,
        -0.057020608335733414,
        0.24077636003494263,
        -0.12339290231466293,
        0.10384822636842728,
        0.13074523210525513,
        -0.11821506172418594,
        0.18476639688014984,
        0.11525572836399078,
        -0.11306162923574448,
        -0.050785791128873825,
        0.16467927396297455,
        -0.03454631567001343,
        0.18732504546642303,
        0.11426358669996262,
        0.010344862006604671,
        -0.015583807602524757,
        -0.10075728595256805,
        -0.015518429689109325,
        -0.12626294791698456,
        -0.13307683169841766,
        0.11544958502054214,
        0.1707257330417633,
        0.04815768077969551,
        -0.1102093756198883,
        -0.04458749294281006,
        0.128922700881958,
        -0.010953841730952263,
        -0.0496201328933239,
        0.07048635929822922,
        0.1327662467956543,
        0.09878911823034286,
        -0.16092371940612793,
        -0.0747622400522232,
        -0.10846635699272156,
        -0.09096135944128036,
        0.03046233206987381,
        0.20447857677936554,
        -0.1640314757823944,
        -0.06213170662522316,
        -0.02365909516811371,
        0.16886253654956818,
        -0.057229410856962204,
        0.13440929353237152,
        0.07825687527656555,
        0.0030227182433009148,
        -0.0313652865588665,
        -0.034331802278757095,
        0.19533739984035492,
        0.15493294596672058,
        -0.05123326927423477,
        -0.0864541083574295,
        -0.10588864982128143,
        0.013460949994623661,
        -0.010847543366253376,
        -0.10729838907718658,
        -0.19239284098148346,
        -0.037980180233716965,
        -0.12364304810762405,
        0.10497326403856277,
        -0.019319061189889908,
        -0.16024473309516907,
        0.09023920446634293,
        -0.0875353291630745,
        -0.06008648872375488,
        0.08928938955068588,
        0.020385580137372017,
        -0.021921392530202866,
        -0.18280214071273804,
        0.08750778436660767,
        0.02761126309633255,
        0.08369456231594086,
        0.14522770047187805,
        -0.09069246053695679,
        0.07798801362514496,
        -0.17668382823467255,
        -0.08543971180915833,
        0.08474697917699814,
        0.12997761368751526,
        -0.07579082995653152,
        0.07997900992631912,
        0.042874787002801895,
        -0.14293548464775085,
        0.014974822290241718,
        0.13027599453926086,
        -0.08685223013162613,
        0.11506645381450653,
        0.011822227388620377,
        0.1675945371389389,
        -0.1348884403705597,
        0.1308559626340866,
        -0.07506617903709412,
        0.056391239166259766,
        -0.11228956282138824,
        0.13273096084594727,
        -0.018611527979373932,
        -0.11931551992893219,
        -0.07455819100141525,
        -0.15542425215244293,
        0.15098527073860168,
        0.1760011911392212,
        0.02452543005347252,
        -0.17020739614963531,
        -0.016947763040661812,
        0.14945931732654572,
        -0.12462863326072693,
        0.0720590129494667,
        -0.011756435967981815,
        0.1563771516084671,
        -0.021171165630221367,
        0.03541957587003708,
        -0.13764624297618866,
        -0.149508997797966,
        0.03110928274691105,
        0.03618941456079483,
        0.03217724710702896,
        -0.11173810064792633,
        0.13062003254890442,
        0.038190629333257675,
        -0.14400331676006317,
        0.21078285574913025,
        -0.016771860420703888,
        0.03427332639694214,
        0.1809937059879303,
        0.15332718193531036,
        0.19906479120254517,
        -0.026628781110048294,
        0.13945339620113373,
        -0.06581942737102509,
        -0.09216663241386414,
        0.1221633180975914,
        -0.0766228586435318,
        0.032978784292936325,
        -0.055920667946338654,
        0.04955565556883812,
        -0.09816741198301315,
        -0.00578369339928031,
        -0.0352727547287941,
        0.010071787051856518,
        -0.06514377892017365,
        0.10667457431554794,
        0.07485820353031158,
        -0.09796000272035599,
        -0.0884823277592659,
        -0.06884003430604935,
        0.006850748788565397,
        -0.06563176959753036,
        0.17301218211650848,
        -0.050262272357940674,
        -0.0609017051756382,
        -0.0331583246588707,
        0.13649138808250427,
        -0.13599327206611633,
        0.06264010816812515,
        0.024976389482617378,
        -0.08728542923927307,
        -0.03734949976205826,
        0.048924654722213745,
        0.14012421667575836,
        0.020875394344329834,
        0.07047614455223083,
        0.0021602024789899588,
        0.008509811945259571,
        -0.1234348937869072,
        -0.005417649168521166,
        0.08568258583545685,
        -0.07157588005065918,
        0.09543540328741074,
        -0.04966246709227562,
        -0.07531759887933731,
        0.19083259999752045,
        0.08394962549209595,
        -0.12637938559055328,
        0.11655476689338684,
        -0.04951374605298042,
        -0.08721815794706345,
        -0.0839308574795723,
        -0.13692361116409302,
        -0.14315946400165558,
        -0.076059490442276,
        0.15982387959957123,
        -0.08438456803560257,
        -0.05453162640333176,
        0.16803057491779327,
        -0.00034245516872033477,
        0.1535777747631073,
        -0.08060663193464279,
        0.11254769563674927,
        0.18011677265167236,
        0.024506263434886932,
        0.08127989619970322,
        0.06293223053216934,
        -0.11660101264715195,
        0.16136117279529572,
        0.02655164897441864,
        0.2444683313369751,
        0.09876419603824615,
        -0.061115093529224396,
        0.07905107736587524,
        0.059646740555763245,
        -0.09736450761556625,
        0.048751138150691986,
        -0.0870075672864914,
        -0.012343589216470718,
        0.13145007193088531,
        0.16877642273902893,
        0.1882532387971878,
        -0.08967511355876923,
        -0.14742085337638855,
        0.03674793615937233,
        0.12141312658786774,
        0.14700257778167725,
        0.015085751190781593,
        0.15308646857738495,
        -0.038920991122722626,
        -0.005265034735202789,
        -0.051444895565509796,
        -0.03174694627523422,
        0.1376008540391922,
        -0.027574755251407623,
        0.1400170773267746,
        0.20039065182209015,
        0.16337525844573975,
        -0.08532101660966873,
        -0.10825052112340927,
        0.17566460371017456,
        -0.06156473234295845,
        -0.17763112485408783,
        0.14328564703464508,
        -0.16172242164611816,
        0.046257175505161285,
        0.07548822462558746,
        0.10480409115552902,
        -0.14360839128494263,
        -0.1403564065694809,
        0.007530960254371166,
        -0.005640088114887476,
        -0.11031050235033035,
        -0.1697492003440857,
        -0.011263062246143818,
        0.1463088095188141,
        -0.11204872280359268,
        -0.023601923137903214,
        -0.08269662410020828,
        -0.06070833280682564,
        0.03910522907972336,
        -0.061983589082956314,
        0.03219735249876976,
        -0.1851879060268402,
        0.026331571862101555,
        -0.13020573556423187,
        0.0739591047167778,
        0.11262611299753189,
        -0.036271169781684875,
        -0.10414368659257889,
        -0.06369232386350632,
        -0.1588953137397766,
        -0.10134731978178024,
        0.14277826249599457,
        0.06262444704771042,
        0.058381035923957825,
        0.06305868923664093,
        -0.004981324542313814,
        -0.13033753633499146,
        -0.10690226405858994,
        0.019549423828721046,
        -0.07754527777433395,
        -0.1374097615480423,
        -0.07738400250673294,
        0.11305715888738632,
        -0.07090844213962555,
        -0.041424721479415894,
        0.1846649944782257,
        -0.09902992844581604,
        0.16590987145900726,
        -0.12520742416381836,
        0.17909426987171173,
        0.1837490200996399,
        0.11378122866153717,
        -0.0015493249520659447,
        -0.11270809173583984,
        -0.048029135912656784,
        0.11883163452148438,
        0.03953162953257561,
        0.07106352597475052,
        0.04668964445590973,
        0.0015668198466300964,
        0.07464593648910522,
        -0.06332872807979584,
        -0.07652278244495392,
        -0.08876875042915344,
        0.04779431223869324,
        0.06090230867266655,
        -0.16526144742965698,
        0.09821739047765732,
        -0.17186041176319122,
        0.011178993619978428,
        -0.20612792670726776,
        0.014538932591676712,
        -0.04263000190258026,
        -0.05960357189178467,
        0.05828321352601051,
        0.15402556955814362,
        0.005433313082903624,
        -0.011259185150265694,
        -0.06185594201087952,
        0.005316172260791063,
        0.15782004594802856,
        -0.16140812635421753,
        -0.07976511120796204,
        0.06151895225048065,
        0.047081783413887024,
        0.08392157405614853,
        -0.0865216925740242,
        0.12597981095314026,
        0.08354424685239792,
        -0.10468309372663498,
        -0.1312067061662674,
        -0.13437055051326752,
        -0.12536223232746124,
        0.052599430084228516,
        -0.1567087024450302,
        0.16374364495277405,
        0.044252097606658936,
        -0.17461569607257843,
        0.04368140920996666,
        -0.03764092177152634,
        0.058252185583114624,
        0.15302440524101257,
        0.15362536907196045,
        -0.18921712040901184,
        -0.1806546300649643,
        -0.10273623466491699,
        -0.12530258297920227,
        0.0033276351168751717,
        -0.05065416172146797,
        -0.08089867234230042,
        0.14354123175144196,
        -0.09380403161048889,
        -0.09539077430963516,
