{
  "defaults": {},
  "inputs": [
    {
      "name": "DNNinput_wtag__channel",
      "offset": 3.0,
      "scale": 0.16666666666666666
    },
    {
      "name": "DNNinput_wtag__year",
      "offset": 3.0,
      "scale": 0.16666666666666666
    },
    {
      "name": "DNNinput_wtag__met_pt",
      "offset": -0.0,
      "scale": 0.0005
    },
    {
      "name": "DNNinput_wtag__met_phi",
      "offset": 4.0,
      "scale": 0.125
    },
    {
      "name": "DNNinput_wtag__lepton_pt",
      "offset": -0.0,
      "scale": 0.0005
    },
    {
      "name": "DNNinput_wtag__lepton_eta",
      "offset": 5.0,
      "scale": 0.1
    },
    {
      "name": "DNNinput_wtag__lepton_phi",
      "offset": 4.0,
      "scale": 0.125
    },
    {
      "name": "DNNinput_wtag__lepton_reliso",
      "offset": -0.0,
      "scale": 5.0
    },
    {
      "name": "DNNinput_wtag__lepton_charge",
      "offset": 1.0,
      "scale": 0.5
    },
    {
      "name": "DNNinput_wtag__lepton_dr_nextjet",
      "offset": -0.0,
      "scale": 0.16666666666666666
    },
    {
      "name": "DNNinput_wtag__lepton_dphi_nextjet",
      "offset": -0.0,
      "scale": 0.25
    },
    {
      "name": "DNNinput_wtag__lepton_deta_nextjet",
      "offset": -0.0,
      "scale": 0.16666666666666666
    },
    {
      "name": "DNNinput_wtag__lepton_ptrel_nextjet",
      "offset": -0.0,
      "scale": 0.00125
    },
    {
      "name": "DNNinput_wtag__lepton_dr_nextxjet",
      "offset": -0.0,
      "scale": 0.16666666666666666
    },
    {
      "name": "DNNinput_wtag__lepton_dphi_nextxjet",
      "offset": -0.0,
      "scale": 0.25
    },
    {
      "name": "DNNinput_wtag__lepton_deta_nextxjet",
      "offset": -0.0,
      "scale": 0.16666666666666666
    },
    {
      "name": "DNNinput_wtag__lepton_ptrel_nextxjet",
      "offset": -0.0,
      "scale": 0.00125
    },
    {
      "name": "DNNinput_wtag__dphi_lepton_met",
      "offset": -0.0,
      "scale": 0.25
    },
    {
      "name": "DNNinput_wtag__mtw",
      "offset": -0.0,
      "scale": 0.002
    },
    {
      "name": "DNNinput_wtag__pseudotop_m",
      "offset": -0.0,
      "scale": 0.00125
    },
    {
      "name": "DNNinput_wtag__wjet_pt",
      "offset": -0.0,
      "scale": 0.001
    },
    {
      "name": "DNNinput_wtag__wjet_eta",
      "offset": 5.0,
      "scale": 0.1
    },
    {
      "name": "DNNinput_wtag__wjet_phi",
      "offset": 4.0,
      "scale": 0.125
    },
    {
      "name": "DNNinput_wtag__dr_wjet_lepton",
      "offset": -0.0,
      "scale": 0.16666666666666666
    },
    {
      "name": "DNNinput_wtag__dphi_wjet_met",
      "offset": -0.0,
      "scale": 0.25
    },
    {
      "name": "DNNinput_wtag__ptbal_wjet_wboson",
      "offset": 2.0,
      "scale": 0.25
    },
    {
      "name": "DNNinput_wtag__ptbal_wjet_pseudotop",
      "offset": 2.0,
      "scale": 0.25
    },
    {
      "name": "DNNinput_wtag__n_xjets",
      "offset": -0.0,
      "scale": 0.1
    },
    {
      "name": "DNNinput_wtag__ht_xjets",
      "offset": -0.0,
      "scale": 0.001
    },
    {
      "name": "DNNinput_wtag__xjet1pt_pt",
      "offset": -0.0,
      "scale": 0.002
    },
    {
      "name": "DNNinput_wtag__xjet1pt_eta",
      "offset": 5.0,
      "scale": 0.1
    },
    {
      "name": "DNNinput_wtag__xjet1pt_phi",
      "offset": 4.0,
      "scale": 0.125
    },
    {
      "name": "DNNinput_wtag__xjet1pt_deepjet",
      "offset": -0.0,
      "scale": 1.0
    },
    {
      "name": "DNNinput_wtag__mass_xjet1pt_lepton",
      "offset": -0.0,
      "scale": 0.002
    },
    {
      "name": "DNNinput_wtag__dr_xjet1pt_lepton",
      "offset": -0.0,
      "scale": 0.16666666666666666
    },
    {
      "name": "DNNinput_wtag__dr_xjet1pt_wjet",
      "offset": -0.0,
      "scale": 0.16666666666666666
    },
    {
      "name": "DNNinput_wtag__xjet1dj_pt",
      "offset": -0.0,
      "scale": 0.002
    },
    {
      "name": "DNNinput_wtag__xjet1dj_eta",
      "offset": 5.0,
      "scale": 0.1
    },
    {
      "name": "DNNinput_wtag__xjet1dj_phi",
      "offset": 4.0,
      "scale": 0.125
    },
    {
      "name": "DNNinput_wtag__xjet1dj_deepjet",
      "offset": -0.0,
      "scale": 1.0
    },
    {
      "name": "DNNinput_wtag__mass_xjet1dj_lepton",
      "offset": -0.0,
      "scale": 0.002
    },
    {
      "name": "DNNinput_wtag__dr_xjet1dj_lepton",
      "offset": -0.0,
      "scale": 0.16666666666666666
    },
    {
      "name": "DNNinput_wtag__dr_xjet1dj_wjet",
      "offset": -0.0,
      "scale": 0.16666666666666666
    },
    {
      "name": "DNNinput_wtag__ijet1dj_deepjet",
      "offset": -0.0,
      "scale": 1.0
    },
    {
      "name": "DNNinput_wtag__dr_wjet_xjet",
      "offset": -0.0,
      "scale": 0.16666666666666666
    },
    {
      "name": "DNNinput_wtag__wnearestxjet_pt",
      "offset": -0.0,
      "scale": 0.002
    },
    {
      "name": "DNNinput_wtag__wnearestxjet_eta",
      "offset": 5.0,
      "scale": 0.1
    },
    {
      "name": "DNNinput_wtag__wnearestxjet_phi",
      "offset": 4.0,
      "scale": 0.125
    },
    {
      "name": "DNNinput_wtag__wnearestxjet_deepjet",
      "offset": -0.0,
      "scale": 1.0
    }
  ],
  "layers": [
    {
      "activation": "rectified",
      "architecture": "dense",
      "bias": [
        0.020389428362250328,
        0.02760966122150421,
        0.018684081733226776,
        0.03877106308937073,
        0.019796308130025864,
        0.01943170092999935,
        0.015340219251811504,
        -0.002613116754218936,
        0.01988774724304676,
        0.03248099610209465,
        0.01008682046085596,
        0.03565599024295807,
        -0.013476792722940445,
        0.006419180892407894,
        0.023020146414637566,
        0.010700209997594357,
        0.0028689641039818525,
        0.01176147535443306,
        0.012828423641622066,
        0.007824850268661976,
        0.025686269626021385,
        0.01743803173303604,
        0.007860817015171051,
        -0.005133684258908033,
        0.01190886925905943,
        -0.0049744946882128716,
        0.02778717316687107,
        0.026931453496217728,
        0.02277633734047413,
        0.011721163056790829,
        0.010228634811937809,
        0.022847888991236687,
        0.01173887588083744,
        0.00860013160854578,
        0.028304651379585266,
        0.00904520507901907,
        0.031441789120435715,
        0.008643142879009247,
        0.019794849678874016,
        0.030352482572197914,
        0.014133401215076447,
        0.0017266153590753675,
        -0.0015329936286434531,
        0.006127375643700361,
        0.027606133371591568,
        -0.008800670504570007,
        0.017397312447428703,
        0.027868330478668213,
        -0.020609159022569656,
        0.02349085919559002,
        0.029797203838825226,
        -0.004832128062844276,
        0.00989731028676033,
        0.01739400252699852,
        0.001201425213366747,
        0.046758126467466354,
        0.0031864983029663563,
        -0.0060540903359651566,
        0.03249996528029442,
        -0.012763986364006996,
        0.024451643228530884,
        0.022284485399723053,
        0.03022979199886322,
        0.032276999205350876,
        -0.010858099907636642,
        0.04104498401284218,
        0.00625636475160718,
        0.0313914455473423,
        0.02377172000706196,
        0.015518118627369404,
        0.030936269089579582,
        -0.02579578012228012,
        0.01572571136057377,
        0.02233545109629631,
        0.010885875672101974,
        -0.01290530152618885,
        0.03267814218997955,
        0.023894840851426125,
        -0.004358719568699598,
        0.005816701799631119,
        0.005902736913412809,
        0.002655237214639783,
        0.0046054827980697155,
        0.007252818904817104,
        0.03855089843273163,
        -0.00035388374817557633,
        0.0028078865725547075,
        0.01648920774459839,
        0.02072203904390335,
        0.016879616305232048,
        0.02056017704308033,
        0.039170488715171814,
        0.029518334195017815,
        0.028972648084163666,
        0.011226097121834755,
        0.0036918018013238907,
        -0.0002230352838523686,
        0.02743246778845787,
        0.0023590908385813236,
        0.0340404137969017,
        0.006024483125656843,
        0.02995614893734455,
        0.004668770357966423,
        0.004227244295179844,
        0.032148100435733795,
        0.00566578796133399,
        0.013592363335192204,
        -0.007061514537781477,
        -0.004059826489537954,
        0.032958801835775375,
        -0.020920241251587868,
        0.00975572969764471,
        0.01155530009418726,
        0.007313139270991087,
        0.03121856413781643,
        0.010819555260241032,
        -0.0126961600035429,
        -0.009770535863935947,
        0.03859427571296692,
        0.011846840381622314,
        0.0003352101193740964,
        0.03233915567398071,
        0.018254751339554787,
        0.03750435635447502,
        0.030603114515542984,
        0.0031381254084408283,
        0.03103945590555668,
        0.019946709275245667
      ],
      "weights": [
        -0.15023472905158997,
        0.017990751191973686,
        -0.12042208015918732,
        -0.060183919966220856,
        -0.0671716257929802,
        0.03860367089509964,
        -0.07877568900585175,
        0.13160328567028046,
        -0.07645329087972641,
        0.10920201241970062,
        0.15120919048786163,
        -0.13656921684741974,
        0.17476144433021545,
        -0.036635611206293106,
        0.0518692210316658,
        0.0260337945073843,
        0.15892599523067474,
        0.10592423379421234,
        0.17419584095478058,
        0.20944739878177643,
        0.18612545728683472,
        -0.038308288902044296,
        -0.15212684869766235,
        -0.16850583255290985,
        -0.062425367534160614,
        0.10767281800508499,
        0.022550923749804497,
        0.05913494899868965,
        -0.11795005947351456,
        -0.07533998042345047,
        0.09946014732122421,
        0.07376042753458023,
        -0.06158353015780449,
        0.018202727660536766,
        0.16538329422473907,
        0.0998094379901886,
        0.08222285658121109,
        -0.10179769992828369,
        0.060415010899305344,
        -0.1661340892314911,
        0.14758652448654175,
        0.0009151474805548787,
        0.0489334799349308,
        -0.12261475622653961,
        0.20101086795330048,
        0.0958913043141365,
        0.15483570098876953,
        0.0034141726791858673,
        0.0750892162322998,
        0.0036581705790013075,
        0.06616422533988953,
        -0.17956900596618652,
        0.1227024719119072,
        0.08100581914186478,
        -0.06264543533325195,
        0.10744917392730713,
        -0.11772303283214569,
        0.1579386591911316,
        -0.051005568355321884,
        0.15561296045780182,
        -0.12950477004051208,
        0.15638157725334167,
        0.06819254159927368,
        -0.08761222660541534,
        0.13335120677947998,
        -0.13697704672813416,
        0.07775653898715973,
        -0.2055177390575409,
        -0.18843546509742737,
        0.04516591131687164,
        0.0674680769443512,
        0.1327986866235733,
        0.17730467021465302,
        -0.02765294350683689,
        0.10890232771635056,
        0.07402371615171432,
        -0.13006584346294403,
        0.14039133489131927,
        -0.11037810891866684,
        -0.052242886275053024,
        0.013329491950571537,
        -0.09841836988925934,
        0.14449483156204224,
        -0.16137100756168365,
        -0.059295620769262314,
        0.16833367943763733,
        0.18080776929855347,
        0.01069227047264576,
        -0.09955137223005295,
        -0.03726611286401749,
        0.04560783505439758,
        0.09546012431383133,
        -0.18287254869937897,
        -0.06940130889415741,
        -0.005508946720510721,
        0.12557296454906464,
        0.04106764867901802,
        -0.03577689081430435,
        0.07678484916687012,
        0.1429007351398468,
        -0.05828297883272171,
        0.025075741112232208,
        -0.23671986162662506,
        -0.12175698578357697,
        -0.11389149725437164,
        0.0953274667263031,
        -0.13721458613872528,
        0.06472548842430115,
        -0.1121542900800705,
        -0.016444701701402664,
        0.05212153494358063,
        0.15111775696277618,
        0.006496449466794729,
        -0.06733936816453934,
        -0.042276110500097275,
        -0.1829584389925003,
        -0.24590495228767395,
        -0.11052608489990234,
        0.15794870257377625,
        -0.01544642262160778,
        0.12390480190515518,
        -0.005795124918222427,
        -0.06081492826342583,
        0.037140071392059326,
        -0.06642959266901016,
        0.1491881161928177,
        0.11755254864692688,
        0.051140233874320984,
        0.10829661041498184,
        0.037264544516801834,
        0.016435086727142334,
        -0.03725239634513855,
        0.09158837050199509,
        0.12337176501750946,
        0.13266539573669434,
        -0.07882121205329895,
        0.007183457724750042,
        0.2153729349374771,
        0.0725211650133133,
        -0.00840812362730503,
        0.1141698807477951,
        0.03326059505343437,
        0.04508908465504646,
        0.01970883086323738,
        0.0016888658283278346,
        -0.16666105389595032,
        0.09014991670846939,
        -0.008035398088395596,
        0.04102839156985283,
        0.03488612547516823,
        -0.017735572531819344,
        -0.08287563920021057,
        -0.12083044648170471,
        -0.1230243593454361,
        0.20923511683940887,
        -0.10683353990316391,
        -0.0173124298453331,
        0.012244591489434242,
        -0.028734518215060234,
        -0.16705161333084106,
        0.18955452740192413,
        -0.12026900798082352,
        0.07555510848760605,
        -0.12449764460325241,
        -0.08419236540794373,
        0.05895582586526871,
        -0.09797068685293198,
        -0.020724425092339516,
        0.09439653903245926,
        -0.07918912172317505,
        0.19058912992477417,
        -0.07443606108427048,
        0.19987428188323975,
        0.10878083109855652,
        0.14141987264156342,
        -0.0625639334321022,
        -0.071747325360775,
        0.03303931653499603,
        0.13979075849056244,
        0.13357171416282654,
        0.04304816946387291,
        0.027583535760641098,
        -0.09002602845430374,
        0.125814750790596,
        0.08267039060592651,
        0.06876444071531296,
        0.15244682133197784,
        -0.07400962710380554,
        0.07427268475294113,
        -0.0490388385951519,
        0.06553208827972412,
        -0.11018029600381851,
        -0.09395405650138855,
        0.15886038541793823,
        0.11920630186796188,
        -0.13378748297691345,
        0.03422439098358154,
        -0.08623005449771881,
        -0.26518943905830383,
        -0.04921159893274307,
        -0.1401883363723755,
        -0.05643893778324127,
        0.0035267125349491835,
        0.10258397459983826,
        0.09677065908908844,
        0.11975762248039246,
        -0.03067590668797493,
        -0.14700089395046234,
        0.02387935481965542,
        0.08257181197404861,
        -0.07901235669851303,
        0.04788457602262497,
        0.1892012655735016,
        -0.033793363720178604,
        -0.2556566596031189,
        0.10178538411855698,
        -0.06679366528987885,
        -0.07416284829378128,
        -0.0873740017414093,
        -0.07376738637685776,
        0.195805162191391,
        0.1131163239479065,
        -0.1596568375825882,
        0.17379240691661835,
        0.10886228084564209,
        0.026572471484541893,
        -0.01543434802442789,
        -0.014322713948786259,
        0.07467090338468552,
        -0.11938220262527466,
        0.091154083609581,
        0.1002933606505394,
        0.23421397805213928,
        -0.08106403052806854,
        -0.03956560418009758,
        -0.002244300441816449,
        0.0644400417804718,
        0.05618048831820488,
        0.0021083166357129812,
        -0.1050996482372284,
        -0.011659868061542511,
        -0.08041968196630478,
        0.11458425223827362,
        0.027500778436660767,
        -0.03416212648153305,
        -0.14045420289039612,
        0.06599406898021698,
        0.26569873094558716,
        0.08507010340690613,
        0.03443015739321709,
        0.0620223805308342,
        0.06551456451416016,
        0.12247474491596222,
        -0.1061384528875351,
        -0.045510075986385345,
        0.12345147132873535,
        -0.05876552313566208,
        0.0754631757736206,
        -0.07340894639492035,
        0.1257142871618271,
        0.0847758948802948,
        -0.16759032011032104,
        0.006401510909199715,
        0.18990600109100342,
        0.18007415533065796,
        -0.033231645822525024,
        -0.0025111741852015257,
        -0.12242443114519119,
        -0.11748150736093521,
        -0.024125633761286736,
        -0.01783953793346882,
        -0.018219439312815666,
        -0.055006563663482666,
        0.01562555506825447,
        -0.006158003117889166,
        0.0754425972700119,
        0.1856023669242859,
        -0.013844570145010948,
        0.04965464770793915,
        -0.14131008088588715,
        -0.0513492114841938,
        -0.09974291920661926,
        0.14674383401870728,
        0.1873948574066162,
        0.14955386519432068,
        -0.07040811330080032,
        -0.08588570356369019,
        -0.04710095375776291,
        0.189533993601799,
        0.027359740808606148,
        0.1599736511707306,
        0.12263619154691696,
        -0.12806878983974457,
        0.11808964610099792,
        -0.09568753093481064,
        -0.09316818416118622,
        -0.0029270180966705084,
        0.10201455652713776,
        -0.12307016551494598,
        -0.14367055892944336,
        0.04028622433543205,
        0.007904903031885624,
        -0.18427833914756775,
        0.11076605319976807,
        -0.13460370898246765,
        0.027491413056850433,
        0.014170331880450249,
        0.004838721361011267,
        0.09316173940896988,
        0.005229207221418619,
        0.06169336289167404,
        -0.16489209234714508,
        -0.0714462399482727,
        -0.08437461405992508,
        0.19270412623882294,
        -0.05704831704497337,
        0.14722348749637604,
        0.033816833049058914,
        -0.06339195370674133,
        0.1139591857790947,
        -0.1622481793165207,
        0.04560394957661629,
        -0.09953369200229645,
        -0.09932364523410797,
        -0.11257801204919815,
        0.0071673342026770115,
        0.06394229829311371,
        -0.0024693983141332865,
        -0.07416433095932007,
        0.11868468672037125,
        -0.10404455661773682,
        -0.10088077932596207,
        0.17966078221797943,
        -0.05308540537953377,
        0.0348098985850811,
        0.1263001263141632,
        0.09625479578971863,
        0.003027277998626232,
        -0.12539459764957428,
        -0.17376448214054108,
        0.1168188825249672,
        -0.16035977005958557,
        0.006600019987672567,
        0.001357683795504272,
        -0.15280403196811676,
        0.313174307346344,
        0.0467723049223423,
        -0.07454340904951096,
        -0.015392414294183254,
        0.20020775496959686,
        0.060323361307382584,
        -0.10332462191581726,
        -0.10638540983200073,
        -0.036739662289619446,
        0.06399481743574142,
        0.13340775668621063,
        0.05552823841571808,
        0.09166423231363297,
        0.06861807405948639,
        0.0274821687489748,
        0.018175821751356125,
        -0.0020771133713424206,
        0.20923785865306854,
        0.060120705515146255,
        0.04739511385560036,
        0.11115383356809616,
        0.12233785539865494,
        0.08812878280878067,
        -0.041953135281801224,
        0.13488855957984924,
        0.15989884734153748,
        0.013722250238060951,
        0.0010018500033766031,
        -0.1267624944448471,
        0.07397949695587158,
        0.0838218480348587,
        -0.13444353640079498,
        -0.17324860394001007,
        0.13392335176467896,
        0.0998784676194191,
        -0.05899905413389206,
        -0.0765683650970459,
        -0.18474428355693817,
        0.1280614137649536,
        0.16566994786262512,
        0.04921446368098259,
        0.01898972876369953,
        0.13987688720226288,
        0.15831851959228516,
        -0.03680529072880745,
        0.160073384642601,
        -0.15479658544063568,
        -0.12834559381008148,
        -0.11706133186817169,
        -0.22138293087482452,
        0.0936315730214119,
        -0.07201196998357773,
        -0.15118008852005005,
        0.015454404056072235,
        -0.0061173508875072,
        -0.05234486982226372,
        0.10308153927326202,
        0.06591121107339859,
        -0.1419392228126526,
        0.02000635489821434,
        -0.07852289080619812,
        -0.02172653004527092,
        0.14490509033203125,
        -0.09770315885543823,
        0.16969436407089233,
        0.06343720853328705,
        0.17223340272903442,
        0.05007787421345711,
        0.13874128460884094,
        0.02513098157942295,
        -0.17122513055801392,
        0.11532297730445862,
        0.1936943233013153,
        -0.0017563734436407685,
        0.19114133715629578,
        0.10044804215431213,
        -0.11471493542194366,
        0.04844371974468231,
        0.1780087649822235,
        0.13973800837993622,
        -0.008161536417901516,
        -0.026309553533792496,
        0.03995101898908615,
        -0.11294160783290863,
        -0.16590219736099243,
        0.06814063340425491,
        -0.12476491183042526,
        0.15575408935546875,
        -0.0831276997923851,
        0.15826286375522614,
        0.14138075709342957,
        0.016575437039136887,
        0.1697007566690445,
        0.04239670932292938,
        0.11385800689458847,
        -0.13982000946998596,
        -0.06226557120680809,
        -0.05837588384747505,
        0.5093891024589539,
        0.16746611893177032,
        -0.0859067365527153,
        0.15237563848495483,
        0.1213090643286705,
        0.13656771183013916,
        0.02891264483332634,
        0.1475360244512558,
        -0.0604727566242218,
        0.18214645981788635,
        -0.09021037071943283,
        0.1903945356607437,
        0.13338778913021088,
        0.0861969143152237,
        -0.0899406149983406,
        -0.19540046155452728,
        0.06836256384849548,
        0.011473683640360832,
        0.032907333225011826,
        -0.024855904281139374,
        -0.12482067197561264,
        -0.025361424311995506,
        0.16468827426433563,
        -0.03133828938007355,
        -0.09109809249639511,
        0.17694543302059174,
        -0.07715964317321777,
        0.1907082498073578,
        -0.12385374307632446,
        0.11627480387687683,
        -0.11510863155126572,
        -0.01696830615401268,
        0.13043485581874847,
        0.0322379469871521,
        0.08327648788690567,
        0.08083221316337585,
        0.14555782079696655,
        -0.1457400619983673,
        -0.11520994454622269,
        0.17843620479106903,
        -0.003227419452741742,
        0.05100725591182709,
        -0.03875582665205002,
        -0.0716884657740593,
        0.04098842293024063,
        -0.04183000698685646,
        -0.046276647597551346,
        0.1619013398885727,
        -0.1526576578617096,
        0.14297251403331757,
        0.1304483413696289,
        0.1639760434627533,
        -0.09071914106607437,
        0.03109017387032509,
        0.19620364904403687,
        -0.14281456172466278,
        0.04269431531429291,
        0.11604568362236023,
        0.1720181405544281,
        -0.11368817836046219,
        -0.0975416898727417,
        -0.1361643224954605,
        0.007587325293570757,
        0.019719932228326797,
        0.029635421931743622,
        -0.03324836492538452,
        -0.06018081307411194,
        -0.031430937349796295,
        -0.10065486282110214,
        0.07048574835062027,
        -0.05398409068584442,
        0.06925103813409805,
        -0.01931341551244259,
        -0.019318871200084686,
        0.13342194259166718,
        0.13557524979114532,
        -0.055578507483005524,
        -0.15165475010871887,
        0.030640335753560066,
        -0.022789310663938522,
        0.006311723962426186,
        0.017558202147483826,
        0.07251282036304474,
        -0.1076352447271347,
        -0.16905763745307922,
        -0.14941366016864777,
        -0.15467727184295654,
        0.02104019932448864,
        0.13867390155792236,
        -0.027394236996769905,
        -0.20149752497673035,
        -0.04811640828847885,
        0.015387007966637611,
        0.013810904696583748,
        0.19031468033790588,
        0.05715383589267731,
        0.091416135430336,
        0.02807207964360714,
        -0.2646755576133728,
        0.07822363078594208,
        -0.01892857812345028,
        0.024962611496448517,
        0.1391681730747223,
        0.017208557575941086,
        -0.11229541152715683,
        -0.1363295167684555,
        0.06881484389305115,
        -0.19296133518218994,
        -0.1628471463918686,
        -0.12921592593193054,
        -0.10236024111509323,
        -0.04182206466794014,
        -0.045897357165813446,
        0.05549381673336029,
        -0.00518036587163806,
        -0.09591398388147354,
        0.1248147264122963,
        -0.08966601639986038,
        -0.14419764280319214,
        -0.027248576283454895,
        -0.024820532649755478,
        0.19401560723781586,
        -0.02770676277577877,
        0.13168823719024658,
        -0.13197024166584015,
        0.14598530530929565,
        0.19408583641052246,
        0.11328128725290298,
        0.05056691914796829,
        -0.17117133736610413,
        -0.1626557558774948,
        0.18615224957466125,
        -0.13689586520195007,
        0.02125771902501583,
        -0.13301768898963928,
        0.034275613725185394,
        -0.1683657020330429,
        -0.0009659224306233227,
        0.12026242166757584,
        0.015598712489008904,
        -0.07669481635093689,
        0.0593983419239521,
        0.16926532983779907,
        -0.01571688801050186,
        0.13893862068653107,
        0.12202414125204086,
        0.07187193632125854,
        0.19573891162872314,
        -0.02465621940791607,
        0.019157951697707176,
        0.18691478669643402,
        -0.13925817608833313,
        0.044860485941171646,
        0.1577712893486023,
        -0.1529339700937271,
        0.012883677147328854,
        0.0714619904756546,
        -0.09464310854673386,
        -0.13731122016906738,
        -0.06563587486743927,
        0.12462487816810608,
        0.2107684314250946,
        0.30525487661361694,
        0.37626177072525024,
        0.16754692792892456,
        -0.05682213231921196,
        -0.004074173979461193,
        0.07715024799108505,
        -0.09747803211212158,
        -0.16762100160121918,
        0.17171798646450043,
        -0.16389524936676025,
        -0.17373624444007874,
        0.01088922843337059,
        -0.014564312063157558,
        -0.10405446588993073,
        0.13450638949871063,
        -0.020514825358986855,
        0.14624054729938507,
        -0.1457110345363617,
        -0.04856104403734207,
        0.0916670709848404,
        0.0864904522895813,
        0.1569802612066269,
        -0.10367428511381149,
        0.19155655801296234,
        0.15875647962093353,
        -0.10724654048681259,
        0.14209040999412537,
        0.12128286808729172,
        -0.0026162329595535994,
        0.133623868227005,
        -0.09350772947072983,
        -0.134637251496315,
        -0.1249011754989624,
        -0.12844949960708618,
        -0.0329597182571888,
        -0.0429903082549572,
        0.0037248788867145777,
        -0.011117374524474144,
        0.16610953211784363,
        -0.06638936698436737,
        -0.03276298940181732,
        -0.11519691348075867,
        0.09254341572523117,
        0.15133127570152283,
        0.16861335933208466,
        0.07348575443029404,
        -0.05990680307149887,
        -0.028106162324547768,
        0.00042492736247368157,
        0.04051411524415016,
        0.24679335951805115,
        0.08407258242368698,
        -0.02481241710484028,
        -0.10554639995098114,
        -0.16093236207962036,
        0.11601410806179047,
        0.005694517400115728,
        0.12587516009807587,
        0.07386806607246399,
        -0.03164706379175186,
        -0.07761893421411514,
        0.008051649667322636,
        0.011191831901669502,
        0.08577604591846466,
        0.1563168168067932,
        -0.12653319537639618,
        -0.09880995005369186,
        0.0379192978143692,
        -0.09468700736761093,
        0.05912461504340172,
        0.018143195658922195,
        0.14829127490520477,
        -0.10622552037239075,
        0.061281587928533554,
        -0.05609734356403351,
        0.1692611128091812,
        -0.13382789492607117,
        -0.0822359174489975,
        0.1778608113527298,
        0.13759475946426392,
        0.16936229169368744,
        -0.03870300203561783,
        -0.0016171247698366642,
        0.10188784450292587,
        0.06575646996498108,
        0.05943819135427475,
        0.1848023384809494,
        0.040362246334552765,
        -0.11949466168880463,
        -0.1270744502544403,
        -0.15250107645988464,
        0.03665023669600487,
        0.1900796890258789,
        -0.1325337290763855,
        0.12046550959348679,
        0.0185984019190073,
        -0.14740458130836487,
        0.03017401322722435,
        -0.05118393152952194,
        -0.033568862825632095,
        -0.050654757767915726,
        0.02019934169948101,
        -0.04265723377466202,
        -0.02601441740989685,
        0.10559384524822235,
        0.01323617622256279,
        -0.13308483362197876,
        0.008083154447376728,
        -0.08210472762584686,
        -0.07173389196395874,
        -0.03748447448015213,
        0.1078876256942749,
        -0.06565700471401215,
        -0.1458337903022766,
        0.18095780909061432,
        0.0035147788003087044,
        0.14332187175750732,
        0.032321758568286896,
        -0.04763439670205116,
        0.1184573695063591,
        0.12186452001333237,
        0.10113637149333954,
        -0.12394478917121887,
        0.025854595005512238,
        0.17803290486335754,
        -0.1748000830411911,
        -0.11528335511684418,
        0.004471480846405029,
        -0.10302209109067917,
        0.053425002843141556,
        0.18008796870708466,
        0.10454592108726501,
        0.3301435112953186,
        -0.08969584852457047,
        -0.15119147300720215,
        -0.10993949323892593,
        -0.1524800956249237,
        0.04126330465078354,
        0.050367165356874466,
        0.008746393024921417,
        0.14378638565540314,
        0.10820382833480835,
        0.04279612377285957,
        0.14475251734256744,
        -0.033803485333919525,
        -0.12835416197776794,
        -0.11034367978572845,
        -0.2279237061738968,
        0.00791147630661726,
        -0.13689039647579193,
        -0.0724317654967308,
        0.1745612621307373,
        -0.01099846325814724,
        0.020568348467350006,
        0.15350516140460968,
        0.12381473183631897,
        0.04927785322070122,
        -0.008011550642549992,
        -0.15149462223052979,
        -0.16543267667293549,
        0.042840246111154556,
        -0.0794975608587265,
        -0.17245307564735413,
        -0.025006985291838646,
        0.002534734085202217,
        0.16594593226909637,
        0.1318921446800232,
        0.16646119952201843,
        0.05598653480410576,
        0.07629630714654922,
        -0.025742914527654648,
        0.015114909037947655,
        0.1597105711698532,
        0.054672934114933014,
        -0.06694678217172623,
        0.11553758382797241,
        -0.018138136714696884,
        -0.046578455716371536,
        0.035771168768405914,
        0.1086461991071701,
        -0.019429635256528854,
        -0.06621815264225006,
        0.12459514290094376,
        0.23464635014533997,
        0.11544980108737946,
        -0.0254699494689703,
        0.09193793684244156,
        -0.07641125470399857,
        0.0035641691647469997,
        0.0567387156188488,
        0.11837071180343628,
        0.024291492998600006,
        -0.12676844000816345,
        -0.09748842567205429,
        0.1061493530869484,
        0.02990604378283024,
        0.2348887324333191,
        0.17971673607826233,
        -0.07985975593328476,
        0.06212429702281952,
        0.059931978583335876,
        -0.0792851597070694,
        0.16342876851558685,
        0.024086911231279373,
        0.014073641039431095,
        0.06520918011665344,
        -0.02326352708041668,
        0.07100296765565872,
        -0.07972536981105804,
        0.16423441469669342,
        0.09115000814199448,
        -0.08033044636249542,
        0.059368446469306946,
        -0.10258325934410095,
        -0.17735356092453003,
        0.11121189594268799,
        -0.00627612741664052,
        0.03695796802639961,
        -0.037518277764320374,
        0.09015017747879028,
        -0.09306737780570984,
        0.04735115170478821,
        -0.1971108466386795,
        0.1156061515212059,
        -0.0496867336332798,
        -0.010762849822640419,
        -0.0032067731954157352,
        -0.04079756885766983,
        0.12787234783172607,
        0.09876059740781784,
        0.21698236465454102,
        0.040010590106248856,
        -0.022114112973213196,
        -0.05910450965166092,
        0.09125673770904541,
        0.24602752923965454,
        -0.032419878989458084,
        0.0653218999505043,
        0.13047735393047333,
        -0.18100851774215698,
        -0.14615361392498016,
        0.04919968545436859,
        -0.08269622176885605,
        -0.13899242877960205,
        -0.16456086933612823,
        0.06172102317214012,
        0.07823354750871658,
        0.06771921366453171,
        -0.20228709280490875,
        0.14285166561603546,
        -0.03645830973982811,
        0.11782051622867584,
        0.025051848962903023,
        -0.01604572869837284,
        -0.13507981598377228,
        -0.07205408066511154,
        -0.05036146566271782,
        0.19032378494739532,
        -0.028302563354372978,
        -0.0308713149279356,
        0.025062061846256256,
        -0.07119198888540268,
        0.0775236263871193,
        0.10186562687158585,
        0.059868209064006805,
        -0.1132749542593956,
        -0.06416580080986023,
        -0.08213986456394196,
        0.1861431896686554,
        0.07130492478609085,
        -0.044234953820705414,
        -0.0012841750867664814,
        -0.08023146539926529,
        0.1630231887102127,
        -0.028551874682307243,
        0.09955976158380508,
        -0.05242311954498291,
        -0.022430891171097755,
        0.019742602482438087,
        0.06972590833902359,
        0.14900092780590057,
        0.02809101715683937,
        -0.09440398961305618,
        -0.013386872597038746,
        0.09063038229942322,
        -0.001247274107299745,
        0.16882024705410004,
        -0.10214535892009735,
        -0.14516201615333557,
        0.221934512257576,
        0.0731862261891365,
        0.16236288845539093,
        0.08737858384847641,
        0.19439029693603516,
        0.13806219398975372,
        0.05565440282225609,
        0.0662718191742897,
        -0.05521886423230171,
        -0.008043929934501648,
        -0.1400180459022522,
        0.09706349670886993,
        -0.15359658002853394,
        -0.04310198500752449,
        0.16351653635501862,
        -0.08942791819572449,
        -0.09170461446046829,
        -0.1698576807975769,
        -0.15553393959999084,
        -6.998054595896974e-05,
        -0.12791894376277924,
        0.11087141185998917,
        -0.03450186178088188,
        -0.04988724738359451,
        -0.13829399645328522,
        0.18384073674678802,
        0.001315561356022954,
        -0.0756542980670929,
        -0.162602499127388,
        -0.05778815224766731,
        -0.08886788040399551,
        0.1404239386320114,
        -0.11551161110401154,
        0.017596345394849777,
        0.04747426137328148,
        -0.08677513152360916,
        -0.12473475933074951,
        -0.1480197012424469,
        -0.02647245302796364,
        -0.10091894119977951,
        0.19200551509857178,
        -0.050726380199193954,
        -0.06259477883577347,
        0.08976853638887405,
        0.1329842060804367,
        0.06212322786450386,
        0.1904638260602951,
        0.059823762625455856,
        0.04284093156456947,
        0.06368663907051086,
        0.016450505703687668,
        -0.0370904766023159,
        -0.03957317769527435,
        -0.08074693381786346,
        0.15210750699043274,
        -0.09093905985355377,
        0.17025303840637207,
        -0.060962822288274765,
        0.08810772746801376,
        0.005287235137075186,
        -0.1930001676082611,
        -0.1916435807943344,
        -0.16593770682811737,
        -0.09443898499011993,
        0.05294402688741684,
        0.037863682955503464,
        -0.05885011702775955,
        -0.0821637362241745,
        0.13060492277145386,
        0.0647120401263237,
        0.1520124226808548,
        0.11779846251010895,
        0.10303302854299545,
        -0.11933161318302155,
        -0.09750737249851227,
        0.042520515620708466,
        0.028397776186466217,
        0.07661188393831253,
        0.1403086930513382,
        0.12565764784812927,
        -0.04341180995106697,
        -0.0006461507291533053,
        0.0848909467458725,
        0.05905614048242569,
        -0.09646118432283401,
        0.08144360035657883,
        0.11374988406896591,
        -0.0663197711110115,
        0.1398325264453888,
        -0.12793369591236115,
        -0.011478684842586517,
        0.009107105433940887,
        0.039001476019620895,
        -0.003662692615762353,
        0.18797343969345093,
        0.1012858897447586,
        0.02427687495946884,
        -0.14543387293815613,
        0.1052815318107605,
        0.0497429259121418,
        0.193834587931633,
        -0.0816609337925911,
        -0.13615649938583374,
        -0.11501529812812805,
        -0.1099209114909172,
        -0.0590185672044754,
        -0.11669827252626419,
        -0.14562268555164337,
        -0.007092527579516172,
        0.11965790390968323,
        -0.009390528313815594,
        0.03923701122403145,
        -0.06950584053993225,
        0.16855239868164062,
        -0.1258034110069275,
        -0.1342681497335434,
        -0.1444733738899231,
        0.08621629327535629,
        0.03316236659884453,
        -0.051664043217897415,
        0.1748729646205902,
        -0.12651844322681427,
        0.09457499533891678,
        -0.11393122375011444,
        -0.12114813923835754,
        0.01999703235924244,
        0.17300952970981598,
        0.01478936243802309,
        -0.09909545630216599,
        -0.15568608045578003,
        -0.14089882373809814,
        0.21864095330238342,
        -0.08991488069295883,
        0.01241605170071125,
        -0.11899363249540329,
        0.16562490165233612,
        0.1675681620836258,
        -0.04646459221839905,
        0.0290765929967165,
        -0.09045012295246124,
        -0.08038107305765152,
        -0.06961436569690704,
        0.10349104553461075,
        -0.028224637731909752,
        -0.017410073429346085,
        0.08167769759893417,
        -0.12142246961593628,
        0.12768958508968353,
        -0.014880270697176456,
        0.0023335947189480066,
        -0.023958317935466766,
        0.04279283061623573,
        0.20049867033958435,
        -0.19179391860961914,
        -0.11969016492366791,
        0.09157625585794449,
        -0.07360340654850006,
        0.13605313003063202,
        -0.06966159492731094,
        -0.07420754432678223,
        0.12831057608127594,
        0.021303744986653328,
        0.12059035897254944,
        0.06503649801015854,
        0.13871626555919647,
        -0.006802176591008902,
        -0.17863373458385468,
        -0.2287752479314804,
        -0.04797216132283211,
        0.035220447927713394,
        -0.009700573980808258,
        0.07943916320800781,
        0.17977076768875122,
        0.13544127345085144,
        -0.17739731073379517,
        -0.14980587363243103,
        -0.1511625051498413,
        0.07623831927776337,
        -0.10691898316144943,
        -0.09854017198085785,
        0.06245850771665573,
        0.1722843199968338,
        -0.11754324287176132,
        -0.0492963008582592,
        0.01389792375266552,
        0.036450061947107315,
        0.2561073303222656,
        0.06273678690195084,
        0.030959488824009895,
        0.15282268822193146,
        0.16033565998077393,
        -0.014404963701963425,
        0.10173136740922928,
        -0.0952516421675682,
        -0.13093043863773346,
        -0.1716773957014084,
        -0.13166315853595734,
        -0.1492854505777359,
        -0.1626901477575302,
        0.06275427341461182,
        -0.22792907059192657,
        -0.21036109328269958,
        -0.3157447576522827,
        -0.0791168287396431,
        0.1919042021036148,
        -0.10670863091945648,
        0.039822328835725784,
        0.09330356121063232,
        0.0046422830782830715,
        0.0643988698720932,
        -0.0803149938583374,
        0.1408412903547287,
        -0.001145632704719901,
        0.04784155637025833,
        -0.004566593561321497,
        -0.11058596521615982,
        0.17329630255699158,
        -0.06721702963113785,
        -4.057064143125899e-05,
        0.11881668120622635,
        -0.00323836924508214,
        0.15072651207447052,
        -0.03195764496922493,
        0.17877422273159027,
        0.10333185642957687,
        -0.08674836158752441,
        -0.12221141159534454,
        -0.19034481048583984,
        -0.1768837869167328,
        -0.027874961495399475,
        -0.10632217675447464,
        0.03310983628034592,
        -0.02300526760518551,
        -0.01520969532430172,
        -0.1504669040441513,
        0.29551976919174194,
        -0.1388809084892273,
        -0.2239121049642563,
        -0.059951599687337875,
        0.09002568572759628,
        -0.09058745205402374,
        0.17081251740455627,
        -0.1187315285205841,
        0.09787515550851822,
        0.1357189118862152,
        -0.07190832495689392,
        -0.060712773352861404,
        0.0681406781077385,
        -0.15583528578281403,
        -0.10703957825899124,
        -0.14605306088924408,
        0.03679466247558594,
        0.07519593834877014,
        -0.023715589195489883,
        0.04708940163254738,
        0.05151725187897682,
        -0.13428540527820587,
        0.025463812053203583,
        -0.10065571218729019,
        0.20801831781864166,
        -0.0845736488699913,
        0.00019259874534327537,
        -0.03898349031805992,
        0.040798936039209366,
        0.14378640055656433,
        0.1814994215965271,
        0.13843563199043274,
        0.16991814970970154,
        0.04059656336903572,
        0.0985889881849289,
        0.12051983922719955,
        0.0060944040305912495,
        0.07441990822553635,
        0.11486195027828217,
        0.046287909150123596,
        0.003140707267448306,
        -0.0069446745328605175,
        0.1186128631234169,
        0.005930770188570023,
        0.02033725567162037,
        0.1517871469259262,
        0.12126228213310242,
        0.15832313895225525,
        -0.044345445930957794,
        0.0984298512339592,
        0.1084882915019989,
        0.13018684089183807,
        0.13054370880126953,
        0.028300682082772255,
        -0.13169175386428833,
        -0.06550256907939911,
        -0.030244799330830574,
        0.13363534212112427,
        -0.1398676037788391,
        0.024113565683364868,
        0.17100758850574493,
        -0.13768744468688965,
        -0.17754745483398438,
        0.1360744833946228,
        -0.03696487471461296,
        0.022601427510380745,
        0.05393699184060097,
        0.23019440472126007,
        -0.05364522710442543,
        -0.1140822023153305,
        -0.15402770042419434,
        -0.08022746443748474,
        -0.12262610346078873,
        0.11568326503038406,
        -0.03676677495241165,
        -0.04554363340139389,
        0.017705019563436508,
        -0.046930570155382156,
        -0.15012606978416443,
        -0.03873693570494652,
        -0.014434843324124813,
        -0.0736716166138649,
        -0.1438213586807251,
        0.1767086535692215,
        -0.046474263072013855,
        0.01743278279900551,
        0.16254855692386627,
        0.09296782314777374,
        -0.03973885625600815,
        0.17877531051635742,
        0.002364272717386484,
        0.041652701795101166,
        0.1497243493795395,
        0.026575356721878052,
        0.13876886665821075,
        -0.03199218586087227,
        -0.05852697044610977,
        -0.15873661637306213,
        0.15561892092227936,
        0.1633264422416687,
        -0.1077028289437294,
        0.1211986392736435,
        0.07818984985351562,
        0.07500595599412918,
        0.049293193966150284,
        0.1549653708934784,
        -0.005979887209832668,
        -0.17174017429351807,
        0.02077658474445343,
        -0.06136298552155495,
        -0.06381438672542572,
        0.08392269909381866,
        -0.17679524421691895,
        0.28239601850509644,
        0.17989610135555267,
        0.1396634727716446,
        0.18719260394573212,
        0.084495410323143,
        -0.08363452553749084,
        0.10062409192323685,
        0.06589117646217346,
        -0.15779218077659607,
        0.006217727903276682,
        0.16202309727668762,
        -0.12723293900489807,
        0.19979049265384674,
        0.17707791924476624,
        -0.04438132047653198,
        -0.043453533202409744,
        -0.05241343379020691,
        -0.06939636915922165,
        0.055997759103775024,
        0.216731458902359,
        -0.03038918599486351,
        0.152151420712471,
        -0.08355183154344559,
        0.11462198942899704,
        0.08965981006622314,
        0.01981843262910843,
        0.14193542301654816,
        0.18279360234737396,
        0.08348727971315384,
        -0.00462845666334033,
        0.12684442102909088,
        0.1079227477312088,
        0.18996110558509827,
        -0.022855566814541817,
        0.10202004760503769,
        0.1236012876033783,
        0.16043399274349213,
        0.0038129505701363087,
        -0.047960735857486725,
        0.14257203042507172,
        0.05486185848712921,
        0.07412555813789368,
        -0.18408700823783875,
        0.10911576449871063,
        0.1883709877729416,
        -0.10487110912799835,
        -0.1533718854188919,
        -0.11936348676681519,
        0.10339431464672089,
        -0.1335637867450714,
        0.12308060377836227,
        0.11075235903263092,
        -0.1114482432603836,
        0.13704191148281097,
        0.10028692334890366,
        -0.08989109098911285,
        0.17449519038200378,
        0.11393864452838898,
        0.09679293632507324,
        0.0611552856862545,
        0.13356515765190125,
        0.19993063807487488,
        0.15996751189231873,
        -0.020737020298838615,
        0.038762833923101425,
        0.004642504267394543,
        -0.07514079660177231,
        0.15443472564220428,
        -0.16486820578575134,
        -0.0857749730348587,
        0.020727256312966347,
        -0.1498381346464157,
        0.040770504623651505,
        0.01844446174800396,
        -0.1368487924337387,
        -0.10400410741567612,
        0.16587311029434204,
        0.002749480539932847,
        -0.010865490883588791,
        -0.04105138033628464,
        0.07235478609800339,
        0.03551106154918671,
        -0.03624618053436279,
        -0.1654280722141266,
        -0.0749831572175026,
        -0.0815521851181984,
        0.1828460991382599,
        0.07954290509223938,
        0.11512822657823563,
        0.15207195281982422,
        -0.11981210112571716,
        0.13819238543510437,
        -0.09589013457298279,
        -0.09600255638360977,
        0.11774960905313492,
        0.17433026432991028,
        -0.12785358726978302,
        -0.14773176610469818,
        -0.028107859194278717,
        -0.22815968096256256,
        -0.035595040768384933,
        -0.013899249956011772,
        0.11718907952308655,
        0.12337222695350647,
        0.14934322237968445,
        0.12878760695457458,
        -0.054845694452524185,
        0.21391966938972473,
        0.02012183517217636,
        0.10976509004831314,
        -0.1649465262889862,
        0.140110045671463,
        -0.07751008868217468,
        0.06896043568849564,
        -0.11990860849618912,
        0.04369126260280609,
        -0.08769316226243973,
        0.1896490603685379,
        -0.09118815511465073,
        -0.060690708458423615,
        0.13167288899421692,
        -0.03684673458337784,
        -0.17549794912338257,
        0.12955400347709656,
        -0.06278420239686966,
        -0.1458631455898285,
        0.16000047326087952,
        0.1580200493335724,
        -0.13713975250720978,
        0.11833163350820541,
        -0.05453941598534584,
        0.13951092958450317,
        0.09643484652042389,
        0.19692298769950867,
        0.14172451198101044,
        0.1073966696858406,
        0.07371256500482559,
        0.13233047723770142,
        0.024259405210614204,
        -0.14564236998558044,
        -0.01166129857301712,
        0.028232021257281303,
        -0.12935929000377655,
        0.03481365740299225,
        0.11294084787368774,
        0.14656327664852142,
        -0.051938172429800034,
        0.015922557562589645,
        -0.01680753380060196,
        -0.008018064312636852,
        -0.197315976023674,
        0.13455212116241455,
        -0.02389642223715782,
        -0.15723879635334015,
        -0.09355013072490692,
        -0.061420366168022156,
        -0.13352303206920624,
        0.1592574268579483,
        0.14346548914909363,
        0.04488701373338699,
        0.09236619621515274,
        0.11814985424280167,
        -0.02203775756061077,
        0.023080650717020035,
        0.16615715622901917,
        -0.02472306415438652,
        -0.11545976251363754,
        -0.11301261186599731,
        -0.032741937786340714,
        0.21858327090740204,
        0.03160201385617256,
        0.18061010539531708,
        0.12232134491205215,
        0.11494464427232742,
        -0.11594679951667786,
        0.12488618493080139,
        -0.07216031104326248,
        -0.013399912975728512,
        -0.07272352278232574,
        0.1601996123790741,
        0.010789657942950726,
        -0.3157370388507843,
        0.0036469579208642244,
        0.17245616018772125,
        -0.12894925475120544,
        0.13391049206256866,
        0.0640181228518486,
        0.014752507209777832,
        0.00019655851065181196,
        0.14961901307106018,
        -0.13970282673835754,
        -0.09656281769275665,
        0.045535631477832794,
        0.11078575253486633,
        -0.18539132177829742,
        -0.021072689443826675,
        0.1873842030763626,
        -0.020393842831254005,
        0.13713952898979187,
        0.10727949440479279,
        -0.013777509331703186,
        -0.11135558038949966,
        0.12975367903709412,
        -0.05785592272877693,
        0.11122363805770874,
        0.07486308366060257,
        0.14981645345687866,
        0.07531972229480743,
        -0.00849952083081007,
        0.030190998688340187,
        -0.05945470929145813,
        -0.15040786564350128,
        0.1450188010931015,
        -0.09218709170818329,
        0.162179097533226,
        -0.13134652376174927,
        -0.165211483836174,
        0.06326473504304886,
        0.04883110150694847,
        -0.1679423451423645,
        -0.04830212518572807,
        0.014298641122877598,
        0.01896907575428486,
        -0.11006294935941696,
        -0.1408117264509201,
        0.11036015301942825,
        -0.11316032707691193,
        0.16912905871868134,
        -0.02714506909251213,
        0.13475295901298523,
        0.37608233094215393,
        -0.14898282289505005,
        -0.2155236005783081,
        0.09060665220022202,
        -0.10695354640483856,
        -0.10988231003284454,
        -0.0037493915297091007,
        -0.1189715564250946,
        0.12218043953180313,
        -0.008172031491994858,
        0.12706881761550903,
        -0.05542843043804169,
        0.03908887505531311,
        -0.10430366545915604,
        -0.09691359847784042,
        -0.11603910475969315,
        -0.18824023008346558,
        0.12649033963680267,
        0.13642306625843048,
        0.14987939596176147,
        0.04528063163161278,
        0.14167676866054535,
        0.09359150379896164,
        0.1396237164735794,
        -0.0974983423948288,
        -0.08204955607652664,
        0.10935773700475693,
        -0.028742458671331406,
        0.139165461063385,
        0.0842057466506958,
        -0.043199360370635986,
        0.05088503658771515,
        0.10862855613231659,
        0.08111364394426346,
        -0.13452914357185364,
        0.15934202075004578,
        0.05322134122252464,
        0.03268612176179886,
        0.06062770634889603,
        0.023944701999425888,
        -0.1008085235953331,
        -0.1875346153974533,
        0.0012115174904465675,
        -0.10582723468542099,
        0.03641592338681221,
        0.06092863902449608,
        0.09796831011772156,
        -0.03511354699730873,
        0.1437070071697235,
        -0.29108965396881104,
        -0.11072773486375809,
        0.15413813292980194,
        0.12339549511671066,
        -0.1516880840063095,
        0.0802036002278328,
        -0.044937536120414734,
        0.17283792793750763,
        -0.05359506607055664,
        0.12136052548885345,
        -0.11492627114057541,
        -0.12418131530284882,
        0.1359752118587494,
        0.03953522816300392,
        -0.09306758642196655,
        0.19641602039337158,
        -0.016394823789596558,
        -0.058191150426864624,
        0.15894070267677307,
        -0.14926154911518097,
        0.1603686809539795,
        0.005296435207128525,
        -0.08763356506824493,
        0.110543392598629,
        -0.06576023250818253,
        -0.057291075587272644,
        0.17833997309207916,
        0.11836380511522293,
        -0.061668653041124344,
        -0.020302878692746162,
        0.04236384481191635,
        0.12946341931819916,
        -0.12274864315986633,
        -0.035416606813669205,
        0.14033225178718567,
        0.08206706494092941,
        0.08438945561647415,
        0.21756839752197266,
        -0.1492311656475067,
        0.16677004098892212,
        0.18818716704845428,
        0.12501002848148346,
        -0.051947031170129776,
        -0.12782491743564606,
        0.11163919419050217,
        -0.1407565474510193,
        0.12925168871879578,
        -0.07313235104084015,
        0.01204436644911766,
        0.25951987504959106,
        0.083839051425457,
        -0.12478900700807571,
        -0.10769033432006836,
        -0.09152690321207047,
        0.01353295799344778,
        -0.00770062068477273,
        0.08600398898124695,
        0.018238062039017677,
        -0.1270543336868286,
        0.09421674907207489,
        0.15011386573314667,
        -0.14534802734851837,
        -0.14388138055801392,
        -0.14547431468963623,
        -0.20129092037677765,
        0.2291431874036789,
        0.09066435694694519,
        -0.14490041136741638,
        0.1281585842370987,
        0.08992939442396164,
        0.1462498903274536,
        0.13877269625663757,
        0.033021487295627594,
        -0.04467858746647835,
        0.06562107056379318,
        -0.04672722518444061,
        -0.05387737229466438,
        -0.02644461765885353,
        -0.042034558951854706,
        -0.14964109659194946,
        0.02886904776096344,
        0.17150963842868805,
        -0.1001204252243042,
        -0.14512179791927338,
        0.04109185189008713,
        0.16139212250709534,
        0.18298977613449097,
        -0.03434146195650101,
        -0.005420593544840813,
        0.014947347342967987,
        -0.16203539073467255,
        0.10639937967061996,
        0.16548867523670197,
        -0.09088840335607529,
        0.0355062261223793,
        -0.04853313788771629,
        0.06742937117815018,
        -0.15957802534103394,
        0.35762062668800354,
        0.04284254461526871,
        -0.01461980864405632,
        0.008213178254663944,
        -0.1392448991537094,
        0.1927957385778427,
        -0.008369253017008305,
        0.07326940447092056,
        -0.06411585211753845,
        0.021824797615408897,
        -0.018792901188135147,
        -0.13897579908370972,
        -0.008669553324580193,
        0.16696275770664215,
        -0.12633228302001953,
        -0.19424328207969666,
        0.06984532624483109,
        -0.02867751196026802,
        0.14766713976860046,
        -0.0005655526765622199,
        0.08830926567316055,
        -0.02997932955622673,
        -0.09194794297218323,
        0.049022067338228226,
        0.05111535266041756,
        0.1807895451784134,
        -0.027859192341566086,
        0.11616699397563934,
        0.08392921090126038,
        0.10101521760225296,
        0.017827896401286125,
        0.11197426170110703,
        0.07529760152101517,
        -0.1723514050245285,
        -0.025894418358802795,
        0.05947050452232361,
        -0.03421945124864578,
        0.15022054314613342,
        0.07739143073558807,
        -0.1040385439991951,
        -0.026185013353824615,
        -0.09161259233951569,
        0.15236680209636688,
        0.137968048453331,
        0.1274862289428711,
        -0.1507282257080078,
        0.10003988444805145,
        -0.08461789786815643,
        -0.08634275197982788,
        -0.05627240613102913,
        -0.1262502521276474,
        0.22435244917869568,
        -0.06933654844760895,
        0.12195005267858505,
        0.10388672351837158,
        0.05365553870797157,
        -0.13149861991405487,
        0.16177760064601898,
        -0.01612146385014057,
        0.13740243017673492,
        -0.16474714875221252,
        0.06957907974720001,
        -0.07539903372526169,
        0.12669365108013153,
        0.15573252737522125,
        0.20344308018684387,
        0.06373163312673569,
        -0.04614032432436943,
        0.07679342478513718,
        0.17528243362903595,
        -0.03501368686556816,
        0.08549947291612625,
        0.18900775909423828,
        -0.14431138336658478,
        -0.12639035284519196,
        0.11665569245815277,
        -0.12146693468093872,
        0.12057420611381531,
        -0.017120102420449257,
        -0.16604630649089813,
        -0.0888013020157814,
        0.1314207762479782,
        0.18478894233703613,
        -0.12813721597194672,
        0.11764060705900192,
        0.10706955194473267,
        -0.10805042088031769,
        0.030081868171691895,
        0.002543641021475196,
        -0.15422511100769043,
        -0.20022685825824738,
        -0.03426440805196762,
        0.12367553263902664,
        0.182814821600914,
        0.01119723916053772,
        0.014726419933140278,
        -0.002632981166243553,
        -0.08556395769119263,
        0.3741750717163086,
        0.12218020856380463,
        0.12106781452894211,
        0.004918428137898445,
        -0.0927109569311142,
        -0.09431567043066025,
        0.04882892593741417,
        0.09757889807224274,
        -0.0670715793967247,
        0.11618360877037048,
        0.09149826318025589,
        -0.11801469326019287,
        0.022421937435865402,
        -0.11290770024061203,
        -0.08984839171171188,
        0.08928370475769043,
        0.20888322591781616,
        0.18003571033477783,
        -0.10719189047813416,
        0.04134896397590637,
        -0.10575605928897858,
        0.18830373883247375,
        0.10009285062551498,
        0.11163034290075302,
        0.08034748584032059,
        0.16923999786376953,
        -0.12611360847949982,
        0.09558447450399399,
        -0.017336295917630196,
        -0.1655959039926529,
        0.13788945972919464,
        0.045817676931619644,
        -0.09621331840753555,
        -0.04110889881849289,
        0.17371852695941925,
        -0.12763327360153198,
        -0.08012521266937256,
        0.016639111563563347,
        -0.06132424995303154,
        -0.0337686762213707,
        -0.08286700397729874,
        0.08368851244449615,
        -0.15452119708061218,
        -0.027292611077427864,
        0.14487873017787933,
        0.004849337041378021,
        0.0014089694013819098,
        -0.12329554557800293,
        -0.055497411638498306,
        0.018092695623636246,
        0.19173531234264374,
        -0.11648944020271301,
        0.014504866674542427,
        0.04833441972732544,
        -0.025744624435901642,
        0.1334145963191986,
        0.17944160103797913,
        0.08498460054397583,
        -0.08387007564306259,
        0.13236196339130402,
        -0.07473485916852951,
        0.1763894259929657,
        -0.08195779472589493,
        -0.07457126677036285,
        0.1101708859205246,
        0.23114563524723053,
        0.10279639810323715,
        -0.09446173906326294,
        -0.0767710730433464,
        -0.05484209582209587,
        -0.10614042729139328,
        0.003978709690272808,
        -0.02593175508081913,
        0.016419220715761185,
        0.06235131621360779,
        0.1347074955701828,
        -0.036027941852808,
        0.11921025067567825,
        -0.03847905993461609,
        -0.04254880174994469,
        0.0817045122385025,
        -0.04169417917728424,
        0.12460296601057053,
        -0.038785140961408615,
        -0.08857573568820953,
        0.05330127850174904,
        0.07956303656101227,
        -0.16419830918312073,
        -0.006945739965885878,
        -0.11180412024259567,
        -0.1366194188594818,
        -0.11449916660785675,
        -0.10548249632120132,
        -0.1029381975531578,
        -0.11176034808158875,
        0.12235026061534882,
        0.10868953913450241,
        -0.11973965167999268,
        -0.2810381352901459,
        -0.09486096352338791,
        -0.11820505559444427,
        -0.2006424218416214,
        0.0333038754761219,
        -0.0660400465130806,
        -0.021169373765587807,
        0.16556134819984436,
        -0.0715680718421936,
        -0.06364855915307999,
        0.14247727394104004,
        -0.16812559962272644,
        0.053583335131406784,
        -0.0453195758163929,
        0.06917552649974823,
        -0.015572798438370228,
        0.06900257617235184,
        0.0935656726360321,
        -0.12070117890834808,
        -0.01939138025045395,
        0.12590712308883667,
        0.18797585368156433,
        -0.0007252393988892436,
        0.16865268349647522,
        -0.09467322379350662,
        -0.11082842200994492,
        -0.09104979038238525,
        0.1754598766565323,
        -0.18330131471157074,
        0.03319796174764633,
        0.10099964588880539,
        -0.05327543243765831,
        0.08840250223875046,
        0.11637786030769348,
        0.0045933350920677185,
        -0.025838162750005722,
        0.04870891943573952,
        -0.19428421556949615,
        -0.16552132368087769,
        0.13496138155460358,
        0.1663345843553543,
        0.015477488748729229,
        -0.12212168425321579,
        0.16912196576595306,
        -0.00146862689871341,
        -0.14487804472446442,
        0.0002693329588510096,
        -0.12556801736354828,
        0.06799878180027008,
        -0.3060629367828369,
        0.04985494539141655,
        0.2140696942806244,
        -0.005664474796503782,
        -0.12180474400520325,
        0.03894607350230217,
        0.03233586996793747,
        -0.01613113284111023,
        0.10247371345758438,
        0.04976800084114075,
        0.011436914093792439,
        -0.02581128664314747,
        0.043434225022792816,
        0.18933558464050293,
        0.17890356481075287,
        0.21801559627056122,
        -0.1917630136013031,
        0.03519490361213684,
        -0.14872531592845917,
        -0.12512469291687012,
        0.12116522341966629,
        0.09110889583826065,
        -0.04582003876566887,
        -0.03290662541985512,
        0.1781793236732483,
        0.0036337594501674175,
        0.038162603974342346,
        -0.07967881113290787,
        0.1894594132900238,
        0.060161489993333817,
        0.05900341644883156,
        0.010620314627885818,
        0.12634603679180145,
        -0.13747359812259674,
        0.08984190225601196,
        0.03034920245409012,
        -0.018446892499923706,
        0.09293097257614136,
        0.07065541297197342,
        0.17102232575416565,
        -0.1739305704832077,
        0.003357570618391037,
        -0.03912614658474922,
        -0.013853160664439201,
        -0.06812703609466553,
        0.12220236659049988,
        -0.13364247977733612,
        0.0313812680542469,
        0.035057201981544495,
        -0.08102533966302872,
        0.16016259789466858,
        0.07248431444168091,
        0.06236487999558449,
        -0.15870992839336395,
        -0.11700715124607086,
        -0.1511210948228836,
        -0.08205185830593109,
        0.072791688144207,
        0.03453777730464935,
        0.08187464624643326,
        -0.10471490770578384,
        -0.08681497722864151,
        -0.07615391910076141,
        -0.024908237159252167,
        -0.04790627583861351,
        -0.13287955522537231,
        -0.10728638619184494,
        0.11663108319044113,
        -0.014404377900063992,
        -0.11511698365211487,
        0.1671120673418045,
        0.2163538932800293,
        -0.0344284288585186,
        -0.06044282019138336,
        -0.10285268723964691,
        0.18065623939037323,
        -0.05248630419373512,
        0.01451273076236248,
        0.08929206430912018,
        -0.10751517862081528,
        -0.008009230718016624,
        0.017693670466542244,
        0.09569844603538513,
        0.10911404341459274,
        0.17566274106502533,
        0.14693613350391388,
        -0.1636570692062378,
        -0.08250541239976883,
        0.10484901815652847,
        -0.1583157479763031,
        -0.036503035575151443,
        -0.11136361956596375,
        0.022121461108326912,
        0.14951486885547638,
        -0.001056370441801846,
        0.02146582491695881,
        0.04214629530906677,
        -0.12820231914520264,
        -0.028977559879422188,
        -0.15904583036899567,
        0.09690167754888535,
        -0.004634283483028412,
        -0.10966629534959793,
        -0.0363885797560215,
        0.01832304708659649,
        -0.05829767510294914,
        0.13669800758361816,
        -0.05570682883262634,
        0.0910746231675148,
        0.19356831908226013,
        0.18842753767967224,
        0.02377721481025219,
        0.191411554813385,
        0.12863478064537048,
        -0.13665173947811127,
        -0.07950180768966675,
        -0.10066252946853638,
        0.14275120198726654,
        -0.08261413127183914,
        0.038777366280555725,
        -0.003950471058487892,
        0.1335086077451706,
        0.1446266770362854,
        -0.09661172330379486,
        -0.07437311112880707,
        0.09896600991487503,
        0.08556116372346878,
        -0.011858390644192696,
        -0.02607547678053379,
        -0.15020592510700226,
        0.07030559331178665,
        -0.08790814131498337,
        0.0386446975171566,
        0.1804974377155304,
        0.13366250693798065,
        0.006990985944867134,
        -0.09786421805620193,
        0.02629532851278782,
        -0.08033587783575058,
        0.057068295776844025,
        0.18314878642559052,
        0.021961817517876625,
        0.04309355840086937,
        0.016449972987174988,
        0.1758832037448883,
        -0.02126791700720787,
        -0.08086138218641281,
        0.16155453026294708,
        0.12700527906417847,
        0.11289607733488083,
        0.07429113984107971,
        -0.06559765338897705,
        0.0007300178403966129,
        0.006354429293423891,
        -0.094676174223423,
        0.07709498703479767,
        -0.1051160991191864,
        0.16003261506557465,
        -0.043586719781160355,
        -0.1590101718902588,
        0.1332998126745224,
        0.13802194595336914,
        0.11126071959733963,
        0.17938731610774994,
        -0.0931403785943985,
        0.09399578720331192,
        -0.07247920334339142,
        -0.15069575607776642,
        0.02293884940445423,
        0.08508741855621338,
        0.18323193490505219,
        0.14613544940948486,
        0.13064101338386536,
        0.02325034886598587,
        -0.22613771259784698,
        -0.059716712683439255,
        -0.05162198096513748,
        0.10277453064918518,
        -0.1433449238538742,
        0.07344529777765274,
        0.061835773289203644,
        0.011443552561104298,
        0.00911619421094656,
        0.004109390079975128,
        0.16121996939182281,
        -0.04084903001785278,
        0.09565809369087219,
        -0.13331185281276703,
        0.0915781706571579,
        0.15503369271755219,
        0.00152462103869766,
        -0.022074809297919273,
        -0.03253401443362236,
        0.13521520793437958,
        0.13913178443908691,
        -0.1644984781742096,
        -0.011927894316613674,
        0.00965740717947483,
        -0.07777557522058487,
        -0.14893850684165955,
        -0.012257726863026619,
        0.13623884320259094,
        0.14941111207008362,
        0.14621640741825104,
        0.10168806463479996,
        0.2139560729265213,
        -0.08474674075841904,
        0.015512344427406788,
        0.03280620649456978,
        0.05876744166016579,
        -0.04710182547569275,
        -0.07459080964326859,
        -0.027770308777689934,
        0.04622622951865196,
        0.02836255170404911,
        -0.0006086625508032739,
        0.15095557272434235,
        0.07636648416519165,
        0.13115756213665009,
        0.1048186793923378,
        -0.010090362280607224,
        -0.05468238517642021,
        0.15029557049274445,
        -0.06279237568378448,
        0.08012989163398743,
        0.12545736134052277,
        0.12422042340040207,
        0.005051790736615658,
        -0.08443865180015564,
        -0.08448925614356995,
        0.0764644593000412,
        -0.15387794375419617,
        -0.16130642592906952,
        0.20269688963890076,
        0.03418181836605072,
        -0.1432979553937912,
        0.12952640652656555,
        0.1266648769378662,
        0.16605950891971588,
        0.0031209313310682774,
        0.047792818397283554,
        0.03249995782971382,
        0.09034410119056702,
        -0.05644293501973152,
        -0.1249515637755394,
        0.22329579293727875,
        -0.05693459138274193,
        0.11663676053285599,
        -0.11193276941776276,
        0.0023025055415928364,
        -0.17861929535865784,
        -0.010223768651485443,
        0.1865936666727066,
        0.1746739000082016,
        0.1440247744321823,
        0.028125818818807602,
        0.07396578043699265,
        0.19871777296066284,
        0.027495086193084717,
        -0.07540375739336014,
        0.17719551920890808,
        -0.026919307187199593,
        0.08133134990930557,
        0.15024937689304352,
        0.1347963660955429,
        -0.11915385723114014,
        0.025490475818514824,
        -0.1651659458875656,
        -0.1070653572678566,
        -0.14783340692520142,
        0.009968536905944347,
        -0.022401951253414154,
        0.143754243850708,
        -0.04031052067875862,
        -0.01418464258313179,
        0.033279236406087875,
        0.06302215158939362,
        0.13801760971546173,
        -0.023094890639185905,
        0.1640102118253708,
        -0.0961635559797287,
        -0.06754360347986221,
        0.07051165401935577,
        0.0827154666185379,
        0.17967410385608673,
        -0.08329428732395172,
        0.17946478724479675,
        0.17541064321994781,
        0.06818630546331406,
        -0.07482519000768661,
        0.07848656922578812,
        0.14340969920158386,
        -0.13253992795944214,
        -0.02233313024044037,
        0.3717733323574066,
        0.025295358151197433,
        -0.08815708011388779,
        0.16381822526454926,
        -0.044082146137952805,
        -0.1656646579504013,
        0.1522045135498047,
        0.019967935979366302,
        -0.049295905977487564,
        -0.026419296860694885,
        -0.03220967948436737,
        0.16391102969646454,
        -0.12345729768276215,
        0.05177007615566254,
        0.12370515614748001,
        -0.01701008342206478,
        0.16137202084064484,
        -0.14420172572135925,
        0.20074577629566193,
        0.018874844536185265,
        -0.0820939913392067,
        0.029764018952846527,
        -0.13688459992408752,
        0.15261076390743256,
        -0.021524570882320404,
        -0.06799717992544174,
        0.04433285444974899,
        6.074254088161979e-06,
        0.1860157698392868,
        -0.13397376239299774,
        -0.1280151605606079,
        0.11977117508649826,
        -0.1339145302772522,
        -0.05610841512680054,
        -0.09159444272518158,
        0.17736119031906128,
        0.07252709567546844,
        -0.14475014805793762,
        0.055012792348861694,
        0.17294538021087646,
        -0.08821315318346024,
        -0.016132621094584465,
        0.08899719268083572,
        -0.15856438875198364,
        0.03743094950914383,
        -0.12961886823177338,
        0.05705343186855316,
        0.19206784665584564,
        0.040383290499448776,
        0.37658363580703735,
        0.11063472181558609,
        0.048860181123018265,
        -0.020186692476272583,
        -0.12788785994052887,
        -0.010558783076703548,
        -0.08814428001642227,
        -0.09086360782384872,
        0.18888089060783386,
        0.067886583507061,
        -0.03198517858982086,
        0.07967867702245712,
        0.10144345462322235,
        -0.12348529696464539,
        0.07851572334766388,
        -0.029511211439967155,
        0.04518892988562584,
        -0.09591248631477356,
        0.18347322940826416,
        0.12076133489608765,
        -0.04206230491399765,
        -0.059416987001895905,
        -0.004916055127978325,
        0.03094843588769436,
        0.07962875068187714,
        -0.06672553718090057,
        0.08346505463123322,
        -0.14639243483543396,
        -0.020631276071071625,
        -0.003232475370168686,
        0.15255852043628693,
        -0.047471191734075546,
        -0.1060609444975853,
        0.06873709708452225,
        0.13623201847076416,
        0.01751083880662918,
        0.17252984642982483,
        0.05685948580503464,
        -0.08773516863584518,
        0.10330188274383545,
        -0.11277288943529129,
        -0.16579101979732513,
        -0.05119369551539421,
        0.10277236998081207,
        0.04897620901465416,
        0.015580476261675358,
        0.148736834526062,
        -0.05857238173484802,
        -0.1265931874513626,
        0.06844350695610046,
        0.09429362416267395,
        -0.06977162510156631,
        0.051761120557785034,
        -0.06131365895271301,
        0.06114685907959938,
        0.04377066716551781,
        -0.1050124391913414,
        -0.017674461007118225,
        0.19200722873210907,
        -0.16278420388698578,
        0.023318491876125336,
        -0.13783197104930878,
        0.14350898563861847,
        -0.0704488605260849,
        -0.033349692821502686,
        0.19466887414455414,
        -0.0013007097877562046,
        -0.05938643217086792,
        0.06431363523006439,
        -0.040482111275196075,
        -0.16539345681667328,
        0.16176120936870575,
        -0.12530195713043213,
        -0.14988866448402405,
        -0.14047245681285858,
        0.060909204185009,
        -0.01616860181093216,
        0.043270695954561234,
        -0.017830848693847656,
        0.020960234105587006,
        0.12636125087738037,
        -0.13226765394210815,
        -0.06570827215909958,
        0.05113087221980095,
        -0.1158030778169632,
        -0.03773118183016777,
        0.1331639438867569,
        0.13083621859550476,
        0.024823853746056557,
        0.05336117744445801,
        -0.0852978378534317,
        0.05557659640908241,
        0.024792689830064774,
        -0.12686796486377716,
        0.07250542938709259,
        -0.1442282646894455,
        0.06807204335927963,
        0.030623814091086388,
        0.08604521304368973,
        0.1630779206752777,
        -0.09468641132116318,
        0.1442110687494278,
        -0.08287732303142548,
        -0.10795966535806656,
        0.10978034138679504,
        0.07339992374181747,
        -0.05439208447933197,
        -0.015038421377539635,
        0.14208273589611053,
        0.17993026971817017,
        -0.09472499787807465,
        -0.12907765805721283,
        -0.1369306594133377,
        -0.10637527704238892,
        -0.06902743130922318,
        -0.142669215798378,
        -0.1320759654045105,
        -0.03378429263830185,
        -0.08952374011278152,
        -0.1419914811849594,
        -0.09227487444877625,
        0.07389020919799805,
        -0.06551949679851532,
        -0.023903459310531616,
        0.11382797360420227,
        -0.08910515159368515,
        0.1975041776895523,
        -0.03273811563849449,
        -0.10209167003631592,
        0.03522560000419617,
        -0.04039395973086357,
        -0.06571853160858154,
        0.0849638283252716,
        0.10631875693798065,
        0.03365984931588173,
        0.07392656058073044,
        -0.10144037008285522,
        -0.033333759754896164,
        0.12992525100708008,
        0.1726965755224228,
        0.04610428959131241,
        -0.11136740446090698,
        0.18459747731685638,
        0.14537735283374786,
        0.09227733314037323,
        0.05500102415680885,
        0.11882977187633514,
        0.2524607181549072,
        0.07338721305131912,
        -0.1964435875415802,
        -0.11385321617126465,
        0.027824988588690758,
        -0.16015446186065674,
        0.02671876549720764,
        0.16843187808990479,
        -0.09532108902931213,
        -0.171113058924675,
        -0.03969239816069603,
        0.14745354652404785,
        -0.1520480513572693,
        -0.03916601091623306,
        0.027393052354454994,
        -0.07789215445518494,
        0.10891567915678024,
        0.10589922219514847,
        -0.1458003968000412,
        -0.06069587171077728,
        -0.00649663433432579,
        0.004101152997463942,
        -0.005786751862615347,
        0.14898371696472168,
        0.008243249729275703,
        -0.003856467781588435,
        -0.1313810646533966,
        0.07593192160129547,
        0.010893654078245163,
        0.0755656361579895,
        -0.10385669022798538,
        0.12060733884572983,
        -0.11019747704267502,
        0.013610037975013256,
        0.13463373482227325,
        0.07534089684486389,
        -0.10882197320461273,
        -0.20070959627628326,
        -0.004331325180828571,
        0.18699657917022705,
        0.1552700251340866,
        0.15342910587787628,
        0.13561275601387024,
        -0.10954646021127701,
        -0.10244959592819214,
        -0.16680918633937836,
        -0.2176271378993988,
        0.1764458864927292,
        -0.05025750398635864,
        -0.07902054488658905,
        0.03202575445175171,
        0.07302635163068771,
        -0.13026085495948792,
        0.10714756697416306,
        0.04234294965863228,
        0.086731918156147,
        -0.0888567566871643,
        0.05116160586476326,
        -0.037043262273073196,
        0.13553529977798462,
        -0.06345611810684204,
        0.14503230154514313,
        0.13257218897342682,
        0.0017588509945198894,
        0.10652408003807068,
        -0.14414222538471222,
        -0.026468582451343536,
        -0.04236247390508652,
        0.06305597722530365,
        0.1901763528585434,
        0.16412048041820526,
        -0.01144056860357523,
        -0.12319508194923401,
        -0.1643219292163849,
        -0.029089316725730896,
        0.09440787136554718,
        0.03880469501018524,
        0.15357345342636108,
        0.15347382426261902,
        0.009263820946216583,
        0.19000481069087982,
        0.08759400993585587,
        -0.0357423759996891,
        -0.126163050532341,
        0.039967481046915054,
        0.01853017695248127,
        -0.11249638348817825,
        -0.12735667824745178,
        0.07744952291250229,
        -0.15120096504688263,
        -0.002340127481147647,
        -0.19153620302677155,
        -0.1489146202802658,
        0.10917995870113373,
        -0.005943092983216047,
        0.072989821434021,
        -0.005526743363589048,
        -0.10457255691289902,
        0.16834630072116852,
        -0.0735626295208931,
        -0.036190856248140335,
        -0.050747353583574295,
        -0.1003740057349205,
        0.17841847240924835,
        0.03655249625444412,
        0.10912831127643585,
        -0.154815211892128,
        -0.13803750276565552,
        -0.0008788862032815814,
        -0.07106277346611023,
        -0.06268936395645142,
        -0.018297666683793068,
        0.09957356750965118,
        -0.07233124226331711,
        0.08707747608423233,
        -0.141850084066391,
        -0.09202131628990173,
        -0.021407894790172577,
        -0.10733529180288315,
        -0.12815850973129272,
        0.05529027804732323,
        0.17822407186031342,
        0.19950386881828308,
        -0.115606889128685,
        0.11575902253389359,
        0.19398759305477142,
        0.08368793874979019,
        -0.10216444730758667,
        0.03944794461131096,
        0.2188166230916977,
        -0.15552419424057007,
        -0.034180231392383575,
        0.16058160364627838,
        0.07337114959955215,
        -0.10910070687532425,
        0.1450452208518982,
        -0.03417203575372696,
        -0.16006049513816833,
        0.20573368668556213,
        0.2233523577451706,
        -0.03393568471074104,
        -0.08161044120788574,
        -0.043973565101623535,
        -0.09567434340715408,
        -0.1237274631857872,
        0.03218868747353554,
        -0.028108680620789528,
        0.047536153346300125,
        -0.02014363929629326,
        -0.1284346729516983,
        -0.08187906444072723,
        -0.04917370527982712,
        0.002979263197630644,
        0.07201871275901794,
        0.1491536647081375,
        -0.058805059641599655,
        -0.024759743362665176,
        -0.04401553049683571,
        0.15983335673809052,
        0.110565185546875,
        -0.05350235104560852,
        0.0804051086306572,
        -0.19304823875427246,
        0.07565130293369293,
        0.010886364616453648,
        0.09449541568756104,
        0.03013107180595398,
        -0.13539336621761322,
        -0.10649210959672928,
        0.047368962317705154,
        0.1616198569536209,
        0.00877830758690834,
        0.022296903654932976,
        0.07407689839601517,
        -0.03480994701385498,
        -0.11972427368164062,
        0.15736731886863708,
        -0.015530630014836788,
        0.18433934450149536,
        0.18073199689388275,
        0.14995643496513367,
        0.09565837681293488,
        -0.03310179337859154,
        0.12396866828203201,
        0.004629573784768581,
        -0.15417076647281647,
        -0.14785782992839813,
        0.11249982565641403,
        -0.06762974709272385,
        0.12714241445064545,
        -0.09660550951957703,
        0.12649200856685638,
        -0.010643048211932182,
        -0.0671086236834526,
        0.13235116004943848,
        -0.15549078583717346,
        -0.036815449595451355,
        -0.1424746811389923,
        0.028741911053657532,
        0.13669918477535248,
        -0.12971633672714233,
        -0.13645857572555542,
        -0.0684722363948822,
        -0.055360425263643265,
        0.03465939685702324,
        0.19450879096984863,
        -0.11091514676809311,
        0.08955444395542145,
        0.09223263710737228,
        0.07099475711584091,
        -0.0628507137298584,
        -0.013181992806494236,
        -0.17362000048160553,
        0.19475841522216797,
        0.20826058089733124,
        0.12879428267478943,
        -0.062281444668769836,
        -0.08634126931428909,
        -0.17499272525310516,
        0.02838193252682686,
        0.10825449973344803,
        0.06686326861381531,
        -0.05417671427130699,
        0.18608465790748596,
        0.17769767343997955,
        0.028091561049222946,
        -0.14060762524604797,
        0.18077793717384338,
        -0.09624732285737991,
        0.021836308762431145,
        0.08329232037067413,
        0.040170829743146896,
        -0.11751918494701385,
        0.0635315477848053,
        0.028709987178444862,
        0.215253084897995,
        -0.02394077181816101,
        -0.0667705163359642,
        0.14718197286128998,
        0.05693448334932327,
        -0.023582758381962776,
        -0.14193761348724365,
        -0.0837947428226471,
        0.038402166217565536,
        -0.11997752636671066,
        -0.20665302872657776,
        0.09489528089761734,
        0.19848720729351044,
        -0.019439587369561195,
        -0.08487879484891891,
        -0.0006961235194467008,
        -0.0366196371614933,
        -0.11213312298059464,
        0.003555081319063902,
        0.1371464878320694,
        -0.09043172746896744,
        -0.04837505891919136,
        0.005010973662137985,
        -0.010485328733921051,
        0.16265295445919037,
        0.1275763064622879,
        -0.08247876912355423,
        0.051357779651880264,
        0.14144590497016907,
        -0.09936811774969101,
        -0.07342685014009476,
        -0.1858757585287094,
        0.16356930136680603,
        -0.02381916157901287,
        0.09474843740463257,
        0.14713050425052643,
        0.05531812086701393,
        -0.09022369235754013,
        0.10969483852386475,
        0.1178295686841011,
        0.231374591588974,
        -0.07130017876625061,
        -0.17544665932655334,
        0.13845856487751007,
        0.10071038454771042,
        0.09614025801420212,
        -0.15392889082431793,
        0.15505488216876984,
        0.10933653265237808,
        -0.1099664494395256,
        0.15683354437351227,
        -0.190098837018013,
        0.18206658959388733,
        -0.02901311405003071,
        -0.10850831121206284,
        -0.06481064110994339,
        0.05372925102710724,
        -0.10338274389505386,
        -0.004969969391822815,
        0.2835703492164612,
        0.09622002393007278,
        -0.09857825189828873,
        -0.13761280477046967,
        -0.08944901078939438,
        0.00925621297210455,
        -0.05646052584052086,
        0.16993311047554016,
        0.1691357046365738,
        -0.025207897648215294,
        0.10062479972839355,
        0.0781020075082779,
        -0.002269858494400978,
        -0.007765466347336769,
        0.11398790031671524,
        -0.03668196499347687,
        0.045185741037130356,
        -0.16223202645778656,
        -0.07493485510349274,
        0.07001594454050064,
        0.057606957852840424,
        0.16268227994441986,
        -0.20096755027770996,
        -0.013852611184120178,
        0.18433116376399994,
        0.03472178429365158,
        0.1580098420381546,
        0.14821085333824158,
        -0.06967605650424957,
        0.09863348305225372,
        0.07953530550003052,
        0.07675772160291672,
        0.19942495226860046,
        -0.11206161230802536,
        0.01357380673289299,
        -0.05133119225502014,
        -0.1639629602432251,
        -0.14401395618915558,
        -0.03685164824128151,
        0.026045555248856544,
        -0.08293287456035614,
        -0.10484380275011063,
        0.16284959018230438,
        0.11062455922365189,
        -0.011719748377799988,
        -0.07133451104164124,
        -0.16566486656665802,
        0.0695696696639061,
        0.0632137805223465,
        -0.04213542863726616,
        0.0437341071665287,
        0.13028687238693237,
        -0.021386586129665375,
        -0.06682085990905762,
        -0.10030453652143478,
        -0.010648840107023716,
        -0.06589195132255554,
        0.03859921544790268,
        -0.17181342840194702,
        0.10589976608753204,
        -0.17773601412773132,
        0.043227456510066986,
        -0.012635842896997929,
        0.04324987530708313,
        -0.04967670142650604,
        0.07412385195493698,
        0.09063755720853806,
        0.1885785311460495,
        0.14200685918331146,
        -0.05209161341190338,
        -0.053563475608825684,
        0.06143758445978165,
        -0.10627291351556778,
        -0.016019601374864578,
        -0.09168419986963272,
        -0.0652853474020958,
        0.13905416429042816,
        -0.10712350904941559,
        0.07469149678945541,
        -0.015080951154232025,
        -0.15109756588935852,
        0.037938542664051056,
        0.027438174933195114,
        0.2511064410209656,
        -0.01656143181025982,
        -0.09240681678056717,
        -0.05926020070910454,
        -0.046755045652389526,
        -0.04594011604785919,
        0.2113412320613861,
        0.10156949609518051,
        -0.1133590117096901,
        -0.02896629460155964,
        -0.12699683010578156,
        -0.07124911993741989,
        0.0754605084657669,
        0.17135271430015564,
        -0.13455955684185028,
        0.13741035759449005,
        -0.1731603443622589,
        0.1661331057548523,
        -0.12387113273143768,
        0.11276455223560333,
        -0.0625942274928093,
        0.09433715790510178,
        0.019690440967679024,
        -0.1502990424633026,
        -0.1263163983821869,
        -0.10214648395776749,
        0.008132622577250004,
        0.17715807259082794,
        -0.07539898157119751,
        -0.09330062568187714,
        0.026766836643218994,
        -0.14898182451725006,
        -0.10278121381998062,
        -0.15453992784023285,
        0.13040389120578766,
        -0.12160349637269974,
        0.049034878611564636,
        -0.0709063708782196,
        0.01244646217674017,
        -0.09073666483163834,
        0.07653417438268661,
        0.007961489260196686,
        -0.11750079691410065,
        -0.08568067103624344,
        -0.06040530279278755,
        0.06145428866147995,
        0.11008557677268982,
        -0.057794637978076935,
        -0.08842412382364273,
        0.04650142788887024,
        -0.03243416175246239,
        -0.14463646709918976,
        -0.11204150319099426,
        0.02633652463555336,
        0.10880430787801743,
        0.11988718807697296,
        0.08452578634023666,
        -0.12488530576229095,
        0.15849585831165314,
        0.09672672301530838,
        0.0636468231678009,
        0.0026037462521344423,
        0.11272110790014267,
        -0.027810795232653618,
        0.10051167011260986,
        -0.10499931126832962,
        -0.017697207629680634,
        0.07657989114522934,
        0.09290097653865814,
        0.0710742250084877,
        0.18093442916870117,
        0.01771404780447483,
        -0.011709487996995449,
        0.011606699787080288,
        0.1849290430545807,
        0.1752147674560547,
        -0.10497312992811203,
        0.06745168566703796,
        -0.1388659030199051,
        0.07183871418237686,
        0.2251112014055252,
        -0.11023147404193878,
        0.19247573614120483,
        -0.15246498584747314,
        0.07880918681621552,
        0.17707912623882294,
        0.17076924443244934,
        0.1623721718788147,
        -0.12107234448194504,
        -0.13261938095092773,
        -0.09779595583677292,
        -0.0043725864961743355,
        0.057839713990688324,
        -0.0903400406241417,
        -0.10541342943906784,
        -0.004142244812101126,
        0.08593963086605072,
        -0.01584354043006897,
        0.024381158873438835,
        -0.14164379239082336,
        -0.023793624714016914,
        -0.2074846476316452,
        0.14776469767093658,
        -0.0006825870368629694,
        0.023634184151887894,
        0.13518106937408447,
        -0.014830579049885273,
        0.1640828251838684,
        0.11744050681591034,
        -0.14615881443023682,
        0.07324383407831192,
        0.08768361061811447,
        -0.10266289860010147,
        -0.36562472581863403,
        0.09443395584821701,
        -0.06620009988546371,
        0.13712430000305176,
        0.025975394994020462,
        -0.09307939559221268,
        0.11436136811971664,
        0.06304911524057388,
        0.10541466623544693,
        0.1985120177268982,
        0.21536654233932495,
        0.11374761164188385,
        0.16726887226104736,
        0.16413091123104095,
        0.01859651505947113,
        0.2374098151922226,
        0.03834279254078865,
        -0.012916341423988342,
        -0.12583842873573303,
        -0.11371391266584396,
        0.022877361625432968,
        0.07276047021150589,
        -0.10900498926639557,
        -0.11453411728143692,
        0.10601343959569931,
        0.2392483800649643,
        0.13640499114990234,
        0.17599345743656158,
        -0.10113684833049774,
        -0.018134385347366333,
        0.17200613021850586,
        -0.007584540173411369,
        0.17932285368442535,
        0.048169687390327454,
        0.04297798126935959,
        0.13681547343730927,
        -0.10977731645107269,
        0.1804119199514389,
        -0.05623108148574829,
        -0.17318397760391235,
        0.012636641971766949,
        -0.13672837615013123,
        -0.10535743087530136,
        0.06853129714727402,
        0.14239530265331268,
        0.09368287771940231,
        0.1789589673280716,
        0.12609854340553284,
        0.0014436960918828845,
        0.20077957212924957,
        -0.1075444146990776,
        -0.09599094837903976,
        0.002866018796339631,
        0.11406104266643524,
        -0.021860161796212196,
        0.10387115925550461,
        0.08035005629062653,
        -0.03034726344048977,
        0.059146732091903687,
        -0.12761056423187256,
        -0.019706962630152702,
        -0.17167527973651886,
        0.15345165133476257,
        -0.14883999526500702,
        0.09202829003334045,
        -0.0011464401613920927,
        0.014136707410216331,
        0.21699674427509308,
        -0.10590318590402603,
        -0.020664876326918602,
        -0.10998264700174332,
        -0.11665625125169754,
        0.07360892742872238,
        0.07149548083543777,
        -0.06612306088209152,
        0.050085462629795074,
        0.09649054706096649,
        -0.043985962867736816,
        -0.02902555838227272,
        -0.06233975663781166,
        -0.0565066821873188,
        -0.11735595762729645,
        0.12133800238370895,
        0.004164103418588638,
        -0.09230224788188934,
        -0.036183591932058334,
        0.16264499723911285,
        -0.116163469851017,
        0.1487259417772293,
        0.07000666856765747,
        -0.15313230454921722,
        0.04484545439481735,
        0.1447509527206421,
        0.04410780593752861,
        0.045597780495882034,
        0.06337849795818329,
        -0.024338575080037117,
        -0.0924253836274147,
        0.02719779871404171,
        0.13030758500099182,
        -0.1712454855442047,
        -0.052209995687007904,
        -0.04645048826932907,
        0.19509358704090118,
        -0.07111441344022751,
        0.16932313144207,
        0.14987266063690186,
        0.15029531717300415,
        -0.14143338799476624,
        -0.1404225081205368,
        0.11446739733219147,
        0.010471008718013763,
        0.098531574010849,
        -0.047637902200222015,
        -0.22352933883666992,
        0.205035001039505,
        -0.14567124843597412,
        0.026671530678868294,
        0.16416379809379578,
        0.13736559450626373,
        -0.06592436134815216,
        0.14362382888793945,
        -0.1299116015434265,
        0.06996499001979828,
        -0.1392030417919159,
        0.0008228304795920849,
        0.02884870581328869,
        0.09324109554290771,
        -0.010406523011624813,
        -0.04758003354072571,
        0.13837984204292297,
        0.16832375526428223,
        0.08207180351018906,
        0.03583706170320511,
        -0.07215292006731033,
        -0.0367637574672699,
        0.027807751670479774,
        0.028051242232322693,
        0.09239674359560013,
        0.11652431637048721,
        0.16809874773025513,
        -0.06688928604125977,
        0.0695924460887909,
        0.06770151108503342,
        -0.0033535510301589966,
        0.1418648213148117,
        0.17149411141872406,
        -0.23173730075359344,
        -0.007377155125141144,
        0.10809113085269928,
        0.034659627825021744,
        0.17051827907562256,
        0.05569792911410332,
        0.1659533828496933,
        -0.08825242519378662,
        0.1194460541009903,
        0.015838075429201126,
        0.016643201932311058,
        0.13254542648792267,
        -0.04272912070155144,
        -0.14400169253349304,
        -0.06073044613003731,
        0.18208344280719757,
        0.15147891640663147,
        0.10188086330890656,
        0.19917131960391998,
        0.16313859820365906,
        0.11539950221776962,
        0.06649383157491684,
        0.08404725044965744,
        -0.005270279943943024,
        0.02764303609728813,
        -0.13687385618686676,
        0.14054235816001892,
        0.13374121487140656,
        -0.037124376744031906,
        0.15707723796367645,
        -0.09862512350082397,
        -0.1732362061738968,
        -0.0011124570155516267,
        0.07616748660802841,
        -0.16163094341754913,
        0.0006378008984029293,
        -0.10223919153213501,
        0.10579545050859451,
        0.13098888099193573,
        -0.005634082015603781,
        0.08292648941278458,
        -0.21283502876758575,
        0.08462006598711014,
        0.15203231573104858,
        -0.12382248044013977,
        -0.008881094865500927,
        0.11247997730970383,
        -0.16131430864334106,
        0.19252794981002808,
        0.1210133507847786,
        -0.14320886135101318,
        0.03601488471031189,
        0.0923573225736618,
        0.008406593464314938,
        -0.11296553164720535,
        0.13418366014957428,
        0.08515380322933197,
        -0.1077587679028511,
        -0.006144769489765167,
        0.13256561756134033,
        0.05442750081419945,
        0.01043936237692833,
        -0.08069446682929993,
        -0.052356839179992676,
        0.251852422952652,
        0.38787907361984253,
        0.08330245316028595,
        0.21537429094314575,
        0.10378807038068771,
        0.030741173774003983,
        -0.126958429813385,
        -0.034308865666389465,
        0.11456070840358734,
        -0.0889824852347374,
        -0.14246036112308502,
        -0.005853452254086733,
        0.16361351311206818,
        -0.07711312919855118,
        -0.020580129697918892,
        0.1257602870464325,
        -0.13355600833892822,
        -0.12902066111564636,
        -0.0896025002002716,
        -0.11190465092658997,
        0.10298710316419601,
        0.13228429853916168,
        0.20140323042869568,
        0.0025437655858695507,
        -0.1591499298810959,
        0.000564824731554836,
