{
  "defaults": {},
  "inputs": [
    {
      "name": "DNNinput_wtag__channel",
      "offset": 3.0,
      "scale": 0.16666666666666666
    },
    {
      "name": "DNNinput_wtag__year",
      "offset": 3.0,
      "scale": 0.16666666666666666
    },
    {
      "name": "DNNinput_wtag__met_pt",
      "offset": -0.0,
      "scale": 0.0005
    },
    {
      "name": "DNNinput_wtag__met_phi",
      "offset": 4.0,
      "scale": 0.125
    },
    {
      "name": "DNNinput_wtag__lepton_pt",
      "offset": -0.0,
      "scale": 0.0005
    },
    {
      "name": "DNNinput_wtag__lepton_eta",
      "offset": 5.0,
      "scale": 0.1
    },
    {
      "name": "DNNinput_wtag__lepton_phi",
      "offset": 4.0,
      "scale": 0.125
    },
    {
      "name": "DNNinput_wtag__lepton_reliso",
      "offset": -0.0,
      "scale": 5.0
    },
    {
      "name": "DNNinput_wtag__lepton_charge",
      "offset": 1.0,
      "scale": 0.5
    },
    {
      "name": "DNNinput_wtag__lepton_dr_nextjet",
      "offset": -0.0,
      "scale": 0.16666666666666666
    },
    {
      "name": "DNNinput_wtag__lepton_ptrel_nextjet",
      "offset": -0.0,
      "scale": 0.00125
    },
    {
      "name": "DNNinput_wtag__dphi_lepton_met",
      "offset": -0.0,
      "scale": 0.25
    },
    {
      "name": "DNNinput_wtag__mtw",
      "offset": -0.0,
      "scale": 0.002
    },
    {
      "name": "DNNinput_wtag__pseudotop_m",
      "offset": -0.0,
      "scale": 0.00125
    },
    {
      "name": "DNNinput_wtag__wjet_pt",
      "offset": -0.0,
      "scale": 0.001
    },
    {
      "name": "DNNinput_wtag__wjet_eta",
      "offset": 5.0,
      "scale": 0.1
    },
    {
      "name": "DNNinput_wtag__wjet_phi",
      "offset": 4.0,
      "scale": 0.125
    },
    {
      "name": "DNNinput_wtag__dr_wjet_lepton",
      "offset": -0.0,
      "scale": 0.16666666666666666
    },
    {
      "name": "DNNinput_wtag__dphi_wjet_met",
      "offset": -0.0,
      "scale": 0.25
    },
    {
      "name": "DNNinput_wtag__ptbal_wjet_wboson",
      "offset": 2.0,
      "scale": 0.25
    },
    {
      "name": "DNNinput_wtag__ptbal_wjet_pseudotop",
      "offset": 2.0,
      "scale": 0.25
    },
    {
      "name": "DNNinput_wtag__n_xjets",
      "offset": -0.0,
      "scale": 0.1
    },
    {
      "name": "DNNinput_wtag__ht_xjets",
      "offset": -0.0,
      "scale": 0.001
    },
    {
      "name": "DNNinput_wtag__xjet1pt_pt",
      "offset": -0.0,
      "scale": 0.002
    },
    {
      "name": "DNNinput_wtag__xjet1pt_eta",
      "offset": 5.0,
      "scale": 0.1
    },
    {
      "name": "DNNinput_wtag__xjet1pt_phi",
      "offset": 4.0,
      "scale": 0.125
    },
    {
      "name": "DNNinput_wtag__xjet1pt_deepjet",
      "offset": -0.0,
      "scale": 1.0
    },
    {
      "name": "DNNinput_wtag__mass_xjet1pt_lepton",
      "offset": -0.0,
      "scale": 0.002
    },
    {
      "name": "DNNinput_wtag__dr_xjet1pt_lepton",
      "offset": -0.0,
      "scale": 0.16666666666666666
    },
    {
      "name": "DNNinput_wtag__dr_xjet1pt_wjet",
      "offset": -0.0,
      "scale": 0.16666666666666666
    },
    {
      "name": "DNNinput_wtag__xjet1dj_pt",
      "offset": -0.0,
      "scale": 0.002
    },
    {
      "name": "DNNinput_wtag__xjet1dj_eta",
      "offset": 5.0,
      "scale": 0.1
    },
    {
      "name": "DNNinput_wtag__xjet1dj_phi",
      "offset": 4.0,
      "scale": 0.125
    },
    {
      "name": "DNNinput_wtag__xjet1dj_deepjet",
      "offset": -0.0,
      "scale": 1.0
    },
    {
      "name": "DNNinput_wtag__mass_xjet1dj_lepton",
      "offset": -0.0,
      "scale": 0.002
    },
    {
      "name": "DNNinput_wtag__dr_xjet1dj_lepton",
      "offset": -0.0,
      "scale": 0.16666666666666666
    },
    {
      "name": "DNNinput_wtag__dr_xjet1dj_wjet",
      "offset": -0.0,
      "scale": 0.16666666666666666
    },
    {
      "name": "DNNinput_wtag__ijet1dj_deepjet",
      "offset": -0.0,
      "scale": 1.0
    },
    {
      "name": "DNNinput_wtag__dr_wjet_xjet",
      "offset": -0.0,
      "scale": 0.16666666666666666
    },
    {
      "name": "DNNinput_wtag__wnearestxjet_pt",
      "offset": -0.0,
      "scale": 0.002
    },
    {
      "name": "DNNinput_wtag__wnearestxjet_eta",
      "offset": 5.0,
      "scale": 0.1
    },
    {
      "name": "DNNinput_wtag__wnearestxjet_phi",
      "offset": 4.0,
      "scale": 0.125
    },
    {
      "name": "DNNinput_wtag__wnearestxjet_deepjet",
      "offset": -0.0,
      "scale": 1.0
    }
  ],
  "layers": [
    {
      "activation": "rectified",
      "architecture": "dense",
      "bias": [
        -0.0076910825446248055,
        0.0002472296473570168,
        0.007704145275056362,
        -0.0038264580070972443,
        0.008949303068220615,
        -0.005095481872558594,
        0.024726564064621925,
        0.009140029549598694,
        0.014199338853359222,
        -0.002244015457108617,
        0.020148321986198425,
        -0.006114339455962181,
        -0.001790933427400887,
        0.007738523185253143,
        0.0024068038910627365,
        -0.009277407079935074,
        0.0016495684394612908,
        0.022482454776763916,
        0.0037500914186239243,
        0.0,
        0.006301001645624638,
        0.01548862922936678,
        -0.0026031499728560448,
        0.017596540972590446,
        0.005814535543322563,
        0.012683548033237457,
        -0.025918912142515182,
        0.004887579474598169,
        0.015482308343052864,
        -0.007434524595737457,
        0.0018497545970603824,
        -0.017216088250279427,
        0.017290370538830757,
        0.0085365055128932,
        0.01162745337933302,
        -0.006314687430858612,
        -0.012488150969147682,
        0.009794735349714756,
        0.017114218324422836,
        -0.001241806079633534,
        0.03450171649456024,
        -0.008693470619618893,
        0.012956086546182632,
        0.0031037158332765102,
        -0.004276611376553774,
        -0.0023108329623937607,
        0.0025418673176318407,
        -0.009165105409920216,
        0.01726246066391468,
        0.015763908624649048,
        0.0,
        0.009020079858601093,
        -0.01919245906174183,
        0.006655369885265827,
        -0.002029689261689782,
        0.03450286015868187,
        -0.0055626556277275085,
        0.03530670702457428,
        0.010634367354214191,
        0.00780135951936245,
        -0.007772205863147974,
        0.020999090746045113,
        -0.0077641489915549755,
        -0.009861130267381668,
        0.0203978531062603,
        -0.0009989974787458777,
        0.01699567586183548,
        -0.0020562331192195415,
        0.010186360217630863,
        -0.0026595420204102993,
        0.02919008396565914,
        -0.011554981581866741,
        0.014811462722718716,
        -0.011073156259953976,
        0.0001440499909222126,
        0.014190900139510632,
        0.01421370543539524,
        -0.014211771078407764,
        0.0016495219897478819,
        -0.004577643238008022,
        -0.006388855166733265,
        -0.004755687899887562,
        -0.01982235349714756,
        0.007953770458698273,
        0.026360977441072464,
        0.002057860139757395,
        0.02441333793103695,
        0.019639775156974792,
        0.014656022191047668,
        0.0059968591667711735,
        0.00887476559728384,
        0.002366286236792803,
        -0.01016842108219862,
        0.003107989439740777,
        0.006223227363079786,
        0.03211412951350212,
        0.02798515371978283,
        -0.008907890878617764,
        0.02269938215613365,
        -0.0010752141242846847,
        0.0036573137622326612,
        0.012345392256975174,
        -0.006468471139669418,
        0.007860889658331871,
        0.011360250413417816,
        0.011364446021616459,
        0.0004951921291649342,
        -0.009802181273698807,
        0.002140466356649995,
        0.001302187331020832,
        -0.010797823779284954,
        0.005160299129784107,
        0.009086347185075283,
        0.0002869714517146349,
        -0.010051327757537365,
        -0.004046917427331209,
        -0.006128284148871899,
        0.013117971830070019,
        0.0,
        0.03735296055674553,
        -0.005004967097193003,
        0.002376021584495902,
        0.0021549202501773834,
        -0.0071730962954461575,
        0.0033356945496052504,
        -0.015582478605210781,
        -0.001224706182256341,
        0.0018726760754361749
      ],
      "weights": [
        -0.15375934541225433,
        -0.1343691498041153,
        -0.08109886199235916,
        -0.07789487391710281,
        0.0741875022649765,
        -0.12609851360321045,
        0.166767880320549,
        -0.10585374385118484,
        0.09932392090559006,
        0.05664994567632675,
        0.02529669553041458,
        0.1422816962003708,
        0.08356375992298126,
        0.16441315412521362,
        -0.1199883222579956,
        0.056963782757520676,
        -0.10470852255821228,
        0.09173297137022018,
        0.07003961503505707,
        -0.07677243649959564,
        0.08742205798625946,
        -0.20453661680221558,
        0.16926613450050354,
        -0.1464567482471466,
        -0.16583889722824097,
        -0.09102389961481094,
        0.19849543273448944,
        0.22425001859664917,
        -0.021077703684568405,
        0.07130856066942215,
        -0.15405729413032532,
        0.12717664241790771,
        -0.1295975297689438,
        0.11817153543233871,
        0.16403061151504517,
        0.11057966947555542,
        0.03173043578863144,
        -0.09955857694149017,
        0.014979255385696888,
        0.17383289337158203,
        0.10037969797849655,
        -0.1452987641096115,
        -0.1261269450187683,
        0.1704360544681549,
        0.10454206168651581,
        0.09782697260379791,
        -0.1459151953458786,
        0.049102287739515305,
        -0.016409358009696007,
        0.176733136177063,
        -0.05678046867251396,
        0.12089571356773376,
        0.21473798155784607,
        0.16743654012680054,
        -0.09907125681638718,
        0.07955952733755112,
        -0.15998575091362,
        -0.04295426234602928,
        -0.10606597363948822,
        0.11688075959682465,
        -0.01127581112086773,
        -0.02658039703965187,
        -0.009807959198951721,
        0.1685580313205719,
        -0.0900694951415062,
        0.15084975957870483,
        -0.02803664654493332,
        -0.19182723760604858,
        -0.12209561467170715,
        0.06268513202667236,
        0.10857013612985611,
        0.15675625205039978,
        0.1561516374349594,
        0.10445685684680939,
        -0.12955448031425476,
        0.18350891768932343,
        -0.09346291422843933,
        0.16714617609977722,
        -0.14885567128658295,
        0.17807401716709137,
        0.04197009280323982,
        0.16233514249324799,
        0.10528361797332764,
        -0.13224151730537415,
        0.09623963385820389,
        -0.0628887489438057,
        -0.12358100712299347,
        -0.13617205619812012,
        -0.22255778312683105,
        0.018418313935399055,
        -0.13432057201862335,
        0.16992448270320892,
        -0.06091833487153053,
        0.12352350354194641,
        0.06779894977807999,
        -0.0035874429158866405,
        -0.1555948555469513,
        0.1465001106262207,
        0.022243382409214973,
        0.0017509183380752802,
        0.1076175644993782,
        -0.10095946490764618,
        0.09937512129545212,
        -0.06895036995410919,
        0.18156231939792633,
        0.10833971202373505,
        0.05584950000047684,
        0.12003602832555771,
        0.18186111748218536,
        0.12580019235610962,
        0.07988879829645157,
        -0.03868832439184189,
        -0.1234002485871315,
        0.04903439059853554,
        0.1806100457906723,
        0.026642998680472374,
        0.06274859607219696,
        -0.13038116693496704,
        0.17925752699375153,
        0.18460960686206818,
        -0.0006201645010150969,
        -0.1681918054819107,
        0.11093657463788986,
        0.12111254036426544,
        -0.08373907208442688,
        -0.0746798887848854,
        -0.0030720592476427555,
        -0.12154201418161392,
        0.07667085528373718,
        -0.18567977845668793,
        0.19299261271953583,
        0.03448585048317909,
        -0.09509730339050293,
        -0.021724656224250793,
        -0.1901904195547104,
        -0.11830856651067734,
        0.1331672966480255,
        -0.06773857772350311,
        0.010988516733050346,
        0.09257853776216507,
        -0.14006692171096802,
        0.0009429934434592724,
        -0.18710938096046448,
        0.15389098227024078,
        -0.16222065687179565,
        0.17983697354793549,
        0.07303529977798462,
        0.1643473207950592,
        -0.059885360300540924,
        0.08978231251239777,
        0.0111165139824152,
        0.15690575540065765,
        -0.1382405310869217,
        0.17428387701511383,
        -0.00039966063923202455,
        -0.05493227764964104,
        -0.0984196811914444,
        0.034236252307891846,
        0.04374965280294418,
        0.04606710746884346,
        0.09339328110218048,
        -0.10704410076141357,
        -0.08549831807613373,
        0.1843409538269043,
        -0.10031847655773163,
        0.003425267757847905,
        0.17759856581687927,
        0.05408662557601929,
        0.00951542891561985,
        0.09013691544532776,
        0.1532091498374939,
        0.17891818284988403,
        0.07567683607339859,
        0.21090558171272278,
        0.052698343992233276,
        -0.12371842563152313,
        -0.12123438715934753,
        0.08457289636135101,
        0.046442367136478424,
        0.18156328797340393,
        0.15307796001434326,
        0.007357758469879627,
        -0.1477593332529068,
        -0.03581896796822548,
        -0.11423998326063156,
        -0.015613566152751446,
        0.0724094957113266,
        -0.1374770700931549,
        -0.14380501210689545,
        -0.11454958468675613,
        0.10605151951313019,
        0.1352229118347168,
        0.14137111604213715,
        -0.17593862116336823,
        -0.12536363303661346,
        0.039467327296733856,
        -0.05079808086156845,
        -0.11163689941167831,
        0.02465479075908661,
        0.06300279498100281,
        -0.09873053431510925,
        -0.16725273430347443,
        0.11701172590255737,
        -0.00417934637516737,
        0.09103310108184814,
        -0.004022702574729919,
        -0.1107802465558052,
        0.005868546664714813,
        -0.06605715304613113,
        -0.1432301104068756,
        -0.12117256969213486,
        0.18699157238006592,
        0.1936151683330536,
        0.11739160120487213,
        0.2021234780550003,
        -0.008980722166597843,
        0.06454453617334366,
        -0.05197900906205177,
        0.08895798027515411,
        -0.10066457837820053,
        0.16508063673973083,
        0.1545257717370987,
        -0.14017155766487122,
        -0.029280241578817368,
        -0.06519483029842377,
        0.14879876375198364,
        -0.004616440739482641,
        -0.09560275077819824,
        -0.10198929905891418,
        -0.057877153158187866,
        -0.1188192069530487,
        -0.04287073388695717,
        0.046717461198568344,
        -0.062074076384305954,
        -0.044360820204019547,
        0.009229371324181557,
        0.08406034111976624,
        0.1588778793811798,
        0.058169152587652206,
        -0.04372359439730644,
        -0.014334378764033318,
        -0.17350175976753235,
        0.12030711770057678,
        0.09690508991479874,
        0.041539620608091354,
        -0.15773189067840576,
        -0.008598298765718937,
        0.11927405744791031,
        0.027006560936570168,
        -0.04340991750359535,
        0.14587174355983734,
        -0.13823683559894562,
        -0.06344672292470932,
        0.08934623003005981,
        -0.14213120937347412,
        -0.01054984051734209,
        0.1279345005750656,
        -0.21435882151126862,
        -0.02070608362555504,
        0.0382174476981163,
        -0.05637526512145996,
        0.03120574727654457,
        0.11056376248598099,
        -0.11964976787567139,
        0.04849676042795181,
        -0.12003563344478607,
        0.021239379420876503,
        -0.032388415187597275,
        -0.22880731523036957,
        0.051886215806007385,
        -0.0224299356341362,
        0.03997213765978813,
        0.09151732921600342,
        -0.0296926312148571,
        -0.09259001910686493,
        -0.11995165050029755,
        -0.07468301802873611,
        -0.06018439680337906,
        0.11443939805030823,
        0.1176399365067482,
        -0.1159949004650116,
        0.12423932552337646,
        -0.04368064925074577,
        -0.09888556599617004,
        -0.1675885021686554,
        -0.21407195925712585,
        -0.07004092633724213,
        -0.06725810468196869,
        0.16130635142326355,
        0.1659381240606308,
        -0.08632651716470718,
        0.005594966933131218,
        0.10152949392795563,
        0.16497741639614105,
        0.20255792140960693,
        -0.017517345026135445,
        0.06527232378721237,
        -0.1915002018213272,
        -0.13886873424053192,
        0.10775293409824371,
        0.18928518891334534,
        -0.12404030561447144,
        0.0037583995144814253,
        -0.13306498527526855,
        -0.11554113775491714,
        0.06758146733045578,
        -0.15321528911590576,
        -0.1731683760881424,
        0.08357959985733032,
        -0.0892563983798027,
        -0.06769061088562012,
        -0.1367029845714569,
        0.1524123102426529,
        -0.05717366188764572,
        0.145728200674057,
        -0.011652546934783459,
        0.13454018533229828,
        -0.10167215019464493,
        0.170055091381073,
        0.033975642174482346,
        0.08588197082281113,
        -0.09465669095516205,
        0.018087660893797874,
        -0.06596768647432327,
        0.0714121162891388,
        -0.0788879469037056,
        0.08350001275539398,
        0.06188778579235077,
        -0.16142474114894867,
        -0.185678169131279,
        -0.1271076500415802,
        0.09593228995800018,
        0.025750119239091873,
        0.03503745421767235,
        0.0001962553506018594,
        -0.0761960819363594,
        -0.1553669422864914,
        0.12548759579658508,
        0.2024238407611847,
        -0.1613888442516327,
        -0.07883788645267487,
        0.15872704982757568,
        -0.02923063561320305,
        0.11202795058488846,
        -0.07868199795484543,
        -0.02018614113330841,
        0.06734256446361542,
        -0.0845305472612381,
        0.0826074630022049,
        -0.14977949857711792,
        -0.17839902639389038,
        0.19857795536518097,
        -0.019878484308719635,
        -0.13986210525035858,
        0.007040586322546005,
        0.10364086180925369,
        0.14681996405124664,
        0.09032673388719559,
        0.029054012149572372,
        0.007152235135436058,
        0.03339637815952301,
        -0.1803354173898697,
        0.1948944628238678,
        -0.07149387896060944,
        0.0064668976701796055,
        -0.030170222744345665,
        0.047577597200870514,
        -0.04252781346440315,
        0.032205671072006226,
        0.19168980419635773,
        0.08938014507293701,
        -0.08722779899835587,
        -0.015496118925511837,
        -0.09635735303163528,
        -0.06571205705404282,
        0.1002599224448204,
        0.06982726603746414,
        0.18669091165065765,
        -0.12341199070215225,
        -0.058117497712373734,
        0.003983140457421541,
        -0.27424174547195435,
        0.18255171179771423,
        -0.043198660016059875,
        0.16442395746707916,
        0.08333934843540192,
        0.08364913612604141,
        -0.08105491101741791,
        -0.06927208602428436,
        0.2524505853652954,
        0.0823875218629837,
        -0.08313122391700745,
        -0.15938998758792877,
        -0.13143078982830048,
        -0.021489320322871208,
        0.051122114062309265,
        0.044051624834537506,
        -0.0022838138975203037,
        0.06652743369340897,
        -0.19095130264759064,
        0.08957672864198685,
        0.23004092276096344,
        0.14224466681480408,
        0.17080804705619812,
        0.07033537328243256,
        -0.133823424577713,
        0.048479706048965454,
        -0.0012113888515159488,
        -0.0445684939622879,
        0.017107173800468445,
        -0.0638820230960846,
        0.1372298300266266,
        -0.00020344561198726296,
        -0.09392035007476807,
        -0.040535956621170044,
        0.07344576716423035,
        0.06924495100975037,
        -0.09693637490272522,
        -0.01027742400765419,
        0.013136079534888268,
        -0.3145611584186554,
        0.14910462498664856,
        -0.024457687512040138,
        0.10965614020824432,
        -0.21060039103031158,
        0.1877855509519577,
        0.1671181172132492,
        -0.11393126845359802,
        -0.16641376912593842,
        -0.21412916481494904,
        0.021352099254727364,
        -0.1388798952102661,
        0.08101433515548706,
        -0.05148892477154732,
        0.25357478857040405,
        0.03853253647685051,
        -0.07736728340387344,
        0.05746285617351532,
        -0.13035185635089874,
        0.11132892221212387,
        0.05668102577328682,
        -0.08033126592636108,
        -0.026813972741365433,
        0.18909099698066711,
        -0.07828983664512634,
        -0.0005660411552526057,
        0.029705999419093132,
        -0.0925523191690445,
        0.18195664882659912,
        -0.14157377183437347,
        -0.008145298808813095,
        -0.03359755873680115,
        -0.117414191365242,
        -0.10349509119987488,
        -0.11940524727106094,
        -0.11622098833322525,
        -0.1753278374671936,
        -0.11394258588552475,
        0.06386379897594452,
        0.16881625354290009,
        0.0680844783782959,
        0.19249622523784637,
        0.050230126827955246,
        -0.02326396480202675,
        0.08362438529729843,
        0.1828799694776535,
        -0.05888986960053444,
        0.20906312763690948,
        0.024176431819796562,
        -0.1436241716146469,
        0.03127012401819229,
        0.15240773558616638,
        -0.02458818443119526,
        0.008108997717499733,
        -0.06165330111980438,
        0.14165149629116058,
        -0.1652456372976303,
        0.09173436462879181,
        -0.1320996731519699,
        -0.01277631800621748,
        0.0006231173756532371,
        -0.043539974838495255,
        0.15939663350582123,
        -0.11916495114564896,
        0.08717023581266403,
        -0.07523105293512344,
        -0.09843571484088898,
        0.12454511225223541,
        0.15958793461322784,
        -0.07776547223329544,
        -0.10056806355714798,
        0.13281622529029846,
        -0.06479527801275253,
        0.037610676139593124,
        -0.12458925694227219,
        -0.17553888261318207,
        0.14433865249156952,
        -0.12638556957244873,
        0.09463509172201157,
        0.12173011153936386,
        -0.17720837891101837,
        -0.021396569907665253,
        -0.08608295023441315,
        -0.12812645733356476,
        -0.0890141949057579,
        0.006940834224224091,
        -0.015440966002643108,
        0.03690401837229729,
        0.042474620044231415,
        0.16996344923973083,
        0.02884828858077526,
        0.05964154750108719,
        -0.12763971090316772,
        -0.16483445465564728,
        -0.1747850477695465,
        -0.003786069341003895,
        -0.07804566621780396,
        0.001213763258419931,
        -0.2052307277917862,
        0.1336234211921692,
        0.03257669135928154,
        -0.07621922343969345,
        0.11752624809741974,
        0.07996588200330734,
        0.060483336448669434,
        -0.055797360837459564,
        -0.04694860801100731,
        0.16800349950790405,
        0.09105657786130905,
        0.16877350211143494,
        -0.09499455988407135,
        0.18543151021003723,
        -0.17047397792339325,
        0.032383956015110016,
        -0.01598653569817543,
        0.058319855481386185,
        -0.1685025840997696,
        -0.1676497757434845,
        0.15305456519126892,
        -0.09959673881530762,
        0.08260435611009598,
        -0.1623915731906891,
        0.03025425598025322,
        0.14407537877559662,
        -0.13808494806289673,
        0.009995833039283752,
        0.015586253255605698,
        0.12571127712726593,
        0.08199669420719147,
        0.14611952006816864,
        0.011680422350764275,
        -0.014788459055125713,
        0.10207002609968185,
        -0.14873594045639038,
        0.1934371292591095,
        0.08371913433074951,
        -0.04219283163547516,
        0.01906142197549343,
        -0.15722855925559998,
        0.09895406663417816,
        -0.00338971009477973,
        -0.2167786955833435,
        0.027236515656113625,
        0.05744665861129761,
        0.1778756082057953,
        0.012992632575333118,
        0.056480251252651215,
        0.12347908318042755,
        0.1749080866575241,
        -0.22906535863876343,
        0.05206494778394699,
        0.09034330397844315,
        -0.06566683948040009,
        0.24137528240680695,
        0.031207291409373283,
        0.12293574959039688,
        -0.002150158165022731,
        -0.1138979122042656,
        0.01643674261868,
        0.15437565743923187,
        -0.08820793032646179,
        -0.005976686719805002,
        -0.15243396162986755,
        0.0812004804611206,
        0.036515217274427414,
        0.08869937807321548,
        -0.0739562138915062,
        -0.03201702982187271,
        0.15717224776744843,
        -0.2305414080619812,
        -0.11177704483270645,
        -0.16516928374767303,
        -0.05877991020679474,
        0.09750102460384369,
        0.04797349497675896,
        0.07810255885124207,
        -0.12517093122005463,
        0.1642393320798874,
        -0.17941296100616455,
        -0.1419665664434433,
        -0.04192661494016647,
        -0.08016455173492432,
        -0.07357427477836609,
        -0.024131249636411667,
        -0.0074744257144629955,
        -0.17704598605632782,
        0.1144169270992279,
        -0.13229785859584808,
        0.017905307933688164,
        -0.12240564823150635,
        -0.031638480722904205,
        0.16939610242843628,
        -0.08148446679115295,
        0.12486768513917923,
        0.12736167013645172,
        -0.060694415122270584,
        0.2341236025094986,
        0.016695227473974228,
        0.1655225157737732,
        0.05359792336821556,
        0.057493530213832855,
        -0.0890691950917244,
        -0.06486193835735321,
        0.15510161221027374,
        0.13224676251411438,
        -0.09567831456661224,
        0.0843311995267868,
        -0.016496017575263977,
        0.19986306130886078,
        -0.07356169819831848,
        0.01861003413796425,
        -0.05252540484070778,
        0.16229571402072906,
        -0.03317853435873985,
        -0.08383654803037643,
        0.11045525968074799,
        0.1705358624458313,
        -0.12574253976345062,
        0.1577518880367279,
        -0.1687009483575821,
        -0.08322303742170334,
        0.18078379333019257,
        0.0399574413895607,
        -0.07927265763282776,
        0.16946685314178467,
        0.08352742344141006,
        0.18598392605781555,
        -0.17906159162521362,
        -0.14066165685653687,
        -0.14073330163955688,
        -0.060075439512729645,
        0.022328337654471397,
        0.11946391314268112,
        -0.06158630922436714,
        -0.1276058703660965,
        0.01779421791434288,
        0.08880280703306198,
        -0.11242762207984924,
        0.031876541674137115,
        -0.07306475937366486,
        -0.1305338591337204,
        0.04966767504811287,
        -0.06839717924594879,
        0.10820743441581726,
        -0.07500848919153214,
        -0.16705633699893951,
        -0.06099768355488777,
        -0.17656055092811584,
        0.07953204959630966,
        -0.013590948656201363,
        -0.12191666662693024,
        0.15739600360393524,
        -0.15690413117408752,
        0.02397117391228676,
        -0.03648654371500015,
        0.09954298287630081,
        0.0607108436524868,
        0.03618086874485016,
        0.06450102478265762,
        -0.1202734187245369,
        0.06336762011051178,
        0.14528460800647736,
        -0.12702137231826782,
        0.1058943048119545,
        0.17769551277160645,
        -0.012332565151154995,
        -0.11375102400779724,
        0.10497288405895233,
        -0.05120941624045372,
        -0.15511088073253632,
        0.0764966830611229,
        0.007296594325453043,
        -0.113348588347435,
        0.02795204520225525,
        0.116291344165802,
        0.029991209506988525,
        -0.03999575972557068,
        0.14873281121253967,
        0.2321104109287262,
        0.0786738395690918,
        -0.03381945192813873,
        0.16072580218315125,
        -0.011362521909177303,
        0.13097746670246124,
        0.11575120687484741,
        -0.020466918125748634,
        -0.10537537932395935,
        0.037616971880197525,
        -0.024355940520763397,
        -0.11867743730545044,
        -0.06241186335682869,
        -0.004923483356833458,
        0.043080613017082214,
        0.1677471101284027,
        -0.10118415206670761,
        -0.04956522583961487,
        -0.06072607263922691,
        0.02125525288283825,
        0.13554978370666504,
        0.17033296823501587,
        -0.006162704434245825,
        -0.15611472725868225,
        -0.05058954283595085,
        0.17679832875728607,
        0.09886640310287476,
        -0.2666735351085663,
        -0.1786070615053177,
        0.059232067316770554,
        -0.1041548103094101,
        -0.1270994246006012,
        0.19498233497142792,
        -0.1318051815032959,
        0.11730659753084183,
        -0.02271958813071251,
        -0.1510705202817917,
        0.215306356549263,
        0.05701214075088501,
        -0.10086175054311752,
        0.01940508745610714,
        0.18455137312412262,
        -0.04183191806077957,
        0.002638210542500019,
        0.03159023076295853,
        -0.01580696925520897,
        -0.06141330301761627,
        0.08565767854452133,
        0.16690988838672638,
        0.13378581404685974,
        0.1532115340232849,
        -0.04042116552591324,
        -0.034619443118572235,
        0.0290615726262331,
        0.125791534781456,
        -0.028924619778990746,
        -0.13191770017147064,
        -0.14682865142822266,
        0.0106593556702137,
        -0.11240486055612564,
        0.07256865501403809,
        -0.1644914150238037,
        -0.19244234263896942,
        0.17177943885326385,
        -0.14861410856246948,
        0.09236526489257812,
        -0.07120013236999512,
        0.2145562767982483,
        -0.07006961107254028,
        0.14463946223258972,
        0.17168423533439636,
        0.0007189550087787211,
        -0.18692247569561005,
        -0.16214647889137268,
        -0.057839106768369675,
        -0.08444616198539734,
        -0.06967765837907791,
        0.004750955384224653,
        -0.011188602074980736,
        0.11487696319818497,
        -0.024867303669452667,
        -0.12501902878284454,
        0.05879104509949684,
        -0.16560052335262299,
        -0.03594009950757027,
        0.11467637121677399,
        0.1867893785238266,
        -0.04966944083571434,
        -0.021267104893922806,
        0.1263168454170227,
        0.06601947546005249,
        -0.02456439472734928,
        0.00046986242523416877,
        0.11813361197710037,
        -0.010509995743632317,
        0.08611532300710678,
        -0.17679451406002045,
        -0.09492791444063187,
        -0.09042876213788986,
        -0.03827255964279175,
        0.07997948676347733,
        -0.04896052926778793,
        0.09607710689306259,
        -0.061400461941957474,
        -0.11565615981817245,
        -0.026518452912569046,
        -0.13351212441921234,
        0.14140942692756653,
        -0.04403988644480705,
        -0.02558222971856594,
        0.13407517969608307,
        0.10748784244060516,
        0.046089500188827515,
        0.23425926268100739,
        -0.040492527186870575,
        -0.145681232213974,
        -0.06689126789569855,
        -0.1478077471256256,
        -0.051802992820739746,
        0.010913178324699402,
        -0.13064460456371307,
        0.027741029858589172,
        0.015965595841407776,
        0.16235613822937012,
        -0.0341172069311142,
        -0.0721210390329361,
        0.01214347779750824,
        -0.018847137689590454,
        -0.08277666568756104,
        -0.1833018809556961,
        -0.04391108453273773,
        0.14068204164505005,
        -0.09708631783723831,
        0.04792775213718414,
        -0.031916096806526184,
        -0.15761512517929077,
        -0.17266935110092163,
        0.1508716642856598,
        0.03805343806743622,
        0.034697026014328,
        -0.13312377035617828,
        0.07214787602424622,
        -0.15109661221504211,
        0.0015515685081481934,
        -0.14245977997779846,
        -0.14909245073795319,
        0.06891012191772461,
        0.17165514826774597,
        -0.17938056588172913,
        -0.14492085576057434,
        -0.16839712858200073,
        -0.13024713099002838,
        -0.13623736798763275,
        -0.1819356381893158,
        -0.15166722238063812,
        0.047618523240089417,
        0.06204840540885925,
        0.004168018698692322,
        -0.0911247581243515,
        -0.09891531616449356,
        -0.024711206555366516,
        0.14706501364707947,
        -0.11959554255008698,
        0.10712291300296783,
        0.23501810431480408,
        -0.14665716886520386,
        -0.23852302134037018,
        -0.08281470090150833,
        -0.03356494382023811,
        0.14422890543937683,
        0.04772982373833656,
        0.12011118978261948,
        -0.1164872795343399,
        -0.04523671418428421,
        -0.13438324630260468,
        0.003150296164676547,
        0.05856504291296005,
        0.09418715536594391,
        0.08505891263484955,
        0.029173152521252632,
        0.12976570427417755,
        0.1707683503627777,
        -0.1916283667087555,
        -0.07393163442611694,
        0.09411498159170151,
        0.10265913605690002,
        -0.08071137964725494,
        0.07309571653604507,
        -0.28854072093963623,
        0.026531031355261803,
        0.12122919410467148,
        0.1050589457154274,
        0.11231955885887146,
        -0.11209152638912201,
        -0.08065549284219742,
        -0.1570761352777481,
        -0.08265924453735352,
        6.289835710049374e-06,
        0.1113162487745285,
        0.0738842561841011,
        -0.07096655666828156,
        -0.006217233836650848,
        -0.0199792068451643,
        -0.03939098119735718,
        0.035696499049663544,
        0.13764657080173492,
        0.005986990872770548,
        0.11332224309444427,
        -0.050974730402231216,
        0.12555596232414246,
        -0.177740678191185,
        0.11243278533220291,
        -0.020017476752400398,
        -0.08708808571100235,
        0.027602016925811768,
        0.13217313587665558,
        -0.043923716992139816,
        0.18837562203407288,
        -0.08751646429300308,
        0.19791452586650848,
        0.10453727096319199,
        0.005055454559624195,
        0.030919793993234634,
        0.03846263512969017,
        0.19552607834339142,
        -0.006432581227272749,
        -0.15020954608917236,
        -0.021638760343194008,
        -0.13386312127113342,
        0.11574821919202805,
        0.092228963971138,
        0.02751556783914566,
        0.07295413315296173,
        -0.16959169507026672,
        -0.09679014980792999,
        -0.20695550739765167,
        -0.17096655070781708,
        -0.09919734299182892,
        0.19078798592090607,
        0.06316661089658737,
        0.1744336485862732,
        -0.11090660840272903,
        0.05251561850309372,
        0.12610980868339539,
        -0.13585880398750305,
        0.17437173426151276,
        0.1531747579574585,
        -0.07498041540384293,
        0.13071276247501373,
        -0.09691392630338669,
        0.217560276389122,
        0.06191917136311531,
        -0.05700761079788208,
        -0.09644540399312973,
        -0.05488245561718941,
        0.11975439637899399,
        0.15304915606975555,
        -0.11628321558237076,
        -0.021780969575047493,
        0.01715477928519249,
        -0.1553119271993637,
        -0.06901031732559204,
        0.07341962307691574,
        -0.08215919137001038,
        -0.1766449511051178,
        0.1604587435722351,
        0.11330718547105789,
        -0.05178244039416313,
        0.13759584724903107,
        0.12595239281654358,
        -0.05284591019153595,
        0.1501598209142685,
        0.02669714204967022,
        -0.05481192469596863,
        -0.17848218977451324,
        -0.13040271401405334,
        0.15383167564868927,
        0.15280094742774963,
        0.03838076815009117,
        0.09762107580900192,
        -0.14182186126708984,
        -0.20294983685016632,
        0.19394341111183167,
        0.10762015730142593,
        -0.1757872998714447,
        -0.1042628362774849,
        0.13556352257728577,
        -0.03596523404121399,
        -0.10739505290985107,
        -0.00038708202191628516,
        -0.07478858530521393,
        0.1299731582403183,
        -0.014662306755781174,
        -0.04995338246226311,
        0.019571280106902122,
        -0.04376918077468872,
        0.04442813619971275,
        0.0640643909573555,
        -0.058110497891902924,
        -0.09196752309799194,
        -0.11161685734987259,
        0.1207348182797432,
        -0.17607305943965912,
        -0.13541482388973236,
        0.1398807168006897,
        -0.13244466483592987,
        -0.00530324736610055,
        0.020256705582141876,
        -0.025493409484624863,
        0.20605535805225372,
        0.1503513604402542,
        0.19808973371982574,
        0.044118575751781464,
        0.04020890220999718,
        0.02357296459376812,
        0.12865175306797028,
        -0.11052004992961884,
        0.23247478902339935,
        -0.12621796131134033,
        -0.13710981607437134,
        -0.15294869244098663,
        0.16989798843860626,
        -0.05505926534533501,
        0.1640719473361969,
        0.12565580010414124,
        -0.04786885902285576,
        0.014958455227315426,
        0.03813857212662697,
        -0.060911811888217926,
        -0.23288515210151672,
        -0.08308956027030945,
        0.08893081545829773,
        0.1678565889596939,
        -0.059125836938619614,
        0.04263240844011307,
        -0.08006376028060913,
        -0.03693033382296562,
        -0.029294179752469063,
        0.21162225306034088,
        -0.08560363948345184,
        -0.04094185307621956,
        0.02966279536485672,
        0.02838001772761345,
        0.11529908329248428,
        -0.02247467078268528,
        -0.1402324140071869,
        -0.11184950172901154,
        -0.04982965812087059,
        0.050316520035266876,
        -0.012756405398249626,
        0.05979052931070328,
        -0.12766802310943604,
        0.17656201124191284,
        0.04851807653903961,
        -0.08058146387338638,
        -0.07583759725093842,
        0.09425587952136993,
        0.10132333636283875,
        0.08127501606941223,
        0.15023474395275116,
        0.180998295545578,
        0.09134887903928757,
        -0.17089897394180298,
        0.009430564008653164,
        -0.17065545916557312,
        0.03491583094000816,
        0.16085182130336761,
        -0.0014158921549096704,
        0.06907007098197937,
        0.0038905246183276176,
        0.11911190301179886,
        0.02412855438888073,
        -0.09731175750494003,
        -0.10237744450569153,
        -0.1728820651769638,
        0.021371977403759956,
        0.12188819795846939,
        -0.08522173017263412,
        0.04631207510828972,
        -0.0333670936524868,
        0.02434503100812435,
        0.2156064361333847,
        -0.11020170897245407,
        -0.07669948041439056,
        -0.07783486694097519,
        -0.06856513023376465,
        -0.00929039902985096,
        0.029129261150956154,
        -0.14082340896129608,
        0.021122559905052185,
        0.16665789484977722,
        0.19487866759300232,
        0.106610506772995,
        -0.13465379178524017,
        -0.09898007661104202,
        -0.0699579119682312,
        -0.02143835835158825,
        -0.005047763232141733,
        0.038224007934331894,
        0.0531020313501358,
        -0.031593628227710724,
        0.1686081886291504,
        -0.12414593249559402,
        0.15504711866378784,
        0.17623578011989594,
        0.2193029820919037,
        -0.09249874949455261,
        -0.00512273982167244,
        -0.13202999532222748,
        0.07630312442779541,
        -0.05237226188182831,
        0.2126942276954651,
        0.19444170594215393,
        -0.07975804060697556,
        0.10973774641752243,
        -0.07429290562868118,
        0.012478969991207123,
        -0.1552225798368454,
        0.00641902768984437,
        0.13815146684646606,
        0.1094423234462738,
        0.037610139697790146,
        0.127097487449646,
        0.14141620695590973,
        0.1570349782705307,
        0.04649626463651657,
        -0.11042982339859009,
        0.12971711158752441,
        -0.03535566106438637,
        -0.14396411180496216,
        0.008788488805294037,
        -0.15369737148284912,
        -0.21168622374534607,
        -0.04456334933638573,
        0.1555776745080948,
        0.027177564799785614,
        0.026075253263115883,
        -0.035600606352090836,
        0.01662846840918064,
        -0.2120007574558258,
        0.09576408565044403,
        -0.22359231114387512,
        0.11781737208366394,
        -0.03137868642807007,
        -0.06175801903009415,
        0.07433342188596725,
        -0.2706209421157837,
        0.06925924122333527,
        -0.05302262678742409,
        -0.08656343072652817,
        0.0440082810819149,
        -0.13177946209907532,
        0.111606165766716,
        -0.3203943371772766,
        0.17919819056987762,
        0.1025662049651146,
        0.14115606248378754,
        -0.1894647181034088,
        0.1383550763130188,
        0.039311546832323074,
        -0.038957834243774414,
        0.09317059814929962,
        -0.15124480426311493,
        0.013479722663760185,
        0.08987235277891159,
        -0.12164992839097977,
        0.0699603259563446,
        0.16971231997013092,
        0.1356564462184906,
        -0.002621894236654043,
        -0.06134402006864548,
        0.14229167997837067,
        0.2031572014093399,
        -0.11301672458648682,
        -0.10721011459827423,
        0.11018107086420059,
        0.11325698345899582,
        0.01308964192867279,
        -0.00782538577914238,
        -0.13869111239910126,
        0.14334474503993988,
        -0.08020337671041489,
        0.06404388695955276,
        0.05755380168557167,
        -0.04052215442061424,
        -0.004698203410953283,
        -0.10679464042186737,
        0.15483589470386505,
        0.031837280839681625,
        0.090214803814888,
        0.19400887191295624,
        -0.13592085242271423,
        -0.15342199802398682,
        0.1254056990146637,
        0.1088307574391365,
        -0.10817698389291763,
        0.16017241775989532,
        0.05028483271598816,
        -0.15809817612171173,
        -0.022368960082530975,
        0.06428058445453644,
        0.06041055545210838,
        -0.05857047811150551,
        -0.0551273450255394,
        -0.13636180758476257,
        0.18523529171943665,
        -0.10829771310091019,
        -0.0773254930973053,
        0.3262721598148346,
        0.12846264243125916,
        -0.04958814010024071,
        0.06535515934228897,
        -0.0777183324098587,
        -0.015813300386071205,
        0.18884573876857758,
        -0.02060510776937008,
        -0.16021816432476044,
        -0.1318143904209137,
        0.19397716224193573,
        0.082696832716465,
        0.10695216804742813,
        0.05328267812728882,
        -0.003437658306211233,
        -0.017573842778801918,
        -0.14539803564548492,
        0.041742656379938126,
        0.0005513898795470595,
        -0.02304213121533394,
        0.07643139362335205,
        -0.06815758347511292,
        0.025295084342360497,
        0.19212999939918518,
        -0.14316099882125854,
        -0.11685709655284882,
        0.11779002845287323,
        -0.11612007766962051,
        0.15948890149593353,
        0.036817993968725204,
        -0.05082870274782181,
        -0.12885352969169617,
        -0.12519268691539764,
        -0.12673504650592804,
        -0.13329625129699707,
        -0.09873560070991516,
        -0.022463690489530563,
        -0.06807834655046463,
        -0.04756014421582222,
        0.026885168626904488,
        0.02913898229598999,
        -0.10406620055437088,
        0.16596442461013794,
        -0.01520301029086113,
        0.09965068101882935,
        -0.011897516436874866,
        0.04683215543627739,
        0.11435989290475845,
        -0.1276155710220337,
        -0.10598639398813248,
        -0.19855718314647675,
        0.14129982888698578,
        0.04875493049621582,
        0.14047010242938995,
        0.005723792593926191,
        -0.20448699593544006,
        0.008725191466510296,
        0.11934441328048706,
        0.1796630471944809,
        0.13388687372207642,
        -0.1439337134361267,
        0.1541084498167038,
        -0.03916053846478462,
        -0.04689304158091545,
        0.17279590666294098,
        0.08168606460094452,
        -0.191778302192688,
        0.005918341223150492,
        -0.11133310198783875,
        -0.18461556732654572,
        -0.02788390964269638,
        0.03187442198395729,
        -0.13150309026241302,
        -0.12401145696640015,
        -0.06015944480895996,
        0.13249298930168152,
        0.14691261947155,
        -0.017218491062521935,
        0.05099254846572876,
        0.14644762873649597,
        0.07723873108625412,
        -0.06159750372171402,
        0.0996750146150589,
        0.1632700264453888,
        -0.062171775847673416,
        -0.04093274474143982,
        0.05429602041840553,
        -0.13671675324440002,
        -0.012195630930364132,
        0.061953671276569366,
        0.11571045219898224,
        -0.002924984088167548,
        0.12159860134124756,
        0.05855973809957504,
        0.05980408191680908,
        0.07415717840194702,
        0.06877090781927109,
        -0.05634288862347603,
        0.07158738374710083,
        0.04540694132447243,
        0.12132174521684647,
        -0.11021246016025543,
        -0.010595402680337429,
        -0.0207891333848238,
        0.10945404320955276,
        0.1630581170320511,
        -0.18657448887825012,
        -0.12006458640098572,
        0.01588718593120575,
        0.18627718091011047,
        0.11295055598020554,
        0.09610538184642792,
        -0.0687449648976326,
        -0.08801335096359253,
        -0.135565847158432,
        -0.10951967537403107,
        0.13226674497127533,
        -0.07504594326019287,
        0.010779411531984806,
        0.015314862132072449,
        -0.09450779110193253,
        0.06465812027454376,
        0.14972776174545288,
        0.11010200530290604,
        0.03406166285276413,
        -0.11794602870941162,
        -0.06692621856927872,
        -0.01664711907505989,
        -0.07557960599660873,
        -0.04316730424761772,
        -0.14927555620670319,
        -0.10371328890323639,
        -0.09303891658782959,
        -0.08603351563215256,
        -0.17256230115890503,
        -0.1596417874097824,
        -0.1116754412651062,
        -0.18226708471775055,
        0.10330924391746521,
        -0.10945043712854385,
        -0.04387037828564644,
        -0.1302325576543808,
        -0.08231697231531143,
        0.06919638812541962,
        -0.13713166117668152,
        -0.0791124552488327,
        0.07738132029771805,
        0.1707160770893097,
        0.13332392275333405,
        0.03242126852273941,
        0.14974018931388855,
        -0.1911773830652237,
        -0.11616223305463791,
        0.019712936133146286,
        0.04697275161743164,
        -0.04660772532224655,
        -0.2040627896785736,
        -0.02227121964097023,
        -0.1851884126663208,
        0.03708919510245323,
        -0.13630172610282898,
        0.1470162570476532,
        -0.20644164085388184,
        0.09438358247280121,
        0.06644522398710251,
        -0.03388650342822075,
        -0.18276037275791168,
        0.12968137860298157,
        -0.008915732614696026,
        -0.1411750316619873,
        0.10471232235431671,
        0.013804485090076923,
        -0.015504921786487103,
        0.03600756824016571,
        0.20302636921405792,
        0.1436469703912735,
        0.1074468120932579,
        -0.02648814208805561,
        0.057852622121572495,
        -0.12514828145503998,
        -0.1706322431564331,
        0.15444433689117432,
        0.12619581818580627,
        -0.13290004432201385,
        0.0422540009021759,
        0.12888887524604797,
        0.10773710161447525,
        0.1144130676984787,
        -0.14190132915973663,
        0.09025964140892029,
        0.013813994824886322,
        -0.09518442302942276,
        0.1849800944328308,
        0.02742067165672779,
        -0.10844769328832626,
        0.1081216111779213,
        0.046385444700717926,
        0.08259265124797821,
        0.028972946107387543,
        0.08663908392190933,
        -0.0770832896232605,
        0.07371531426906586,
        0.18288040161132812,
        0.21574825048446655,
        -0.0021815719082951546,
        0.02273060381412506,
        0.00985101517289877,
        0.23034892976284027,
        0.08053725957870483,
        -0.17738528549671173,
        -0.030287910252809525,
        0.10844998061656952,
        -0.04809079319238663,
        0.13930688798427582,
        -0.11887511610984802,
        -0.1775311529636383,
        -0.06584473699331284,
        0.14078441262245178,
        0.1545606404542923,
        0.09421183913946152,
        0.167389377951622,
        0.03857043385505676,
        -0.004977468866854906,
        -0.20055224001407623,
        -0.1677742749452591,
        0.05051971226930618,
        0.09067971259355545,
        -0.07554226368665695,
        -0.008251247927546501,
        0.01942623220384121,
        0.11244796216487885,
        0.13896362483501434,
        -0.007909050211310387,
        -0.07134663313627243,
        -0.004783079959452152,
        0.1778726726770401,
        -0.1724025309085846,
        0.009408590383827686,
        0.026769118383526802,
        0.06974140554666519,
        0.16266460716724396,
        0.049235355108976364,
        -0.09155739843845367,
        -0.1854810267686844,
        0.03685220330953598,
        0.1479322612285614,
        0.09637738019227982,
        0.20803867280483246,
        0.15691454708576202,
        0.052076343446969986,
        -0.12934404611587524,
        0.06841966509819031,
        -0.19234146177768707,
        0.05142325535416603,
        0.06994722783565521,
        0.07038161158561707,
        0.09681201726198196,
        0.09216812252998352,
        0.18446563184261322,
        0.05531492084264755,
        -0.0658615306019783,
        -0.16702072322368622,
        0.04616754129528999,
        -0.06583812832832336,
        -0.06725423783063889,
        0.0730929747223854,
        0.13470688462257385,
        0.11455947905778885,
        0.034135136753320694,
        -0.1367165595293045,
        -0.10971061140298843,
        -0.020526453852653503,
        -0.04447953402996063,
        -0.07683950662612915,
        0.18484336137771606,
        0.09536924213171005,
        -0.17266196012496948,
        -0.10530679672956467,
        0.1568593829870224,
        -0.05399119481444359,
        -0.013502242974936962,
        0.026500245556235313,
        -0.03323031961917877,
        0.01314397994428873,
        0.11029737442731857,
        0.06621362268924713,
        0.11379094421863556,
        -0.15703551471233368,
        0.08109693974256516,
        -0.12368007004261017,
        0.052738118916749954,
        0.256041020154953,
        -0.12401911616325378,
        -0.21676574647426605,
        -0.10861296951770782,
        -0.06072719022631645,
        0.08433421701192856,
        0.07759074866771698,
        0.10669727623462677,
        0.17890803515911102,
        -0.03567468374967575,
        -0.06239795312285423,
        0.07608268409967422,
        0.06638707965612411,
        -0.08437373489141464,
        0.1741737723350525,
        0.13630035519599915,
        0.13617539405822754,
        -0.20419171452522278,
        -0.08286898583173752,
        0.11965791136026382,
        0.030817808583378792,
        0.07839073985815048,
        -0.03108830936253071,
        -0.16402186453342438,
        0.08955368399620056,
        0.15292316675186157,
        0.18469096720218658,
        0.12087531387805939,
        -0.18122908473014832,
        -0.06169022247195244,
        0.05638225004076958,
        0.02427794225513935,
        0.17467108368873596,
        0.1165996640920639,
        -0.085761658847332,
        0.1233648881316185,
        0.1118459552526474,
        0.16317622363567352,
        -0.1432897448539734,
        -0.12513141334056854,
        0.053459759801626205,
        0.10492023825645447,
        -0.009444540366530418,
        0.025989292189478874,
        0.02310507744550705,
        0.02100599743425846,
        -0.07220005989074707,
        -0.10022445768117905,
        0.14312438666820526,
        0.02753172442317009,
        -0.06269693374633789,
        0.16683824360370636,
        0.11922606080770493,
        0.03864646330475807,
        -0.04071355238556862,
        0.16439133882522583,
        -0.15552818775177002,
        -0.13097462058067322,
        0.06417860090732574,
        0.0433669239282608,
        0.1379571110010147,
        0.07267298549413681,
        0.01632821001112461,
        -0.1133343055844307,
        -0.1877538114786148,
        -0.15764972567558289,
        0.029024489223957062,
        -0.07478572428226471,
        -0.17836590111255646,
        -0.010914851911365986,
        0.0865514948964119,
        0.16226457059383392,
        0.02584194578230381,
        -0.16173428297042847,
        -0.044188544154167175,
        0.07590800523757935,
        0.055548835545778275,
        0.06529515981674194,
        -0.06801294535398483,
        0.0058982353657484055,
        -0.08968818187713623,
        0.07109910994768143,
        0.12284055352210999,
        -0.1987951099872589,
        -0.07993042469024658,
        -0.06687334179878235,
        0.052480101585388184,
        0.11656132340431213,
        -0.06597486883401871,
        -0.038149427622556686,
        -0.0590895414352417,
        -0.02586897648870945,
        -0.12895645201206207,
        -0.004788997117429972,
        0.07787702232599258,
        0.004664810374379158,
        0.20420688390731812,
        0.17241837084293365,
        -0.03373786434531212,
        -0.18565034866333008,
        -0.01720263808965683,
        -0.03967050835490227,
        -0.009097659960389137,
        -0.16115111112594604,
        0.05320393666625023,
        -0.1942022740840912,
        0.10764183849096298,
        0.18467384576797485,
        0.2579609751701355,
        0.059697262942790985,
        0.045666519552469254,
        0.06855034083127975,
        0.06348106265068054,
        0.04894699528813362,
        -0.021280698478221893,
        -0.08487366884946823,
        0.18595202267169952,
        -0.13453106582164764,
        0.06318318098783493,
        -0.08999771624803543,
        -0.146380215883255,
        -0.09914619475603104,
        -0.10563194006681442,
        -0.048197660595178604,
        -0.07608918100595474,
        -0.11537551879882812,
        -0.09649438410997391,
        -0.08275047689676285,
        0.2087804079055786,
        -0.09218340367078781,
        -0.1297222375869751,
        -0.005141137633472681,
        -0.040073979645967484,
        -0.06361771374940872,
        0.10502529889345169,
        -0.01699080504477024,
        0.018231861293315887,
        -0.09865722060203552,
        -0.10210207104682922,
        0.20961594581604004,
        -0.09579195082187653,
        0.08693568408489227,
        0.02346683107316494,
        -0.10353592038154602,
        -0.02591162919998169,
        0.1420411765575409,
        0.08421618491411209,
        0.2662971615791321,
        0.11013752222061157,
        -0.06830691546201706,
        0.10943499952554703,
        0.2245595008134842,
        0.09722315520048141,
        -0.14677534997463226,
        -0.08181488513946533,
        -0.020660683512687683,
        -0.0874376893043518,
        -0.023143909871578217,
        -0.15874217450618744,
        -0.11725357174873352,
        0.17460837960243225,
        0.09897095710039139,
        0.06618715822696686,
        -0.15653765201568604,
        -0.045473333448171616,
        -0.002407660009339452,
        0.03659125044941902,
        0.039991382509469986,
        0.02337055839598179,
        -0.07190980762243271,
        -0.15499256551265717,
        -0.021997712552547455,
        0.09273616224527359,
        0.21057549118995667,
        -0.2138047218322754,
        0.01568029820919037,
        -0.053043317049741745,
        0.07921747863292694,
        -0.14190863072872162,
        -0.2977506220340729,
        0.09526694566011429,
        0.09349340200424194,
        0.1534089893102646,
        0.09236452728509903,
        -0.06408441811800003,
        -0.10282208025455475,
        0.13363222777843475,
        0.04074552282691002,
        0.10858888924121857,
        0.0011211299570277333,
        -0.14184236526489258,
        0.07704029977321625,
        0.01878730021417141,
        0.08385021984577179,
        -0.007524434477090836,
        0.11348327994346619,
        0.10349390655755997,
        0.18221549689769745,
        0.08722296357154846,
        -0.15019625425338745,
        -0.13731755316257477,
        0.032279327511787415,
        0.1834557056427002,
        0.013281874358654022,
        0.17699819803237915,
        0.10370448976755142,
        0.10401693731546402,
        -0.16163277626037598,
        -0.11202837526798248,
        -0.0874684527516365,
        0.06712613254785538,
        -0.10970032215118408,
        -0.011786818504333496,
        -0.09064110368490219,
        -0.05020083114504814,
        0.016686486080288887,
        0.19934792816638947,
        0.09657884389162064,
        -0.1593632996082306,
        0.1724875569343567,
        -0.06697865575551987,
        -0.08306961506605148,
        0.18433299660682678,
        -0.08956418931484222,
        -0.0069426279515028,
        -0.09039945155382156,
        0.15409518778324127,
        0.05931219086050987,
        0.00751870684325695,
        -0.01172289252281189,
        0.192810520529747,
        0.015207592397928238,
        -0.21256305277347565,
        0.10686200857162476,
        -0.039558444172143936,
        0.009637884795665741,
        -0.1578419804573059,
        -0.10167349874973297,
        0.034410130232572556,
        0.14385974407196045,
        0.01847267523407936,
        0.0019399774027988315,
        -0.0897834524512291,
        0.01767841726541519,
        0.24246883392333984,
        0.08419383317232132,
        0.054214321076869965,
        0.07835093885660172,
        0.09043576568365097,
        -0.07129933685064316,
        -0.04368777200579643,
        -0.03939640522003174,
        -0.13170213997364044,
        -0.061378251761198044,
        -0.06770433485507965,
        0.15770797431468964,
        0.2641885578632355,
        -0.17556005716323853,
        -0.07202226668596268,
        -0.1273544877767563,
        0.149635910987854,
        -0.17375847697257996,
        -0.18013040721416473,
        -0.15449678897857666,
        -0.06729717552661896,
        -0.0735122486948967,
        -0.14906832575798035,
        0.15502870082855225,
        0.02601919323205948,
        0.1195259690284729,
        0.1415865272283554,
        -0.14451508224010468,
        -0.007701880298554897,
        -0.12409792095422745,
        0.019662581384181976,
        0.06347689777612686,
        -0.07417120784521103,
        0.03540267050266266,
        -0.06796000897884369,
        0.024824507534503937,
        0.09723474085330963,
        -0.11290847510099411,
        0.0652180016040802,
        0.12340191006660461,
        -0.01060638576745987,
        0.16934515535831451,
        0.06327172368764877,
        0.07211104035377502,
        -0.24891556799411774,
        -0.17430731654167175,
        0.1354222148656845,
        -0.056606024503707886,
        0.11913768202066422,
        0.19630023837089539,
        0.0925692543387413,
        0.13196338713169098,
        -0.08461909741163254,
        -0.09983362257480621,
        0.06915318220853806,
        -0.07145296037197113,
        0.1321847289800644,
        0.0804755687713623,
        0.04480255767703056,
        -0.04372507706284523,
        0.09831453114748001,
        0.0802578553557396,
        -0.14400586485862732,
        0.027714230120182037,
        -0.06369663774967194,
        -0.08550265431404114,
        0.11548527330160141,
        -0.14270947873592377,
        -0.024223515763878822,
        0.0805223286151886,
        0.0991675853729248,
        -0.10997059941291809,
        -0.0019523983355611563,
        0.15795157849788666,
        -0.033145971596241,
        0.023080473765730858,
        0.055046699941158295,
        0.1249767616391182,
        0.11670290678739548,
        0.06290742009878159,
        -0.05474376678466797,
        0.14665614068508148,
        -0.17605285346508026,
        -0.05450810492038727,
        -0.07511822134256363,
        -0.11210832744836807,
        0.009499059990048409,
        -0.13354238867759705,
        0.06205308064818382,
        -0.08641769737005234,
        -0.04948172718286514,
        -0.03199287876486778,
        -0.03084302879869938,
        -0.15704110264778137,
        -0.1665566861629486,
        -0.09797471761703491,
        -0.14401917159557343,
        0.09571000188589096,
        0.14985592663288116,
        -0.0189496036618948,
        0.2384157031774521,
        -0.18959331512451172,
        -0.16044515371322632,
        -0.15854059159755707,
        -0.18663586676120758,
        0.17461232841014862,
        -0.11190934479236603,
        0.18997110426425934,
        0.1159900426864624,
        0.035268474370241165,
        -0.011170736514031887,
        0.050956740975379944,
        0.08014528453350067,
        -0.16257569193840027,
        -0.007904883474111557,
        -0.123322494328022,
        0.17129075527191162,
        0.21326285600662231,
        0.06885550171136856,
        -0.09703020751476288,
        -0.02476011961698532,
        -0.1699463576078415,
        0.1269741952419281,
        0.16357827186584473,
        0.17962509393692017,
        0.1424301415681839,
        -0.13462403416633606,
        0.1386045217514038,
        0.1387092024087906,
        -0.14743755757808685,
        0.07231317460536957,
        0.19746540486812592,
        -0.09784109145402908,
        0.08371079713106155,
        -0.08704867959022522,
        0.04301171749830246,
        0.10039994865655899,
        -0.06809692829847336,
        -0.11283750832080841,
        0.07694096863269806,
        -0.07915893942117691,
        0.19345694780349731,
        -0.015172472223639488,
        -0.10830098390579224,
        0.03687192127108574,
        0.1551724523305893,
        0.20341670513153076,
        0.12324472516775131,
        0.030703449621796608,
        0.13373982906341553,
        -0.12556065618991852,
        0.0481649748980999,
        0.12312815338373184,
        -0.18170098960399628,
        0.05855155363678932,
        0.11261729151010513,
        -0.05170588940382004,
        0.007493946701288223,
        -0.005046061705797911,
        -0.10215337574481964,
        0.02191927656531334,
        -0.02960008569061756,
        0.10943356901407242,
        -0.11015285551548004,
        -0.1781308501958847,
        0.13066735863685608,
        0.13787344098091125,
        -0.006259939633309841,
        -0.07624705880880356,
        0.10384710878133774,
        -0.041471321135759354,
        0.14523963630199432,
        0.08862391859292984,
        -0.13227465748786926,
        -0.029116682708263397,
        0.09467394649982452,
        0.03717687726020813,
        0.18664787709712982,
        0.037407804280519485,
        0.0801205113530159,
        -0.10956529527902603,
        -0.07067586481571198,
        -0.021927811205387115,
        0.10272805392742157,
        0.03913753479719162,
        -0.13894645869731903,
        0.08338265866041183,
        -0.08655492216348648,
        -0.042598120868206024,
        0.053939081728458405,
        0.05146343261003494,
        0.05900850519537926,
        -0.08495502918958664,
        -0.14547574520111084,
        -0.036329321563243866,
        0.001203748513944447,
        0.1415671557188034,
        0.12770560383796692,
        -0.16117538511753082,
        0.057206202298402786,
        -0.04984921216964722,
        0.0627313032746315,
        0.04262085631489754,
        -0.0019088556291535497,
        -0.08835115283727646,
        -0.1391873061656952,
        0.04736976698040962,
        -0.08073761314153671,
        -0.005077384877949953,
        0.1163846030831337,
        -0.13126219809055328,
        0.009916070848703384,
        0.031357310712337494,
        0.15229085087776184,
        0.004700539633631706,
        0.08747491985559464,
        0.13599924743175507,
        0.079459547996521,
        0.09301270544528961,
        0.03310636430978775,
        0.11477848887443542,
        -0.024570677429437637,
        0.16107502579689026,
        0.21121136844158173,
        0.12090258300304413,
        0.0827106460928917,
        -0.07920017838478088,
        -0.04519214853644371,
        -0.11778181046247482,
        -0.06339282542467117,
        -0.16685666143894196,
        -0.04694807901978493,
        -0.07288078218698502,
        0.02487955056130886,
        0.10148993134498596,
        0.10485129803419113,
        0.10244326293468475,
        0.03506702184677124,
        -0.076951764523983,
        0.09016158431768417,
        -0.017856823280453682,
        0.09469269961118698,
        0.13062402606010437,
        -0.05506610870361328,
        0.1887461245059967,
        -0.043868422508239746,
        -0.12105691432952881,
        -0.04153217002749443,
        0.10099302977323532,
        0.137648344039917,
        0.048684149980545044,
        -0.0615076944231987,
        0.17388835549354553,
        0.12605799734592438,
        -0.11786706745624542,
        0.10598669201135635,
        -0.16838040947914124,
        0.04282550513744354,
        -0.16403216123580933,
        -0.06659579277038574,
        -0.00650111585855484,
        -0.09488371759653091,
        -0.0657309889793396,
        -0.022470714524388313,
        0.09981943666934967,
        -0.09111122041940689,
        -0.08184091746807098,
        -0.053797971457242966,
        -0.16306620836257935,
        -0.11692966520786285,
        -0.023251933977007866,
        0.16029256582260132,
        0.058455925434827805,
        -0.10684964805841446,
        0.08145666122436523,
        -0.14917384088039398,
        -0.12433648109436035,
        -0.11858657002449036,
        -0.05215970426797867,
        0.11234822124242783,
        -0.17933359742164612,
        -0.1785069704055786,
        0.12964022159576416,
        -0.10179542005062103,
        -0.0005376465851441026,
        -0.02216215990483761,
        -0.05873565748333931,
        0.05107497051358223,
        -0.16069315373897552,
        0.018002033233642578,
        0.016177475452423096,
        -0.10206209123134613,
        -0.07095008343458176,
        -0.14265477657318115,
        -0.07480332255363464,
        -0.025970393791794777,
        -0.14175793528556824,
        0.16703227162361145,
        0.12164205312728882,
        -0.04646604135632515,
        0.0585913360118866,
        -0.08010724186897278,
        -0.03248835355043411,
        -0.14554116129875183,
        0.015822164714336395,
        -0.20063650608062744,
        0.018028898164629936,
        -0.12745065987110138,
        0.14701668918132782,
        0.01509127952158451,
        -0.017821744084358215,
        -0.07461469620466232,
        -0.023689664900302887,
        0.08859103918075562,
        -0.04741814732551575,
        -0.1663801670074463,
        -0.026903750374913216,
        -0.048897843807935715,
        -0.1074637696146965,
        0.1669466346502304,
        0.1590653955936432,
        0.13284559547901154,
        -0.12769657373428345,
        0.05349104478955269,
        0.13488036394119263,
        0.03262420743703842,
        0.09989235550165176,
        -0.15831126272678375,
        0.08790313452482224,
        -0.04423670843243599,
        -0.013803519308567047,
        0.013264214619994164,
        0.019311655312776566,
        -0.16620169579982758,
        0.21664851903915405,
        0.05463537573814392,
        -0.08706969767808914,
        0.2245650440454483,
        0.17194341123104095,
        0.1557520031929016,
        -0.18422336876392365,
        0.07529623061418533,
        0.1493205577135086,
        -0.08241304755210876,
        -0.07245753705501556,
        0.10220645368099213,
        -0.11515233665704727,
        0.13086946308612823,
        0.026796426624059677,
        -0.16676746308803558,
        -0.17272010445594788,
        -0.1926567405462265,
        -0.1490831971168518,
        0.035868775099515915,
        -0.1444389969110489,
        0.0785602480173111,
        0.14859552681446075,
        -0.09287000447511673,
        -0.22822438180446625,
        -0.08308400213718414,
        -0.1897922307252884,
        -0.015372353605926037,
        -0.03158794716000557,
        -0.07809537649154663,
        -0.04922615364193916,
        0.06794558465480804,
        0.011776742525398731,
        0.1138443797826767,
        -0.04428291693329811,
        0.11027105152606964,
        -0.1082724928855896,
        0.09693466871976852,
        0.10799552500247955,
        -0.053695421665906906,
        0.13345861434936523,
        -0.09824718534946442,
        0.03295455127954483,
        -0.018966926261782646,
        -0.1374727487564087,
        0.04613491892814636,
        0.07062090933322906,
        -0.054244495928287506,
        0.05035180225968361,
        0.010741768404841423,
        0.0580904595553875,
        0.16962410509586334,
        0.078698068857193,
        -0.17785941064357758,
        -0.03336913511157036,
        -0.23833051323890686,
        -0.08653400093317032,
        -0.1462448090314865,
        -0.02661404386162758,
        -0.15847726166248322,
        -0.09528670459985733,
        0.0895318016409874,
        -0.16932375729084015,
        0.1763150840997696,
        -0.04915999621152878,
        0.047425270080566406,
        -0.07961486279964447,
        -0.11971855163574219,
        -0.13256604969501495,
        -0.19461195170879364,
        0.02964574657380581,
        0.1063021570444107,
        -0.0067361751571297646,
        0.11707714200019836,
        0.06741883605718613,
        -0.053889527916908264,
        -0.1637919843196869,
        0.08899793028831482,
        0.15401053428649902,
        0.03731909394264221,
        0.011609300971031189,
        -0.17991559207439423,
        -0.1632041335105896,
        -0.06942371279001236,
        -0.09402430057525635,
        -0.04424482583999634,
        0.008971542119979858,
        -0.024820178747177124,
        -0.140385240316391,
        0.015585407614707947,
        -0.12342341989278793,
        -0.1782601773738861,
        -0.088298499584198,
        0.006706893444061279,
        0.045569926500320435,
        -0.0062142908573150635,
        0.045940741896629333,
        -0.12065794318914413,
        0.15663862228393555,
        -0.07122872769832611,
        0.08408063650131226,
        -0.1311299204826355,
        -0.14195950329303741,
        -0.10476795583963394,
        0.0896906852722168,
        -0.06606055796146393,
        -0.08366592973470688,
        -0.11569922417402267,
        -0.13246700167655945,
        -0.16889344155788422,
        -0.01753874123096466,
        -0.03433072566986084,
        -0.1413615494966507,
        -0.06409694999456406,
        0.023083046078681946,
        0.03600423038005829,
        0.11562660336494446,
        -0.014787375926971436,
        -0.055639732629060745,
        0.07114746421575546,
        0.09183237701654434,
        0.0466090627014637,
        -0.07524406909942627,
        0.055085472762584686,
        0.04041095823049545,
        0.036465536803007126,
        0.10374535620212555,
        0.08475274592638016,
        0.11305887252092361,
        0.059002894908189774,
        0.1001095399260521,
        -0.005827277898788452,
        -0.2167205512523651,
        0.14136198163032532,
        -0.0971502885222435,
        -0.014902661554515362,
        0.12723702192306519,
        0.15322135388851166,
        0.08661019802093506,
        0.20195166766643524,
        0.03910394012928009,
        -0.11682353913784027,
        -0.12206854671239853,
        0.12167218327522278,
        -0.1704506129026413,
        0.16114158928394318,
        -0.11391356587409973,
        0.14662721753120422,
        2.434413727314677e-05,
        0.04469002038240433,
        -0.08271495997905731,
        -0.16936472058296204,
        -0.15794244408607483,
        -0.1264958381652832,
        -0.12184009701013565,
        0.13269498944282532,
        0.08474678546190262,
        -0.05889134854078293,
        0.13770827651023865,
        -0.057822201400995255,
        0.13460657000541687,
        -0.03808312490582466,
        0.008368696086108685,
        0.06390684098005295,
        -0.05875027924776077,
        0.06062067300081253,
        -0.09871324151754379,
        0.06812715530395508,
        -0.1533689647912979,
        -0.022236766293644905,
        -0.05748717486858368,
        0.14634469151496887,
        -0.11019513010978699,
        0.07950972765684128,
        0.07161020487546921,
        0.14377596974372864,
        -0.0667516440153122,
        0.009800299070775509,
        -0.06138540804386139,
        0.09464138746261597,
        -0.08980018645524979,
        -0.03557805344462395,
        0.02023201808333397,
        0.10159032046794891,
        0.05678780376911163,
        0.045516930520534515,
        0.1383400559425354,
        0.04769062623381615,
        0.10214812308549881,
        -0.15670658648014069,
        -0.04064027592539787,
        0.08192012459039688,
        -0.1336839348077774,
        -0.1602165848016739,
        0.1193145290017128,
        0.11643842607736588,
        0.20208634436130524,
        -0.1419389396905899,
        0.0480688102543354,
        0.027274200692772865,
        0.05655045807361603,
        -0.045099854469299316,
        -0.01175734307616949,
        -0.06341973692178726,
        0.021430768072605133,
        0.0990646556019783,
        0.10317525267601013,
        -0.022693656384944916,
        -0.12425922602415085,
        0.013159213587641716,
        0.15606911480426788,
        -0.03283468633890152,
        -0.1000160500407219,
        0.15175725519657135,
        0.033699966967105865,
        -0.08139678090810776,
        0.014686341397464275,
        0.056058887392282486,
        0.1715237945318222,
        0.19636200368404388,
        0.119986891746521,
        0.08407684415578842,
        0.12296855449676514,
        0.02314205840229988,
        0.13077114522457123,
        -0.0032208780758082867,
        0.10495015233755112,
        -0.053602445870637894,
        -0.08350903540849686,
        -0.08342162519693375,
        0.062017619609832764,
        -0.03102939762175083,
        0.08601781725883484,
        -0.0658351257443428,
        -0.15374816954135895,
        -0.055786892771720886,
        -0.17752549052238464,
        0.05434700474143028,
        0.05759367346763611,
        -0.002706058556213975,
        -0.11114973574876785,
        0.09352867305278778,
        -0.12221163511276245,
        -0.18278947472572327,
        0.13180629909038544,
        -0.060383934527635574,
        0.018482021987438202,
        0.011100356467068195,
        -0.08608322590589523,
        0.03789244592189789,
        0.02495182864367962,
        0.13436171412467957,
        0.02266210876405239,
        0.11637796461582184,
        0.08007191121578217,
        0.12190314382314682,
        -0.19012805819511414,
        0.11302059143781662,
        -0.09633154422044754,
        0.18309694528579712,
        0.05209915339946747,
        0.039479080587625504,
        -0.06415580958127975,
        0.00970357283949852,
        0.1393464058637619,
        -0.0033233994618058205,
        0.1761099100112915,
        -0.1467752903699875,
        0.02571791410446167,
        0.1392481029033661,
        -0.06003006175160408,
        0.1243588775396347,
        0.1465407758951187,
        0.0661771148443222,
        -0.0441347099840641,
        -0.07644501328468323,
        0.12091550976037979,
        -0.13143731653690338,
        0.12573741376399994,
        -0.10118045657873154,
        0.010777621529996395,
        -0.049899350851774216,
        -0.07059269398450851,
        -0.01855519972741604,
        0.15295854210853577,
        -0.04668217897415161,
        -0.01405521109700203,
        0.17302654683589935,
        -0.16811516880989075,
        0.16931800544261932,
        0.18389593064785004,
        -0.013486822135746479,
        0.19337628781795502,
        -0.11774159222841263,
        0.16143566370010376,
        -0.05548993870615959,
        -0.03605671972036362,
        0.08341546356678009,
        0.143685981631279,
        0.11914236843585968,
        0.0294476468116045,
        -0.14871057868003845,
        0.09944972395896912,
        0.19435304403305054,
        0.12923064827919006,
        -0.08843110501766205,
        0.0048025683499872684,
        0.022215116769075394,
        -0.10108806192874908,
        0.016301607713103294,
        -0.08614274114370346,
        0.11371509730815887,
        -0.09835771471261978,
        0.026394706219434738,
        0.2161482274532318,
        -0.09416163712739944,
        0.025018248707056046,
        -0.1762431561946869,
        -0.08118853718042374,
        0.06094563752412796,
        -0.09629537910223007,
        -0.12197843939065933,
        0.1334037482738495,
        0.0852813869714737,
        -0.20728182792663574,
        -0.11293519288301468,
        0.03706160932779312,
        0.16376417875289917,
        -0.13756011426448822,
        -0.16226093471050262,
        -0.09194397926330566,
        0.04055926576256752,
        0.20287320017814636,
        0.048910900950431824,
        0.002199372509494424,
        0.10993251204490662,
        -0.12659311294555664,
        0.09033533930778503,
        0.12113184481859207,
        0.13344962894916534,
        0.04074093699455261,
        -0.15008385479450226,
        0.03519571200013161,
        0.07171434164047241,
        0.1295931339263916,
        -0.15081335604190826,
        0.12272463738918304,
        -0.1471707820892334,
        0.013026556931436062,
        -0.10309119522571564,
        0.090766541659832,
        0.1037713959813118,
        0.07941485941410065,
        -0.09980519860982895,
        0.10278718173503876,
        0.005023504141718149,
        -0.15414436161518097,
        -0.1638329178094864,
        -0.026103897020220757,
        0.10317942500114441,
        0.05931395664811134,
        -0.10642994195222855,
        -0.015897152945399284,
        -0.015244181267917156,
        -0.08944069594144821,
        0.1254761964082718,
        0.22405943274497986,
        0.12120482325553894,
        -0.007444297894835472,
        0.00762888602912426,
        -0.1919432133436203,
        -0.25219497084617615,
        -0.10211058706045151,
        -0.07031819969415665,
        0.00902401190251112,
        -0.029364658519625664,
        -0.03512316942214966,
        0.022841040045022964,
        0.00011709920363500714,
        0.16689792275428772,
        0.24174441397190094,
        -0.12419657409191132,
        -0.1491946429014206,
        0.005038545932620764,
        -0.07530254125595093,
        0.006788879632949829,
        -0.11886803805828094,
        -0.11031599342823029,
        0.23681952059268951,
        -0.13953526318073273,
        -0.033346641808748245,
        -0.1610453575849533,
        0.027305498719215393,
        0.18742340803146362,
        -0.07675481587648392,
        -0.08634834736585617,
        0.1768406331539154,
        0.04510970041155815,
        -0.1068212240934372,
        0.05221946910023689,
        -0.0721936896443367,
        0.023190610110759735,
        0.23317864537239075,
        -0.19532378017902374,
        -0.058261942118406296,
        0.14461305737495422,
        0.07480906695127487,
        -0.025801662355661392,
        -0.030230971053242683,
        -0.021023835986852646,
        -0.2187013328075409,
        0.08793540298938751,
        0.17901667952537537,
        0.19004034996032715,
        -0.1898268163204193,
        0.13392698764801025,
        -0.13158731162548065,
        0.11099869012832642,
        0.1213492676615715,
        -0.1518489271402359,
        0.023795219138264656,
        -0.16673544049263,
        0.0910598635673523,
        -0.15008431673049927,
        -0.05411987751722336,
        0.007906918413937092,
        -0.006362330634146929,
        -0.17514508962631226,
        0.1677757054567337,
        0.05970203876495361,
        0.029078327119350433,
        0.15312440693378448,
        0.17533060908317566,
        -0.05191349238157272,
        0.1325436681509018,
        -0.1358821988105774,
        -0.011376027949154377,
        -0.16266068816184998,
        -0.04013625159859657,
        -0.10469292849302292,
        0.09837093949317932,
        -0.15846289694309235,
        -0.09186762571334839,
        0.022640308365225792,
        -0.07050415873527527,
        -0.1770007312297821,
        -0.14810967445373535,
        -0.14507731795310974,
        -0.17038461565971375,
        -0.010373933240771294,
        0.03512375056743622,
        0.104850172996521,
        0.014782305806875229,
        -0.14825251698493958,
        0.18222972750663757,
        0.10808064788579941,
        0.12241049110889435,
        -0.051514919847249985,
        0.018142161890864372,
        -0.02233467809855938,
        -0.0238796379417181,
        -0.17059127986431122,
        -0.17163479328155518,
        0.05291563272476196,
        -0.09204309433698654,
        0.14491653442382812,
        0.015253199264407158,
        -0.12982940673828125,
        0.03773670643568039,
        -0.18723836541175842,
        0.03686867281794548,
        0.05298427492380142,
        -0.0593884140253067,
        0.14342722296714783,
        -0.12911689281463623,
        -0.0468968003988266,
        0.26221147179603577,
        0.15110646188259125,
        -0.11397328227758408,
        0.04379064962267876,
        0.057744916528463364,
        -0.04900955408811569,
        0.04871859401464462,
        0.10735082626342773,
        -0.06375865638256073,
        0.10930724442005157,
        0.16602014005184174,
        0.06013299524784088,
        0.02454875223338604,
        0.06933531165122986,
        -0.1403234452009201,
        -0.1052858829498291,
        -0.0392841175198555,
        -0.046753544360399246,
        0.175819531083107,
        0.04347336292266846,
        0.09373025596141815,
        -0.002532068407163024,
        0.12803003191947937,
        0.018930498510599136,
        0.18025752902030945,
        0.037086982280015945,
        0.020405076444149017,
        -0.11318773776292801,
        0.14263221621513367,
        0.01118507795035839,
        -0.15035653114318848,
        -0.09779898077249527,
        0.16813090443611145,
        -0.18211130797863007,
        -0.05498642474412918,
        0.020801231265068054,
        -0.11021151393651962,
        0.08895902335643768,
        0.17762970924377441,
        -0.09693722426891327,
        0.09527673572301865,
        -0.029454000294208527,
        -0.14787329733371735,
        0.04514675214886665,
        0.05951080098748207,
        0.08137034624814987,
        -0.09414324164390564,
        -0.04594404250383377,
        -0.16702806949615479,
        -0.027756674215197563,
        0.11652681231498718,
        -0.08254697173833847,
        0.1304798573255539,
        -0.13349415361881256,
        0.050622981041669846,
        -0.048648666590452194,
        -0.03227582573890686,
        -0.17916662991046906,
        0.20698095858097076,
        0.1347615271806717,
        0.08735617995262146,
        0.11530528217554092,
        -0.14588358998298645,
        0.07002401351928711,
        -0.07579846680164337,
        -0.10620994120836258,
        0.0808001384139061,
        0.10239376127719879,
        0.17176580429077148,
        -0.053197216242551804,
        0.04187509045004845,
        -0.008495782501995564,
        -0.0672513023018837,
        0.19019374251365662,
        -0.049305278807878494,
        -0.06778839975595474,
        -0.11825677007436752,
        0.10777054727077484,
        0.059481095522642136,
        -0.06971071660518646,
        0.14920209348201752,
        0.11628830432891846,
        -0.14442043006420135,
        0.02166324481368065,
        0.06663641333580017,
        0.024831032380461693,
        0.25027841329574585,
        -0.11591897904872894,
        0.1118260845541954,
        -0.15512427687644958,
        -0.12535494565963745,
        0.010464268736541271,
        -0.044355642050504684,
        0.08023490756750107,
        -0.04384205862879753,
        0.03689961135387421,
        0.09683969616889954,
        -0.06380616128444672,
        -0.13156667351722717,
        0.02577419951558113,
        -0.07365050166845322,
        -0.18931496143341064,
        0.1563442200422287,
        0.1305021345615387,
        -0.12842948734760284,
        0.09255873411893845,
        0.21890704333782196,
        -0.13069069385528564,
        -0.038607630878686905,
        0.17288340628147125,
        -0.12593215703964233,
        -0.12754526734352112,
        0.18276581168174744,
        0.07899355888366699,
        -0.05822695791721344,
        0.09626342356204987,
        0.13904868066310883,
        -0.05295277014374733,
        -0.023663097992539406,
        -0.21162380278110504,
        0.18235908448696136,
        0.09610757231712341,
        0.08945860713720322,
        -0.019075293093919754,
        -0.06628437340259552,
        0.18172398209571838,
        -0.10768790543079376,
        0.04127621650695801,
        0.11659438163042068,
        -0.17759969830513,
        0.13845522701740265,
        -0.1493624746799469,
        0.1961221694946289,
        0.17537416517734528,
        -0.15130959451198578,
        -0.1299949288368225,
        0.19171299040317535,
        0.16729319095611572,
        0.1549803614616394,
        0.11083066463470459,
        0.0001376037107547745,
        0.12691937386989594,
        -0.06903979927301407,
        -0.1604967713356018,
        0.027286347001791,
        0.052099402993917465,
        0.13097220659255981,
        -0.07637806981801987,
        -0.055431075394153595,
        -0.1020452082157135,
        0.09321684390306473,
        -0.05934988334774971,
        0.19281697273254395,
        0.14719456434249878,
        0.04967361316084862,
        0.12162665277719498,
        -0.04101308435201645,
        0.03094111941754818,
        0.11458189785480499,
        -0.07006066292524338,
        0.01295845303684473,
        -0.12628291547298431,
        0.05668153613805771,
        -0.11096290498971939,
        0.08168144524097443,
        -0.028966715559363365,
        0.10181331634521484,
        -0.022120874375104904,
        0.037403762340545654,
        0.06484950333833694,
        0.07214600592851639,
        0.13602885603904724,
        -0.15496456623077393,
        0.16696788370609283,
        0.07022765278816223,
        0.09902358800172806,
        0.027189211919903755,
        0.0672566369175911,
        0.14887100458145142,
        -0.07922697812318802,
        -0.16080839931964874,
        0.17407922446727753,
        0.16138634085655212,
        0.11660673469305038,
        -0.041235968470573425,
        0.0028444689232856035,
        -0.1027945801615715,
        0.06599948555231094,
        -0.1529269516468048,
        -0.06556132435798645,
        -0.08505342155694962,
        -0.0051352414302527905,
        -0.13185004889965057,
        -0.049038637429475784,
        0.03873723745346069,
        0.013860862702131271,
        0.14587228000164032,
        0.089894600212574,
        0.1607642024755478,
        -0.001374285202473402,
        0.061891984194517136,
        -0.15174375474452972,
        -0.052536334842443466,
        -0.16149340569972992,
        0.1159149631857872,
        -0.16130439937114716,
        0.2118908315896988,
        0.030193012207746506,
        -0.13213157653808594,
        0.02689015120267868,
        -0.13656766712665558,
        0.11789017170667648,
        -0.08554116636514664,
        0.1899590641260147,
        -0.14805130660533905,
        -0.24633532762527466,
        0.1911955177783966,
        -0.10665900260210037,
        -0.14054657518863678,
        -0.05247720330953598,
        0.0006751874461770058,
        -0.06104712933301926,
        0.14532293379306793,
        -0.0902920812368393,
        0.16170896589756012,
        0.02709595113992691,
        0.08079155534505844,
        0.10806788504123688,
        -0.18640342354774475,
        -0.13443660736083984,
        -0.004214756656438112,
        -0.010553303174674511,
        0.04518347606062889,
        -0.15098927915096283,
        0.08945484459400177,
        -0.11591271311044693,
        0.09355568885803223,
        0.1919497549533844,
        0.23199059069156647,
        0.03021828643977642,
        0.06002252921462059,
        -0.0400720089673996,
        -0.06808106601238251,
        0.1401277631521225,
        0.000112790112325456,
        0.04697449877858162,
        0.14552129805088043,
        -0.14170090854167938,
        -0.08954769372940063,
        -0.01348812784999609,
        -0.0947628989815712,
        -0.11433105915784836,
        -0.17408332228660583,
        -0.07719209045171738,
        -0.018110694363713264,
        -0.03526509553194046,
        -0.11772790551185608,
        0.06744749844074249,
        -0.11639755219221115,
        -0.07785606384277344,
        -0.014882725663483143,
        0.15624037384986877,
        -0.011119411326944828,
        0.0453927144408226,
        -0.03661883622407913,
        -0.2523309886455536,
        -0.08388062566518784,
        0.005251433700323105,
        0.1302870512008667,
        -0.08088524639606476,
        0.13307662308216095,
        0.11751600354909897,
        -0.1682923287153244,
        0.19048650562763214,
        0.11518454551696777,
        0.13568216562271118,
        0.02682429738342762,
        0.018712302669882774,
        0.18027137219905853,
        0.06461998075246811,
        -0.008097133599221706,
        -0.05166428163647652,
        0.17103159427642822,
        0.06684380024671555,
        0.006187711376696825,
        -0.08134543150663376,
        0.11863403022289276,
        -0.0025667501613497734,
        0.03325246647000313,
        -0.06622106581926346,
        0.023667961359024048,
        -0.08343955874443054,
        0.15465611219406128,
        0.13171467185020447,
        -0.002205097582191229,
        0.007667540572583675,
        -0.004035533405840397,
        -0.016820266842842102,
        -0.10922788828611374,
        0.130228191614151,
        -0.14389203488826752,
        0.20766794681549072,
        -0.03194570168852806,
        -0.059154801070690155,
        -0.15083347260951996,
        0.17248603701591492,
        0.06339982151985168,
        0.11268118023872375,
        -0.059093181043863297,
        0.14048995077610016,
        0.009594135917723179,
        -0.12415136396884918,
        0.15262480080127716,
        -0.054231226444244385,
        -0.12003514170646667,
        -0.10655026882886887,
        0.05439068749547005,
        0.18160367012023926,
        -0.13675186038017273,
        -0.16545692086219788,
        0.12975111603736877,
        0.23471304774284363,
        0.07446413487195969,
        -0.12188655883073807,
        -0.02678300067782402,
        0.06841809302568436,
        -0.13945363461971283,
        -0.12439993023872375,
        -0.11531257629394531,
        0.07820256799459457,
        0.040416888892650604,
        0.1420203447341919,
        0.20698587596416473,
        -0.17475005984306335,
        -0.1836143434047699,
        0.02782999537885189,
        -0.15140347182750702,
        -0.019218280911445618,
        0.14303654432296753,
        -0.20450441539287567,
        0.015399052761495113,
        0.18832004070281982,
        0.13055188953876495,
        -0.008770022541284561,
        0.023622313514351845,
        -0.007295962423086166,
        0.1404687613248825,
        0.025234568864107132,
        -0.1511257141828537,
        0.13504396378993988,
        -0.03699590265750885,
        0.16171376407146454,
        -0.04263817146420479,
        0.17971256375312805,
        -0.040477000176906586,
        0.08298224210739136,
        -0.13128595054149628,
        -0.016827376559376717,
        -0.17768888175487518,
        0.10051088035106659,
        -0.006116014905273914,
        -0.08816210925579071,
        -0.014788718894124031,
        0.08171660453081131,
        -0.010831656865775585,
        -0.0514826700091362,
        0.06840427964925766,
        0.05959625169634819,
        -0.06668519228696823,
        -0.14133881032466888,
        -0.10460091382265091,
        0.13409480452537537,
        -0.16847293078899384,
        0.020144851878285408,
        0.18413379788398743,
        0.16556765139102936,
        -0.1443059742450714,
        0.08203665912151337,
        0.16167572140693665,
        0.09100532531738281,
        0.14803357422351837,
        0.1303509920835495,
        0.036784593015909195,
        -0.06432178616523743,
        0.1369924396276474,
        -0.14907380938529968,
        -0.13743159174919128,
        0.124598428606987,
        -0.11262113600969315,
        -0.13789652287960052,
        0.07994100451469421,
        0.12639890611171722,
        0.16342273354530334,
        -0.15888948738574982,
        -0.19744367897510529,
        -0.028362564742565155,
        0.10466707497835159,
        0.1013035699725151,
        -0.039767585694789886,
        0.0034474569838494062,
        -0.05023251101374626,
        0.06930600106716156,
        -0.10493984818458557,
        -0.06382836401462555,
        0.028647104278206825,
        0.15396854281425476,
        0.01021949015557766,
        0.09551098942756653,
        0.08495023846626282,
        0.04548666253685951,
        -0.1102723479270935,
        0.013422607444226742,
        -0.1488793045282364,
        0.10389717668294907,
        -0.007550857961177826,
        -0.060202836990356445,
        -0.05248303711414337,
        -0.15697458386421204,
        0.09668109565973282,
        -0.07668263465166092,
        -0.1010749340057373,
        0.12708020210266113,
        -0.15603074431419373,
        0.027407368645071983,
        0.0670306384563446,
        -0.16455602645874023,
        -0.21588699519634247,
        0.15277548134326935,
        0.20742179453372955,
        -0.038332149386405945,
        -0.1340329647064209,
        -0.18095266819000244,
        -0.05076518654823303,
        -0.016028771176934242,
        0.11063754558563232,
        -0.08057624101638794,
        0.014188883826136589,
        0.20157712697982788,
        0.053466010838747025,
        -0.12403679639101028,
        0.0399005264043808,
        0.15527629852294922,
        -0.12320703268051147,
        0.1324528157711029,
        -0.028477806597948074,
        0.052477285265922546,
        -0.1936086267232895,
        0.08970151841640472,
        -0.09842745959758759,
        0.11778780072927475,
        0.11237786710262299,
        0.09344204515218735,
        -0.057249899953603745,
        -0.1793009638786316,
        -0.20057494938373566,
        0.09701070189476013,
        0.0378076434135437,
        0.08330509066581726,
        0.17974510788917542,
        -0.09304992109537125,
        -0.04172873869538307,
        0.09160648286342621,
        0.02326948195695877,
        0.040687426924705505,
        -0.034101665019989014,
        -0.03527497127652168,
        -0.11804980784654617,
        0.12972486019134521,
        0.00016853529086802155,
        0.09774543344974518,
        -0.11712493002414703,
        -0.010589382611215115,
        -0.13758331537246704,
        0.05278458446264267,
        0.11789840459823608,
        -0.1347387731075287,
        -0.007194021716713905,
        0.15156297385692596,
        -0.1519499123096466,
        0.07137853652238846,
        -0.03142555058002472,
        0.16302503645420074,
        0.1602449268102646,
        -0.0936952754855156,
        -0.09014920145273209,
        -0.10109183937311172,
        -0.15988285839557648,
        -0.16175907850265503,
        0.0750884935259819,
        -0.006008264143019915,
        0.012178423814475536,
        0.007569018751382828,
        -0.3524315059185028,
        0.1413913071155548,
        0.16628530621528625,
        0.023500781506299973,
        -0.11231109499931335,
        0.1566346287727356,
        0.0019481885246932507,
        -0.07685423642396927,
        0.12480431795120239,
        -0.1493416279554367,
        0.16062727570533752,
        -0.08637741953134537,
        0.09253626316785812,
        0.08247434347867966,
        0.05285197123885155,
        -0.04315036162734032,
        -0.09968569129705429,
        -0.1236511841416359,
        0.07295092195272446,
        -0.13144931197166443,
        -0.041166722774505615,
        0.10930522531270981,
        0.0449955128133297,
        -0.04863109812140465,
        0.08624310791492462,
        0.04805297777056694,
        -0.13668663799762726,
        -0.07802832126617432,
        -0.06556706130504608,
        0.15501363575458527,
        -0.09804826229810715,
        0.07711923122406006,
        0.05804986506700516,
        0.11319857090711594,
        -0.0010359956650063396,
        -0.05736478045582771,
        -0.04533790051937103,
        -0.09462706744670868,
        -0.08175956457853317,
        0.19323231279850006,
        0.09864609688520432,
        0.1454077959060669,
        -0.059577878564596176,
        0.1631220132112503,
        -0.18302328884601593,
        -0.032999906688928604,
        0.07910776138305664,
        0.17737695574760437,
        0.14625200629234314,
        0.09636268764734268,
        -0.048838261514902115,
        0.042392101138830185,
        -0.14498859643936157,
        0.15035152435302734,
        0.017155807465314865,
        0.09158336371183395,
        0.11422597616910934,
        -0.19503150880336761,
        0.10375738888978958,
        -0.10400403290987015,
