{
  "defaults": {},
  "inputs": [
    {
      "name": "DNNinput_ttag__channel",
      "offset": 3.0,
      "scale": 0.16666666666666666
    },
    {
      "name": "DNNinput_ttag__year",
      "offset": 3.0,
      "scale": 0.16666666666666666
    },
    {
      "name": "DNNinput_ttag__met_pt",
      "offset": -0.0,
      "scale": 0.0005
    },
    {
      "name": "DNNinput_ttag__met_phi",
      "offset": 4.0,
      "scale": 0.125
    },
    {
      "name": "DNNinput_ttag__lepton_pt",
      "offset": -0.0,
      "scale": 0.0005
    },
    {
      "name": "DNNinput_ttag__lepton_eta",
      "offset": 5.0,
      "scale": 0.1
    },
    {
      "name": "DNNinput_ttag__lepton_phi",
      "offset": 4.0,
      "scale": 0.125
    },
    {
      "name": "DNNinput_ttag__lepton_reliso",
      "offset": -0.0,
      "scale": 5.0
    },
    {
      "name": "DNNinput_ttag__lepton_charge",
      "offset": 1.0,
      "scale": 0.5
    },
    {
      "name": "DNNinput_ttag__lepton_dr_nextjet",
      "offset": -0.0,
      "scale": 0.16666666666666666
    },
    {
      "name": "DNNinput_ttag__lepton_dphi_nextjet",
      "offset": -0.0,
      "scale": 0.25
    },
    {
      "name": "DNNinput_ttag__lepton_deta_nextjet",
      "offset": -0.0,
      "scale": 0.16666666666666666
    },
    {
      "name": "DNNinput_ttag__lepton_ptrel_nextjet",
      "offset": -0.0,
      "scale": 0.00125
    },
    {
      "name": "DNNinput_ttag__lepton_dr_nextxjet",
      "offset": -0.0,
      "scale": 0.16666666666666666
    },
    {
      "name": "DNNinput_ttag__lepton_dphi_nextxjet",
      "offset": -0.0,
      "scale": 0.25
    },
    {
      "name": "DNNinput_ttag__lepton_deta_nextxjet",
      "offset": -0.0,
      "scale": 0.16666666666666666
    },
    {
      "name": "DNNinput_ttag__lepton_ptrel_nextxjet",
      "offset": -0.0,
      "scale": 0.00125
    },
    {
      "name": "DNNinput_ttag__dphi_lepton_met",
      "offset": -0.0,
      "scale": 0.25
    },
    {
      "name": "DNNinput_ttag__mtw",
      "offset": -0.0,
      "scale": 0.002
    },
    {
      "name": "DNNinput_ttag__pseudotop_m",
      "offset": -0.0,
      "scale": 0.00125
    },
    {
      "name": "DNNinput_ttag__tjet_pt",
      "offset": -0.0,
      "scale": 0.001
    },
    {
      "name": "DNNinput_ttag__tjet_eta",
      "offset": 5.0,
      "scale": 0.1
    },
    {
      "name": "DNNinput_ttag__tjet_phi",
      "offset": 4.0,
      "scale": 0.125
    },
    {
      "name": "DNNinput_ttag__dr_tjet_lepton",
      "offset": -0.0,
      "scale": 0.16666666666666666
    },
    {
      "name": "DNNinput_ttag__dphi_tjet_met",
      "offset": -0.0,
      "scale": 0.25
    },
    {
      "name": "DNNinput_ttag__ptbal_tjet_wboson",
      "offset": 2.0,
      "scale": 0.25
    },
    {
      "name": "DNNinput_ttag__ptbal_tjet_pseudotop",
      "offset": 2.0,
      "scale": 0.25
    },
    {
      "name": "DNNinput_ttag__n_xjets",
      "offset": -0.0,
      "scale": 0.1
    },
    {
      "name": "DNNinput_ttag__ht_xjets",
      "offset": -0.0,
      "scale": 0.001
    },
    {
      "name": "DNNinput_ttag__xjet1pt_pt",
      "offset": -0.0,
      "scale": 0.002
    },
    {
      "name": "DNNinput_ttag__xjet1pt_eta",
      "offset": 5.0,
      "scale": 0.1
    },
    {
      "name": "DNNinput_ttag__xjet1pt_phi",
      "offset": 4.0,
      "scale": 0.125
    },
    {
      "name": "DNNinput_ttag__xjet1pt_deepjet",
      "offset": -0.0,
      "scale": 1.0
    },
    {
      "name": "DNNinput_ttag__mass_xjet1pt_lepton",
      "offset": -0.0,
      "scale": 0.002
    },
    {
      "name": "DNNinput_ttag__dr_xjet1pt_lepton",
      "offset": -0.0,
      "scale": 0.16666666666666666
    },
    {
      "name": "DNNinput_ttag__dr_xjet1pt_tjet",
      "offset": -0.0,
      "scale": 0.16666666666666666
    },
    {
      "name": "DNNinput_ttag__xjet1dj_pt",
      "offset": -0.0,
      "scale": 0.002
    },
    {
      "name": "DNNinput_ttag__xjet1dj_eta",
      "offset": 5.0,
      "scale": 0.1
    },
    {
      "name": "DNNinput_ttag__xjet1dj_phi",
      "offset": 4.0,
      "scale": 0.125
    },
    {
      "name": "DNNinput_ttag__xjet1dj_deepjet",
      "offset": -0.0,
      "scale": 1.0
    },
    {
      "name": "DNNinput_ttag__mass_xjet1dj_lepton",
      "offset": -0.0,
      "scale": 0.002
    },
    {
      "name": "DNNinput_ttag__dr_xjet1dj_lepton",
      "offset": -0.0,
      "scale": 0.16666666666666666
    },
    {
      "name": "DNNinput_ttag__dr_xjet1dj_tjet",
      "offset": -0.0,
      "scale": 0.16666666666666666
    },
    {
      "name": "DNNinput_ttag__ijet1dj_deepjet",
      "offset": -0.0,
      "scale": 1.0
    },
    {
      "name": "DNNinput_ttag__dr_tjet_xjet",
      "offset": -0.0,
      "scale": 0.16666666666666666
    },
    {
      "name": "DNNinput_ttag__tnearestxjet_pt",
      "offset": -0.0,
      "scale": 0.002
    },
    {
      "name": "DNNinput_ttag__tnearestxjet_eta",
      "offset": 5.0,
      "scale": 0.1
    },
    {
      "name": "DNNinput_ttag__tnearestxjet_phi",
      "offset": 4.0,
      "scale": 0.125
    },
    {
      "name": "DNNinput_ttag__tnearestxjet_deepjet",
      "offset": -0.0,
      "scale": 1.0
    }
  ],
  "layers": [
    {
      "activation": "rectified",
      "architecture": "dense",
      "bias": [
        0.025045238435268402,
        0.015675147995352745,
        0.0032004923559725285,
        0.004701271187514067,
        0.01905902661383152,
        -1.556139250169508e-05,
        0.012553597800433636,
        -0.03023652732372284,
        0.012206305749714375,
        0.04132305830717087,
        0.0020822861697524786,
        -0.006168727297335863,
        0.02325446717441082,
        -0.008303448557853699,
        0.0031899961177259684,
        0.0043691652826964855,
        0.04757237061858177,
        0.009856728836894035,
        0.03445315733551979,
        0.007994746789336205,
        -0.015345731750130653,
        0.008755818009376526,
        0.025767114013433456,
        -0.00975738000124693,
        -0.00301715568639338,
        -0.00929801631718874,
        0.06557605415582657,
        -0.0008887489675544202,
        -0.0019562598317861557,
        0.025100048631429672,
        0.012133616954088211,
        0.0,
        0.0022510227281600237,
        -0.011188277043402195,
        -0.04162505269050598,
        -0.008937549777328968,
        0.023258231580257416,
        -0.014213303104043007,
        0.013279926031827927,
        -0.01554233580827713,
        -0.012633873149752617,
        0.015850748866796494,
        0.026863595470786095,
        0.035498131066560745,
        0.0029535747598856688,
        0.03439021855592728,
        -0.011747540906071663,
        -0.004353747703135014,
        0.016575388610363007,
        0.008724850602447987,
        -0.007585599552839994,
        -0.017537230625748634,
        -0.00697488896548748,
        0.013850808143615723,
        0.0020948504097759724,
        0.024372057989239693,
        -0.028457727283239365,
        0.01171707920730114,
        0.03591974079608917,
        0.0481855608522892,
        -0.000415454909671098,
        -0.027374524623155594,
        0.006078443489968777,
        0.01659773662686348,
        0.021602166816592216,
        0.009400865063071251,
        -0.006392066366970539,
        0.013866529799997807,
        -0.012402321211993694,
        0.012513218447566032,
        0.008083400316536427,
        -0.026965666562318802,
        0.013852780684828758,
        -0.0004328963696025312,
        -0.0031957593746483326,
        0.002935358788818121,
        -0.0334889180958271,
        -0.0012727180728688836,
        -0.013557647354900837,
        0.03751321882009506,
        0.025706272572278976,
        0.009041554294526577,
        -0.003878901246935129,
        0.01986897550523281,
        -0.012935657054185867,
        -0.003700848901644349,
        -0.015416674315929413,
        -0.0034242395777255297,
        0.004886005073785782,
        0.000771623570472002,
        -0.0037277848459780216,
        0.012593351304531097,
        -0.009639210999011993,
        0.06791848689317703,
        0.04639727622270584,
        0.013507314026355743,
        -0.003705895971506834,
        0.008573300205171108,
        0.023359175771474838,
        0.0005903459968976676,
        -0.005439505912363529,
        -0.001689820783212781,
        0.024968871846795082,
        0.00022699206601828337,
        0.026767689734697342,
        0.019647741690278053,
        0.03460235148668289,
        0.040813591331243515,
        0.04819691181182861,
        -0.0020362308714538813,
        -0.015817781910300255,
        -0.0006649906281381845,
        0.02734629064798355,
        0.0350884273648262,
        0.0017605505418032408,
        0.027028653770685196,
        0.06106770783662796,
        -0.012763180769979954,
        -0.0026759004686027765,
        0.004150080028921366,
        0.0052627092227339745,
        0.044894568622112274,
        -0.0035183660220354795,
        -0.016309188678860664,
        -0.017749346792697906,
        0.005146966781467199,
        0.020063621923327446,
        0.027914918959140778
      ],
      "weights": [
        0.16202549636363983,
        0.1470329761505127,
        -0.29144853353500366,
        -0.05733620747923851,
        0.22775474190711975,
        -0.1377626359462738,
        0.10173279047012329,
        -0.052366700023412704,
        -0.024611137807369232,
        -0.15014652907848358,
        0.04905826225876808,
        -0.12025602161884308,
        -0.0966445580124855,
        -0.031686246395111084,
        -0.1771862953901291,
        -0.19459879398345947,
        0.038168687373399734,
        0.07865816354751587,
        -0.08196574449539185,
        0.1536727100610733,
        0.1276969164609909,
        0.08014486730098724,
        -0.18170936405658722,
        -0.12657584249973297,
        0.09502233564853668,
        0.0981965884566307,
        0.14582552015781403,
        0.1666768342256546,
        0.05749351903796196,
        -0.17585699260234833,
        0.029115449637174606,
        0.020492039620876312,
        -0.08717865496873856,
        -0.14699502289295197,
        -0.03985423222184181,
        0.11098580807447433,
        -0.21278612315654755,
        -0.0552181638777256,
        -0.13988453149795532,
        0.007409300655126572,
        -0.1265590488910675,
        -0.1738082617521286,
        0.05733155831694603,
        0.14304448664188385,
        0.18038466572761536,
        -0.008103855885565281,
        -0.09409169107675552,
        0.1077003926038742,
        0.13005439937114716,
        -0.16424795985221863,
        0.014989250339567661,
        -0.1480824053287506,
        0.1535392850637436,
        -0.23820431530475616,
        0.04666239023208618,
        -0.04338027909398079,
        0.01489363331347704,
        -0.06254005432128906,
        0.16751280426979065,
        0.03072100505232811,
        0.1358424723148346,
        0.12217368930578232,
        0.1839829385280609,
        -0.1064816415309906,
        -0.1261085569858551,
        0.11267177015542984,
        -0.0428299680352211,
        -0.1925552934408188,
        -0.09985964000225067,
        -0.1111636608839035,
        0.06314222514629364,
        -0.13127246499061584,
        0.04351191222667694,
        0.05212591588497162,
        -0.10264138877391815,
        0.02066800929605961,
        0.1638626754283905,
        0.12961968779563904,
        0.10105690360069275,
        -0.011993670836091042,
        0.11626806110143661,
        -0.17935456335544586,
        -0.15766194462776184,
        0.09232878684997559,
        0.0635441392660141,
        -0.13981491327285767,
        0.1395116001367569,
        -0.056222911924123764,
        -0.11634089052677155,
        0.10198931396007538,
        -0.03858259320259094,
        -0.1560862511396408,
        0.0157784353941679,
        0.05123124271631241,
        0.1493263989686966,
        0.13295593857765198,
        -0.001807051245123148,
        0.10189686715602875,
        0.10732124745845795,
        0.05523465573787689,
        0.010999648831784725,
        0.026548804715275764,
        -0.059736307710409164,
        0.16382209956645966,
        0.10738537460565567,
        -0.01744818314909935,
        -0.12989681959152222,
        0.17927893996238708,
        -0.08058232069015503,
        0.057730596512556076,
        -0.02521074004471302,
        0.1526670902967453,
        0.0939863845705986,
        -0.0018280426738783717,
        -0.21992060542106628,
        0.049852706491947174,
        0.005346307996660471,
        -0.08910670131444931,
        0.15386633574962616,
        0.04171815514564514,
        -0.1056315153837204,
        -0.1629423201084137,
        0.11933209002017975,
        -0.05967928469181061,
        -0.15165795385837555,
        0.13744305074214935,
        -0.08166872709989548,
        0.048154447227716446,
        0.13482896983623505,
        -0.013244815170764923,
        0.1980505883693695,
        0.07261194288730621,
        0.14785602688789368,
        -0.04432016238570213,
        -0.0661650225520134,
        0.1740916669368744,
        -0.1142553761601448,
        0.1909731775522232,
        -0.024872073903679848,
        0.07272236794233322,
        0.003912845626473427,
        -0.1333802193403244,
        -0.08899658918380737,
        -0.03831132501363754,
        0.08307085931301117,
        0.10142824798822403,
        -0.10912686586380005,
        -0.11481160670518875,
        0.08821447938680649,
        -0.018520226702094078,
        0.05207034572958946,
        0.14487887918949127,
        0.09701725095510483,
        -0.11624029278755188,
        0.019409261643886566,
        -0.029372071847319603,
        -0.13484446704387665,
        0.10475572943687439,
        0.1071692407131195,
        -0.21720872819423676,
        0.14807778596878052,
        0.12011178582906723,
        0.012175330892205238,
        0.09390010684728622,
        -0.15868350863456726,
        0.03811730071902275,
        -0.003446062095463276,
        -0.1729266196489334,
        -0.1364767849445343,
        -0.14069481194019318,
        -0.10358399152755737,
        -0.11681757867336273,
        0.10989260673522949,
        0.009993629530072212,
        0.161813884973526,
        -0.06665797531604767,
        0.12867391109466553,
        0.176000714302063,
        -0.08274953067302704,
        -0.0715402290225029,
        -0.02294061705470085,
        -0.16026978194713593,
        -0.02709379605948925,
        -0.009855552576482296,
        -0.14460116624832153,
        -0.14101926982402802,
        0.10485713928937912,
        0.07260630279779434,
        -0.14995484054088593,
        0.08293101191520691,
        -0.025093160569667816,
        0.10893050581216812,
        0.23144125938415527,
        -0.049540676176548004,
        0.12319638580083847,
        -0.17871010303497314,
        0.17071586847305298,
        -0.08396773785352707,
        0.1297212839126587,
        -0.17577381432056427,
        -0.19376713037490845,
        -0.10415191948413849,
        0.021279210224747658,
        0.0336400642991066,
        0.10772491246461868,
        0.01709866337478161,
        -0.14337016642093658,
        -0.09216737002134323,
        -0.06792361289262772,
        0.006174908950924873,
        0.014308599755167961,
        0.015542526729404926,
        -0.06628794223070145,
        0.13045579195022583,
        0.04995499178767204,
        -0.09119129180908203,
        0.08027319610118866,
        0.09962261468172073,
        -0.12747074663639069,
        0.16334211826324463,
        0.10247115790843964,
        -0.007733224891126156,
        0.08820705115795135,
        0.0640830472111702,
        0.042584724724292755,
        0.07261313498020172,
        -0.14046382904052734,
        0.027263902127742767,
        0.04479623958468437,
        0.10678449273109436,
        -0.035581205040216446,
        -0.014457092620432377,
        0.14127667248249054,
        -0.12232381850481033,
        0.15124531090259552,
        0.04596369341015816,
        0.00389460870064795,
        0.0029713145922869444,
        0.06840157508850098,
        -0.11650144308805466,
        -0.016111042350530624,
        -0.019446492195129395,
        -0.020644551143050194,
        0.06965342164039612,
        0.10476469993591309,
        -0.0083999652415514,
        -0.07110600918531418,
        -0.026070943102240562,
        0.12721987068653107,
        0.12711665034294128,
        -0.01987329125404358,
        -0.18074622750282288,
        -0.17894141376018524,
        -0.032803621143102646,
        0.1098279282450676,
        -0.12350974231958389,
        -0.030292795971035957,
        -0.08012109994888306,
        -0.1268726885318756,
        -0.1238010823726654,
        0.14519114792346954,
        -0.06791625171899796,
        -0.12166278809309006,
        0.02214582823216915,
        -0.14753246307373047,
        -0.09544211626052856,
        -0.10087918490171432,
        -0.0050921449437737465,
        0.13017186522483826,
        -0.13384176790714264,
        -0.10100402683019638,
        -0.05214918777346611,
        -0.08744218945503235,
        -0.04175299033522606,
        -0.17083534598350525,
        -0.09638228267431259,
        -0.14893898367881775,
        -0.024663668125867844,
        0.0016685856971889734,
        -0.02090316452085972,
        -0.11150054633617401,
        0.05586929991841316,
        0.0023289485834538937,
        0.17220880091190338,
        -0.14783687889575958,
        0.03218894824385643,
        -0.0332510843873024,
        -0.11508303880691528,
        0.3659451901912689,
        0.14074945449829102,
        -0.14392901957035065,
        -0.0728784054517746,
        -0.05418991297483444,
        0.12072170525789261,
        0.14677897095680237,
        -0.011543861590325832,
        0.12163573503494263,
        0.12318409234285355,
        0.12286754697561264,
        0.13428623974323273,
        -0.08957701921463013,
        0.21720461547374725,
        0.08689510822296143,
        0.1039460077881813,
        -0.1121840700507164,
        -0.11059993505477905,
        0.2501910924911499,
        0.17012768983840942,
        0.03406422957777977,
        0.16606520116329193,
        0.013783815316855907,
        0.005805342923849821,
        0.20479002594947815,
        0.08840662986040115,
        -0.06724419444799423,
        -0.05572228133678436,
        -0.061833079904317856,
        0.09433061629533768,
        0.023058488965034485,
        -0.07991134375333786,
        -0.045420091599226,
        0.015310958959162235,
        -0.09440191090106964,
        -0.15869416296482086,
        -0.10138361155986786,
        0.16923679411411285,
        -0.18777470290660858,
        0.2013859897851944,
        -0.0712401494383812,
        -0.13400976359844208,
        -0.08759067207574844,
        0.17340897023677826,
        -0.03596380725502968,
        -0.05365729704499245,
        0.21118901669979095,
        0.06998737901449203,
        -0.11712393164634705,
        -0.033935658633708954,
        0.13062159717082977,
        0.06729752570390701,
        -0.03472738713026047,
        0.09285277873277664,
        0.07181338220834732,
        0.06469042599201202,
        -0.1519956737756729,
        0.17092065513134003,
        0.0543343722820282,
        0.13380517065525055,
        0.13240647315979004,
        -0.04622181877493858,
        0.04540852829813957,
        0.09412208944559097,
        0.005378748755902052,
        0.11119132488965988,
        -0.06977816671133041,
        0.1097484827041626,
        0.14299996197223663,
        0.13270139694213867,
        0.014683698303997517,
        0.0478060282766819,
        -0.11920275539159775,
        -0.0502767376601696,
        0.12396501004695892,
        0.10391544550657272,
        0.12735095620155334,
        -0.06765749305486679,
        0.042719971388578415,
        0.11439888179302216,
        -0.033771902322769165,
        0.08311199396848679,
        0.027364496141672134,
        0.10774986445903778,
        0.1426931470632553,
        -0.03262931481003761,
        -0.1695432811975479,
        -0.07477632164955139,
        0.21547497808933258,
        0.11143917590379715,
        -0.0766647458076477,
        0.026650166139006615,
        0.16264615952968597,
        -0.014077318832278252,
        -0.14571352303028107,
        0.3526092767715454,
        0.10405580699443817,
        -0.13279134035110474,
        0.26331812143325806,
        0.06271271407604218,
        0.17224077880382538,
        0.14791163802146912,
        0.1427907645702362,
        0.1614215224981308,
        0.1048523560166359,
        0.04857327789068222,
        0.08733216673135757,
        -0.06187481805682182,
        -0.09558645635843277,
        0.11295093595981598,
        0.06346167623996735,
        0.04870058223605156,
        0.1692691296339035,
        -0.028747495263814926,
        0.04387788102030754,
        0.06525889784097672,
        0.04845698922872543,
        0.0826304629445076,
        -0.09283752739429474,
        -0.08202926814556122,
        0.07293424755334854,
        -0.07977186143398285,
        -0.07571034878492355,
        -0.15023602545261383,
        0.1358976513147354,
        0.15069152414798737,
        0.02071310393512249,
        -0.04857523366808891,
        0.0038754770066589117,
        0.05474884435534477,
        -0.05556737259030342,
        0.058180421590805054,
        0.08595996350049973,
        -0.1372947245836258,
        -0.09103020280599594,
        -0.052338555455207825,
        0.13863112032413483,
        -0.06669245660305023,
        0.0577012300491333,
        -0.011498020961880684,
        0.05942698195576668,
        -0.1535377949476242,
        0.005005696788430214,
        0.20664609968662262,
        -0.06131913512945175,
        -0.2659854590892792,
        -0.17871788144111633,
        0.12161272019147873,
        -0.02995646931231022,
        0.046604108065366745,
        0.041212741285562515,
        0.10601597279310226,
        0.12836682796478271,
        -0.07307006418704987,
        -0.011371745727956295,
        -0.07694645971059799,
        0.12145599722862244,
        -0.18011029064655304,
        -0.06937569379806519,
        0.015896087512373924,
        0.008417786099016666,
        -0.0721449926495552,
        -0.031866539269685745,
        -0.032649606466293335,
        0.10581152886152267,
        0.1317717581987381,
        -0.1351650208234787,
        -0.13758441805839539,
        -0.10894661396741867,
        -0.1280605047941208,
        0.13310691714286804,
        0.14750589430332184,
        -0.18255111575126648,
        0.12367182224988937,
        0.11456449329853058,
        0.05570239946246147,
        0.11888433992862701,
        0.03979386389255524,
        -0.003618683433160186,
        0.23771005868911743,
        -0.019875621423125267,
        0.10907237976789474,
        0.030947284772992134,
        -0.002842145739123225,
        0.1347278505563736,
        0.17264297604560852,
        -0.32569748163223267,
        -0.21047279238700867,
        0.040539275854825974,
        -0.1503961682319641,
        -0.0505131296813488,
        -0.16529133915901184,
        -0.01902204565703869,
        -0.002914962824434042,
        -0.20821188390254974,
        -0.0196825098246336,
        0.18626216053962708,
        -0.10130588710308075,
        -0.08280109614133835,
        -0.14905481040477753,
        -0.1251544952392578,
        0.19620195031166077,
        -0.12638811767101288,
        0.13692724704742432,
        -0.134185791015625,
        0.05593164265155792,
        0.4122580289840698,
        -0.14433720707893372,
        -0.10688064247369766,
        -0.13176345825195312,
        -0.03852615877985954,
        -0.0379442498087883,
        -0.1130305603146553,
        -0.02812071330845356,
        -0.13717520236968994,
        0.13595041632652283,
        -0.0038103440310806036,
        0.11960076540708542,
        -0.06415201723575592,
        0.07645967602729797,
        0.1606941521167755,
        0.01649588719010353,
        -0.09345555305480957,
        -0.08283380419015884,
        -0.06136087328195572,
        -0.04980958253145218,
        0.016346093267202377,
        0.14802531898021698,
        0.1991034299135208,
        -0.13724729418754578,
        -0.18071451783180237,
        -0.334763765335083,
        0.15216706693172455,
        -0.13313482701778412,
        -0.06168728694319725,
        0.043100882321596146,
        0.13060592114925385,
        0.13433203101158142,
        -0.19941836595535278,
        0.10780881345272064,
        0.10204368084669113,
        -0.1648913323879242,
        0.0369337722659111,
        -0.0007046945975162089,
        0.08343148231506348,
        0.018985910341143608,
        0.1837894469499588,
        -0.23847196996212006,
        0.1086905300617218,
        -0.011255568824708462,
        0.046368785202503204,
        0.16145840287208557,
        0.10197737067937851,
        0.038881585001945496,
        0.03417954593896866,
        0.3257719874382019,
        -0.04691815376281738,
        -0.09568596631288528,
        -0.2126573622226715,
        -0.1766626238822937,
        -0.05244689807295799,
        0.03343261778354645,
        -0.20221160352230072,
        -0.05232952907681465,
        0.1717359870672226,
        -0.14762185513973236,
        -0.03980949893593788,
        -0.13997915387153625,
        0.05420467257499695,
        0.10500506311655045,
        0.0399140827357769,
        0.17088165879249573,
        0.018736332654953003,
        0.03447578847408295,
        -0.11017808318138123,
        0.14836552739143372,
        -0.05153893306851387,
        -0.15838193893432617,
        0.006382329389452934,
        -0.026578139513731003,
        0.024954628199338913,
        0.17014913260936737,
        0.14180783927440643,
        -0.09020565450191498,
        0.05697772279381752,
        0.1453598439693451,
        -0.16545604169368744,
        -0.1111343502998352,
        -0.16787169873714447,
        -0.0842067077755928,
        -0.07594005018472672,
        -0.06291098147630692,
        0.11206627637147903,
        0.09925750643014908,
        0.05553765594959259,
        -0.019010061398148537,
        0.10670460015535355,
        -0.17831102013587952,
        0.10273542255163193,
        -0.10158181190490723,
        -0.011998055502772331,
        -0.011454715393483639,
        -0.023912375792860985,
        -0.07957971841096878,
        0.014181466773152351,
        -0.0797821655869484,
        -0.015115207061171532,
        0.051923688501119614,
        0.14777545630931854,
        -0.13646724820137024,
        -0.15350519120693207,
        -0.036161843687295914,
        -0.06356753408908844,
        -0.10275629162788391,
        -0.04709337651729584,
        0.011155353859066963,
        0.16966097056865692,
        0.023496728390455246,
        0.0791793167591095,
        0.06275556236505508,
        0.05950630083680153,
        -0.009909105487167835,
        0.10756275057792664,
        0.2128302901983261,
        -0.14379765093326569,
        0.16823874413967133,
        -0.08823719620704651,
        0.1279917061328888,
        0.06971990317106247,
        0.11711637675762177,
        -0.10832109302282333,
        -0.02604016661643982,
        -0.09636921435594559,
        0.014012894593179226,
        -0.11716651171445847,
        0.08720435202121735,
        0.0256313718855381,
        0.015476659871637821,
        -0.1607057750225067,
        0.0555572547018528,
        0.1539926528930664,
        0.1463514268398285,
        0.03981371223926544,
        -0.27944082021713257,
        0.03835083171725273,
        -0.04505586251616478,
        -0.12549182772636414,
        0.21201381087303162,
        -0.08848515897989273,
        -0.02979179471731186,
        0.11517637223005295,
        -0.06339386850595474,
        -0.07814968377351761,
        0.38444986939430237,
        0.08262276649475098,
        0.12850739061832428,
        -0.05304039642214775,
        -0.14442986249923706,
        -0.17506760358810425,
        -0.011827746406197548,
        0.1476254165172577,
        -0.19169799983501434,
        -0.1720598191022873,
        -0.1698857694864273,
        0.1308632344007492,
        -0.19530951976776123,
        -0.08575864136219025,
        0.18531714379787445,
        -0.012239898554980755,
        -0.07152528315782547,
        0.0242253877222538,
        0.0026744280476123095,
        0.16235414147377014,
        0.19827230274677277,
        0.11700671911239624,
        -0.08381897956132889,
        -0.19305618107318878,
        -0.28987616300582886,
        -0.055117856711149216,
        0.08446116745471954,
        0.05426376685500145,
        0.031158659607172012,
        -0.0024983847979456186,
        -0.14540255069732666,
        0.1370694786310196,
        -0.033828847110271454,
        -0.08311455696821213,
        0.0936620756983757,
        -0.16015556454658508,
        -0.1397688090801239,
        0.061341866850852966,
        -0.09154706448316574,
        0.24494516849517822,
        -0.08654708415269852,
        -0.081260547041893,
        0.13831178843975067,
        0.15593385696411133,
        0.06756053864955902,
        -0.13843487203121185,
        0.1682090312242508,
        -0.03836902230978012,
        0.15346039831638336,
        0.1492345780134201,
        -0.061737384647130966,
        0.031852178275585175,
        0.02646520547568798,
        -0.1183617040514946,
        0.08726796507835388,
        0.07192869484424591,
        -0.05885377898812294,
        -0.07737302780151367,
        0.1274888664484024,
        -0.10482031852006912,
        0.1441429704427719,
        -0.13408488035202026,
        0.002717084949836135,
        -0.020710667595267296,
        0.03501042351126671,
        0.17681452631950378,
        0.005857786629348993,
        -0.08797260373830795,
        -0.06270183622837067,
        0.11826347559690475,
        -0.028323637321591377,
        -0.06779351085424423,
        -0.14978434145450592,
        -0.0014148915652185678,
        -0.14898255467414856,
        0.06824462860822678,
        0.1394633948802948,
        0.0030332442838698626,
        0.1069992333650589,
        0.1605015993118286,
        0.03827444836497307,
        0.19494009017944336,
        -0.038391806185245514,
        -0.01595732942223549,
        0.11043202131986618,
        0.07216717302799225,
        -0.009115652181208134,
        -0.17863309383392334,
        0.12247208505868912,
        -0.16584862768650055,
        -0.1042037308216095,
        0.002430612687021494,
        0.15218593180179596,
        -0.1554272174835205,
        0.07303259521722794,
        0.09568877518177032,
        0.05774322897195816,
        -0.1798580139875412,
        -0.002746240235865116,
        0.16571030020713806,
        0.1399829238653183,
        0.021196745336055756,
        0.17626498639583588,
        0.0014208626234903932,
        -0.07987131178379059,
        0.012327881529927254,
        0.11203865706920624,
        -0.0929916501045227,
        -0.04516414925456047,
        0.12031177431344986,
        -0.1398766040802002,
        -0.047363147139549255,
        0.0038637190591543913,
        0.07980935275554657,
        0.08100034296512604,
        0.0975136011838913,
        -0.11111003905534744,
        -0.08582901209592819,
        -0.07019636780023575,
        0.16812269389629364,
        -0.039815399795770645,
        -0.04689615219831467,
        -0.16788490116596222,
        0.0017942470731213689,
        -0.008289439603686333,
        0.014197541400790215,
        0.003281532321125269,
        0.06910812109708786,
        -0.1645643711090088,
        0.12121745198965073,
        -0.32114261388778687,
        0.14741623401641846,
        0.07195799797773361,
        -0.011533012613654137,
        -0.13252022862434387,
        -0.08622630685567856,
        0.04176337644457817,
        -0.15559092164039612,
        -0.05583105981349945,
        -0.23252981901168823,
        -0.13233041763305664,
        0.0711699053645134,
        -0.10123097151517868,
        0.10510075837373734,
        -0.05172695219516754,
        -0.13445985317230225,
        0.12824071943759918,
        -0.1921190619468689,
        0.12103517353534698,
        -0.04907222464680672,
        0.04350866377353668,
        0.01536050159484148,
        -0.13288351893424988,
        -0.0740700289607048,
        0.08643554896116257,
        0.00754769379273057,
        0.008370221592485905,
        -0.0042885770089924335,
        -0.13512960076332092,
        0.08404256403446198,
        0.0003131385601591319,
        0.023290105164051056,
        0.017738748341798782,
        -0.035012271255254745,
        -0.031213272362947464,
        0.031242357566952705,
        -0.09680981934070587,
        0.17598433792591095,
        -0.02310810424387455,
        0.23473256826400757,
        0.1151842325925827,
        0.15795259177684784,
        -0.04813523218035698,
        0.05303793027997017,
        -0.04199467599391937,
        0.12454348057508469,
        -0.24470146000385284,
        -0.12736210227012634,
        -0.03275530785322189,
        0.12617641687393188,
        0.09936415404081345,
        -0.1426163762807846,
        -0.15446847677230835,
        -0.28446653485298157,
        -0.1497190296649933,
        0.19211448729038239,
        0.03491538017988205,
        -0.03364299237728119,
        -0.03053406998515129,
        0.12471266835927963,
        0.06551522016525269,
        -0.11362988501787186,
        0.1068255603313446,
        0.03526066243648529,
        0.16560213267803192,
        -0.06537272781133652,
        0.1337369978427887,
        0.08201652020215988,
        0.08596089482307434,
        -0.13697072863578796,
        0.10123908519744873,
        0.19572652876377106,
        -0.039818182587623596,
        0.16422943770885468,
        0.11286832392215729,
        0.06547856330871582,
        0.031782858073711395,
        -0.1672181487083435,
        0.01858266443014145,
        0.10902100801467896,
        -0.05830566585063934,
        0.039863310754299164,
        -0.017581379041075706,
        -0.14590375125408173,
        -0.019810667261481285,
        0.17284423112869263,
        -0.009905031882226467,
        0.07528772205114365,
        0.10643947869539261,
        -0.053921665996313095,
        0.01686529815196991,
        -0.007183257024735212,
        -0.14734996855258942,
        -0.10709081590175629,
        0.14505372941493988,
        -0.09834494441747665,
        -0.0645582303404808,
        0.056213267147541046,
        0.2596244812011719,
        0.11558900773525238,
        0.16571499407291412,
        -0.0613895021378994,
        -0.08904900401830673,
        -0.055754274129867554,
        0.04733633995056152,
        -0.020236911252141,
        -0.1271917223930359,
        0.11230152100324631,
        0.12600265443325043,
        0.13910330832004547,
        -0.03432966396212578,
        -0.05489407852292061,
        0.14665235579013824,
        -0.1012750118970871,
        0.15302294492721558,
        0.06136610731482506,
        0.045323628932237625,
        -0.16099390387535095,
        0.09400898218154907,
        0.026244185864925385,
        -0.09199807792901993,
        0.05688663572072983,
        -0.19938017427921295,
        -0.0003856719413306564,
        -0.13366097211837769,
        0.05384071543812752,
        0.08067991584539413,
        -0.03462104871869087,
        0.1583603173494339,
        -0.09153717756271362,
        -0.01331077329814434,
        -0.04391341656446457,
        -0.1300632208585739,
        0.08149781078100204,
        0.0442035049200058,
        -0.013245048001408577,
        -0.08554509282112122,
        0.17806090414524078,
        -0.024128617718815804,
        -0.06120032072067261,
        -0.23279184103012085,
        0.03609016537666321,
        0.05015012249350548,
        0.13456770777702332,
        -0.3999977111816406,
        -0.27964216470718384,
        0.20393258333206177,
        0.07913342118263245,
        0.08364919573068619,
        0.1250806748867035,
        0.006744616664946079,
        -0.3234650194644928,
        -0.013723715208470821,
        0.020417045801877975,
        0.003857752773910761,
        0.17864438891410828,
        -0.11298508197069168,
        -0.08779451996088028,
        -0.11470817774534225,
        0.16024036705493927,
        0.04079321771860123,
        -0.19309565424919128,
        0.20346039533615112,
        -0.08268370479345322,
        -0.30724912881851196,
        0.09379162639379501,
        0.12581408023834229,
        -0.036636728793382645,
        0.0763961672782898,
        0.11346489936113358,
        0.13785910606384277,
        -0.009957368485629559,
        0.041237302124500275,
        -0.0807294175028801,
        0.08832453936338425,
        -0.02261681668460369,
        0.13478176295757294,
        0.1329098492860794,
        -0.06851379573345184,
        -0.07637270539999008,
        0.1374702751636505,
        -0.02645973488688469,
        -0.05079623684287071,
        0.056116655468940735,
        0.10219404846429825,
        -0.12358379364013672,
        -0.03494995832443237,
        0.06346462666988373,
        0.0726032480597496,
        0.2959398627281189,
        0.14314937591552734,
        0.02216021716594696,
        0.19302089512348175,
        0.1289292722940445,
        0.17294730246067047,
        -0.09451959282159805,
        0.1457458734512329,
        -0.09649831056594849,
        -0.09482982009649277,
        0.0031341430731117725,
        0.11896851658821106,
        0.11982976645231247,
        0.1797919124364853,
        -0.02522442303597927,
        -0.1077812984585762,
        0.025747589766979218,
        -0.155192568898201,
        0.07594337314367294,
        0.2216644138097763,
        -0.043180663138628006,
        0.06291697174310684,
        -0.04893987253308296,
        -0.08303876966238022,
        0.22369912266731262,
        -0.1398019790649414,
        -0.030275732278823853,
        -0.11368025094270706,
        0.0795813500881195,
        0.1575404852628708,
        -0.046184103935956955,
        -0.11087460070848465,
        0.02204260416328907,
        0.09358096122741699,
        0.1580386459827423,
        0.014211133122444153,
        0.08110107481479645,
        -0.004630944691598415,
        -0.1478184014558792,
        0.1770968735218048,
        0.04243114963173866,
        0.019899044185876846,
        0.10365813970565796,
        -0.011286037042737007,
        -0.06372960656881332,
        0.15427377820014954,
        0.10622099041938782,
        -0.09532395750284195,
        -0.16453421115875244,
        0.15001267194747925,
        0.1820288896560669,
        0.16176959872245789,
        -0.11571387201547623,
        0.13369010388851166,
        -0.19054070115089417,
        -0.06419429183006287,
        0.0846240296959877,
        0.11712135374546051,
        0.07090211659669876,
        -0.18172650039196014,
        0.0032962188124656677,
        0.13223324716091156,
        0.009277834556996822,
        0.15382914245128632,
        0.019047174602746964,
        -0.03204941004514694,
        0.08636249601840973,
        -0.011018378660082817,
        0.1726650893688202,
        0.019222037866711617,
        0.1146528348326683,
        0.03340301662683487,
        0.19550615549087524,
        -0.4412238597869873,
        0.06565544754266739,
        0.08852270990610123,
        -0.07730284333229065,
        -0.012642954476177692,
        0.10766222327947617,
        -0.12549661099910736,
        0.037491463124752045,
        0.10920516401529312,
        0.05852346494793892,
        -0.07132820039987564,
        -0.05543145164847374,
        -0.016712864860892296,
        0.13731861114501953,
        -0.17262135446071625,
        -0.03538452088832855,
        0.02959667518734932,
        0.10986893624067307,
        0.06827330589294434,
        0.010398001410067081,
        -0.038678091019392014,
        -0.04596026986837387,
        -0.14049986004829407,
        0.13247181475162506,
        0.10813171416521072,
        0.2116137593984604,
        0.07474816590547562,
        0.12057878077030182,
        0.04561904817819595,
        0.008219697512686253,
        0.08862624317407608,
        -0.009277800098061562,
        0.030757097527384758,
        0.013014662079513073,
        -0.07770857959985733,
        -0.0914168581366539,
        -0.04181511327624321,
        0.18228031694889069,
        0.02517378143966198,
        -0.0731545090675354,
        0.001389913959428668,
        0.15224605798721313,
        -0.14938849210739136,
        -0.12609606981277466,
        -0.11204926669597626,
        -0.08325091749429703,
        0.13179130852222443,
        -0.1390567123889923,
        0.12901660799980164,
        0.3256509602069855,
        0.03340255096554756,
        0.10767505317926407,
        0.0556393638253212,
        0.012067473493516445,
        -0.11001145094633102,
        -0.08778249472379684,
        -0.02419406734406948,
        -0.04481002315878868,
        0.041363004595041275,
        -0.05249369889497757,
        0.02222488820552826,
        0.03148932009935379,
        0.1744874119758606,
        0.12294398248195648,
        0.10400271415710449,
        0.20340844988822937,
        -0.10998547077178955,
        -0.06971822679042816,
        -0.13969533145427704,
        0.17271557450294495,
        0.15731506049633026,
        -0.1083606481552124,
        -0.10823926329612732,
        0.08380775898694992,
        -0.09761273860931396,
        0.09940999746322632,
        0.03471806272864342,
        0.3056749999523163,
        -0.1740121841430664,
        -0.15780791640281677,
        -0.13331523537635803,
        -0.17341257631778717,
        -0.020444177091121674,
        -0.06016669049859047,
        0.018161343410611153,
        0.018335802480578423,
        0.12197110801935196,
        0.012054121121764183,
        0.11941712349653244,
        0.20889011025428772,
        0.028617359697818756,
        -0.15764197707176208,
        0.16284017264842987,
        0.08543822914361954,
        0.1468283087015152,
        -0.05653877556324005,
        -0.18423111736774445,
        -0.09060107916593552,
        0.40109699964523315,
        0.017219293862581253,
        0.1779530793428421,
        -0.0649234727025032,
        -0.03855283185839653,
        0.18390947580337524,
        -0.09838569164276123,
        0.08623144030570984,
        0.09576448053121567,
        -0.03755394369363785,
        0.08890721946954727,
        0.025287501513957977,
        -0.14484678208827972,
        0.06561319530010223,
        -0.08667237311601639,
        0.08124843239784241,
        -0.14238636195659637,
        0.0903666764497757,
        0.023288438096642494,
        0.12614062428474426,
        0.17478880286216736,
        0.1079375222325325,
        0.08232574909925461,
        -0.11782175302505493,
        0.010958480648696423,
        0.08894331753253937,
        -0.056847505271434784,
        -0.013029360212385654,
        0.005467535927891731,
        0.16442091763019562,
        -0.09823133796453476,
        -0.07575254887342453,
        -0.06430143117904663,
        0.0017375409370288253,
        0.14209523797035217,
        0.04316820576786995,
        -0.0362708605825901,
        0.12837402522563934,
        -0.07548809051513672,
        0.06156675145030022,
        -0.14711876213550568,
        0.18924403190612793,
        -0.08916256576776505,
        0.015787672251462936,
        -0.1624477058649063,
        0.10746215283870697,
        -0.01941732130944729,
        -0.1753167062997818,
        0.0027898030821233988,
        -0.29524141550064087,
        -0.1953151673078537,
        0.06658852100372314,
        -0.0809730514883995,
        -0.11128166317939758,
        -0.10379884392023087,
        -0.1718958169221878,
        0.11354216188192368,
        0.12313611060380936,
        0.05632288381457329,
        0.13093355298042297,
        0.17611192166805267,
        0.08098988234996796,
        -0.050527095794677734,
        0.12614405155181885,
        0.07149770110845566,
        0.15030913054943085,
        -0.06272713840007782,
        -0.14052517712116241,
        0.1221647784113884,
        -0.17490580677986145,
        0.11504344642162323,
        -0.05635189637541771,
        -0.10311710089445114,
        -0.07412432879209518,
        0.17369602620601654,
        0.0556478425860405,
        0.058940161019563675,
        -0.2396659106016159,
        0.1214156448841095,
        0.18744255602359772,
        0.020014004781842232,
        -0.021748289465904236,
        0.14400309324264526,
        0.13776589930057526,
        0.04844360053539276,
        -0.13951659202575684,
        -0.061298247426748276,
        0.07749007642269135,
        -0.1489335596561432,
        0.04218098148703575,
        -0.06872091442346573,
        0.007110273465514183,
        0.04013065621256828,
        0.14952608942985535,
        0.13718360662460327,
        -0.08333674818277359,
        -0.07430894672870636,
        -0.12382961809635162,
        -0.05668149143457413,
        0.011613340117037296,
        -0.04435275122523308,
        0.08210485428571701,
        -0.0012907745549455285,
        0.11692489683628082,
        0.18790683150291443,
        0.08300729095935822,
        -0.007745640352368355,
        0.1112438216805458,
        0.07237102091312408,
        0.11447789520025253,
        -0.04634777456521988,
        -0.05158885195851326,
        0.15928958356380463,
        -0.1526176929473877,
        0.192475825548172,
        -0.13945679366588593,
        -0.13439543545246124,
        0.01721961796283722,
        0.029618412256240845,
        0.07279843091964722,
        -0.16518549621105194,
        0.027784768491983414,
        0.11619678139686584,
        0.14817358553409576,
        -0.060364581644535065,
        0.0022511205170303583,
        0.20041166245937347,
        0.08871518820524216,
        -0.06528964638710022,
        0.02526606246829033,
        0.15879669785499573,
        0.09824208170175552,
        -0.03085114248096943,
        0.19424951076507568,
        0.035501353442668915,
        -0.06258562952280045,
        0.15848396718502045,
        -0.16482481360435486,
        -0.019871622323989868,
        -0.09534255415201187,
        -0.09580573439598083,
        0.02646162360906601,
        0.056541457772254944,
        0.031347572803497314,
        0.19483764469623566,
        -0.12537935376167297,
        0.05131038650870323,
        0.09748507291078568,
        0.006753829773515463,
        0.02014494314789772,
        0.22070789337158203,
        -0.04848179221153259,
        -0.27304938435554504,
        -0.18426336348056793,
        -0.04363194853067398,
        0.013646178878843784,
        -0.15118296444416046,
        -0.20638012886047363,
        -0.18251754343509674,
        -0.1604263186454773,
        0.03955969586968422,
        0.12741219997406006,
        -0.06986390799283981,
        -0.031429875642061234,
        0.19868576526641846,
        -0.0531289167702198,
        -0.05026242136955261,
        -0.06981025636196136,
        0.1853315830230713,
        0.22477158904075623,
        0.13809187710285187,
        -0.17255599796772003,
        -0.10144886374473572,
        0.0927528664469719,
        0.11743088811635971,
        -0.006464469712227583,
        -0.09475080668926239,
        -0.04710770770907402,
        0.1903802752494812,
        -0.2716541886329651,
        -0.06942588835954666,
        0.028668591752648354,
        0.140136256814003,
        -0.3275800347328186,
        0.048903532326221466,
        -0.06678877770900726,
        -0.05935206636786461,
        -0.1178671270608902,
        -0.05396709963679314,
        -0.029074711725115776,
        0.011289765127003193,
        0.23756462335586548,
        -0.04131243750452995,
        -0.05142607167363167,
        0.11675332486629486,
        0.14913225173950195,
        -0.38876935839653015,
        -0.01862400211393833,
        -0.021606676280498505,
        0.06976371258497238,
        -0.12740492820739746,
        -0.01212029904127121,
        -0.0653788298368454,
        0.0101616270840168,
        -0.09377725422382355,
        0.15095986425876617,
        -0.0466126874089241,
        -0.08194678276777267,
        -0.13984067738056183,
        0.02479751966893673,
        -0.008972168900072575,
        0.08600832521915436,
        0.17416656017303467,
        -0.19130352139472961,
        -0.16495999693870544,
        0.007355222478508949,
        -0.16074323654174805,
        0.14210335910320282,
        -0.19395595788955688,
        -0.12103810161352158,
        -0.13592033088207245,
        -0.054011642932891846,
        0.12951971590518951,
        0.08894691616296768,
        -0.01838669739663601,
        -0.07754137367010117,
        0.00501960888504982,
        -0.08998116850852966,
        -0.12398587912321091,
        -0.1614650934934616,
        0.06322924047708511,
        -0.09272760152816772,
        -0.0327509380877018,
        0.10104124248027802,
        -0.17278094589710236,
        -0.20687851309776306,
        0.1571158617734909,
        0.10162598639726639,
        -0.12026536464691162,
        -0.04386464133858681,
        0.028731847181916237,
        0.14685989916324615,
        0.005183571018278599,
        0.13765837252140045,
        -0.12725631892681122,
        -0.20252682268619537,
        0.14451119303703308,
        -0.060498595237731934,
        -0.012558313086628914,
        -0.061937037855386734,
        -0.08828772604465485,
        0.16772015392780304,
        -0.16686886548995972,
        0.23159146308898926,
        0.15389126539230347,
        0.14008836448192596,
        -0.053733862936496735,
        -0.12435755878686905,
        -0.10275179147720337,
        0.1577385663986206,
        0.2095225602388382,
        0.10419614613056183,
        -0.027233866974711418,
        -0.16713768243789673,
        -0.10171733796596527,
        -0.09743897616863251,
        0.1126004233956337,
        -0.14844126999378204,
        0.01610153540968895,
        0.03106195293366909,
        -0.15529288351535797,
        -0.1128830760717392,
        0.06245000660419464,
        -0.028246361762285233,
        0.03633048012852669,
        0.005997722037136555,
        0.054084185510873795,
        0.09589647501707077,
        -0.10066496580839157,
        0.046759311109781265,
        0.020583435893058777,
        0.060252390801906586,
        0.2098071277141571,
        0.09801877290010452,
        -0.22491516172885895,
        0.10276477783918381,
        0.06452669203281403,
        -0.004037891514599323,
        0.09017272293567657,
        -0.13812103867530823,
        0.03883100301027298,
        0.12151335179805756,
        -0.07725111395120621,
        -0.05727273225784302,
        0.30773982405662537,
        0.09698119759559631,
        -0.11686359345912933,
        -0.13656418025493622,
        0.055349912494421005,
        -0.12011164426803589,
        -0.12791843712329865,
        -0.07633654773235321,
        0.12268789112567902,
        0.1321645826101303,
        -0.047174595296382904,
        0.006633016746491194,
        0.1084851399064064,
        0.1457511931657791,
        0.22402940690517426,
        -0.05921928584575653,
        -0.1026051715016365,
        0.007958599366247654,
        0.011390836909413338,
        -0.0019441278418526053,
        0.02759179100394249,
        -0.014098701067268848,
        -0.002901265397667885,
        -0.10287107527256012,
        -0.15846781432628632,
        -0.1381341814994812,
        0.18010830879211426,
        0.1870996654033661,
        -0.09394720941781998,
        -0.14722396433353424,
        -0.16875845193862915,
        0.09701612591743469,
        0.059468384832143784,
        0.12398222833871841,
        -0.17513516545295715,
        -0.10873214155435562,
        0.08392263948917389,
        -0.04901094362139702,
        -0.11046665161848068,
        0.011236222460865974,
        -0.13914749026298523,
        0.007872519083321095,
        -0.09940419346094131,
        0.060861051082611084,
        -0.17510057985782623,
        0.024568704888224602,
        -0.13087251782417297,
        0.1413426250219345,
        -0.028843779116868973,
        -0.09653791785240173,
        -0.18659119307994843,
        -0.01837107725441456,
        -0.097877636551857,
        -0.08128487318754196,
        0.06863816827535629,
        -0.15667788684368134,
        0.13519062101840973,
        0.08288637548685074,
        -0.0515638068318367,
        0.12467575073242188,
        0.05738449469208717,
        0.08656712621450424,
        0.18444302678108215,
        0.16291655600070953,
        0.16105519235134125,
        -0.12987393140792847,
        0.06836793571710587,
        -0.15662644803524017,
        0.09535672515630722,
        -0.0014312908751890063,
        -0.03602219000458717,
        0.12995685636997223,
        -0.0044286842457950115,
        0.053029343485832214,
        0.16084739565849304,
        0.16570988297462463,
        0.08629902452230453,
        -0.08325105905532837,
        0.20212599635124207,
        0.03169012442231178,
        0.10405509918928146,
        0.10767897963523865,
        -0.014993642456829548,
        -0.11272580921649933,
        -0.13935892283916473,
        -0.02086956799030304,
        -0.03983195871114731,
        -0.11673273891210556,
        0.08175304532051086,
        0.12292643636465073,
        -0.1313258409500122,
        0.164840430021286,
        0.02796822041273117,
        0.14669616520404816,
        -0.11958678811788559,
        -0.14827893674373627,
        -0.12401203066110611,
        -0.11503732204437256,
        -0.14739859104156494,
        -0.0751619040966034,
        -0.03589718043804169,
        0.10325540602207184,
        0.13599298894405365,
        -0.13982664048671722,
        -0.16482573747634888,
        0.1219511479139328,
        0.09245611727237701,
        -0.08902843296527863,
        0.02873283624649048,
        0.11763714253902435,
        -0.1083621233701706,
        -0.060889773070812225,
        -0.0405782014131546,
        -0.1648995280265808,
        -0.14695541560649872,
        -0.05538603663444519,
        -0.05496199429035187,
        0.15114642679691315,
        -0.1514011174440384,
        0.03477272391319275,
        -0.11552689969539642,
        0.03317493200302124,
        0.07247118651866913,
        -0.10601774603128433,
        -0.03996597230434418,
        -0.026660442352294922,
        0.013755425810813904,
        -0.055097684264183044,
        0.043596431612968445,
        -0.14166659116744995,
        -0.0954444631934166,
        -0.057773739099502563,
        -0.03500695526599884,
        0.11488829553127289,
        -0.052711471915245056,
        -0.02028721570968628,
        -0.1362694948911667,
        -0.13444603979587555,
        -0.08535763621330261,
        0.007294356822967529,
        0.1156671792268753,
        0.008485838770866394,
        -0.007967382669448853,
        0.11974721401929855,
        0.07674672454595566,
        0.09110059589147568,
        -0.022396257147192955,
        0.05949224531650543,
        -0.06368999183177948,
        0.14782260358333588,
        0.025805337354540825,
        0.07125165313482285,
        0.07744492590427399,
        0.027087965980172157,
        0.07980820536613464,
        -0.007796012796461582,
        0.1300131231546402,
        0.10739792138338089,
        0.2001703679561615,
        0.1708463579416275,
        0.17793667316436768,
        0.14855904877185822,
        0.1490265429019928,
        -0.16133983433246613,
        0.04229167476296425,
        -0.002224128460511565,
        0.024701688438653946,
        0.1459258645772934,
        -0.04662967845797539,
        -0.0690174475312233,
        -0.05474960803985596,
        -0.0005974766681902111,
        0.06814602762460709,
        0.07713007926940918,
        -0.1613457202911377,
        0.1556641161441803,
        -0.16053102910518646,
        -0.10442480444908142,
        -0.02081065997481346,
        -0.17382143437862396,
        -0.047085948288440704,
        -0.11909864842891693,
        -0.10685084015130997,
        0.0536850206553936,
        0.1455705165863037,
        0.029140641912817955,
        -0.19851131737232208,
        -0.16812142729759216,
        -0.10973095148801804,
        0.18350850045681,
        -0.1308203637599945,
        -0.010028759017586708,
        -0.029044046998023987,
        0.09317455440759659,
        -0.08472646772861481,
        -0.13607309758663177,
        0.1325099766254425,
        -0.02993546985089779,
        -0.09556730836629868,
        0.055380672216415405,
        0.085724376142025,
        -0.017336241900920868,
        0.042970988899469376,
        0.0738169327378273,
        0.08827214688062668,
        0.15675775706768036,
        0.14464467763900757,
        -0.041614748537540436,
        0.15930913388729095,
        0.16241301596164703,
        -0.09209458529949188,
        0.22100232541561127,
        -0.1516321301460266,
        -0.1635374277830124,
        -0.02710416354238987,
        0.15947458148002625,
        0.0869283452630043,
        0.13722802698612213,
        0.12597770988941193,
        0.0820389837026596,
        0.10098521411418915,
        0.02369418740272522,
        -0.008211902342736721,
        0.02232549712061882,
        -0.1710253357887268,
        0.1452145278453827,
        -0.1008562222123146,
        0.09303119033575058,
        -0.06995822489261627,
        0.10300958156585693,
        0.10722973942756653,
        0.07603657990694046,
        0.04368356242775917,
        0.15368393063545227,
        -0.06942667812108994,
        -0.06778055429458618,
        -0.0971052497625351,
        -0.11352268606424332,
        -0.1397831290960312,
        0.027385078370571136,
        -0.07797237485647202,
        0.07044082880020142,
        0.03396160528063774,
        0.2126578539609909,
        -0.08952777087688446,
        0.19631949067115784,
        -0.18317802250385284,
        -0.11436040699481964,
        -0.11731232702732086,
        -0.16678635776042938,
        0.21275287866592407,
        0.16458316147327423,
        0.11538472026586533,
        -0.09687317162752151,
        -0.10878540575504303,
        0.21936695277690887,
        0.13755719363689423,
        -0.1482783406972885,
        -0.07127100229263306,
        0.17677998542785645,
        0.12436795979738235,
        0.19430622458457947,
        0.02518564462661743,
        -0.04036714881658554,
        -0.01269843615591526,
        0.02247629314661026,
        -0.11428578197956085,
        0.12951239943504333,
        0.12166692316532135,
        0.20886270701885223,
        0.07965657114982605,
        0.06843043863773346,
        -0.02322539873421192,
        0.21681420505046844,
        0.20502451062202454,
        -0.1480621099472046,
        0.11288640648126602,
        0.027755144983530045,
        -0.02168865129351616,
        0.17848725616931915,
        0.12643060088157654,
        0.36443185806274414,
        0.036329690366983414,
        0.08866550773382187,
        -0.15115933120250702,
        0.013756048865616322,
        -0.026354212313890457,
        0.06382504850625992,
        -0.17751863598823547,
        -0.11818411946296692,
        0.11447508633136749,
        0.10896681249141693,
        0.07198643684387207,
        0.09571843594312668,
        0.31293752789497375,
        0.12920327484607697,
        0.08543306589126587,
        0.13907314836978912,
        -0.09016495198011398,
        0.03574926033616066,
        0.062118154019117355,
        -0.013334647752344608,
        0.153827965259552,
        0.11223146319389343,
        0.04726550355553627,
        0.07288432121276855,
        0.12721054255962372,
        -0.19644685089588165,
        -0.14375345408916473,
        0.15063580870628357,
        0.15812039375305176,
        -0.10049664229154587,
        -0.12263452261686325,
        -0.09489849954843521,
        -0.14577390253543854,
        0.15126840770244598,
        0.03372906520962715,
        -0.11601903289556503,
        -0.0007860656478442252,
        0.0025809507351368666,
        -0.0836808830499649,
        -0.11399160325527191,
        -0.05754004418849945,
        0.12332341074943542,
        0.047228265553712845,
        0.03299735486507416,
        -0.11662399768829346,
        0.09888261556625366,
        0.09902195632457733,
        -0.019072281196713448,
        0.09202509373426437,
        0.10486206412315369,
        0.05185956880450249,
        0.03282385692000389,
        -0.13139374554157257,
        -0.1396893858909607,
        0.1355295032262802,
        -0.06408852338790894,
        0.12452558428049088,
        -0.14562374353408813,
        -0.044797707349061966,
        0.13991683721542358,
        -0.058689095079898834,
        -0.06498490273952484,
        -0.1941995769739151,
        0.10800930857658386,
        -0.15048806369304657,
        0.09168234467506409,
        0.052026163786649704,
        0.06336764991283417,
        -0.21817806363105774,
        -0.15396669507026672,
        -0.10861954092979431,
        0.09864570945501328,
        -0.06000219285488129,
        0.14911507070064545,
        0.17638732492923737,
        0.1458030641078949,
        -0.1626998484134674,
        0.07359546422958374,
        0.05593976378440857,
        0.05847100168466568,
        0.14693929255008698,
        0.13071201741695404,
        -0.07731234282255173,
        0.08533099293708801,
        -0.08400638401508331,
        -0.11386147886514664,
        -0.11394993960857391,
        -0.023331088945269585,
        0.005308696534484625,
        -0.1915341466665268,
        0.1429799646139145,
        -0.007645107340067625,
        0.03245202451944351,
        0.12373093515634537,
        0.10824652761220932,
        -0.05099784955382347,
        0.08283979445695877,
        0.1353107988834381,
        0.06483617424964905,
        0.0745331346988678,
        0.022428669035434723,
        0.0006733485497534275,
        -0.1787814199924469,
        0.06984710693359375,
        0.05798345059156418,
        0.0916256383061409,
        -0.12306029349565506,
        -0.07799685746431351,
        0.06098974123597145,
        0.1173805221915245,
        0.073825404047966,
        -0.05820043012499809,
        -0.08857347816228867,
        -0.015234578400850296,
        0.13619431853294373,
        -0.10228722542524338,
        0.167167529463768,
        -0.05271397903561592,
        -0.034236665815114975,
        0.006227071397006512,
        0.13936381042003632,
        -0.016975749284029007,
        0.024216370657086372,
        -0.07580848038196564,
        -0.09031731635332108,
        0.06530353426933289,
        0.013948233798146248,
        -0.05551751330494881,
        -0.09133400768041611,
        -0.01583097316324711,
        0.13105721771717072,
        -0.14003968238830566,
        0.1279086023569107,
        0.014170993119478226,
        0.2444511502981186,
        0.21044057607650757,
        0.04599151760339737,
        -0.007779345847666264,
        0.01834549754858017,
        0.1291959285736084,
        -0.1180017963051796,
        -0.1593829095363617,
        0.25738754868507385,
        -0.05482232943177223,
        -0.041955266147851944,
        0.08839654922485352,
        0.0704730972647667,
        0.1820410192012787,
        -0.08909144252538681,
        -0.10470323264598846,
        -0.1437358558177948,
        0.052244722843170166,
        0.0951140820980072,
        -0.12533316016197205,
        0.1635020673274994,
        -0.0022994689643383026,
        0.09184618294239044,
        -0.008970445953309536,
        -0.14074325561523438,
        0.16324713826179504,
        0.0022840152960270643,
        -0.07854799181222916,
        -0.06928528845310211,
        -0.02311887964606285,
        -0.002300396328791976,
        -0.01806183159351349,
        0.18701624870300293,
        0.014141704887151718,
        0.07386817038059235,
        0.21314337849617004,
        0.01582268811762333,
        0.33322566747665405,
        -0.141800656914711,
        0.026849446818232536,
        0.2329484075307846,
        -0.0531349740922451,
        0.0466410368680954,
        0.09511011838912964,
        -0.02202572487294674,
        -0.015286899171769619,
        -0.08975467830896378,
        0.1814453899860382,
        -0.04431402310729027,
        -0.12402728945016861,
        0.2346186339855194,
        0.0033400063402950764,
        0.14929519593715668,
        -0.05369715392589569,
        0.2103785276412964,
        -0.09007589519023895,
        -0.1678970605134964,
        0.2863582670688629,
        0.15333335101604462,
        -0.02841181680560112,
        0.0755668357014656,
        -0.15199680626392365,
        -0.2086964100599289,
        0.14376431703567505,
        0.09570150077342987,
        0.007139619439840317,
        0.08975278586149216,
        0.10624674707651138,
        -0.06382295489311218,
        0.056877005845308304,
        0.1527884304523468,
        0.09672306478023529,
        0.12252674996852875,
        -0.07761557400226593,
        0.34640824794769287,
        -0.05038605257868767,
        -0.0924094021320343,
        -0.09938786923885345,
        -0.15084108710289001,
        -0.03833846002817154,
        -0.049391813576221466,
        0.24271062016487122,
        -0.06367962807416916,
        0.12153644859790802,
        0.02854996919631958,
        0.09879381954669952,
        -0.08200006932020187,
        0.12997625768184662,
        0.060758959501981735,
        0.17499426007270813,
        -4.078263009432703e-05,
        0.16397921741008759,
        0.04130280017852783,
        -0.06609738618135452,
        0.13216307759284973,
        0.16239914298057556,
        -0.11470387876033783,
        -0.013587447814643383,
        0.007453266531229019,
        -0.004913360346108675,
        0.14584390819072723,
        0.12420609593391418,
        -0.01167161576449871,
        -0.03285403922200203,
        -0.17616863548755646,
        -0.03187188878655434,
        -0.039369817823171616,
        0.08113345503807068,
        -0.06617026776075363,
        0.04955974593758583,
        0.17796769738197327,
        0.011863970197737217,
        -0.15234605967998505,
        0.14014588296413422,
        -0.14942122995853424,
        0.1568647176027298,
        0.027811091393232346,
        -0.06345977634191513,
        0.1372525990009308,
        0.015858294442296028,
        -0.016906550154089928,
        0.2373729646205902,
        0.02138379029929638,
        -0.1303124725818634,
        -0.1303315907716751,
        -0.11782259494066238,
        0.12818503379821777,
        0.0698794275522232,
        -0.0894123837351799,
        0.15647855401039124,
        0.022942084819078445,
        0.17820312082767487,
        0.16299863159656525,
        -0.029451856389641762,
        0.07103728502988815,
        -0.038164302706718445,
        -0.16731688380241394,
        -0.04363173618912697,
        0.10616230219602585,
        -0.07116515934467316,
        -0.15246474742889404,
        0.14197316765785217,
        0.12643778324127197,
        -0.1364765465259552,
        0.055944379419088364,
        -0.0069666700437664986,
        0.05848081409931183,
        0.0980679839849472,
        0.16503147780895233,
        -0.11905897408723831,
        -0.13004806637763977,
        0.00496433163061738,
        0.07902118563652039,
        0.19801628589630127,
        0.1357470601797104,
        0.20822188258171082,
        0.011368594132363796,
        0.002873678458854556,
        -0.1837245672941208,
        0.28579652309417725,
        0.11907178163528442,
        0.11313235759735107,
        -0.1301039308309555,
        0.14302700757980347,
        0.02132270112633705,
        0.13226720690727234,
        0.02933741919696331,
        0.02903018519282341,
        -0.14794932305812836,
        0.060608163475990295,
        0.026227233931422234,
        -0.15750034153461456,
        -0.004264984279870987,
        -0.08715834468603134,
        0.062089547514915466,
        -0.05367765203118324,
        -0.10841405391693115,
        0.03541329503059387,
        -0.17216351628303528,
        0.010602356866002083,
        -0.08402317762374878,
        0.18816865980625153,
        0.06156635656952858,
        0.034186676144599915,
        0.008797703310847282,
        0.015607784502208233,
        -0.05100799724459648,
        -0.04678010940551758,
        -0.10647035390138626,
        0.061383314430713654,
        0.176356703042984,
        0.013977832160890102,
        -0.08915072679519653,
        0.031479425728321075,
        -0.06817525625228882,
        0.23670604825019836,
        0.1165214255452156,
        -0.076545350253582,
        0.16524897515773773,
        0.16307106614112854,
        0.03245198354125023,
        -0.07330875843763351,
        -0.1401783972978592,
        0.1425289809703827,
        -0.015810681506991386,
        -0.15708281099796295,
        -0.17026153206825256,
        -0.010760871693491936,
        0.08337534964084625,
        0.030196521431207657,
        -0.11501573771238327,
        0.12906703352928162,
        -0.06860161572694778,
        -0.07995617389678955,
        -0.1550373136997223,
        0.16333752870559692,
        -0.07345644384622574,
        -0.0690142810344696,
        0.07247494161128998,
        -0.17024751007556915,
        -0.0658087208867073,
        0.0864727720618248,
        0.11762700229883194,
        0.0076696923933923244,
        -0.07220553606748581,
        0.10593655705451965,
        0.0661129429936409,
        -0.10693912208080292,
        -0.1916443556547165,
        -0.1656007170677185,
        -0.061996132135391235,
        0.039973750710487366,
        -0.09313207119703293,
        -0.12740978598594666,
        -0.03965059667825699,
        -0.039183516055345535,
        -0.22423815727233887,
        0.14864447712898254,
        -0.06221029907464981,
        0.11561119556427002,
        0.18505728244781494,
        -0.117718406021595,
        -0.12617696821689606,
        0.11414743214845657,
        0.13540595769882202,
        -0.11078741401433945,
        -0.13361141085624695,
        0.09224880486726761,
        -0.05259795859456062,
        -0.06972760707139969,
        0.00040565806557424366,
        -0.1536058485507965,
        0.12157387286424637,
        -0.13776321709156036,
        0.12736517190933228,
        0.08159594982862473,
        0.14414842426776886,
        -0.38581159710884094,
        -0.17995963990688324,
        0.05808250233530998,
        0.050875335931777954,
        0.04685516282916069,
        0.14067323505878448,
        -0.08226235210895538,
        0.11346442252397537,
        0.02578529715538025,
        0.1975065916776657,
        -0.08377181738615036,
        0.021776126697659492,
        0.16582787036895752,
        0.2813587188720703,
        0.03414381667971611,
        0.13962407410144806,
        -0.14106211066246033,
        -0.0942193865776062,
        0.006421418394893408,
        -0.07515434175729752,
        0.22077013552188873,
        0.03407628461718559,
        0.002349419053643942,
        -0.03689965233206749,
        0.16588374972343445,
        0.13501694798469543,
        0.13691090047359467,
        0.07728007435798645,
        -0.036999527364969254,
        0.1545136570930481,
        -0.11190008372068405,
        0.16447308659553528,
        0.03553258255124092,
        -0.10777423530817032,
        0.06750188022851944,
        0.18764999508857727,
        -0.16856862604618073,
        -0.12448158860206604,
        -0.08163036406040192,
        -0.07767239212989807,
        -0.09528195112943649,
        0.16400209069252014,
        0.10304940491914749,
        -0.15266826748847961,
        -0.08775680512189865,
        0.029057331383228302,
        -0.04564391449093819,
        -0.05162309482693672,
        0.17386041581630707,
        0.07446342706680298,
        0.18845315277576447,
        0.05852154642343521,
        0.16954949498176575,
        -0.10525515675544739,
        -0.06347160786390305,
        -0.07259044051170349,
        -0.0109030082821846,
        -0.08467026054859161,
        0.05593615397810936,
        -0.03404939919710159,
        -0.14856748282909393,
        -0.0815642774105072,
        0.3453584611415863,
        0.16646791994571686,
        -0.04716712608933449,
        0.13157086074352264,
        0.1142040342092514,
        -0.047409042716026306,
        -0.16907231509685516,
        -0.03680263087153435,
        0.03930806368589401,
        0.12319064140319824,
        0.10033711791038513,
        -0.057226501405239105,
        0.05902988836169243,
        -0.1451420933008194,
        0.05350980535149574,
        0.14972521364688873,
        0.08157873153686523,
        -0.007103043142706156,
        0.06632354110479355,
        0.13652001321315765,
        -0.1384342759847641,
        -0.008662017062306404,
        0.006422421429306269,
        -0.21852245926856995,
        0.03230031207203865,
        -0.21101973950862885,
        0.13201336562633514,
        0.03254113346338272,
        -0.041054867208004,
        0.1409808248281479,
        -0.19474433362483978,
        -0.11251985281705856,
        0.04944095388054848,
        0.15974043309688568,
        0.14618180692195892,
        0.16840918362140656,
        0.012270023114979267,
        -0.14035619795322418,
        0.08359397202730179,
        0.22783097624778748,
        0.07816478610038757,
        -0.11779847741127014,
        0.16909191012382507,
        0.10206117480993271,
        -0.10121350735425949,
        -0.14495757222175598,
        0.03939168155193329,
        -0.06132262572646141,
        0.08252757787704468,
        -0.4265320301055908,
        0.08956287056207657,
        -0.0881258174777031,
        0.03210758790373802,
        -0.009705147705972195,
        -0.1280101239681244,
        0.04183933138847351,
        0.09033086150884628,
        -0.055032242089509964,
        0.0639767199754715,
        0.06624779850244522,
        -0.03040386736392975,
        -0.06642960011959076,
        0.15531478822231293,
        0.11144068092107773,
        -0.15835700929164886,
        -0.13821955025196075,
        -0.12782980501651764,
        0.07147928327322006,
        0.124713234603405,
        0.1718059778213501,
        0.16536107659339905,
        0.17595751583576202,
        0.05844178795814514,
        0.1858641803264618,
        0.20651443302631378,
        0.011564888060092926,
        0.178416907787323,
        0.021762225776910782,
        0.021234573796391487,
        0.06843017041683197,
        -0.09961380064487457,
        -0.1432090550661087,
        0.11521892994642258,
        -0.017803478986024857,
        -0.06877123564481735,
        0.0009530155221000314,
        0.029880259186029434,
        -0.017348095774650574,
        -0.09667869657278061,
        -0.1006208136677742,
        -0.09029054641723633,
        0.16408595442771912,
        -0.08293277025222778,
        -0.16349919140338898,
        -0.173298642039299,
        0.18460768461227417,
        -0.0705924928188324,
        0.024786703288555145,
        0.28823158144950867,
        0.1714557260274887,
        0.015942629426717758,
        -0.09953777492046356,
        0.08220129460096359,
        -0.12895603477954865,
        -0.05832958593964577,
        -0.09355401247739792,
        0.07580592483282089,
        -0.14354586601257324,
        -0.0792183130979538,
        0.13839824497699738,
        0.0866844579577446,
        -0.11909575015306473,
        -0.1499575674533844,
        0.04938795790076256,
        -0.16615030169487,
        0.17532336711883545,
        0.08895853906869888,
        -0.09775584936141968,
        0.03692911937832832,
        0.03176037594676018,
        0.08841881155967712,
        0.09013432264328003,
        -0.19129960238933563,
        -0.03522029146552086,
        -0.06353103369474411,
        -0.08672930300235748,
        0.09303105622529984,
        -0.18101148307323456,
        0.027972005307674408,
        0.06768710166215897,
        0.014918816275894642,
        -0.0564236044883728,
        0.028237758204340935,
        -0.16186538338661194,
        0.15760812163352966,
        -0.05571143329143524,
        -0.048525016754865646,
        0.1393926739692688,
        -0.14927728474140167,
        -0.14964577555656433,
        0.11828864365816116,
        -0.009087159298360348,
        -0.003634444670751691,
        0.006210890132933855,
        -0.11840885132551193,
        0.016269655898213387,
        0.02112603560090065,
        0.07481443136930466,
        -0.1374373733997345,
        0.16369302570819855,
        0.09167201071977615,
        -0.12791234254837036,
        0.031340423971414566,
        0.17744842171669006,
        0.15617717802524567,
        0.13847807049751282,
        -0.06795022636651993,
        -0.04864562675356865,
        0.07392524182796478,
        0.1726752072572708,
        0.11584273725748062,
        -0.16320864856243134,
        -0.04580892622470856,
        0.09088435769081116,
        -0.1389867514371872,
        0.12077371031045914,
        -0.1667712926864624,
        0.09433535486459732,
        -0.02328321523964405,
        0.07151862978935242,
        0.03324930742383003,
        -0.20430849492549896,
        -0.0923408716917038,
        0.08108513057231903,
        0.02636650763452053,
        0.1129845678806305,
        0.1783982217311859,
        -0.011582043021917343,
        -0.03616001829504967,
        0.053009577095508575,
        0.01461658626794815,
        0.099962517619133,
        0.01331811398267746,
        -0.1423381268978119,
        0.16950856149196625,
        0.028411753475666046,
        0.02109091356396675,
        -0.1692853718996048,
        -0.05538029596209526,
        -0.09365943819284439,
        0.14340217411518097,
        -0.00499963853508234,
        0.028091030195355415,
        0.10408413410186768,
        0.09376278519630432,
        -0.1382685750722885,
        -0.378553181886673,
        -0.06610915064811707,
        0.11818919330835342,
        0.22164380550384521,
        -0.022217882797122,
        -0.10046327859163284,
        0.08386275917291641,
        0.03640303015708923,
        0.05940435454249382,
        -0.013263627886772156,
        -0.05175454914569855,
        -0.16340821981430054,
        -0.05408954620361328,
        0.16363674402236938,
        -0.0037425134796649218,
        0.020085409283638,
        0.01542343944311142,
        0.10656164586544037,
        -0.06273043155670166,
        0.1471848040819168,
        0.16628646850585938,
        -0.16068977117538452,
        -0.08161145448684692,
        -0.06480011343955994,
        -0.14532090723514557,
        -0.10272733867168427,
        0.1490970402956009,
        -0.07580745965242386,
        0.1754678189754486,
        -0.16336838901042938,
        -0.036940064281225204,
        -0.16328103840351105,
        0.009588110260665417,
        -0.13247250020503998,
        -0.10156821459531784,
        0.016165589913725853,
        -0.1015467494726181,
        0.14109744131565094,
        0.18436294794082642,
        -0.02401953563094139,
        -0.01264685858041048,
        0.002010326599702239,
        0.16121414303779602,
        0.16902385652065277,
        -0.17733170092105865,
        0.09010475128889084,
        -0.0026537752710282803,
        -0.0022710503544658422,
        -0.015415472909808159,
        -0.21414488554000854,
        -0.07632334530353546,
        -0.17186106741428375,
        -0.214487686753273,
        0.1022380068898201,
        -0.11665187031030655,
        -0.18071147799491882,
        -0.14326298236846924,
        0.08434416353702545,
        -0.13484227657318115,
        -0.09239102900028229,
        0.049675554037094116,
        -0.1267659068107605,
        0.019470123574137688,
        -0.0010995428310707211,
        0.08070293813943863,
        -0.04027823731303215,
        -0.010733861476182938,
        0.018679754808545113,
        0.14271008968353271,
        -0.09894411265850067,
        0.08426447212696075,
        -0.08154080808162689,
        0.04729485511779785,
        -0.12313210219144821,
        0.060475029051303864,
        0.13365918397903442,
        -0.054370637983083725,
        -0.10530610382556915,
        0.10876584053039551,
        0.19207686185836792,
        0.16407671570777893,
        0.010793425142765045,
        0.07345510274171829,
        0.09357405453920364,
        0.07841553539037704,
        -0.16385506093502045,
        0.015227336436510086,
        -0.04695361480116844,
        0.1664319932460785,
        -0.1263146847486496,
        0.17975445091724396,
        -0.17825068533420563,
        0.050855908542871475,
        -0.1329454928636551,
        -0.17819495499134064,
        -0.01489973720163107,
        -0.23256875574588776,
        0.05232908949255943,
        -0.018639003857970238,
        0.10766217112541199,
        -0.12547805905342102,
        -0.15251553058624268,
        -0.09920916706323624,
        0.14154794812202454,
        0.07030937075614929,
        -0.10383230447769165,
        -0.12676000595092773,
        -0.07431672513484955,
        -0.14358383417129517,
        0.03203069418668747,
        0.10954902321100235,
        0.00423405272886157,
        0.010898498818278313,
        0.037882231175899506,
        -0.15842768549919128,
        -0.11792990565299988,
        -0.16820131242275238,
        0.039496034383773804,
        0.08457060903310776,
        -0.1260364055633545,
        0.03837939724326134,
        0.019424080848693848,
        0.044255778193473816,
        0.02509496919810772,
        0.12446396052837372,
        -0.10829607397317886,
        -0.08687929809093475,
        -0.10051049292087555,
        0.047664158046245575,
        -0.10080684721469879,
        -0.07123610377311707,
        0.17093591392040253,
        -0.13715149462223053,
        -0.13937318325042725,
        -0.011837598867714405,
        -0.15260271728038788,
        0.07523740828037262,
        -0.023416846990585327,
        -0.1012970358133316,
        -0.02051599510014057,
        -0.1603056937456131,
        -0.11328143626451492,
        -0.10923609137535095,
        0.06380315870046616,
        0.12037601321935654,
        0.2939969003200531,
        0.17220860719680786,
        -0.2677169740200043,
        -0.07813439518213272,
        0.11575842648744583,
        0.02221241034567356,
        -0.08512378484010696,
        0.018115345388650894,
        0.054740794003009796,
        0.11919650435447693,
        0.052830759435892105,
        -0.02262303978204727,
        -0.003672489197924733,
        0.145408496260643,
        0.2245476245880127,
        -0.16427645087242126,
        -0.025663714855909348,
        0.06483490020036697,
        0.17487815022468567,
        0.08754295855760574,
        0.1500488519668579,
        0.08555135875940323,
        -0.023823561146855354,
        -0.08032117038965225,
        -0.023496471345424652,
        -0.11624998599290848,
        -0.007720510940998793,
        0.22141937911510468,
        0.15065422654151917,
        0.14307646453380585,
        -0.15359333157539368,
        0.14332672953605652,
        0.07741352170705795,
        0.15419214963912964,
        0.30355605483055115,
        0.0406324677169323,
        -0.07494974136352539,
        0.08131134510040283,
        -0.07319118082523346,
        -0.18869420886039734,
        -0.08973200619220734,
        -0.09790930896997452,
        -0.1709902137517929,
        0.22981856763362885,
        0.04875511676073074,
        0.06376651674509048,
        -0.13602934777736664,
        -0.17566126585006714,
        -0.05356422811746597,
        -0.044928498566150665,
        0.030369717627763748,
        0.13277095556259155,
        -0.012597533874213696,
        -0.01355715747922659,
        -0.02606499381363392,
        -0.018748953938484192,
        -0.010825742036104202,
        0.0006921658059582114,
        0.0023292507976293564,
        -0.10317745804786682,
        -0.07325424998998642,
        -0.10719473659992218,
        -0.10113310813903809,
        0.06389888375997543,
        0.04706835001707077,
        -0.13521358370780945,
        -0.13009163737297058,
        0.13499028980731964,
        -0.1411435306072235,
        0.11646111309528351,
        -0.0571439191699028,
        -0.01836985908448696,
        0.11876770853996277,
        0.0694846510887146,
        0.1195148304104805,
        0.07820641249418259,
        0.1898089200258255,
        0.002488328143954277,
        0.15721552073955536,
        0.2388317734003067,
        -0.01959468424320221,
        0.0322066992521286,
        0.024554286152124405,
        0.1559828370809555,
        0.10051698237657547,
        0.13586002588272095,
        0.06157756224274635,
        0.10682780295610428,
        -0.13624440133571625,
        0.05829679220914841,
        0.118113212287426,
        -0.11215610802173615,
        0.0867093876004219,
        0.06669551879167557,
        0.1641542762517929,
        -0.006373749114573002,
        -0.19796152412891388,
        -0.12102139741182327,
        0.053836144506931305,
        0.04276932775974274,
        -0.07022140920162201,
        0.09386090189218521,
        -0.14120934903621674,
        -0.22007986903190613,
        -0.06089448928833008,
        0.019925028085708618,
        0.10452567040920258,
        -0.14836829900741577,
        0.1563856452703476,
        -0.010532506741583347,
        0.018596142530441284,
        -0.10796476900577545,
        0.242466539144516,
        0.11353220790624619,
        0.17085963487625122,
        -0.014759140089154243,
        -0.07669665664434433,
        0.04927957430481911,
        0.10825716704130173,
        0.1444053053855896,
        0.13847234845161438,
        -0.01894308812916279,
        0.01756933331489563,
        -0.09234393388032913,
        -0.15577055513858795,
        0.17240111529827118,
        0.08074738085269928,
        -0.08294154703617096,
        0.03362436592578888,
        0.0062078265473246574,
        0.07334154099225998,
        -0.10224631428718567,
        0.22198837995529175,
        0.07537475228309631,
        0.12403560429811478,
        -0.09624223411083221,
        -0.11092168092727661,
        -0.06714607775211334,
        -0.15663336217403412,
        -0.2787177264690399,
        0.17324505746364594,
        0.04078488424420357,
        -0.16061244904994965,
        -0.07687035202980042,
        -0.17771796882152557,
        -0.029493289068341255,
        0.10064323246479034,
        0.09862536191940308,
        -0.08398881554603577,
        -0.10404904186725616,
        0.018512433394789696,
        -0.1166791021823883,
        0.11936312913894653,
        -0.013833646662533283,
        0.15330517292022705,
        -0.023415621370077133,
        -0.08942308276891708,
        0.03546717017889023,
        -0.11908067762851715,
        -0.13295455276966095,
        -0.18225903809070587,
        0.0746268481016159,
        0.21783874928951263,
        -0.03456546738743782,
        0.15544193983078003,
        0.021328255534172058,
        0.08002455532550812,
        -0.03543972223997116,
        0.15195231139659882,
        -0.18454113602638245,
        -0.11954642087221146,
        -0.083345428109169,
        -0.1428595632314682,
        -0.022312061861157417,
        -0.03929085657000542,
        -0.1525583416223526,
        0.09739721566438675,
        -0.04945620149374008,
        0.06397107988595963,
        0.07155442982912064,
        0.04797488451004028,
        0.014801795594394207,
        0.14887478947639465,
        0.17090274393558502,
        0.03960006311535835,
        0.014215158298611641,
        0.15170767903327942,
        0.07507620751857758,
        -0.30428066849708557,
        0.039437346160411835,
        0.08667389303445816,
        -0.11890142410993576,
        -0.13918644189834595,
        -0.12508626282215118,
        0.14431823790073395,
        -0.15685522556304932,
        -0.19198232889175415,
        0.05644078180193901,
        -0.06620767712593079,
        0.02746071107685566,
        -0.14190317690372467,
        0.03056114912033081,
        -0.03130028769373894,
        -0.1777561902999878,
        0.1285395473241806,
        -0.25769826769828796,
        -0.13293202221393585,
        -0.05233364179730415,
        -0.050407085567712784,
        0.0498349666595459,
        -0.07103398442268372,
        -0.057553354650735855,
        0.08074449747800827,
        -0.14525040984153748,
        -0.009388037957251072,
        0.15089748799800873,
        0.13804596662521362,
        0.08399438112974167,
        0.20603597164154053,
        -0.15615256130695343,
        0.11071933060884476,
        0.2026035487651825,
        -0.16523613035678864,
        0.1664317399263382,
        0.058176588267087936,
        0.1425030678510666,
        -0.17306748032569885,
        0.10937534272670746,
        -0.1712934672832489,
        -0.14526991546154022,
        -0.21221868693828583,
        -0.0023332510609179735,
        0.13711898028850555,
        -0.0811816081404686,
        0.0129472641274333,
        -0.08910109102725983,
        0.14903496205806732,
        0.045541323721408844,
        -0.14500562846660614,
        -0.13513468205928802,
        0.07259947061538696,
        0.02433100901544094,
        0.17777521908283234,
        -0.049063920974731445,
        -0.11182297021150589,
        0.08553114533424377,
        0.1482919305562973,
        0.046323638409376144,
        0.03461455926299095,
        0.01674678921699524,
        -0.19163741171360016,
        0.1584903448820114,
        0.22245866060256958,
        -0.08726280182600021,
        0.09298379719257355,
        0.1003737822175026,
        0.14643937349319458,
        0.11041074246168137,
        -0.14865311980247498,
        -0.03187917172908783,
        0.02779247984290123,
        -0.01070778351277113,
        -0.1808716207742691,
        -0.07098327577114105,
        0.16954776644706726,
        0.001144806039519608,
        0.00994181726127863,
        0.12528032064437866,
        0.14551906287670135,
        -0.010370651260018349,
        -0.03908296301960945,
        -0.1695472151041031,
        0.1997944414615631,
        0.11081601679325104,
        0.05548558011651039,
        0.15188081562519073,
        0.07865302264690399,
        0.12021124362945557,
        -0.03147371858358383,
        0.0465453639626503,
        -0.06463389098644257,
        -0.1266741156578064,
        -0.02759253978729248,
        0.24430590867996216,
        0.09014978259801865,
        0.10786853730678558,
        0.09375346451997757,
        0.0379728265106678,
        -0.13077454268932343,
        -0.04186713695526123,
        -0.14260542392730713,
        0.11186981201171875,
        0.16930139064788818,
        0.1802520751953125,
        0.047110069543123245,
        0.15701444447040558,
        0.061613813042640686,
        0.12633487582206726,
        -0.08625290542840958,
        -0.07272519171237946,
        -0.029832201078534126,
        0.019618643447756767,
        -0.16982059180736542,
        -0.050542205572128296,
        -0.06694722175598145,
        -0.07604949921369553,
        -0.08677217364311218,
        -0.14613087475299835,
        -0.1996743232011795,
        0.152622252702713,
        -0.11991599202156067,
        0.008892319165170193,
        -0.13203689455986023,
        0.16819517314434052,
        0.2094200849533081,
        -0.1388453096151352,
        0.09717920422554016,
        0.20418064296245575,
        0.149274080991745,
        -0.15162719786167145,
        -0.06068333238363266,
        -0.20483796298503876,
        0.18196454644203186,
        0.10376226156949997,
        0.0014111506752669811,
        -0.01792433112859726,
        -0.07143382728099823,
        0.09874674677848816,
        -0.06627818942070007,
        -0.11461618542671204,
        0.1659672111272812,
        -0.1460496336221695,
        0.10730716586112976,
        0.07361152768135071,
        0.18000385165214539,
        0.11661089956760406,
        -0.07524015754461288,
        -0.034813836216926575,
        0.0755411833524704,
        0.13079194724559784,
        0.14991842210292816,
        -0.012060551904141903,
        -0.0573580339550972,
        0.09504837542772293,
        0.09765931218862534,
        -0.06799932569265366,
        -0.09210684895515442,
        -0.03162229061126709,
        -0.05058816820383072,
        0.07255764305591583,
        -0.019322218373417854,
        0.09211990237236023,
        0.10158036649227142,
        -0.03811292722821236,
        0.031127797439694405,
        0.15744633972644806,
        -0.0977540835738182,
        0.21256476640701294,
        0.10163593292236328,
        0.1279740184545517,
        -0.05454309657216072,
        0.08847431093454361,
        -0.07956357300281525,
        -0.03659103065729141,
        -0.06474434584379196,
        0.22557921707630157,
        -0.1045730710029602,
        -0.05801110342144966,
        -0.1117045059800148,
        0.009058441035449505,
        -0.05255018547177315,
        -0.03253929689526558,
        0.11074937880039215,
        0.21153536438941956,
        -0.13563404977321625,
        0.0666315108537674,
        0.03606899827718735,
        -0.018761416897177696,
        -0.016311611980199814,
        -0.0191968884319067,
        -0.08705892413854599,
        -0.3034408986568451,
        -0.05551958829164505,
        -0.08066269755363464,
        0.03030546009540558,
        0.16793760657310486,
        0.003604523604735732,
        0.1324390023946762,
        -0.14916859567165375,
        0.15738295018672943,
        -0.006901849061250687,
        0.13146977126598358,
        -0.16043990850448608,
        -0.01670982502400875,
        -0.3290030062198639,
        -0.028401074931025505,
        0.09899798035621643,
        0.14222706854343414,
        0.0032602946739643812,
        -0.1943809986114502,
        -0.08201555162668228,
        0.0017429306171834469,
        -0.16558361053466797,
        -0.15719500184059143,
        -0.14206479489803314,
        0.11168783158063889,
        -0.09022630751132965,
        0.037669532001018524,
        -0.08816994726657867,
        0.12478544563055038,
        -0.17633219063282013,
        -0.08444306999444962,
        0.11945769935846329,
        -0.0007610311731696129,
        0.08010596036911011,
        0.008840128779411316,
        0.06470628082752228,
        0.24645470082759857,
        -0.04543470963835716,
        -0.02456950768828392,
        0.04085955768823624,
        -0.13364556431770325,
        -0.030500218272209167,
        0.1352740377187729,
        -0.08442588895559311,
        -0.06958428770303726,
        -0.14052152633666992,
        -0.036330532282590866,
        0.046193163841962814,
        0.13878177106380463,
        -0.2508590817451477,
        -0.1439814567565918,
        -0.11776755750179291,
        0.24037285149097443,
        -0.04203735291957855,
        0.0673597902059555,
        0.1184525191783905,
        0.022755131125450134,
        -0.03200918436050415,
        0.1264893114566803,
        -0.17785485088825226,
        0.040736015886068344,
        0.025585567578673363,
        0.01373172178864479,
        -0.003570854663848877,
        0.016208933666348457,
        -0.0729895532131195,
        0.13022807240486145,
        0.07230620831251144,
        0.055189136415719986,
        -0.10146547853946686,
        -0.03017774038016796,
        -0.07982774823904037,
        0.18041522800922394,
        -0.09919726848602295,
        0.1737290769815445,
        -0.05319010093808174,
        -0.08986709266901016,
        0.10378517955541611,
        0.1690150499343872,
        0.037052106112241745,
        -0.1282353401184082,
        -0.08641356229782104,
        0.17068983614444733,
        -0.007941169664263725,
        0.09132738411426544,
        0.12000226229429245,
        0.11051414906978607,
        0.20551158487796783,
        0.1253129094839096,
        0.0590742863714695,
        0.22963929176330566,
        0.16921401023864746,
        0.04646952822804451,
        0.11060506850481033,
        -0.01662451960146427,
        0.1383114457130432,
        -0.1281307339668274,
        0.14560993015766144,
        0.15903638303279877,
        -0.1576099395751953,
        -0.0645097866654396,
        0.15608622133731842,
        0.1295318901538849,
        0.27048730850219727,
        -0.1208571121096611,
        0.044916000217199326,
        0.10853425413370132,
        0.09984103590250015,
        0.17731378972530365,
        0.07988628000020981,
        -0.059218183159828186,
        0.4076322317123413,
        0.10956484824419022,
        -0.12860512733459473,
        -0.06098460033535957,
        0.06668586283922195,
        -0.01649520918726921,
        0.16780781745910645,
        0.12386946380138397,
        -0.10385020077228546,
        -0.07777885347604752,
        -0.08324004709720612,
        0.0003757815866265446,
        0.02841835469007492,
        -0.08845755457878113,
        0.11127878725528717,
        0.032240722328424454,
        -0.1562652587890625,
        -0.08589521795511246,
        0.04659579321742058,
        0.15007007122039795,
        -0.131927952170372,
        -0.09788253903388977,
        0.15585727989673615,
        -0.08937961608171463,
        -0.12309378385543823,
        -0.12402975559234619,
        -0.05887207016348839,
        -0.047107402235269547,
        -0.03669249638915062,
        0.11425746232271194,
        -0.046150412410497665,
        0.03210766613483429,
        -0.07930818945169449,
        -0.007354686968028545,
        -0.14387258887290955,
        -0.16440190374851227,
        0.14209775626659393,
        0.027730485424399376,
        0.16120000183582306,
        0.2064923346042633,
        0.15950870513916016,
        0.031036747619509697,
        -0.03824838250875473,
        -0.0728704109787941,
        0.15809647738933563,
        0.01290006935596466,
        -0.022502366453409195,
        -0.022553227841854095,
        -0.11525553464889526,
        0.4166968762874603,
        -0.049711644649505615,
        -0.0023459219373762608,
        -0.2750481367111206,
        0.09680525213479996,
        0.004829186014831066,
        0.07746922969818115,
        0.17247630655765533,
        -0.11298087984323502,
        0.06355833262205124,
        -0.1392626166343689,
        -0.09081532061100006,
        0.09930644929409027,
        0.10165536403656006,
        -0.059073030948638916,
        -0.04278849437832832,
        0.17750728130340576,
        0.05626722797751427,
        0.15341390669345856,
        0.1640171855688095,
        -0.06242623180150986,
        0.02729889564216137,
        0.008788922801613808,
        -0.2059040516614914,
        0.15318696200847626,
        0.051354166120290756,
        -0.06402123719453812,
        0.02907957136631012,
        0.05441450700163841,
        -0.10731161385774612,
        -0.09067930281162262,
        0.15356002748012543,
        0.1520063430070877,
        0.060929469764232635,
        0.004951190203428268,
        -0.16446945071220398,
        -0.0732378289103508,
        0.14621751010417938,
