{
  "defaults": {},
  "inputs": [
    {
      "name": "DNNinput_ttag__channel",
      "offset": 3.0,
      "scale": 0.16666666666666666
    },
    {
      "name": "DNNinput_ttag__year",
      "offset": 3.0,
      "scale": 0.16666666666666666
    },
    {
      "name": "DNNinput_ttag__met_pt",
      "offset": -0.0,
      "scale": 0.0005
    },
    {
      "name": "DNNinput_ttag__met_phi",
      "offset": 4.0,
      "scale": 0.125
    },
    {
      "name": "DNNinput_ttag__lepton_pt",
      "offset": -0.0,
      "scale": 0.0005
    },
    {
      "name": "DNNinput_ttag__lepton_eta",
      "offset": 5.0,
      "scale": 0.1
    },
    {
      "name": "DNNinput_ttag__lepton_phi",
      "offset": 4.0,
      "scale": 0.125
    },
    {
      "name": "DNNinput_ttag__lepton_charge",
      "offset": 1.0,
      "scale": 0.5
    },
    {
      "name": "DNNinput_ttag__lepton_dr_nextjet",
      "offset": -0.0,
      "scale": 0.16666666666666666
    },
    {
      "name": "DNNinput_ttag__lepton_dphi_nextjet",
      "offset": -0.0,
      "scale": 0.25
    },
    {
      "name": "DNNinput_ttag__lepton_deta_nextjet",
      "offset": -0.0,
      "scale": 0.16666666666666666
    },
    {
      "name": "DNNinput_ttag__lepton_ptrel_nextjet",
      "offset": -0.0,
      "scale": 0.00125
    },
    {
      "name": "DNNinput_ttag__lepton_dr_nextxjet",
      "offset": -0.0,
      "scale": 0.16666666666666666
    },
    {
      "name": "DNNinput_ttag__lepton_dphi_nextxjet",
      "offset": -0.0,
      "scale": 0.25
    },
    {
      "name": "DNNinput_ttag__lepton_deta_nextxjet",
      "offset": -0.0,
      "scale": 0.16666666666666666
    },
    {
      "name": "DNNinput_ttag__lepton_ptrel_nextxjet",
      "offset": -0.0,
      "scale": 0.00125
    },
    {
      "name": "DNNinput_ttag__dphi_lepton_met",
      "offset": -0.0,
      "scale": 0.25
    },
    {
      "name": "DNNinput_ttag__mtw",
      "offset": -0.0,
      "scale": 0.002
    },
    {
      "name": "DNNinput_ttag__pseudotop_m",
      "offset": -0.0,
      "scale": 0.00125
    },
    {
      "name": "DNNinput_ttag__tjet_pt",
      "offset": -0.0,
      "scale": 0.001
    },
    {
      "name": "DNNinput_ttag__tjet_eta",
      "offset": 5.0,
      "scale": 0.1
    },
    {
      "name": "DNNinput_ttag__tjet_phi",
      "offset": 4.0,
      "scale": 0.125
    },
    {
      "name": "DNNinput_ttag__dr_tjet_lepton",
      "offset": -0.0,
      "scale": 0.16666666666666666
    },
    {
      "name": "DNNinput_ttag__dphi_tjet_met",
      "offset": -0.0,
      "scale": 0.25
    },
    {
      "name": "DNNinput_ttag__ptbal_tjet_wboson",
      "offset": 2.0,
      "scale": 0.25
    },
    {
      "name": "DNNinput_ttag__ptbal_tjet_pseudotop",
      "offset": 2.0,
      "scale": 0.25
    },
    {
      "name": "DNNinput_ttag__n_xjets",
      "offset": -0.0,
      "scale": 0.1
    },
    {
      "name": "DNNinput_ttag__ht_xjets",
      "offset": -0.0,
      "scale": 0.001
    },
    {
      "name": "DNNinput_ttag__xjet1pt_pt",
      "offset": -0.0,
      "scale": 0.002
    },
    {
      "name": "DNNinput_ttag__xjet1pt_eta",
      "offset": 5.0,
      "scale": 0.1
    },
    {
      "name": "DNNinput_ttag__xjet1pt_phi",
      "offset": 4.0,
      "scale": 0.125
    },
    {
      "name": "DNNinput_ttag__xjet1pt_deepjet",
      "offset": -0.0,
      "scale": 1.0
    },
    {
      "name": "DNNinput_ttag__mass_xjet1pt_lepton",
      "offset": -0.0,
      "scale": 0.002
    },
    {
      "name": "DNNinput_ttag__dr_xjet1pt_lepton",
      "offset": -0.0,
      "scale": 0.16666666666666666
    },
    {
      "name": "DNNinput_ttag__dr_xjet1pt_tjet",
      "offset": -0.0,
      "scale": 0.16666666666666666
    },
    {
      "name": "DNNinput_ttag__xjet1dj_pt",
      "offset": -0.0,
      "scale": 0.002
    },
    {
      "name": "DNNinput_ttag__xjet1dj_eta",
      "offset": 5.0,
      "scale": 0.1
    },
    {
      "name": "DNNinput_ttag__xjet1dj_phi",
      "offset": 4.0,
      "scale": 0.125
    },
    {
      "name": "DNNinput_ttag__xjet1dj_deepjet",
      "offset": -0.0,
      "scale": 1.0
    },
    {
      "name": "DNNinput_ttag__mass_xjet1dj_lepton",
      "offset": -0.0,
      "scale": 0.002
    },
    {
      "name": "DNNinput_ttag__dr_xjet1dj_lepton",
      "offset": -0.0,
      "scale": 0.16666666666666666
    },
    {
      "name": "DNNinput_ttag__dr_xjet1dj_tjet",
      "offset": -0.0,
      "scale": 0.16666666666666666
    },
    {
      "name": "DNNinput_ttag__ijet1dj_deepjet",
      "offset": -0.0,
      "scale": 1.0
    },
    {
      "name": "DNNinput_ttag__dr_tjet_xjet",
      "offset": -0.0,
      "scale": 0.16666666666666666
    },
    {
      "name": "DNNinput_ttag__tnearestxjet_pt",
      "offset": -0.0,
      "scale": 0.002
    },
    {
      "name": "DNNinput_ttag__tnearestxjet_eta",
      "offset": 5.0,
      "scale": 0.1
    },
    {
      "name": "DNNinput_ttag__tnearestxjet_phi",
      "offset": 4.0,
      "scale": 0.125
    },
    {
      "name": "DNNinput_ttag__tnearestxjet_deepjet",
      "offset": -0.0,
      "scale": 1.0
    }
  ],
  "layers": [
    {
      "activation": "rectified",
      "architecture": "dense",
      "bias": [
        0.007589445449411869,
        0.002667326247319579,
        -0.004008177667856216,
        -0.003598047886043787,
        -0.007739346474409103,
        0.007191553246229887,
        0.01726737804710865,
        0.024424904957413673,
        0.01363534014672041,
        0.009348602965474129,
        0.013473838567733765,
        -0.004824063740670681,
        0.010307456366717815,
        0.023876521736383438,
        -0.0008800060604698956,
        -0.0012399002443999052,
        -0.010981129482388496,
        0.017730271443724632,
        0.014561309479176998,
        0.006255293730646372,
        0.024610867723822594,
        0.03965068608522415,
        0.016889791935682297,
        -0.0041611334308981895,
        -0.007940699346363544,
        -0.015781208872795105,
        -0.004081003833562136,
        -0.002898730570450425,
        0.004381318110972643,
        -0.010176324285566807,
        0.002297251718118787,
        0.0032599898986518383,
        -0.002616259502246976,
        0.015123413875699043,
        0.0020503969863057137,
        -0.0009574994328431785,
        -0.005211552605032921,
        0.02099856361746788,
        0.0365135483443737,
        0.007307225838303566,
        0.011625286191701889,
        -0.0030511897057294846,
        0.010092219337821007,
        0.01737813465297222,
        0.015163521282374859,
        0.0023272407706826925,
        -0.007337122689932585,
        -0.004070593975484371,
        0.009356919676065445,
        0.011595703661441803,
        -0.024655817076563835,
        -0.012092630378901958,
        0.018435994163155556,
        6.240845686988905e-05,
        0.002739178016781807,
        -0.005027296021580696,
        0.013494376093149185,
        0.0239569079130888,
        -0.006593293510377407,
        0.0022238430101424456,
        -0.00041853872244246304,
        0.009532909840345383,
        0.032067056745290756,
        0.015008741989731789,
        -0.005639451090246439,
        0.036555688828229904,
        0.019642505794763565,
        -0.007730288431048393,
        0.006032766308635473,
        0.00624659052118659,
        -0.01108659990131855,
        0.04635724052786827,
        -0.0057740407064557076,
        0.00011728085519280285,
        -0.008469502441585064,
        0.008712087757885456,
        0.027543647214770317,
        -0.007472758647054434,
        -0.0038827129174023867,
        -0.012560432776808739,
        0.032989371567964554,
        0.0006254508043639362,
        0.031011471524834633,
        0.005912655498832464,
        0.024282028898596764,
        0.03602311760187149,
        0.005471725016832352,
        0.009564843960106373,
        0.004579321946948767,
        -0.0017147675389423966,
        -0.012719999998807907,
        0.001217369455844164,
        -0.00439476128667593,
        0.01223125122487545,
        0.01628069020807743,
        0.000505911186337471,
        0.021228397265076637,
        0.020512156188488007,
        0.008364190347492695,
        0.002110007917508483,
        0.015343854203820229,
        0.00947852898389101,
        -0.010157909244298935,
        0.002745468635112047,
        -0.012050052173435688,
        0.011148684658110142,
        0.00389635912142694,
        0.0015073902904987335,
        -0.015151134692132473,
        0.00416151899844408,
        -0.00750548904761672,
        -0.001140850828960538,
        0.0037493426352739334,
        0.018053892999887466,
        -0.004843557719141245,
        -3.2112682674778625e-05,
        -0.00272408127784729,
        -0.004396630916744471,
        -0.010555604472756386,
        0.02145317569375038,
        -0.025015825405716896,
        0.006365802604705095,
        0.0017731217667460442,
        0.016928227618336678,
        0.010798539035022259,
        0.009985796175897121,
        0.04944876581430435,
        -0.0005122777074575424
      ],
      "weights": [
        0.03990331292152405,
        0.12494488060474396,
        0.2374805361032486,
        0.08919215947389603,
        0.3756057918071747,
        0.06892481446266174,
        0.059150248765945435,
        0.02071116305887699,
        -0.06266920268535614,
        0.13792608678340912,
        -0.06093364581465721,
        -0.007485422771424055,
        -0.17253372073173523,
        -0.15385957062244415,
        -0.09991174936294556,
        -0.053050391376018524,
        -0.08881287276744843,
        0.04511186107993126,
        0.14214831590652466,
        0.12605834007263184,
        0.012588086538016796,
        0.18053200840950012,
        -0.01071159914135933,
        0.03992832452058792,
        0.15875646471977234,
        -0.008626626804471016,
        -0.132838174700737,
        -0.007074229419231415,
        0.1504758894443512,
        0.1090681329369545,
        -0.006383200641721487,
        0.03746363893151283,
        0.021001718938350677,
        0.03633125498890877,
        -0.08041168004274368,
        -0.030024059116840363,
        -0.05765766650438309,
        -0.10629287362098694,
        -0.035727519541978836,
        -0.09080734103918076,
        0.17171375453472137,
        0.10933263599872589,
        -0.1806465983390808,
        -0.032290901988744736,
        0.12976446747779846,
        0.01706431806087494,
        0.1162523403763771,
        0.06463509798049927,
        0.11389698088169098,
        0.06799795478582382,
        0.10504072159528732,
        -0.14881129562854767,
        -0.1195380911231041,
        -0.13239485025405884,
        0.091358482837677,
        0.014261480420827866,
        -0.16452936828136444,
        0.04563664272427559,
        0.2141178846359253,
        -0.141426220536232,
        -0.0006149274995550513,
        0.030261263251304626,
        0.1215083971619606,
        0.10394608974456787,
        0.13804028928279877,
        -0.16820229589939117,
        -0.05296066403388977,
        0.12831799685955048,
        0.15638397634029388,
        -0.16545872390270233,
        0.09873026609420776,
        -0.19629712402820587,
        -0.08259781450033188,
        -0.030865104869008064,
        0.17183764278888702,
        0.15217295289039612,
        -0.1255858987569809,
        -0.07339280843734741,
        0.1797909289598465,
        0.033801496028900146,
        0.06409481912851334,
        0.15416905283927917,
        -0.15249298512935638,
        -0.12713181972503662,
        0.03964885324239731,
        -0.15912479162216187,
        -0.12222862988710403,
        -0.0470576174557209,
        0.11536698788404465,
        -0.13856177031993866,
        -0.3186371624469757,
        -0.05008777230978012,
        -0.0879758819937706,
        0.0031874501146376133,
        0.06944797933101654,
        -0.1403113603591919,
        -0.09367293864488602,
        0.08203184604644775,
        -0.05262921750545502,
        0.02596374787390232,
        -0.16146379709243774,
        -0.18806369602680206,
        0.007329581305384636,
        -0.038353946059942245,
        0.11391118168830872,
        0.14879527688026428,
        0.07537996023893356,
        -0.04187089204788208,
        0.10882354527711868,
        0.15068036317825317,
        0.141653373837471,
        0.06964512169361115,
        -0.1585700660943985,
        -0.026419755071401596,
        -0.0721224844455719,
        -0.05706244707107544,
        -0.12294584512710571,
        -0.15670576691627502,
        -0.07499022036790848,
        0.090905100107193,
        0.10542730987071991,
        -0.07327055931091309,
        -0.08400240540504456,
        0.029413212090730667,
        0.15018963813781738,
        0.18475118279457092,
        -0.07230167090892792,
        -0.15522709488868713,
        -0.04914618656039238,
        0.010266875848174095,
        0.014191175810992718,
        -0.06362167000770569,
        -0.1701756864786148,
        -0.05089215934276581,
        -0.1773131638765335,
        -0.12528616189956665,
        0.11204829812049866,
        -0.17338892817497253,
        -0.21020109951496124,
        -0.11416377127170563,
        -0.13099080324172974,
        -0.08124034851789474,
        0.13907764852046967,
        -0.011191967874765396,
        0.08471447974443436,
        -0.1544570028781891,
        0.10929545760154724,
        0.09997615218162537,
        -0.30735889077186584,
        -0.12173960357904434,
        -0.17467810213565826,
        0.09853806346654892,
        -0.0502171590924263,
        -0.21044254302978516,
        -0.11429977416992188,
        -0.1007402166724205,
        -0.009390543214976788,
        0.1309661567211151,
        0.015560985542833805,
        -0.08027870953083038,
        -0.12543407082557678,
        -0.006565606687217951,
        -0.15128135681152344,
        0.028134094551205635,
        -0.10753200203180313,
        0.1045929417014122,
        -0.09313394129276276,
        0.14547854661941528,
        -0.042344946414232254,
        -0.05739463120698929,
        0.032041240483522415,
        0.03162390738725662,
        0.133069708943367,
        -0.10827543586492538,
        0.0032633498776704073,
        -0.09022488445043564,
        0.08600979298353195,
        0.04119247570633888,
        0.11073663830757141,
        -0.09897708892822266,
        -0.09891504794359207,
        -0.09631042182445526,
        0.01672976464033127,
        -0.05303940549492836,
        -0.14198291301727295,
        -0.06783783435821533,
        0.14550389349460602,
        -0.17409735918045044,
        0.04576475918292999,
        -0.07201209664344788,
        0.11526163667440414,
        -0.04373688995838165,
        -0.18440520763397217,
        -0.014896446838974953,
        -0.019200241193175316,
        -0.18619106709957123,
        -0.16737352311611176,
        -0.01757839322090149,
        -0.0904981717467308,
        0.11307056248188019,
        -0.07431942969560623,
        -0.10677912086248398,
        -0.09285640716552734,
        0.11388428509235382,
        -0.04006417840719223,
        -0.0783972516655922,
        0.161532923579216,
        0.1313326209783554,
        -0.10522136092185974,
        -0.0011761471396312118,
        0.03439118340611458,
        0.18761952221393585,
        0.15928983688354492,
        -0.13110779225826263,
        -0.14177873730659485,
        0.11346892267465591,
        -0.07453975826501846,
        -0.16022682189941406,
        0.06617770344018936,
        0.012093257158994675,
        -0.016994325444102287,
        -0.09271649271249771,
        -0.11554227769374847,
        -0.1525241881608963,
        0.03990163654088974,
        -0.07107442617416382,
        0.033503059297800064,
        -0.06540283560752869,
        -0.17854416370391846,
        -0.14710497856140137,
        0.11270333081483841,
        -0.12487678974866867,
        0.17456625401973724,
        -0.06109430268406868,
        0.053692590445280075,
        0.019481806084513664,
        -0.14604641497135162,
        0.16312314569950104,
        -0.10128147900104523,
        0.13006485998630524,
        -0.08771655708551407,
        0.10149437934160233,
        -0.04206690564751625,
        -0.04286288470029831,
        -0.18282410502433777,
        -0.14330096542835236,
        -0.06242426857352257,
        -0.06804438680410385,
        -0.044179122895002365,
        -0.16126689314842224,
        0.11321963369846344,
        -0.056306302547454834,
        -0.06771091371774673,
        -0.09502287954092026,
        0.0011227314826101065,
        0.04881647601723671,
        -0.06225243955850601,
        0.11200227588415146,
        -0.06209453567862511,
        -0.11791887134313583,
        0.009548992849886417,
        -0.08554002642631531,
        0.15600936114788055,
        -0.11011820286512375,
        0.09295620024204254,
        -0.06222284957766533,
        0.15372492372989655,
        -0.12232603132724762,
        -0.01781049370765686,
        0.14640618860721588,
        -0.09298168122768402,
        0.16653349995613098,
        0.01512706559151411,
        -0.11729749292135239,
        -0.15015096962451935,
        0.06617811322212219,
        0.02165229432284832,
        0.02796877548098564,
        -0.14970868825912476,
        0.06189590319991112,
        0.19977879524230957,
        -0.1556253433227539,
        0.043426964432001114,
        0.18239544332027435,
        -0.01241946592926979,
        0.05808204412460327,
        0.11847563087940216,
        0.1657881736755371,
        0.05003330856561661,
        -0.10720162838697433,
        -0.09975914657115936,
        0.08676567673683167,
        -0.09210254997015,
        0.025427524000406265,
        -0.05376755818724632,
        -0.16095323860645294,
        0.10608842968940735,
        0.16237850487232208,
        -0.12454800307750702,
        -0.07807883620262146,
        0.13696761429309845,
        0.01799861714243889,
        -0.09283503144979477,
        -0.15088535845279694,
        0.13651379942893982,
        -0.011445940472185612,
        -0.13589711487293243,
        0.18206912279129028,
        -0.019169168546795845,
        0.08523119986057281,
        0.12141232192516327,
        0.03336930647492409,
        -0.15584953129291534,
        0.11856023222208023,
        0.05915314704179764,
        0.047621212899684906,
        -0.17056401073932648,
        0.1688200831413269,
        -0.12310060113668442,
        -0.10724304616451263,
        -0.09139107167720795,
        0.19249914586544037,
        0.14580391347408295,
        -0.1180708110332489,
        -0.12215700000524521,
        -0.04432494938373566,
        0.09790382534265518,
        0.10161658376455307,
        -0.08600587397813797,
        0.09457927197217941,
        0.041397757828235626,
        -0.12637335062026978,
        -0.036116380244493484,
        -0.14790290594100952,
        0.1808917075395584,
        0.04320233687758446,
        0.007519497536122799,
        0.1283600777387619,
        0.12076576799154282,
        -0.07118827104568481,
        0.03966084122657776,
        0.14671175181865692,
        0.07965457439422607,
        -0.08788423240184784,
        -0.15787973999977112,
        -0.11590052396059036,
        0.17338187992572784,
        -0.06609414517879486,
        -0.06217455863952637,
        -0.07133765518665314,
        -0.033165011554956436,
        -0.03824954107403755,
        0.016301071271300316,
        0.058973073959350586,
        -0.009899549186229706,
        0.14320369064807892,
        -0.035234108567237854,
        0.09023977071046829,
        0.03083210438489914,
        -0.07785310596227646,
        -0.05704623833298683,
        -0.036615729331970215,
        -0.08569894731044769,
        -0.11517440527677536,
        -0.073009192943573,
        0.06664253026247025,
        -0.11804099380970001,
        0.1003090962767601,
        -0.13347268104553223,
        0.03428758680820465,
        0.08409549295902252,
        0.12051737308502197,
        -0.06856326013803482,
        0.01748725213110447,
        0.07776989042758942,
        -0.26148542761802673,
        -0.04143329709768295,
        0.01708103157579899,
        0.1322992891073227,
        -0.053889743983745575,
        -0.09582517296075821,
        -0.1599143147468567,
        0.12092822045087814,
        0.09674669057130814,
        0.04098881781101227,
        0.20245783030986786,
        0.24117255210876465,
        0.02490934357047081,
        0.10266365110874176,
        0.06031983718276024,
        0.0657140389084816,
        0.026581773534417152,
        -0.057478539645671844,
        -0.05899300053715706,
        0.014843250624835491,
        0.15370170772075653,
        0.18750356137752533,
        0.022682249546051025,
        0.1976933479309082,
        0.15976549685001373,
        -0.10298466682434082,
        -0.0015207796823233366,
        0.19187958538532257,
        -0.06758927553892136,
        -0.04812515899538994,
        0.2039903849363327,
        0.1596611589193344,
        0.07508589327335358,
        0.19087238609790802,
        0.07931545376777649,
        0.0925278589129448,
        0.08862368762493134,
        -0.08888747543096542,
        0.18977251648902893,
        -0.06683480739593506,
        0.12774774432182312,
        0.08873417973518372,
        0.12637677788734436,
        0.07008502632379532,
        -0.04940753057599068,
        -0.11794866621494293,
        0.073606476187706,
        0.20574449002742767,
        -0.08130636811256409,
        -0.17008860409259796,
        0.12039875239133835,
        -0.030133845284581184,
        -0.09604646265506744,
        -0.05419265851378441,
        -0.1334235519170761,
        -0.06960287690162659,
        0.14343930780887604,
        -0.11332938075065613,
        0.058318283408880234,
        -0.05518094822764397,
        -0.1308634877204895,
        0.4219990670681,
        -0.10613798350095749,
        -0.07693131268024445,
        0.09055861085653305,
        -0.04365001991391182,
        -0.01397349126636982,
        -0.16681361198425293,
        0.13824735581874847,
        -0.01418074406683445,
        -0.15403053164482117,
        0.12001502513885498,
        0.1270896941423416,
        0.11556973308324814,
        -0.02479991689324379,
        -0.08579196035861969,
        -0.08660659939050674,
        0.13609610497951508,
        -0.17547771334648132,
        -0.08861637115478516,
        0.04280875250697136,
        -0.01861530914902687,
        0.09131597727537155,
        0.005346701946109533,
        0.08099692314863205,
        0.13027255237102509,
        0.19083797931671143,
        -0.054152004420757294,
        -0.0749439150094986,
        -0.08906645327806473,
        0.08564677089452744,
        -0.1434825360774994,
        -0.0654468908905983,
        0.10637747496366501,
        -0.04538954794406891,
        -0.08728833496570587,
        -0.06042954698204994,
        0.023555969819426537,
        -0.045777928084135056,
        0.060338955372571945,
        0.10558520257472992,
        0.08481942117214203,
        0.011350838467478752,
        0.005987362004816532,
        -0.17350758612155914,
        -0.0791841447353363,
        0.07873202115297318,
        0.13405781984329224,
        0.07580860704183578,
        -0.13208742439746857,
        0.17566770315170288,
        0.028402425348758698,
        -0.1614333689212799,
        0.1568881720304489,
        0.11749257147312164,
        -0.0072149792686104774,
        -0.11014731228351593,
        -0.026818186044692993,
        0.15879231691360474,
        0.1716788113117218,
        0.07975678145885468,
        -0.1467355489730835,
        0.1642039716243744,
        -0.06276112049818039,
        -0.11018070578575134,
        -0.017240062355995178,
        -0.00574627798050642,
        0.002180475741624832,
        0.1423282027244568,
        -0.043828170746564865,
        0.07237005233764648,
        0.06564846634864807,
        0.18085040152072906,
        -0.14937424659729004,
        -0.1054842621088028,
        -0.07878761738538742,
        -0.12886203825473785,
        0.17808270454406738,
        0.15706616640090942,
        0.06099797785282135,
        0.007934452034533024,
        -0.15599191188812256,
        -0.011732500046491623,
        0.09785650670528412,
        -0.17377324402332306,
        0.056918878108263016,
        -0.09832901507616043,
        -0.12086249142885208,
        0.07984970510005951,
        -0.01139496173709631,
        -0.0463162362575531,
        0.15772362053394318,
        -0.06634725630283356,
        0.041975852102041245,
        0.11236365139484406,
        -0.1840265393257141,
        0.1450921595096588,
        0.07719352096319199,
        -0.16967977583408356,
        0.03711286187171936,
        -0.04862302914261818,
        0.12134413421154022,
        0.0058341482654213905,
        -0.031171968206763268,
        -0.03646795451641083,
        -0.025321273133158684,
        -0.024869244545698166,
        -0.14518111944198608,
        0.003179968800395727,
        -0.04554446041584015,
        0.08621625602245331,
        0.07492183148860931,
        -0.03823510929942131,
        0.1840844452381134,
        -0.09022054821252823,
        0.17685456573963165,
        -0.12369725108146667,
        0.14410419762134552,
        -0.01580667681992054,
        -0.04642832651734352,
        0.09557659178972244,
        -0.05316942185163498,
        0.17158769071102142,
        0.056139517575502396,
        -0.11512602120637894,
        0.04611459746956825,
        -0.1267310231924057,
        -0.02591710165143013,
        -0.2180851399898529,
        0.02467881143093109,
        -0.10171600431203842,
        -0.13620811700820923,
        0.09476888924837112,
        -0.1391306221485138,
        -0.1409473866224289,
        0.16703006625175476,
        0.17599119246006012,
        -0.12417425960302353,
        -0.019384082406759262,
        0.07230287790298462,
        0.0011153968516737223,
        -0.1394919902086258,
        -0.14904527366161346,
        -0.037349406629800797,
        -0.0994272381067276,
        -0.2365953028202057,
        0.08683896064758301,
        -0.12684626877307892,
        0.06348904967308044,
        -0.0735931470990181,
        0.0511205680668354,
        0.12577539682388306,
        0.0963730588555336,
        0.022279493510723114,
        -0.15974533557891846,
        0.07446687668561935,
        -0.12097028642892838,
        0.1225569099187851,
        -0.21820972859859467,
        -0.22148138284683228,
        -0.03502525016665459,
        -0.05712993070483208,
        0.15386468172073364,
        0.04460432380437851,
        -0.043008655309677124,
        -0.06442397087812424,
        0.14256004989147186,
        0.020425895228981972,
        0.1824030876159668,
        0.0809902623295784,
        0.1189366951584816,
        0.1605483442544937,
        -0.16213840246200562,
        -0.016911037266254425,
        0.026553425937891006,
        0.1621248722076416,
        0.0840371772646904,
        0.11324652284383774,
        -0.12082167714834213,
        0.03763091191649437,
        0.009199933148920536,
        0.17998862266540527,
        -0.05613640695810318,
        0.060121797025203705,
        0.1236652135848999,
        0.19255772233009338,
        -0.009743939153850079,
        0.003043172648176551,
        -0.09148047864437103,
        -0.07246032357215881,
        0.0682026818394661,
        -0.24817527830600739,
        0.08349258452653885,
        0.3097502291202545,
        0.1294492930173874,
        -0.04716188460588455,
        -0.1423528492450714,
        0.0028907854575663805,
        0.1256314069032669,
        -0.21456356346607208,
        0.058248940855264664,
        0.04734012112021446,
        -0.12317385524511337,
        -0.14888890087604523,
        -0.05373745039105415,
        0.05870238319039345,
        0.20207715034484863,
        0.06218160316348076,
        0.11736899614334106,
        -0.04129698872566223,
        0.1315515786409378,
        0.06849130243062973,
        0.08791018277406693,
        0.14011794328689575,
        0.16066525876522064,
        -0.11569112539291382,
        -0.18155261874198914,
        -0.1576768457889557,
        -0.00691300630569458,
        0.08026986569166183,
        0.07320117205381393,
        -0.24847076833248138,
        -0.1296725571155548,
        -0.061195965856313705,
        -0.12511232495307922,
        -0.014373811893165112,
        -0.09104272723197937,
        0.055608831346035004,
        -0.321332186460495,
        -0.1788855791091919,
        0.050416138023138046,
        0.0179870817810297,
        0.1313575953245163,
        -0.022507183253765106,
        -0.09903288632631302,
        0.0453123115003109,
        -0.05289308354258537,
        -0.13915833830833435,
        -0.16406084597110748,
        -0.1386319398880005,
        0.04066969454288483,
        -0.050224609673023224,
        -0.007037125062197447,
        -0.020555036142468452,
        0.0764484629034996,
        0.14931903779506683,
        -0.0713723823428154,
        -0.11178027838468552,
        -0.014930668286979198,
        0.17247413098812103,
        -0.11674796044826508,
        0.06538764387369156,
        -0.09607411175966263,
        0.02851272001862526,
        0.023013886064291,
        -0.05776330083608627,
        -0.047937631607055664,
        -0.1443338841199875,
        -0.09158529341220856,
        -0.030055079609155655,
        -0.09240609407424927,
        0.04404163733124733,
        0.06370208412408829,
        -0.02179338037967682,
        -0.057297658175230026,
        -0.03854360803961754,
        0.05915747210383415,
        -0.12879228591918945,
        0.1767943799495697,
        -0.06762464344501495,
        0.024053027853369713,
        -0.06926032900810242,
        0.07878980785608292,
        -0.09628614783287048,
        0.08671088516712189,
        0.15313474833965302,
        -0.10481833666563034,
        -0.13786715269088745,
        -0.1621045172214508,
        0.06117020919919014,
        -0.12277751415967941,
        -0.0684572160243988,
        0.043878164142370224,
        0.0023787193931639194,
        -0.106761634349823,
        -0.13843484222888947,
        -0.09330061078071594,
        0.23897017538547516,
        0.06928522884845734,
        0.17596997320652008,
        0.05612551048398018,
        0.06751850247383118,
        0.04829210042953491,
        0.198968306183815,
        0.12760232388973236,
        -0.185922771692276,
        0.1331370621919632,
        -0.053287941962480545,
        0.17128388583660126,
        -0.06407670676708221,
        -0.08950386196374893,
        -0.056686025112867355,
        -0.030637426301836967,
        0.13909533619880676,
        -0.016701271757483482,
        -0.08312178403139114,
        0.08071929216384888,
        -0.04869924858212471,
        -0.11255849897861481,
        0.10541331768035889,
        0.0021854322403669357,
        -0.009887604974210262,
        -0.10845141857862473,
        0.05192127078771591,
        -0.1391180157661438,
        -0.09674271941184998,
        0.07441782206296921,
        0.13892662525177002,
        -0.13171152770519257,
        -0.007633631117641926,
        -0.040942564606666565,
        -0.1655581295490265,
        -0.1569059044122696,
        -0.043199311941862106,
        -0.14954209327697754,
        -0.07361683994531631,
        -0.009487505070865154,
        -0.20952525734901428,
        -0.11907285451889038,
        0.05787874013185501,
        0.13434049487113953,
        -0.11718106269836426,
        -0.11103149503469467,
        0.15256719291210175,
        0.14526668190956116,
        0.16168804466724396,
        -0.18134494125843048,
        0.2715297341346741,
        0.06087236478924751,
        -0.09365832805633545,
        0.026032008230686188,
        -0.20377464592456818,
        0.06630107015371323,
        -0.1929188072681427,
        0.05673381686210632,
        -0.13163484632968903,
        -0.033990342170000076,
        0.0022866821382194757,
        -0.021833814680576324,
        0.020362025126814842,
        0.14173969626426697,
        0.15096449851989746,
        -0.16601644456386566,
        0.1543481945991516,
        -0.0020547891035676003,
        -0.0759740024805069,
        -0.06370225548744202,
        -0.062125809490680695,
        0.07566548138856888,
        -0.1835637092590332,
        0.13255132734775543,
        -0.007272631861269474,
        0.18192102015018463,
        0.15482623875141144,
        -0.17721499502658844,
        -0.06291095167398453,
        -0.11641941964626312,
        0.0757533609867096,
        0.02252095565199852,
        0.1607050895690918,
        -0.12080825865268707,
        0.09126176685094833,
        0.0202470850199461,
        -0.015703963115811348,
        -0.13969536125659943,
        -0.024120820686221123,
        -0.08334732800722122,
        -0.10972161591053009,
        0.021790355443954468,
        -0.10208440572023392,
        0.04127820208668709,
        -0.10407595336437225,
        -0.014437206089496613,
        -0.09529773890972137,
        -0.15433739125728607,
        0.140534445643425,
        0.00781853124499321,
        -0.08759834617376328,
        0.013902070000767708,
        -0.15130114555358887,
        -0.06880837678909302,
        0.15933531522750854,
        0.15634460747241974,
        0.09996174275875092,
        -0.08183612674474716,
        0.0724787712097168,
        -0.051585908979177475,
        0.14705121517181396,
        -0.06505537778139114,
        -0.07775302976369858,
        0.13749435544013977,
        0.17197294533252716,
        0.08873998373746872,
        0.1593485027551651,
        0.17829366028308868,
        0.12302286922931671,
        0.13743287324905396,
        -0.12370626628398895,
        -0.09064143151044846,
        0.006996553856879473,
        -0.09031761437654495,
        -0.04841705784201622,
        0.05390295013785362,
        0.152475044131279,
        -0.14429223537445068,
        0.014778141863644123,
        0.20829017460346222,
        -0.06309735774993896,
        -0.11468605697154999,
        -0.16377738118171692,
        0.09135531634092331,
        -0.15289033949375153,
        0.1085672602057457,
        -0.18567952513694763,
        -0.10974360257387161,
        0.07880037277936935,
        0.12329409271478653,
        0.021631399169564247,
        0.09186656773090363,
        0.09012898057699203,
        -0.059056442230939865,
        -0.07112051546573639,
        0.05406072735786438,
        -0.17703203856945038,
        -0.04093116894364357,
        0.04408799111843109,
        -0.09043873846530914,
        0.07844089716672897,
        0.0876288115978241,
        0.05567259341478348,
        0.13627614080905914,
        0.06441539525985718,
        0.10696177184581757,
        0.03890896961092949,
        0.11370839923620224,
        -0.16442309319972992,
        0.17386052012443542,
        0.08784057199954987,
        0.019274888560175896,
        0.11589783430099487,
        0.1550975739955902,
        0.10837988555431366,
        0.0232736486941576,
        -0.1259881854057312,
        0.0377260260283947,
        0.07745745778083801,
        -0.17215615510940552,
        0.08735674619674683,
        0.11125871539115906,
        -0.0026325739454478025,
        0.04837710037827492,
        -0.10357481241226196,
        -0.06500528007745743,
        -0.01406992506235838,
        0.01571718603372574,
        0.00563177140429616,
        0.03587944060564041,
        -0.0789753720164299,
        0.05393540486693382,
        -0.17093759775161743,
        -0.17674317955970764,
        0.18265680968761444,
        -0.11066703498363495,
        0.03756927698850632,
        -0.0954863578081131,
        0.15154463052749634,
        -0.15230818092823029,
        0.10248322784900665,
        -0.1681167185306549,
        0.2001040130853653,
        -0.14609165489673615,
        -0.04436921700835228,
        0.10273286700248718,
        0.057445574551820755,
        0.12654104828834534,
        0.17355553805828094,
        -0.0809229239821434,
        -0.12431728839874268,
        0.17291676998138428,
        0.05524766072630882,
        0.10449589788913727,
        0.15024611353874207,
        0.034977253526449203,
        0.19195349514484406,
        -0.09025194495916367,
        -0.11468999087810516,
        0.07532534748315811,
        -0.11909044533967972,
        0.09975983947515488,
        -0.05671052262187004,
        0.138680562376976,
        -0.02072640135884285,
        -0.15462324023246765,
        -0.10225464403629303,
        0.10551189631223679,
        0.004351829178631306,
        -0.07412170618772507,
        -0.049384571611881256,
        0.04876832664012909,
        -0.13235275447368622,
        -0.08194737881422043,
        -0.019772913306951523,
        0.00759935425594449,
        -0.08076287060976028,
        0.17883771657943726,
        0.002276223385706544,
        -0.16049747169017792,
        -0.05224720388650894,
        0.07788799703121185,
        -0.3020990490913391,
        -0.03457349166274071,
        0.1332549750804901,
        -0.010517380200326443,
        0.05320608615875244,
        -0.13522855937480927,
        -0.09699255973100662,
        -0.08503428101539612,
        -0.08486782014369965,
        -0.10170629620552063,
        -0.06134466826915741,
        -0.02339635230600834,
        -0.100179523229599,
        -0.04711194336414337,
        0.11366045475006104,
        0.13965293765068054,
        -0.005881527438759804,
        -0.13354448974132538,
        0.025572242215275764,
        -0.11659803986549377,
        0.1627730280160904,
        -0.04709828272461891,
        -0.015670575201511383,
        0.1747821718454361,
        -0.14385449886322021,
        -0.10777075588703156,
        0.12846601009368896,
        0.13022013008594513,
        0.12742003798484802,
        0.05935985594987869,
        0.035584691911935806,
        -0.032934900373220444,
        -0.0173968356102705,
        0.10394478589296341,
        -0.15254069864749908,
        0.098161481320858,
        0.07348131388425827,
        0.15928134322166443,
        0.04692675173282623,
        0.15324659645557404,
        -0.11365197598934174,
        -0.08421599119901657,
        0.02402775175869465,
        0.12792065739631653,
        0.1601322442293167,
        -0.09523165971040726,
        -0.07885654270648956,
        -0.024212172254920006,
        0.14599362015724182,
        0.17805251479148865,
        -0.10026179254055023,
        0.039888281375169754,
        0.002310751471668482,
        0.052874546498060226,
        0.17432264983654022,
        -0.12281246483325958,
        0.06550516933202744,
        -0.023024264723062515,
        -0.1173490658402443,
        0.2154754102230072,
        0.09288925677537918,
        0.0122902300208807,
        -0.05371467396616936,
        -0.16989587247371674,
        0.1278926581144333,
        -0.02336706593632698,
        0.10819222778081894,
        -0.02700495347380638,
        -0.1128014326095581,
        -0.11857190728187561,
        0.19284874200820923,
        0.14714683592319489,
        0.005522648338228464,
        -0.0825858786702156,
        0.15338188409805298,
        -0.05632847175002098,
        -0.16732433438301086,
        -0.06980736553668976,
        -0.036382537335157394,
        -0.13811460137367249,
        -0.12195020914077759,
        -0.08211768418550491,
        0.03303736448287964,
        0.1629190444946289,
        0.009462609887123108,
        0.21425214409828186,
        0.1259467601776123,
        0.06900009512901306,
        0.08355110883712769,
        0.04635075107216835,
        0.0034524209331721067,
        0.1625332534313202,
        0.0654093399643898,
        -0.08661951124668121,
        -0.1613892912864685,
        0.1878044456243515,
        -0.22092659771442413,
        -0.06480345129966736,
        -0.0744054764509201,
        -0.0935278832912445,
        -0.1053352802991867,
        0.05895005166530609,
        -0.1244681179523468,
        0.13001666963100433,
        -0.13672836124897003,
        0.10960642993450165,
        0.1778912991285324,
        -0.029630914330482483,
        0.12810790538787842,
        0.06835558265447617,
        0.000458468624856323,
        -0.06820005178451538,
        -0.17978480458259583,
        -0.020525282248854637,
        0.07383105903863907,
        -0.17533043026924133,
        0.14419867098331451,
        -0.03194084390997887,
        0.027048122137784958,
        0.10724962502717972,
        -0.16290603578090668,
        -0.16802309453487396,
        0.0011841683881357312,
        0.08722483366727829,
        0.10726910084486008,
        0.17613846063613892,
        0.1701361984014511,
        0.03380811586976051,
        -0.18152475357055664,
        -0.06723948568105698,
        -0.03765775263309479,
        0.04527977481484413,
        -0.02105632796883583,
        -0.045755889266729355,
        -0.22630998492240906,
        -0.10504339635372162,
        0.09860030561685562,
        0.11058112233877182,
        -0.0071654110215604305,
        -0.11212298274040222,
        0.001047635800205171,
        -0.2746434807777405,
        -0.052676498889923096,
        -0.17295880615711212,
        0.2383338212966919,
        -0.1627950668334961,
        0.05591090768575668,
        -0.09356692433357239,
        -0.09028350561857224,
        0.05804399028420448,
        -0.018822260200977325,
        0.16936875879764557,
        0.10747485607862473,
        0.051190413534641266,
        0.25686007738113403,
        0.04011689871549606,
        -0.08802340179681778,
        0.027530841529369354,
        0.1323060691356659,
        -0.11290451139211655,
        -0.1330348402261734,
        0.11711202561855316,
        -0.05490879714488983,
        -0.1323900669813156,
        0.032184068113565445,
        -0.13606667518615723,
        0.044173188507556915,
        -0.0013057243777438998,
        -0.048368990421295166,
        -0.09444310516119003,
        0.08087973296642303,
        0.10525927692651749,
        -0.07002828270196915,
        0.011628351174294949,
        0.014407427050173283,
        0.1617126762866974,
        0.016923492774367332,
        -0.158389151096344,
        -0.15417248010635376,
        0.12358803302049637,
        -0.05219408869743347,
        0.019456539303064346,
        0.06261284649372101,
        0.08749616146087646,
        0.04224289208650589,
        -0.0631243959069252,
        0.110460564494133,
        0.15635640919208527,
        -0.11907946318387985,
        -0.1448214203119278,
        0.06208471953868866,
        -0.17181487381458282,
        -0.16445434093475342,
        -0.009425717405974865,
        -0.1112862303853035,
        -0.17102138698101044,
        0.1348004937171936,
        -0.1400652378797531,
        -0.043209608644247055,
        0.006423853803426027,
        -0.25663289427757263,
        0.1167081817984581,
        0.3730512857437134,
        -0.16554278135299683,
        -0.1044422835111618,
        -0.01773117296397686,
        -0.183087557554245,
        -0.06097710505127907,
        0.11174772679805756,
        -0.12486814707517624,
        0.11510705947875977,
        -0.016662467271089554,
        0.010381651110947132,
        0.09920212626457214,
        0.12708967924118042,
        0.13863319158554077,
        -0.019779380410909653,
        0.13368062674999237,
        -0.008445368148386478,
        -0.05544503405690193,
        -0.09054192155599594,
        -0.008915064856410027,
        0.13827885687351227,
        0.15929165482521057,
        -0.06513374298810959,
        -0.19094766676425934,
        -0.04500521719455719,
        -0.02536563016474247,
        0.06501878052949905,
        -0.002412760630249977,
        0.007351426873356104,
        0.14081603288650513,
        -0.060837194323539734,
        0.04174512252211571,
        -0.17542900145053864,
        -0.02396608516573906,
        0.029490919783711433,
        0.013290541246533394,
        -0.1823721081018448,
        0.15076985955238342,
        0.03479178249835968,
        0.09726126492023468,
        0.005388432648032904,
        -0.026878586038947105,
        0.03715220466256142,
        -0.09097875654697418,
        -0.17464181780815125,
        0.02173599787056446,
        0.15679459273815155,
        -0.08598325401544571,
        0.13320805132389069,
        -0.09682054817676544,
        0.03567174822092056,
        -0.16774515807628632,
        0.03162646293640137,
        -0.15852051973342896,
        0.08343910425901413,
        -0.02813979610800743,
        0.006533932406455278,
        -0.19118845462799072,
        -0.0926445946097374,
        0.1312461793422699,
        -0.19767127931118011,
        0.15010173618793488,
        -0.13540367782115936,
        0.07729008793830872,
        0.08842813968658447,
        -0.010057282634079456,
        -0.022654207423329353,
        -0.16713041067123413,
        -0.16057968139648438,
        -0.06460541486740112,
        -0.006088809575885534,
        0.10630263388156891,
        -0.14796532690525055,
        0.08051326870918274,
        -0.013829396106302738,
        0.08614354580640793,
        -0.10713618248701096,
        0.1169789582490921,
        0.14622682332992554,
        0.09169548004865646,
        0.12947805225849152,
        0.07158473134040833,
        -0.044773638248443604,
        0.020170334726572037,
        0.013631811365485191,
        -0.10496138036251068,
        -0.12033751606941223,
        0.02910294383764267,
        0.11175256222486496,
        0.13827675580978394,
        -0.11803397536277771,
        0.16982686519622803,
        0.08383505791425705,
        0.09940634667873383,
        0.16286906599998474,
        0.03199072554707527,
        -0.08609077334403992,
        -0.151677206158638,
        -0.17050445079803467,
        0.10581671446561813,
        -0.10105917602777481,
        0.10479851067066193,
        -0.10416168719530106,
        -0.11777052283287048,
        0.048746563494205475,
        -0.004080315586179495,
        -0.0795002430677414,
        0.06274840235710144,
        0.02859186939895153,
        -0.13743308186531067,
        -0.04714469984173775,
        -0.06562539935112,
        0.0658319741487503,
        -0.09390871226787567,
        0.125001460313797,
        -0.04352257773280144,
        0.13010524213314056,
        0.08574090898036957,
        -0.0018993278499692678,
        -0.023410214111208916,
        0.020216485485434532,
        -0.12168345600366592,
        0.10383187234401703,
        -0.0609315000474453,
        0.22108536958694458,
        0.05466112121939659,
        -0.03456656634807587,
        0.1852690726518631,
        -0.16737373173236847,
        0.1317642629146576,
        0.040216561406850815,
        0.16386330127716064,
        -0.11479096114635468,
        0.062305379658937454,
        0.13292258977890015,
        0.12392095476388931,
        -0.008936374448239803,
        0.07557208091020584,
        -0.1669131964445114,
        -0.07163483649492264,
        0.051767393946647644,
        0.0421440564095974,
        0.014813457615673542,
        0.11518868803977966,
        -0.13756117224693298,
        -0.16425393521785736,
        0.08378872275352478,
        -0.056719642132520676,
        -0.07037295401096344,
        -0.14912347495555878,
        -0.04899531230330467,
        -0.18059152364730835,
        -0.059274207800626755,
        -0.09559386223554611,
        0.13829997181892395,
        0.07233374565839767,
        -0.09904641658067703,
        -0.07449951767921448,
        -0.16097238659858704,
        0.18262098729610443,
        0.17583857476711273,
        0.10852117091417313,
        -0.11450237035751343,
        -0.15735861659049988,
        0.05044671520590782,
        -0.13338975608348846,
        0.020319480448961258,
        0.08237621188163757,
        0.12324661016464233,
        0.18072840571403503,
        0.014213595539331436,
        0.009724418632686138,
        -0.020838193595409393,
        -0.05955374985933304,
        -0.10842210054397583,
        0.04069714993238449,
        0.11883969604969025,
        0.066068634390831,
        -0.083512082695961,
        0.18067404627799988,
        0.17653948068618774,
        -0.1347050666809082,
        0.22581760585308075,
        0.09964945167303085,
        -0.007386420853435993,
        0.004437960684299469,
        0.08292590081691742,
        -0.07957172393798828,
        0.15410752594470978,
        0.03967373073101044,
        0.13609470427036285,
        -0.13855817914009094,
        -0.1439480483531952,
        0.01705865189433098,
        -0.17421464622020721,
        0.06959538906812668,
        -0.11206653714179993,
        0.11953260749578476,
        0.12010105699300766,
        0.02099555917084217,
        0.16573463380336761,
        -0.09088721871376038,
        -0.018342336639761925,
        -0.21525123715400696,
        0.16563984751701355,
        -0.06196893751621246,
        -0.13734011352062225,
        -0.18155376613140106,
        0.06952019035816193,
        0.04722399264574051,
        -0.028597038239240646,
        0.030528374016284943,
        0.1701599657535553,
        -0.16121603548526764,
        -0.18345798552036285,
        -0.1378793865442276,
        -0.05272315815091133,
        0.18999658524990082,
        0.024548683315515518,
        0.09311364591121674,
        -0.21889939904212952,
        -0.18092764914035797,
        -0.137621209025383,
        -0.07126551121473312,
        -0.08819112926721573,
        0.1195756271481514,
        -0.014624465256929398,
        -0.25576114654541016,
        -0.13606780767440796,
        0.10682287067174911,
        -0.17259185016155243,
        -0.027450716122984886,
        0.0879950299859047,
        0.07548779994249344,
        0.1376844048500061,
        -0.09737051278352737,
        0.00012677237100433558,
        -0.116636723279953,
        0.04687570407986641,
        -0.044881101697683334,
        -0.033813897520303726,
        0.12673431634902954,
        0.10408324003219604,
        0.0673472061753273,
        0.0848536267876625,
        0.10280046612024307,
        0.03143323212862015,
        0.14845158159732819,
        0.1588224321603775,
        -0.09532827138900757,
        -0.11069859564304352,
        -0.1061558946967125,
        -0.1478341817855835,
        0.12362712621688843,
        0.02552374266088009,
        0.2129584699869156,
        -0.11657080799341202,
        0.1262090802192688,
        -0.06249559670686722,
        -0.013250897638499737,
        -0.1358838528394699,
        -0.07951833307743073,
        -0.07501348108053207,
        0.19077306985855103,
        0.17017848789691925,
        -0.12049013376235962,
        -0.11072076112031937,
        -0.003587516490370035,
        0.021226756274700165,
        0.03462633490562439,
        -0.11790801584720612,
        0.1642911732196808,
        0.09351994097232819,
        0.08642858266830444,
        -0.16658316552639008,
        -0.018610844388604164,
        0.06997065991163254,
        0.04396739602088928,
        -0.040098462253808975,
        -0.09113871306180954,
        0.16872559487819672,
        -0.08776669949293137,
        0.08247460424900055,
        0.17476600408554077,
        0.15585078299045563,
        0.10039069503545761,
        0.09034544974565506,
        0.09190011769533157,
        -0.020878270268440247,
        -0.052062492817640305,
        0.11331184208393097,
        0.07848277688026428,
        -0.07374954223632812,
        -0.1255704015493393,
        -0.09123021364212036,
        -0.10823816061019897,
        -0.1249978244304657,
        0.0303664468228817,
        -0.06465943902730942,
        -0.06791248172521591,
        0.010696000419557095,
        -0.05571549013257027,
        -0.14507074654102325,
        0.0674477219581604,
        -0.04647279158234596,
        0.08494151383638382,
        -0.029786648228764534,
        0.005961978808045387,
        0.018918348476290703,
        0.07229316979646683,
        0.02122953161597252,
        0.18276828527450562,
        0.1269351840019226,
        -0.15679654479026794,
        -0.0022693872451782227,
        0.12947385013103485,
        -0.21638084948062897,
        0.04142911359667778,
        -0.16062085330486298,
        0.16657137870788574,
        0.1580418348312378,
        -0.027566533535718918,
        -0.14527404308319092,
        0.08611007034778595,
        0.1680958867073059,
        -0.002245416399091482,
        0.19964295625686646,
        0.048121001571416855,
        0.21808402240276337,
        0.11424266546964645,
        0.09954746812582016,
        0.128218874335289,
        -0.10232574492692947,
        -0.003831102279946208,
        -0.054580383002758026,
        0.1084606796503067,
        0.1052439957857132,
        0.05808230862021446,
        0.07904098927974701,
        0.09344106912612915,
        0.23441386222839355,
        0.09947726875543594,
        0.004607038572430611,
        -0.07531238347291946,
        -0.05699854716658592,
        0.15399177372455597,
        -0.17275632917881012,
        0.07401889562606812,
        0.008289630524814129,
        -0.0925154834985733,
        -0.03728882223367691,
        0.05781969800591469,
        0.03621554747223854,
        0.03653751313686371,
        -0.0065362825989723206,
        -0.1325162798166275,
        0.1919793337583542,
        -0.012243373319506645,
        -0.09044168889522552,
        0.00548875518143177,
        0.11402366310358047,
        -0.11199259757995605,
        0.14779257774353027,
        -0.11185666918754578,
        -0.006588238291442394,
        -0.09720686078071594,
        0.04639951139688492,
        -0.09096123278141022,
        0.15320543944835663,
        0.0770789235830307,
        -0.013512130826711655,
        -0.002772727981209755,
        0.06983678787946701,
        0.026684759184718132,
        0.1548621505498886,
        -0.0958869680762291,
        0.02500678226351738,
        -0.03763788938522339,
        -0.03401333466172218,
        0.14212407171726227,
        0.08964098244905472,
        -0.005386609584093094,
        -0.07801345735788345,
        -0.004529177211225033,
        0.19507504999637604,
        -0.07897692173719406,
        0.09150209277868271,
        -0.024618808180093765,
        0.11851394176483154,
        -0.03769936412572861,
        -0.17129237949848175,
        0.05631953850388527,
        0.12847967445850372,
        0.013662915676832199,
        0.02072848379611969,
        0.17353492975234985,
        0.1036740243434906,
        0.0513339526951313,
        0.05167139694094658,
        0.044740889221429825,
        0.13283421099185944,
        0.168776735663414,
        -0.04104970395565033,
        0.11283108592033386,
        -0.036463554948568344,
        -0.1075565293431282,
        -0.027191758155822754,
        -0.09372816979885101,
        -0.15237894654273987,
        -0.04945450276136398,
        -0.16557136178016663,
        0.00012449093628674746,
        -0.14600665867328644,
        -0.08351710438728333,
        0.16000151634216309,
        0.05446259304881096,
        0.0771271139383316,
        0.1331920176744461,
        -0.007523071952164173,
        0.145500048995018,
        0.17526647448539734,
        0.07212215662002563,
        -0.03909125551581383,
        0.04261469468474388,
        0.10446358472108841,
        -0.1016043946146965,
        0.17478640377521515,
        -0.06453972309827805,
        -0.013557086698710918,
        -0.13216455280780792,
        0.12575174868106842,
        0.09617788344621658,
        0.07577542215585709,
        -0.023922771215438843,
        -0.12224730104207993,
        0.04470299556851387,
        -0.07808797806501389,
        -0.0605502687394619,
        -0.00497423904016614,
        0.1270354688167572,
        -0.133941188454628,
        0.04412633553147316,
        -0.15390674769878387,
        0.12778149545192719,
        0.046886369585990906,
        -0.1041620522737503,
        -0.04135706275701523,
        0.16999346017837524,
        0.010835575871169567,
        0.14609940350055695,
        0.049962788820266724,
        0.1273222267627716,
        0.16913887858390808,
        0.16037386655807495,
        -0.03638991340994835,
        -0.10350655019283295,
        0.040829531848430634,
        -0.11990757286548615,
        -0.0242962297052145,
        0.07408487051725388,
        0.013178507797420025,
        -0.19415578246116638,
        -0.03337528184056282,
        0.07485296577215195,
        0.08045675605535507,
        -0.17332381010055542,
        -0.10768202692270279,
        -0.11720133572816849,
        -0.0689600259065628,
        0.16316744685173035,
        0.07747277617454529,
        -0.011337981559336185,
        0.18808206915855408,
        0.144417405128479,
        0.011344095692038536,
        0.1391735076904297,
        0.08156360685825348,
        0.08925101906061172,
        0.0543626993894577,
        -0.08469869941473007,
        -0.17226652801036835,
        -0.11077766865491867,
        -0.004740042146295309,
        0.04451517388224602,
        0.19393467903137207,
        0.1998259276151657,
        -0.04371603950858116,
        -0.07943471521139145,
        0.17649529874324799,
        -0.1418304294347763,
        -0.13549965620040894,
        0.03485846519470215,
        0.07818403095006943,
        -0.08809048682451248,
        0.032069191336631775,
        -0.006433344911783934,
        0.1599855124950409,
        0.11603578180074692,
        0.1520775705575943,
        -0.14817465841770172,
        0.023269381374120712,
        0.11588279902935028,
        0.09892139583826065,
        0.0009992156410589814,
        -0.02255326882004738,
        0.056509871035814285,
        0.030658384785056114,
        -0.14445602893829346,
        -0.004707000218331814,
        -0.0830894410610199,
        0.15196795761585236,
        -0.01219225861132145,
        0.12994720041751862,
        0.16498945653438568,
        -0.012764864601194859,
        0.028605157509446144,
        0.10970614850521088,
        0.15209749341011047,
        0.012621341273188591,
        0.17987988889217377,
        -0.01805054396390915,
        0.049433790147304535,
        0.05912766978144646,
        -0.05898445099592209,
        -0.1503608673810959,
        -0.0019194830674678087,
        0.2680802643299103,
        -0.045635875314474106,
        0.106865793466568,
        -0.005927709396928549,
        0.04736969247460365,
        0.10763709247112274,
        -0.025694573298096657,
        -0.031596533954143524,
        0.042452163994312286,
        0.12804460525512695,
        0.04345838353037834,
        -0.16578803956508636,
        -0.06023714318871498,
        0.16375617682933807,
        -0.08797425031661987,
        0.13245578110218048,
        -0.08236616104841232,
        0.13209868967533112,
        0.15933024883270264,
        0.15380482375621796,
        -0.04534992575645447,
        0.133330300450325,
        0.04086143523454666,
        -0.14803962409496307,
        -0.1588039994239807,
        -0.07518979907035828,
        -0.04361559823155403,
        -0.06651400029659271,
        0.02680124342441559,
        0.12655340135097504,
        0.0746774673461914,
        0.1484176367521286,
        0.007595304399728775,
        0.11715428531169891,
        0.05402924492955208,
        0.050293970853090286,
        -0.17616930603981018,
        0.10016177594661713,
        -0.05764061585068703,
        0.1583096832036972,
        -0.0773148164153099,
        0.17584270238876343,
        0.10046736896038055,
        0.08914178609848022,
        0.1428009271621704,
        0.07603786885738373,
        0.09656830132007599,
        -0.15915445983409882,
        -0.10919280350208282,
        -0.08766748011112213,
        -0.06262027472257614,
        0.10690534114837646,
        0.18187236785888672,
        -0.08087298274040222,
        -0.06389178335666656,
        0.008468102663755417,
        0.11917679011821747,
        0.11747712641954422,
        0.1553051620721817,
        0.12629598379135132,
        -0.1619119495153427,
        0.12044966220855713,
        -0.169680655002594,
        0.15118278563022614,
        0.20970703661441803,
        -0.04421180114150047,
        0.09653814136981964,
        0.14821921288967133,
        0.058861784636974335,
        0.03422083333134651,
        -0.1437004804611206,
        0.11159741133451462,
        0.04992220923304558,
        0.05521810054779053,
        0.2090052217245102,
        0.036532722413539886,
        -0.1640186756849289,
        -0.0813841000199318,
        0.16316209733486176,
        0.12262069433927536,
        0.027752529829740524,
        0.0041455733589828014,
        -0.16897499561309814,
        0.10175933688879013,
        -0.10162030160427094,
        0.21502332389354706,
        -0.03927231207489967,
        0.1460563987493515,
        -0.024682804942131042,
        -0.025919703766703606,
        -0.0719347819685936,
        0.12492887675762177,
        0.008257930167019367,
        0.12316925078630447,
        -0.14604075253009796,
        -0.1496298909187317,
        0.22217953205108643,
        0.1422954648733139,
        0.3187203109264374,
        0.06343258172273636,
        -0.06764872372150421,
        0.02139066904783249,
        0.175058975815773,
        -0.02894534543156624,
        -0.054858118295669556,
        0.006235428154468536,
        0.20817264914512634,
        0.18436779081821442,
        0.04768143221735954,
        0.12894585728645325,
        -0.0705716535449028,
        0.18245619535446167,
        0.00549678411334753,
        0.1825866401195526,
        0.17864586412906647,
        -0.03874978795647621,
        0.14396528899669647,
        -0.09254970401525497,
        0.007116123102605343,
        -0.14684420824050903,
        -0.14411479234695435,
        0.1646224558353424,
        -0.12858963012695312,
        0.03180067241191864,
        0.1921348124742508,
        0.11380921304225922,
        0.1499365121126175,
        -0.03062782622873783,
        -0.09455063939094543,
        -0.006133237853646278,
        0.14594510197639465,
        0.018778279423713684,
        0.2131921499967575,
        -0.08527114987373352,
        -0.08903270214796066,
        0.011844244785606861,
        -0.039581965655088425,
        -0.11758393794298172,
        0.019238458946347237,
        -0.04473692923784256,
        0.06098277494311333,
        0.0700470358133316,
        -0.10769441723823547,
        -0.07479287683963776,
        0.03832218050956726,
        -0.08399900048971176,
        -0.19848686456680298,
        0.133001446723938,
        -0.10014474391937256,
        0.06968353688716888,
        -0.06679320335388184,
        -0.03577045723795891,
        -0.15632323920726776,
        0.02068195305764675,
        0.10325738042593002,
        -0.14058957993984222,
        0.10635111480951309,
        0.1789758801460266,
        0.19107136130332947,
        -0.06533067673444748,
        -0.05189450830221176,
        -0.11986783891916275,
        0.1563705950975418,
        -0.14459148049354553,
        0.06021307036280632,
        -0.05104934424161911,
        -0.030892478302121162,
        0.08296571671962738,
        0.13489069044589996,
        0.1988011747598648,
        0.21900574862957,
        0.17569765448570251,
        0.17390036582946777,
        -0.17284147441387177,
        0.18350312113761902,
        -0.1279711127281189,
        0.17087100446224213,
        -0.10737768560647964,
        0.0906512439250946,
        -0.09306585043668747,
        -0.17283496260643005,
        -0.1504618227481842,
        -0.10259522497653961,
        0.16989219188690186,
        -0.06229330971837044,
        0.02589430660009384,
        0.1421496868133545,
        0.13051559031009674,
        -0.11236672103404999,
        0.1871158331632614,
        -0.024317001923918724,
        -0.13800689578056335,
        0.08927677571773529,
        -0.12945464253425598,
        0.07285641133785248,
        0.027148140594363213,
        -0.05409959703683853,
        -0.037867531180381775,
        0.09486563503742218,
        -0.04269012436270714,
        0.029675016179680824,
        -0.11650907248258591,
        0.07624520361423492,
        0.15041422843933105,
        -0.012525334022939205,
        -0.006215016357600689,
        0.05638328567147255,
        -0.040508683770895004,
        0.13951437175273895,
        -0.09174587577581406,
        0.0972909927368164,
        -0.07818460464477539,
        -0.06456305086612701,
        0.14988328516483307,
        -0.02859196811914444,
        -0.02141745761036873,
        -0.12218070030212402,
        -0.03162749484181404,
        0.1010669469833374,
        0.06362181156873703,
        0.0401933416724205,
        0.13369201123714447,
        0.16675083339214325,
        0.012340688146650791,
        0.17106252908706665,
        0.18001218140125275,
        0.03252701088786125,
        0.04371068254113197,
        0.02548956498503685,
        0.09048428386449814,
        0.20176665484905243,
        0.07082906365394592,
        -0.15867695212364197,
        -0.006646533031016588,
        -0.09116876870393753,
        -0.10303351283073425,
        -0.06310757249593735,
        -0.0013364215847104788,
        -0.08768156170845032,
        -0.08653685450553894,
        -0.04155964404344559,
        -0.1661706119775772,
        -0.17630404233932495,
        -0.014319190755486488,
        -0.013789085671305656,
        0.09650781005620956,
        -0.12605120241641998,
        -0.020344026386737823,
        0.13183461129665375,
        0.1688014715909958,
        0.19384825229644775,
        0.043204840272665024,
        -0.015184854157269001,
        0.19278371334075928,
        0.04668319597840309,
        -0.04086283594369888,
        -0.13426204025745392,
        -0.12856094539165497,
        0.12202876806259155,
        0.13270999491214752,
        -0.16364318132400513,
        0.01820235699415207,
        -0.04144055023789406,
        -0.001997424755245447,
        0.19324466586112976,
        -0.02643018215894699,
        0.07771269977092743,
        -0.1440206915140152,
        -0.003128598676994443,
        0.08110667765140533,
        0.13342072069644928,
        0.14131873846054077,
        -0.10476553440093994,
        0.1271616816520691,
        -0.12458143383264542,
        0.10214481502771378,
        0.09412464499473572,
        -0.09669935703277588,
        0.21314017474651337,
        0.17697487771511078,
        -0.04236819967627525,
        0.07703609019517899,
        0.01994481310248375,
        0.03952155262231827,
        0.10390737652778625,
        -0.13088352978229523,
        -0.06015577167272568,
        0.06375665217638016,
        0.04930248484015465,
        -0.018465830013155937,
        -0.21454569697380066,
        0.057240698486566544,
        0.04801224172115326,
        -0.13184460997581482,
        -0.08515658229589462,
        -0.08510112762451172,
        -0.14561060070991516,
        -0.05793324485421181,
        -0.1377539336681366,
        0.13142529129981995,
        -0.17283190786838531,
        0.055286992341279984,
        -0.056163180619478226,
        0.018880218267440796,
        -0.000801360234618187,
        -0.1398429423570633,
        0.15921536087989807,
        -0.15342223644256592,
        0.014760447666049004,
        -0.13582371175289154,
        -0.08865103870630264,
        0.1619609296321869,
        0.03685300052165985,
        0.09719978272914886,
        -0.19209937751293182,
        -0.03634314611554146,
        0.12831082940101624,
        -0.10452435910701752,
        -0.06870795786380768,
        0.13785313069820404,
        -0.14101380109786987,
        0.07598713785409927,
        -0.11640921980142593,
        -0.11158627271652222,
        0.02999156527221203,
        0.03211018815636635,
        0.10944098979234695,
        0.14070624113082886,
        -0.23128464818000793,
        -0.009149660356342793,
        -0.11602137982845306,
        0.05159132182598114,
        0.021186985075473785,
        -0.10075540840625763,
        0.1163608729839325,
        -0.12678544223308563,
        -0.1680099070072174,
        -0.03280375152826309,
        0.04547914117574692,
        -0.06829956918954849,
        -0.12349269539117813,
        -0.16749417781829834,
        -0.05330480635166168,
        -0.07302559167146683,
        0.008089975453913212,
        0.12793532013893127,
        0.14362916350364685,
        0.14363563060760498,
        -0.1423531025648117,
        0.09157998859882355,
        0.1869114339351654,
        -0.165912464261055,
        0.102654367685318,
        -0.0251941941678524,
        0.043572645634412766,
        0.06629002094268799,
        -0.004996033851057291,
        0.02633579820394516,
        -0.13341441750526428,
        0.1067887470126152,
        -0.11681286990642548,
        0.13371677696704865,
        0.09982748329639435,
        0.17764073610305786,
        -0.1777515858411789,
        -0.13395781815052032,
        -0.08215109258890152,
        0.18367253243923187,
        0.03832237049937248,
        -0.006140770856291056,
        0.14935728907585144,
        0.015623324550688267,
        0.12683740258216858,
        0.10864073038101196,
        -0.07772707939147949,
        0.04361646622419357,
        -0.21682870388031006,
        0.1496822088956833,
        -0.13489797711372375,
        -0.15431758761405945,
        0.08593044430017471,
        0.16864675283432007,
        0.1734636425971985,
        -0.07859917730093002,
        -0.055605556815862656,
        -0.15875832736492157,
        -0.22235961258411407,
        -0.14432093501091003,
        -0.009651752188801765,
        0.1506539136171341,
        -0.1469445675611496,
        0.07517702132463455,
        -0.17772075533866882,
        0.02465631812810898,
        0.1310769021511078,
        -0.05619676038622856,
        0.1316504180431366,
        0.1327078640460968,
        0.0961417630314827,
        -0.026358013972640038,
        0.09579136222600937,
        0.03136782720685005,
        0.19032301008701324,
        0.04449582099914551,
        0.030364029109477997,
        -0.04532593861222267,
        0.14196182787418365,
        0.10621295869350433,
        0.20215831696987152,
        0.1710900515317917,
        -0.14512628316879272,
        0.2050214409828186,
        0.03027329221367836,
        -0.13662943243980408,
        0.021455727517604828,
        0.0462036095559597,
        -0.022462988272309303,
        -0.003921011462807655,
        -0.02840397134423256,
        0.031769271939992905,
        0.02878139726817608,
        0.03273158147931099,
        0.0774296373128891,
        0.11226624250411987,
        -0.015529138967394829,
        0.041100312024354935,
        -0.027272185310721397,
        0.08636940270662308,
        0.14420855045318604,
        -0.08372403681278229,
        0.003807487664744258,
        -0.08732155710458755,
        0.12943512201309204,
        0.08448716253042221,
        -0.038965851068496704,
        0.11720696836709976,
        -0.03079874813556671,
        0.07690386474132538,
        0.11556024104356766,
        -0.17687837779521942,
        -0.03344980999827385,
        -0.15673710405826569,
        0.13732315599918365,
        0.15301957726478577,
        0.04263537377119064,
        -0.13568851351737976,
        -0.09967287629842758,
        -0.029351091012358665,
        0.07960613071918488,
        0.13890738785266876,
        0.010833683423697948,
        -0.11143893003463745,
        -0.12158159911632538,
        0.09362399578094482,
        0.1187085285782814,
        -0.13267987966537476,
        0.11299578100442886,
        -0.003056722227483988,
        -0.09274956583976746,
        0.037939779460430145,
        -0.0611778162419796,
        0.14079420268535614,
        0.022733591496944427,
        -0.09070104360580444,
        -0.15466564893722534,
        0.04829990118741989,
        0.15102924406528473,
        0.08518031239509583,
        0.1551368534564972,
        0.12038158625364304,
        -0.0712016373872757,
        0.18718670308589935,
        0.08774733543395996,
        -0.020418735221028328,
        -0.100252665579319,
        -0.10182607173919678,
        0.1831294447183609,
        -0.030022872611880302,
        0.11685396730899811,
        0.1522335261106491,
        -0.10321231931447983,
        0.15832513570785522,
        0.15824320912361145,
        -0.0678887665271759,
        0.06680497527122498,
        0.12993831932544708,
        0.043637458235025406,
        -0.1330583393573761,
        0.09467948973178864,
        -0.05082922428846359,
        0.006927574519068003,
        -0.15330836176872253,
        0.06769625842571259,
        0.05959850177168846,
        0.07271532714366913,
        0.06846073269844055,
        -0.13738375902175903,
        0.011071926914155483,
        0.0681181326508522,
        -0.08045214414596558,
        -0.03931355103850365,
        0.15851806104183197,
        -0.09630939364433289,
        -0.15722481906414032,
        -0.15135136246681213,
        0.1791885942220688,
        0.03161999583244324,
        0.02345583401620388,
        0.1544017791748047,
        0.024891113862395287,
        0.1927856206893921,
        0.14631694555282593,
        -0.06409770250320435,
        0.08378405123949051,
        -0.15812306106090546,
        0.0455736443400383,
        0.14540933072566986,
        -0.11882058531045914,
        0.023740949109196663,
        -0.15955258905887604,
        -0.14482441544532776,
        -0.0271281935274601,
        0.039645493030548096,
        -0.14756426215171814,
        0.08646862208843231,
        0.05993508920073509,
        0.08256684243679047,
        -0.14709976315498352,
        0.08434687554836273,
        -0.13062390685081482,
        0.05913924425840378,
        0.18194472789764404,
        0.09150325506925583,
        0.09092185646295547,
        -0.13145357370376587,
        -0.12611572444438934,
        0.03965520113706589,
        0.037922199815511703,
        0.09468892961740494,
        -0.13445407152175903,
        0.012425481341779232,
        -0.11437737196683884,
        -0.16788248717784882,
        -0.15077027678489685,
        0.17706036567687988,
        0.10556130856275558,
        -0.14501893520355225,
        0.04105041176080704,
        0.09165912121534348,
        0.14598514139652252,
        -0.05321449786424637,
        0.178277388215065,
        -0.05003320053219795,
        0.06228065490722656,
        0.18870851397514343,
        0.08693944662809372,
        0.046429213136434555,
        0.035408612340688705,
        -0.10701930522918701,
        -0.1676061600446701,
        0.09878863394260406,
        -0.058252181857824326,
        0.07896246016025543,
        0.02792271040380001,
        -0.08411437273025513,
        0.15047141909599304,
        -0.03117123246192932,
        0.05716480687260628,
        -0.06810601055622101,
        0.13282130658626556,
        0.012121287174522877,
        0.17665588855743408,
        0.12809111177921295,
        0.09415685385465622,
        0.13142648339271545,
        -0.12557744979858398,
        0.009129316546022892,
        0.14455485343933105,
        0.12735462188720703,
        0.12335672229528427,
        0.1217099204659462,
        -0.07515016198158264,
        0.1810893416404724,
        -0.12951651215553284,
        0.11420218646526337,
        0.14673158526420593,
        0.08116477727890015,
        0.06175188347697258,
        0.10452044755220413,
        0.17576085031032562,
        0.17922908067703247,
        0.02649688720703125,
        0.16249880194664001,
        -0.16292704641819,
        0.03659307584166527,
        -0.023770516738295555,
        0.16792523860931396,
        0.06500750035047531,
        -0.10860922187566757,
        0.04292933642864227,
        0.046811144798994064,
        0.1171666607260704,
        0.06892647594213486,
        -0.0033537440467625856,
        -0.17319582402706146,
        -0.10577595233917236,
        -0.014656742103397846,
        0.06715314835309982,
        0.10622594505548477,
        -0.0629236251115799,
        -0.024120382964611053,
        -0.13239087164402008,
        0.11544982343912125,
        -0.18781213462352753,
        -0.01468262542039156,
        0.06587620079517365,
        -0.07152708619832993,
        0.027368808165192604,
        0.08954028785228729,
        0.04787628725171089,
        0.16566963493824005,
        0.0349530465900898,
        0.13471709191799164,
        -0.12108207494020462,
        0.10070030391216278,
        -0.15849903225898743,
        0.17492620646953583,
        -0.09475579112768173,
        -0.0890113040804863,
        0.14208945631980896,
        -0.08791147917509079,
        -0.10258157551288605,
        -0.06024501472711563,
        -0.16169902682304382,
        0.11077689379453659,
        0.11471253633499146,
        -0.06468049436807632,
        0.040041759610176086,
        -0.038075804710388184,
        0.07060738652944565,
        0.1863902062177658,
        0.17476490139961243,
        0.04888321831822395,
        0.19249781966209412,
        0.06476188451051712,
        0.0553521029651165,
        0.18539218604564667,
        0.1495855301618576,
        0.14126816391944885,
        -0.01136959157884121,
        -0.08844864368438721,
        -0.05450019985437393,
        0.15461546182632446,
        -0.1588224172592163,
        0.12887808680534363,
        0.018241658806800842,
        -0.031618881970644,
        0.09751860797405243,
        -0.08127271384000778,
        -0.09220730513334274,
        0.137136772274971,
        0.16575823724269867,
        -0.05001629516482353,
        -0.06102864071726799,
        -0.02552131935954094,
        0.13162660598754883,
        -0.09668797254562378,
        0.11393579840660095,
        0.1939433217048645,
        0.0789126604795456,
        0.10703554004430771,
        0.011663890443742275,
        -0.14972877502441406,
        0.10294085741043091,
        -0.14809679985046387,
        0.17953646183013916,
        0.15520557761192322,
        0.06112082302570343,
        0.10754667222499847,
        -0.16043217480182648,
        0.049131982028484344,
        -0.09992622584104538,
        -0.16305182874202728,
        -0.06245100498199463,
        0.009791405871510506,
        0.10907066613435745,
        -0.03937767446041107,
        0.15720196068286896,
        -0.10666622221469879,
        -0.0638667494058609,
        0.13820050656795502,
        0.16357214748859406,
        -0.011398350819945335,
        0.16595448553562164,
        0.12387605011463165,
        -0.13497048616409302,
        -0.06582462787628174,
        -0.034067604690790176,
        -0.10757038742303848,
        0.015691915526986122,
        -0.12944361567497253,
        -0.061382777988910675,
        0.046684373170137405,
        0.1285301297903061,
        0.02896282635629177,
        0.1321907490491867,
        0.04622179642319679,
        -0.0029887822456657887,
        0.05708189308643341,
        0.053090162575244904,
        -0.11456288397312164,
        0.12224617600440979,
        0.20075036585330963,
        -0.156431183218956,
        0.12438155710697174,
        0.0062098014168441296,
        0.07047611474990845,
        0.03638679161667824,
        0.010780030861496925,
        -0.05893711745738983,
        0.16282974183559418,
        0.11748910695314407,
        0.2281549870967865,
        -0.143752321600914,
        -0.03664270415902138,
        -0.07922302931547165,
        0.18284501135349274,
        0.19589310884475708,
        -0.02184976264834404,
        0.13561266660690308,
        -0.030429797247052193,
        0.04568957909941673,
        0.06106509640812874,
        0.16781958937644958,
        -0.21985213458538055,
        0.10613985359668732,
        0.015145276673138142,
        -0.01818830706179142,
        -0.14531567692756653,
        -0.06819101423025131,
        0.08333137631416321,
        -0.051048099994659424,
        -0.052641477435827255,
        -0.0977071151137352,
        0.0723171979188919,
        -0.11661749333143234,
        -0.04217848926782608,
        -0.020715974271297455,
        -0.1371932476758957,
        0.1686284989118576,
        0.08710803836584091,
        0.09468930214643478,
        -0.14165781438350677,
        -0.09843342006206512,
        -0.09878771007061005,
        0.08730785548686981,
        0.006592682562768459,
        0.23701027035713196,
        -0.007564538158476353,
        0.06751120090484619,
        0.1668870896100998,
        0.10511300712823868,
        0.002513816114515066,
        0.13985243439674377,
        0.0008847953286021948,
        -0.07379963248968124,
        0.12419672310352325,
        0.02733217366039753,
        -0.15256842970848083,
        -0.01951371505856514,
        -0.08556338399648666,
        0.12211897224187851,
        0.06560038775205612,
        0.08222460001707077,
        -0.08103325963020325,
        -0.08283369243144989,
        -0.13529552519321442,
        0.1663200855255127,
        0.10492362827062607,
        0.049222759902477264,
        -0.00479251891374588,
        0.020605120807886124,
        -0.15104837715625763,
        0.0009224825771525502,
        0.21931524574756622,
        -0.013990180566906929,
        0.012919245287775993,
        0.041847825050354004,
        0.0010416702134534717,
        -0.1652582883834839,
        0.03081241063773632,
        -0.09644024819135666,
        0.056534599512815475,
        0.21352452039718628,
        0.0724530890583992,
        -0.1591254025697708,
        0.05572979524731636,
        -5.3916661272523925e-05,
        0.014283791184425354,
        0.1228455975651741,
        0.05919336900115013,
        0.11421983689069748,
        -0.04050476476550102,
        -0.10453814268112183,
        -0.038469914346933365,
        -0.0006306653958745301,
        0.07319451123476028,
        0.029540611431002617,
        0.11015988886356354,
        -0.13580265641212463,
        0.12171158939599991,
        0.13586260378360748,
        0.020713351666927338,
        -0.03801590949296951,
        0.14279434084892273,
        -0.1592831313610077,
        -0.11611294001340866,
        -0.005167748779058456,
        0.12988919019699097,
        0.15973663330078125,
        0.11988507956266403,
        0.15948334336280823,
        -0.009923055768013,
        -0.15686540305614471,
        -0.0019755493849515915,
        -0.11554566770792007,
        -0.1554451584815979,
        -0.03943178057670593,
        -0.025289500132203102,
        0.16959187388420105,
        -0.08832772821187973,
        -0.11924353241920471,
        0.1018919050693512,
        -0.04852645471692085,
        -0.17715665698051453,
        -0.09151134639978409,
        0.05353781208395958,
        0.15065082907676697,
        0.031528178602457047,
        0.05333191528916359,
        -0.024729546159505844,
        -0.019690444692969322,
        0.17302243411540985,
        0.03138318285346031,
        0.08591434359550476,
        0.12042009085416794,
        0.18447716534137726,
        -0.13789145648479462,
        -0.04037366807460785,
        0.029285820201039314,
        0.08323826640844345,
        0.18171654641628265,
        -0.16423766314983368,
        -0.196555033326149,
        -0.1694433093070984,
        -0.15143364667892456,
        0.19994741678237915,
        -0.10349035263061523,
        -0.056045811623334885,
        -0.007139536086469889,
        0.11036716401576996,
        0.04183769226074219,
        0.036835312843322754,
        -0.03308636695146561,
        -0.26161429286003113,
        0.0031604922842234373,
        0.06770208477973938,
        0.1330811083316803,
        0.050198450684547424,
        0.0172259621322155,
        -0.12831933796405792,
        0.1393868625164032,
        0.1333569586277008,
        0.17639626562595367,
        0.08230363577604294,
        -0.02443844825029373,
        -0.005372180603444576,
        0.06717437505722046,
        0.0024599088355898857,
        -0.05517422780394554,
        -0.04725449159741402,
        -0.14254535734653473,
        0.08998174220323563,
        -0.034363292157649994,
        0.08867613226175308,
        0.1469547301530838,
        -0.10131765902042389,
        0.14326359331607819,
        0.10773922502994537,
        -0.11874794960021973,
        0.05168645828962326,
        -0.15108227729797363,
        -0.09012140333652496,
        -0.024562859907746315,
        -0.03653213009238243,
        0.02543063648045063,
        0.04851255565881729,
        -0.04189009219408035,
        0.01413308922201395,
        -0.08333960175514221,
        -0.03632718697190285,
        -0.13110533356666565,
        -0.11429216712713242,
        -0.1828485131263733,
        0.15109212696552277,
        -0.14247086644172668,
        -0.20196616649627686,
        -0.1713733971118927,
        0.13647502660751343,
        0.024822700768709183,
        0.02138495072722435,
        -0.14501528441905975,
        -0.1534329205751419,
        -0.14877840876579285,
        -0.0861097127199173,
        -0.08690554648637772,
        0.15911272168159485,
        -0.1276923567056656,
        -0.10888741910457611,
        -0.01902403123676777,
        0.11920535564422607,
        0.17801108956336975,
        0.12688077986240387,
        0.021305015310645103,
        -0.05791855975985527,
        -0.10732252150774002,
        0.031921133399009705,
        -0.05066820979118347,
        0.026002902537584305,
        -0.15600505471229553,
        -0.03459526598453522,
        0.031570788472890854,
        -0.0009003073791973293,
        0.19464263319969177,
        -0.12784911692142487,
        0.12868106365203857,
        -0.12013445794582367,
        0.07189932465553284,
        -0.1285640150308609,
        0.14061982929706573,
        -0.11605656892061234,
        0.12189410626888275,
        -0.12857463955879211,
        -0.1572236269712448,
        -0.11892873048782349,
        0.1456858068704605,
        -0.14229629933834076,
        0.04817245155572891,
        0.006900917738676071,
        -0.014394404366612434,
        -0.13366025686264038,
        0.18292595446109772,
        -0.019181273877620697,
        0.09162366390228271,
        -0.061699528247117996,
        0.10897860676050186,
        -0.08921358734369278,
        -0.1501869112253189,
        -0.16687297821044922,
        0.16086110472679138,
        -0.21860583126544952,
        -0.14841803908348083,
        0.10227362811565399,
        -0.05157405510544777,
        -0.1505478322505951,
        -0.04905383661389351,
        -0.08239329606294632,
        0.14803791046142578,
        -0.06453260034322739,
        0.0024807772133499384,
        0.03465108200907707,
        0.011734984815120697,
        -0.0747646614909172,
        -0.02831624075770378,
        -0.21680937707424164,
        0.16836892068386078,
        0.0869072899222374,
        0.015336158685386181,
        0.10608936101198196,
        0.09210793673992157,
        -0.069407157599926,
        0.017093775793910027,
        0.08002805709838867,
        -0.14000315964221954,
        -0.12576799094676971,
        -0.015546387061476707,
        -0.03941049054265022,
        0.06445848196744919,
        0.07688022404909134,
        0.14136195182800293,
        -0.030644182115793228,
        0.1609421968460083,
        -0.17267324030399323,
        -0.07996682822704315,
        0.1561289280653,
        -0.13879051804542542,
        -0.16447439789772034,
        -0.1933446228504181,
        -0.08682584762573242,
        0.17525140941143036,
        -0.047213114798069,
        -0.055252209305763245,
        0.2231009304523468,
        -0.07435191422700882,
        0.12805628776550293,
        -0.08398721367120743,
        -0.028156312182545662,
        -0.09526841342449188,
        0.12629123032093048,
        0.06251107156276703,
        -0.15056942403316498,
        0.18037612736225128,
        -0.09262096136808395,
        -0.08158572018146515,
        0.061527084559202194,
        -0.021756786853075027,
        -0.08853872120380402,
        -0.029267443343997,
        0.06121604144573212,
        0.015035438351333141,
        -0.17263604700565338,
        0.22357474267482758,
        0.12156355381011963,
        -0.08339392393827438,
        0.04399215057492256,
        0.036620594561100006,
        0.10233916342258453,
        -0.16589629650115967,
        0.12611331045627594,
        0.07532574236392975,
        -0.11457429826259613,
        0.0416657030582428,
        -0.056462135165929794,
        -0.040281571447849274,
        0.007827130146324635,
        -0.006531371269375086,
        0.17015109956264496,
        0.08037739247083664,
        -0.06382891535758972,
        -0.10825640708208084,
        -0.08118858188390732,
        0.18942783772945404,
        0.15737666189670563,
        0.1488894373178482,
        -0.1433628797531128,
        -0.20363548398017883,
        -0.05928930640220642,
        0.08083822578191757,
        -0.04877924174070358,
        0.14470039308071136,
        0.024535462260246277,
        -0.12620219588279724,
        0.16477175056934357,
        -0.1275581419467926,
        0.1375022530555725,
        0.0683605894446373,
        -0.068702831864357,
        -0.15426234900951385,
        0.1325240284204483,
        0.09267362207174301,
        -0.03899325057864189,
        0.16753435134887695,
        0.055276528000831604,
        -0.14701056480407715,
        -0.11023472994565964,
        0.041144441813230515,
        -0.1536589413881302,
        0.11675721406936646,
        0.03824494034051895,
        -0.11673972010612488,
        -0.0022958326153457165,
        0.01589353382587433,
        0.06694547086954117,
        -0.033690545707941055,
        0.018135271966457367,
        0.13008783757686615,
        0.1076778843998909,
        0.21824607253074646,
        -0.16826067864894867,
        -0.11094042658805847,
        -0.02725530043244362,
        0.023997105658054352,
        -0.11506807804107666,
        -0.05900070071220398,
        0.10961639136075974,
        0.02848209999501705,
        -0.055317990481853485,
        0.013455100357532501,
        0.12776221334934235,
        -0.027111956849694252,
        0.06797221302986145,
        0.12308070808649063,
        -0.04862352833151817,
        0.0956919938325882,
        0.06453029811382294,
        0.14578114449977875,
        0.057726502418518066,
        0.1355249285697937,
        0.027375027537345886,
        0.07743710279464722,
        0.18153434991836548,
        0.03015182539820671,
        0.1308649331331253,
        -0.12007755786180496,
        0.08239484578371048,
        -0.02410174161195755,
        0.21744315326213837,
        -0.044516947120428085,
        -0.1527007818222046,
        0.1421869844198227,
        0.10708227008581161,
        0.02359710820019245,
        -0.017781583592295647,
        0.04392417147755623,
        -0.14522592723369598,
        0.16724571585655212,
        -0.1481255292892456,
        0.003315528854727745,
        0.04049890115857124,
        0.1423032581806183,
        -0.17279641330242157,
        0.0016787119675427675,
        0.08788257092237473,
        0.1026679128408432,
        -0.0015554713318124413,
        0.089081771671772,
        0.05956239998340607,
        0.15740959346294403,
        0.05772780627012253,
        0.019218994304537773,
        0.06634122878313065,
        -0.024198083207011223,
        -0.06430377066135406,
        -0.013936951756477356,
        0.17754848301410675,
        0.11780528724193573,
        -0.07969990372657776,
        0.06269385665655136,
        0.08865620195865631,
        -0.15363247692584991,
        0.23079659044742584,
        0.009889750741422176,
        0.12683410942554474,
        -0.1239398717880249,
        0.004416272044181824,
        0.0192045159637928,
        -0.0635996013879776,
        -0.06630168110132217,
        0.14258281886577606,
        0.11555445939302444,
        0.07501313090324402,
        0.10812501609325409,
        0.06789390742778778,
        -0.10431894659996033,
        0.062490273267030716,
        -0.03052224963903427,
        -0.04565221071243286,
        0.08299127966165543,
        0.12481655180454254,
        0.13999401032924652,
        -0.08778955042362213,
        -0.034573640674352646,
        0.15314336121082306,
        0.11343970149755478,
        -0.040531519800424576,
        0.01746119186282158,
        -0.23032553493976593,
        -0.05227772891521454,
        -0.055548686534166336,
        0.04888135567307472,
        -0.052389420568943024,
        -0.0014482056722044945,
        -0.15371288359165192,
        0.11013878136873245,
        0.14856360852718353,
        0.0038305993657559156,
        -0.01812158152461052,
        0.04225970059633255,
        -0.15840061008930206,
        0.07186433672904968,
        -0.12854324281215668,
        -0.004283844958990812,
        0.08681453764438629,
        0.05563858151435852,
        0.0114355543628335,
        -0.06680029630661011,
        -0.035658616572618484,
        0.020135169848799706,
        0.13173507153987885,
        -0.13138823211193085,
        0.17071093618869781,
        -0.16102206707000732,
        -0.145310178399086,
        -0.08039593696594238,
        0.06638986617326736,
        -0.12377907335758209,
        -0.1480524092912674,
        -0.1692739874124527,
        0.08238869160413742,
        0.08173345774412155,
        -0.18550525605678558,
        0.006560800597071648,
        -0.21121801435947418,
        -0.015180898830294609,
        0.16488675773143768,
        -0.09760061651468277,
        -0.11053434014320374,
        -0.04073231667280197,
        0.1591341197490692,
        -0.10951724648475647,
        0.13110171258449554,
        -0.002706083469092846,
        -0.03458188474178314,
        0.1766793578863144,
        -0.12147314101457596,
        -0.0019602349493652582,
        -0.19440226256847382,
        -0.059020474553108215,
        0.17323698103427887,
        -0.08086841553449631,
        0.11279817670583725,
        0.15724974870681763,
        -0.1671781688928604,
        0.04013397917151451,
        0.1801786869764328,
        0.1366131603717804,
        0.07912326604127884,
        -0.17049652338027954,
        0.11828800290822983,
        0.03803502023220062,
        0.03792344406247139,
        0.18704816699028015,
        0.03180985897779465,
        -0.09913463890552521,
        -0.06146395578980446,
        -0.13555598258972168,
        -0.181030735373497,
        0.13534137606620789,
        -0.08426091820001602,
        -0.18521739542484283,
        0.21281707286834717,
        -0.17799147963523865,
        -0.1852484792470932,
        0.03691844642162323,
        0.17024169862270355,
        0.07733554393053055,
        -0.05758225917816162,
        0.050231195986270905,
        -0.2674683630466461,
        -0.16426649689674377,
        -0.04740838706493378,
        0.1156969889998436,
        0.04652046039700508,
        0.1042952612042427,
        -0.03200583532452583,
        -0.06012306734919548,
        0.011236445978283882,
        -0.16321556270122528,
        -0.09150030463933945,
        0.14859424531459808,
        -0.17198708653450012,
        -0.06630814075469971,
        -0.04613812267780304,
        0.13807320594787598,
        0.07478652894496918,
        0.11619294434785843,
        0.10684768110513687,
        -0.09682038426399231,
        -0.08575625717639923,
        0.10095642507076263,
        0.12613415718078613,
        -0.07708016037940979,
        0.03218739107251167,
        0.1326301246881485,
        -0.02647494152188301,
        0.005148347932845354,
        -0.05723332613706589,
        -0.004493210464715958,
        -0.09544387459754944,
        -0.09655547887086868,
        -0.18005666136741638,
        -0.1568908840417862,
        -0.05804530903697014,
        0.03129326179623604,
        0.0118290726095438,
        0.1100495383143425,
        0.10026494413614273,
        -0.042978718876838684,
        0.0016767482738941908,
        0.17313358187675476,
        -0.1009892001748085,
        -0.09343469887971878,
        0.12193778157234192,
        -0.01333994884043932,
        -0.005393234081566334,
        0.030487222597002983,
        0.08460579067468643,
        0.0004947512643411756,
        -0.07184557616710663,
        -0.1439521163702011,
        -0.029268521815538406,
        0.15375147759914398,
        -0.04430614039301872,
        -0.06590235978364944,
        0.1418663114309311,
        -0.09777422994375229,
        0.12425846606492996,
        0.19236040115356445,
        0.0699537843465805,
        -0.11986733227968216,
        0.12279144674539566,
        0.021341176703572273,
        0.19323763251304626,
        -0.007297384552657604,
        0.1882011443376541,
        0.035008713603019714,
        -0.160752072930336,
        0.15897499024868011,
        -0.131671741604805,
        0.18153031170368195,
        -0.1325717568397522,
        0.06725934892892838,
        -0.16660386323928833,
        0.12985272705554962,
        -0.011371633969247341,
        0.13464276492595673,
        0.07419221848249435,
        0.11043458431959152,
        -0.12406390905380249,
        0.20529335737228394,
        -0.06226658076047897,
        0.014814723283052444,
        0.15726369619369507,
        -0.054532118141651154,
        -0.14671580493450165,
        0.06383213400840759,
        0.08589937537908554,
        0.01432262547314167,
        0.11908511817455292,
        -0.11992906033992767,
        -0.07997605204582214,
        0.16600312292575836,
        -0.073076032102108,
        0.0014281641924753785,
        0.06705611944198608,
        -0.0038842407520860434,
        0.23619329929351807,
        0.1148604080080986,
        0.10886728763580322,
        -0.1259581297636032,
        0.16580334305763245,
        -0.06744793057441711,
        0.18050983548164368,
        -0.026604143902659416,
        0.09441182017326355,
        -0.0564606748521328,
        0.13403186202049255,
        -0.05227350443601608,
        -0.010744819417595863,
        0.16113950312137604,
        -0.07013167440891266,
        0.08375082910060883,
        -0.15278260409832,
        0.09004729986190796,
        -0.1295587718486786,
        -0.03091530129313469,
        0.09660730510950089,
        0.16955524682998657,
        -0.00248654093593359,
        0.06639426946640015,
        -0.08479513972997665,
        0.06916394829750061,
        -0.08318600803613663,
        0.13905476033687592,
        0.10836916416883469,
        -0.051397986710071564,
        0.1684398353099823,
        -0.04531896114349365,
        0.13672883808612823,
        -0.06458599120378494,
        0.11568258702754974,
        0.08104541897773743,
        0.06285398453474045,
        0.12700434029102325,
        0.14439286291599274,
        -0.11873392760753632,
        0.08494884520769119,
        0.07074899971485138,
        -0.07433275133371353,
        -0.1471923291683197,
        0.07178241014480591,
        0.12619873881340027,
        0.1890415996313095,
        -0.016187554225325584,
        0.32925233244895935,
        -0.03746730461716652,
        0.10263668745756149,
        -0.08597008883953094,
        0.09138957411050797,
        0.12582045793533325,
